0.0942153
0.102825
-0.0226978
0.116598
0.0382306
0.0804232
0.0600942
0.0636459
0.0481545
0.0858884
0.0694495
0.0353785
0.0233803
0.0378347
0.0656995
0.0461325
0.0935079
0.152603
0.0468311
0.065187
0.0449653
0.0606608
0.133478
0.0811522
0.0581441
0.0971051
-0.0217059
0.0600412
0.194511
0.091556
-0.0349747
0.0867686
-0.0194159
0.0753438
-0.0601562
0.0482188
0.0532985
0.0407921
-0.00332804
0.128064
-0.000229565
-0.0125457
0.0833476
0.0900768
-0.0073715
0.0739372
0.0965329
-0.0403741
0.0210735
0.11673
-0.00379764
0.0518059
0.0504067
-0.0290247
-0.0310974
0.0673002
-0.10151
0.0761306
0.0474403
0.0428238
0.0619595
0.209111
0.0825096
-0.0500566
-0.00247995
0.131038
0.225089
0.169864
-0.018993
0.0952183
-0.000593367
0.125467
0.264282
0.140108
-0.0887553
0.197267
0.115065
0.0657331
0.180536
0.0533531
-0.0497261
0.181093
0.0669232
-0.0621984
0.0725184
-0.00870954
-0.0694667
0.130766
0.0814934
0.0464164
-0.150138
0.0849368
0.0799075
-0.0482757
0.111704
-0.0976973
-0.410281
0.123986
-0.0383847
0.0624699
0.015129
0.0347879
-0.434587
0.186257
0.0264079
0.0646163
0.0391503
0.191315
-0.322033
0.100083
-0.0278368
0.0706935
0.00444293
0.0794543
-0.131784
-0.0203153
-0.072371
0.146952
0.0437821
-0.0505549
-0.344935
-0.0212967
0.147587
-0.00937428
-0.175596
0.161925
-1.06983
-0.317372
-0.0462153
-0.313834
-0.269363
-0.0814081
-1.28086
-0.415912
-0.0467838
-0.33088
-0.228013
-0.122156
-0.921201
-0.199179
0.0122744
-0.148121
-0.24744
-0.143775
-0.250638
-0.00945463
0.00832446
0.0846867
-0.228187
0.115489
-1.38729e-42
-1.38729e-42
-1.38729e-42
-1.38729e-42
-1.38729e-42
-1.38729e-42
-1.38729e-42
-1.38729e-42
-1.38729e-42
-1.38729e-42
-1.38729e-42
-1.38729e-42
-1.38729e-42
-1.38729e-42
-1.38729e-42
-1.38729e-42
-1.38729e-42
-1.38729e-42
-1.38729e-42
-1.38729e-42
-1.38729e-42
-1.38729e-42
-1.38729e-42
-1.38729e-42
-1.38729e-42
-1.38729e-42
-1.38729e-42
-1.38729e-42
-1.38729e-42
-1.38729e-42
-1.38729e-42
-1.38729e-42
-1.38729e-42
-1.38729e-42
-1.38729e-42
-1.38729e-42
-1.38729e-42
-1.38729e-42
-1.38729e-42
-1.38729e-42
-1.38729e-42
-1.38729e-42
-1.38729e-42
-1.38729e-42
-1.38729e-42
-1.38729e-42
-1.38729e-42
-1.38729e-42
-1.38729e-42
-1.38729e-42
-1.38729e-42
-1.38729e-42
-1.38729e-42
-1.38729e-42
-1.38729e-42
-1.38729e-42
-1.38729e-42
-1.38729e-42
-1.38729e-42
-1.38729e-42
-1.38729e-42
-1.38729e-42
-1.38729e-42
-1.38729e-42
-1.38729e-42
-1.38729e-42
-1.38729e-42
-1.38729e-42
-1.38729e-42
-1.38729e-42
-1.38729e-42
-1.38729e-42
-1.38729e-42
-1.38729e-42
-1.38729e-42
-1.38729e-42
-1.38729e-42
-1.38729e-42
-1.38729e-42
-1.38729e-42
-1.38729e-42
-1.38729e-42
-1.38729e-42
-1.38729e-42
-1.38729e-42
-1.38729e-42
-1.38729e-42
-1.38729e-42
-1.38729e-42
-1.38729e-42
-1.38729e-42
-1.38729e-42
-1.38729e-42
-1.38729e-42
-1.38729e-42
-1.38729e-42
-1.38729e-42
-1.38729e-42
-1.38729e-42
-1.38729e-42
-1.38729e-42
-1.38729e-42
-1.38729e-42
-1.38729e-42
-1.38729e-42
-1.38729e-42
-1.38729e-42
-1.38729e-42
-1.38729e-42
-1.38729e-42
-1.38729e-42
-1.38729e-42
-1.38729e-42
-1.38729e-42
-1.38729e-42
-1.38729e-42
-1.38729e-42
-1.38729e-42
-1.38729e-42
-1.38729e-42
-1.38729e-42
-1.38729e-42
-1.38729e-42
-1.38729e-42
-1.38729e-42
-1.38729e-42
-1.38729e-42
-1.38729e-42
-1.38729e-42
-1.38729e-42
-1.38729e-42
-1.38729e-42
-1.38729e-42
-1.38729e-42
-1.38729e-42
-1.38729e-42
-1.38729e-42
-1.38729e-42
-1.38729e-42
-1.38729e-42
-1.38729e-42
-1.38729e-42
-1.38729e-42
-1.38729e-42
-1.38729e-42
-1.38729e-42
-1.38729e-42
-1.38729e-42
-1.38729e-42
-1.38729e-42
-0.0246421
-0.0380174
0.0271125
-0.0429715
0.047272
0.0210322
0.0471009
-0.0326571
0.0317272
-0.0248419
0.137651
-0.0250144
0.04572
-0.122741
-0.0468862
0.119539
0.134373
-0.00426307
0.0351327
0.0101673
-0.227202
0.192234
0.297557
0.159661
-0.0814894
0.316138
-0.325193
0.103551
0.222879
0.283392
-0.0852942
-0.0889288
0.107941
0.0199808
0.0085285
0.0148116
-0.0440672
-0.106203
0.0500085
0.0832251
-0.0601648
0.104776
0.0640051
-0.0604043
-0.26909
0.0669729
0.102755
0.10381
0.0987243
-0.00797848
-0.442045
-0.0921158
0.137508
0.0789964
0.0615914
0.0820901
-0.278879
-0.0882595
0.0855164
-0.0462789
-0.0266367
-0.0568936
0.0544011
0.0618191
0.0260319
-0.0640693
0.0638182
-0.138694
-0.0991391
0.0139549
0.101055
0.100605
0.104789
0.0848169
-0.401999
-0.0587257
0.215031
0.0823707
0.173882
0.0467669
-0.389952
-0.131634
0.0693324
-0.0403162
0.0522068
0.0633909
-0.137719
0.0603489
0.182289
-0.0180003
-0.0082874
-0.103314
0.0742883
0.00769037
-0.148342
0.0168968
0.024893
-0.116847
-0.0887598
0.0134691
0.173065
-0.00025954
0.0928202
0.0757565
-0.343406
-0.0428381
0.0584975
0.0118928
-0.0288749
0.153024
-0.34216
-0.0372187
-0.019457
-0.0796863
-0.0688036
0.0909065
-0.127239
0.15164
0.051781
0.092445
-0.0272209
-0.200421
-0.15413
-0.00543925
-0.200797
-0.0615173
0.0902638
-0.107122
-0.137626
0.0403036
0.202884
-0.0875088
0.155433
-0.015405
-0.30592
-0.0930924
0.0521133
0.0314
0.175935
0.0513803
-0.291238
0.0279237
0.122896
-0.109592
0.0491562
0.0123215
-0.305832
0.077774
-0.0112843
-0.0241546
-0.0136981
0.050153
-0.195612
0.120675
-0.0913731
0.26565
-0.0582606
0.0162455
0.0292571
-0.013848
0.0418875
-0.00188508
-0.0415313
0.0265179
0.0154018
-0.0124305
0.0699171
-0.0426785
-0.0579389
0.0502554
0.134173
0.0124809
0.0230648
-0.0453123
-0.0348261
0.0678407
0.0253908
-0.0495932
-0.0155744
-0.106116
0.00925802
0.0893628
-0.05869
0.0595708
-0.146862
0.352614
-0.01763
0.0177577
0.0390633
0.013782
-0.0330828
0.0502373
-0.0323675
-0.0259315
-0.0316659
0.0309968
0.0904494
-0.0651467
-0.0306122
0.0100235
0.135278
-0.00582701
0.0915247
-0.222951
-0.0677496
0.00278785
-0.078562
-0.0891824
0.166385
-0.319564
0.013699
0.129276
0.118022
0.0353038
-0.10593
0.364335
-0.00195556
0.0522632
0.0815667
-0.0665492
-0.287902
0.342756
-0.0688595
-0.0626968
-0.0273919
0.0258365
0.000164532
0.0054194
-0.138557
0.0182575
-0.0242506
-0.0117865
0.174051
-0.309808
-0.0848908
-0.0493553
-0.209476
-0.108475
0.375627
-0.555324
-0.00799048
0.10164
0.113236
0.0531117
0.0103299
0.254437
-0.0945047
-0.0268866
0.230487
-0.115265
-0.39684
0.41527
-0.155301
-0.00156848
-0.0145356
-0.0331432
-0.169418
-0.0254076
-0.239855
-0.0104342
-0.176821
0.0122807
0.14599
-0.352679
-0.181681
-0.0784564
-0.133052
-0.0682584
0.428094
-0.460811
0.0138246
0.0725614
-0.0573079
0.0840019
0.00836094
0.215843
-0.0497323
0.00531792
0.189081
-0.019284
-0.309926
0.377142
-0.134727
0.138521
0.0310791
0.020674
-0.189835
0.0754691
-0.175323
0.053232
-0.112642
0.0877011
-0.0243551
-0.271189
-0.203607
-0.00113372
0.007344
0.197692
0.23812
-0.236715
-0.00578497
0.0265138
-0.0511787
0.0773506
-0.0804462
0.0137468
-0.0398461
0.108012
-0.140679
-0.0359016
0.0238044
-0.0309956
-0.0933046
0.0752224
-0.0883338
0.0669143
0.0772931
0.0532872
-0.1129
-0.0599698
-0.124821
0.0678494
0.132501
-0.000495388
-0.0623342
-0.00442715
-0.160773
-0.0455448
0.0549732
0.0201264
-0.0514113
0.222269
-0.0142902
0.0436037
-0.0912719
-0.074309
-0.0792734
0.212952
-0.137541
0.172249
-0.0620769
-0.0413246
0.0322222
-0.104991
-0.216217
-0.030492
-0.00783285
-0.0172994
-0.0991511
0.0743835
-0.147934
0.206767
-0.0581271
-0.0402426
-0.0559666
0.0398289
-0.122582
0.186228
0.0377643
-0.0728886
-0.0445425
0.250565
-0.0742753
0.019808
-0.065762
-0.13121
0.0724069
-0.0022545
-0.134454
0.199693
-0.136592
-0.041305
0.0147623
0.252763
-0.229661
0.303091
-0.0748833
-0.117606
0.0656564
0.129943
-0.173559
0.0171072
-0.00953064
-0.0891065
-0.0819184
-0.0302107
-0.175374
0.201683
-0.0393038
-0.0958386
-0.0581714
0.09084
-0.158537
0.163503
-0.101924
-0.08641
0.138843
0.17928
-0.0555558
0.0132133
-0.119769
-0.0394754
-0.116335
0.197747
-0.0550638
0.214509
-0.0563648
-0.115563
-0.0199822
-0.0401354
-0.0874088
0.193752
-0.0989331
-0.0965067
-0.0431758
0.132639
-0.199192
0.0723779
-0.0900233
-0.0334368
0.107132
0.0774072
0.028946
0.151044
-0.125097
-0.0557925
0.117221
0.00743627
0.0167808
0.158498
-0.126866
-0.14927
0.413905
0.0237084
0.00844588
0.0250872
-0.217913
-0.196088
0.2452
0.178555
0.00874031
0.0840325
-0.226206
-0.207163
0.0866305
0.117792
-0.0178734
0.0848353
-0.110942
-0.0600012
-0.00246611
0.0316221
-0.00746667
0.112523
-0.220638
0.15476
0.0910599
-0.0128858
0.0911133
-0.0599543
-0.0420608
0.13245
0.139168
-0.036192
0.0667259
0.00187039
-0.033303
0.122806
0.06663
-0.0372187
0.0537912
0.0257232
-0.0510608
-0.0467894
-0.013375
0.0216623
0.0118156
0.075415
-0.00724005
0.18002
0.0435387
0.128091
-0.0460792
0.0983673
-0.171969
-0.00115959
0.119745
-0.0220373
-0.0107903
-0.0448255
-0.114397
-0.0460162
0.123161
-0.0471482
0.0561718
-0.0067282
-0.116925
-0.0250189
0.102775
0.0194182
0.0457355
0.0256922
-0.111028
-0.0887839
0.00220685
0.0622373
0.0949365
0.124985
-0.1113
0.00765485
-0.059693
0.0788917
0.272786
0.0110861
-0.130647
0.396213
0.0222076
-0.0934496
0.350362
-0.0877534
-0.13437
0.477888
0.00770594
-0.0018533
0.425369
-0.0981234
-0.130663
0.516893
-0.043633
-0.0519735
0.171486
-0.0326921
-0.187302
0.365219
-0.048661
-0.059907
0.170865
0.0447376
-0.118724
0.294972
-0.175849
0.0835379
-0.00911849
-0.147163
0.173835
-0.221044
-0.115674
-0.131871
-0.110359
-0.227695
0.241563
-0.344245
-0.170916
-0.238862
-0.0499435
-0.127769
0.361337
-0.473803
-0.00441449
-0.259909
0.0269741
-0.00878118
0.363581
-0.3423
-0.0840464
0.0599012
-0.0514262
0.107774
0.171886
-0.103797
0.00581728
0.0748245
0.0606607
-0.0100551
0.0208014
-0.140687
0.00520068
-0.114406
0.272405
-0.115656
0.0947111
-0.0776866
0.020144
-0.0343978
0.159202
-0.159978
0.230083
-0.240027
0.08603
-0.0248739
-0.11254
-0.0584007
0.168542
-0.27379
-0.00652918
0.122521
-0.277066
0.170847
0.208178
-0.307779
-0.110672
0.111021
0.126203
0.219807
-0.195864
-0.121139
-0.00314146
0.252115
-0.163474
0.00333137
-0.0717987
0.121386
-0.0598505
0.243449
-0.358552
0.18177
0.128926
0.0591986
-0.0263894
0.0621895
-0.224132
0.0344642
-0.0843501
0.137541
-0.0866808
0.0427976
0.00805818
0.0924849
-0.184853
0.00495336
-0.127146
0.241784
0.212761
0.175731
0.244134
-0.0577393
-0.0521316
0.0775518
-0.113266
-0.00484967
-0.0492484
-0.0187691
-0.0730527
-0.0339291
-0.394963
0.018486
-0.307874
0.286073
-0.0644677
0.0392746
-0.338183
0.0606554
-0.0648324
0.314233
-0.0755126
0.157589
-0.144674
0.14189
-0.000498757
0.126088
-0.0660813
0.144975
0.0594567
0.272827
0.272437
0.050836
-0.0549926
-0.00314089
-0.0940792
0.0975883
-0.0321472
0.0945768
-0.0294291
0.0634418
-0.249883
-0.0484277
-0.185177
0.0778217
-0.0445642
0.1207
-0.349925
0.000189503
-0.0671978
0.0963075
-0.0589182
0.143282
-0.144831
-0.00352416
-0.135108
0.150901
-0.0482138
0.0174044
0.0393033
0.144556
-0.0379609
0.22039
-0.0770053
0.0165733
-0.111153
0.0812904
0.0886862
0.105815
-0.0757741
0.0604841
-0.144318
-0.00240594
0.151439
-0.0608506
-0.0193358
0.058267
-0.249968
0.00991901
-0.0201489
0.0715447
-0.0228333
0.0578382
-0.117657
-0.0568943
-0.0939132
0.12091
-0.00807782
0.135939
-0.0326187
0.0216547
-0.0353843
0.150588
-0.012657
0.0923317
-0.0203172
0.00714515
0.255975
0.109352
-0.0256176
0.115386
-0.0833771
0.0476241
0.161371
0.132732
-0.0143091
0.0505718
-0.111972
0.0396975
0.119954
0.165398
-0.0657323
0.0334358
-0.0522563
-0.00273391
0.069452
-0.0469681
-1.26061e-41
-1.26061e-41
-1.26061e-41
-1.26061e-41
-1.26061e-41
-1.26061e-41
-1.26061e-41
-1.26061e-41
-1.26061e-41
-1.26061e-41
-1.26061e-41
-1.26061e-41
-1.26061e-41
-1.26061e-41
-1.26061e-41
-1.26061e-41
-1.26061e-41
-1.26061e-41
1.26061e-41
-1.26061e-41
-1.26061e-41
-1.26061e-41
-1.26061e-41
-1.26061e-41
-1.26061e-41
-1.26061e-41
-1.26061e-41
-1.26061e-41
-1.26061e-41
-1.26061e-41
-1.26061e-41
-1.26061e-41
-1.26061e-41
-1.26061e-41
-1.26061e-41
-1.26061e-41
-1.26061e-41
-1.26061e-41
-1.26061e-41
-1.26061e-41
-1.26061e-41
-1.26061e-41
-1.26061e-41
-1.26061e-41
-1.26061e-41
-1.26061e-41
-1.26061e-41
-1.26061e-41
1.26061e-41
-1.26061e-41
-1.26061e-41
-1.26061e-41
-1.26061e-41
-1.26061e-41
-1.26061e-41
-1.26061e-41
-1.26061e-41
-1.26061e-41
-1.26061e-41
-1.26061e-41
-1.26061e-41
-1.26061e-41
-1.26061e-41
-1.26061e-41
-1.26061e-41
-1.26061e-41
-1.26061e-41
-1.26061e-41
-1.26061e-41
-1.26061e-41
-1.26061e-41
-1.26061e-41
-1.26061e-41
-1.26061e-41
-1.26061e-41
-1.26061e-41
-1.26061e-41
-1.26061e-41
1.26061e-41
-1.26061e-41
-1.26061e-41
-1.26061e-41
-1.26061e-41
-1.26061e-41
-1.26061e-41
-1.26061e-41
-1.26061e-41
-1.26061e-41
-1.26061e-41
-1.26061e-41
-1.26061e-41
-1.26061e-41
-1.26061e-41
-1.26061e-41
1.26061e-41
-1.26061e-41
-1.26061e-41
-1.26061e-41
-1.26061e-41
-1.26061e-41
-1.26061e-41
-1.26061e-41
-1.26061e-41
-1.26061e-41
-1.26061e-41
-1.26061e-41
-1.26061e-41
-1.26061e-41
-1.26061e-41
-1.26061e-41
-1.26061e-41
-1.26061e-41
-1.26061e-41
-1.26061e-41
-1.26061e-41
-1.26061e-41
-1.26061e-41
-1.26061e-41
-1.26061e-41
-1.26061e-41
1.26061e-41
-1.26061e-41
-1.26061e-41
-1.26061e-41
-1.26061e-41
-1.26061e-41
-1.26061e-41
-1.26061e-41
-1.26061e-41
-1.26061e-41
-1.26061e-41
-1.26061e-41
-1.26061e-41
-1.26061e-41
-1.26061e-41
-1.26061e-41
-1.26061e-41
-1.26061e-41
1.13197e-41
-1.26061e-41
-1.26061e-41
-1.26061e-41
-1.26061e-41
-1.26061e-41
-1.26061e-41
-1.26061e-41
-1.26061e-41
-1.26061e-41
-1.26061e-41
-1.26061e-41
0.0942153
0.102825
-0.0226978
0.116598
0.0382306
0.0804232
0.0600942
0.0636459
0.0481545
0.0858884
0.0694495
0.0353785
0.0233803
0.0378347
0.0656995
0.0461325
0.0935079
0.152603
0.0468311
0.065187
0.0449653
0.0606608
0.133478
0.0811522
0.0581441
0.0971051
-0.0217059
0.0600412
0.194511
0.091556
-0.0349747
0.0867686
-0.0194159
0.0753438
-0.0601562
0.0482188
0.0532985
0.0407921
-0.00332804
0.128064
-0.000229565
-0.0125457
0.0833476
0.0900768
-0.0073715
0.0739372
0.0965329
-0.0403741
0.0210735
0.11673
-0.00379764
0.0518059
0.0504067
-0.0290247
-0.0310974
0.0673002
-0.10151
0.0761306
0.0474403
0.0428238
0.0619595
0.209111
0.0825096
-0.0500566
-0.00247995
0.131038
0.225089
0.169864
-0.018993
0.0952183
-0.000593367
0.125467
0.264282
0.140108
-0.0887553
0.197267
0.115065
0.0657331
0.180536
0.0533531
-0.0497261
0.181093
0.0669232
-0.0621984
0.0725184
-0.00870954
-0.0694667
0.130766
0.0814934
0.0464164
-0.150138
0.0849368
0.0799075
-0.0482757
0.111704
-0.0976973
-0.410281
0.123986
-0.0383847
0.0624699
0.015129
0.0347879
-0.434587
0.186257
0.0264079
0.0646163
0.0391503
0.191315
-0.322033
0.100083
-0.0278368
0.0706935
0.00444293
0.0794543
-0.131784
-0.0203153
-0.072371
0.146952
0.0437821
-0.0505549
-0.344935
-0.0212967
0.147587
-0.00937428
-0.175596
0.161925
-1.06983
-0.317372
-0.0462153
-0.313834
-0.269363
-0.0814081
-1.28086
-0.415912
-0.0467838
-0.33088
-0.228013
-0.122156
-0.921201
-0.199179
0.0122744
-0.148121
-0.24744
-0.143775
-0.250638
-0.00945463
0.00832446
0.0846867
-0.228187
0.115489
-1.38729e-42
-1.38729e-42
-1.38729e-42
-1.38729e-42
-1.38729e-42
-1.38729e-42
-1.38729e-42
-1.38729e-42
-1.38729e-42
-1.38729e-42
-1.38729e-42
-1.38729e-42
-1.38729e-42
-1.38729e-42
-1.38729e-42
-1.38729e-42
-1.38729e-42
-1.38729e-42
-1.38729e-42
-1.38729e-42
-1.38729e-42
-1.38729e-42
-1.38729e-42
-1.38729e-42
-1.38729e-42
-1.38729e-42
-1.38729e-42
-1.38729e-42
-1.38729e-42
-1.38729e-42
-1.38729e-42
-1.38729e-42
-1.38729e-42
-1.38729e-42
-1.38729e-42
-1.38729e-42
-1.38729e-42
-1.38729e-42
-1.38729e-42
-1.38729e-42
-1.38729e-42
-1.38729e-42
-1.38729e-42
-1.38729e-42
-1.38729e-42
-1.38729e-42
-1.38729e-42
-1.38729e-42
-1.38729e-42
-1.38729e-42
-1.38729e-42
-1.38729e-42
-1.38729e-42
-1.38729e-42
-1.38729e-42
-1.38729e-42
-1.38729e-42
-1.38729e-42
-1.38729e-42
-1.38729e-42
-1.38729e-42
-1.38729e-42
-1.38729e-42
-1.38729e-42
-1.38729e-42
-1.38729e-42
-1.38729e-42
-1.38729e-42
-1.38729e-42
-1.38729e-42
-1.38729e-42
-1.38729e-42
-1.38729e-42
-1.38729e-42
-1.38729e-42
-1.38729e-42
-1.38729e-42
-1.38729e-42
-1.38729e-42
-1.38729e-42
-1.38729e-42
-1.38729e-42
-1.38729e-42
-1.38729e-42
-1.38729e-42
-1.38729e-42
-1.38729e-42
-1.38729e-42
-1.38729e-42
-1.38729e-42
-1.38729e-42
-1.38729e-42
-1.38729e-42
-1.38729e-42
-1.38729e-42
-1.38729e-42
-1.38729e-42
-1.38729e-42
-1.38729e-42
-1.38729e-42
-1.38729e-42
-1.38729e-42
-1.38729e-42
-1.38729e-42
-1.38729e-42
-1.38729e-42
-1.38729e-42
-1.38729e-42
-1.38729e-42
-1.38729e-42
-1.38729e-42
-1.38729e-42
-1.38729e-42
-1.38729e-42
-1.38729e-42
-1.38729e-42
-1.38729e-42
-1.38729e-42
-1.38729e-42
-1.38729e-42
-1.38729e-42
-1.38729e-42
-1.38729e-42
-1.38729e-42
-1.38729e-42
-1.38729e-42
-1.38729e-42
-1.38729e-42
-1.38729e-42
-1.38729e-42
-1.38729e-42
-1.38729e-42
-1.38729e-42
-1.38729e-42
-1.38729e-42
-1.38729e-42
-1.38729e-42
-1.38729e-42
-1.38729e-42
-1.38729e-42
-1.38729e-42
-1.38729e-42
-1.38729e-42
-1.38729e-42
-1.38729e-42
-1.38729e-42
-1.38729e-42
-1.38729e-42
-1.38729e-42
-1.38729e-42
-0.0246421
-0.0380174
0.0271125
-0.0429715
0.047272
0.0210322
0.0471009
-0.0326571
0.0317272
-0.0248419
0.137651
-0.0250144
0.04572
-0.122741
-0.0468862
0.119539
0.134373
-0.00426307
0.0351327
0.0101673
-0.227202
0.192234
0.297557
0.159661
-0.0814894
0.316138
-0.325193
0.103551
0.222879
0.283392
-0.0852942
-0.0889288
0.107941
0.0199808
0.0085285
0.0148116
-0.0440672
-0.106203
0.0500085
0.0832251
-0.0601648
0.104776
0.0640051
-0.0604043
-0.26909
0.0669729
0.102755
0.10381
0.0987243
-0.00797848
-0.442045
-0.0921158
0.137508
0.0789964
0.0615914
0.0820901
-0.278879
-0.0882595
0.0855164
-0.0462789
-0.0266367
-0.0568936
0.0544011
0.0618191
0.0260319
-0.0640693
0.0638182
-0.138694
-0.0991391
0.0139549
0.101055
0.100605
0.104789
0.0848169
-0.401999
-0.0587257
0.215031
0.0823707
0.173882
0.0467669
-0.389952
-0.131634
0.0693324
-0.0403162
0.0522068
0.0633909
-0.137719
0.0603489
0.182289
-0.0180003
-0.0082874
-0.103314
0.0742883
0.00769037
-0.148342
0.0168968
0.024893
-0.116847
-0.0887598
0.0134691
0.173065
-0.00025954
0.0928202
0.0757565
-0.343406
-0.0428381
0.0584975
0.0118928
-0.0288749
0.153024
-0.34216
-0.0372187
-0.019457
-0.0796863
-0.0688036
0.0909065
-0.127239
0.15164
0.051781
0.092445
-0.0272209
-0.200421
-0.15413
-0.00543925
-0.200797
-0.0615173
0.0902638
-0.107122
-0.137626
0.0403036
0.202884
-0.0875088
0.155433
-0.015405
-0.30592
-0.0930924
0.0521133
0.0314
0.175935
0.0513803
-0.291238
0.0279237
0.122896
-0.109592
0.0491562
0.0123215
-0.305832
0.077774
-0.0112843
-0.0241546
-0.0136981
0.050153
-0.195612
0.120675
-0.0913731
0.26565
-0.0582606
0.0162455
0.0292571
-0.013848
0.0418875
-0.00188508
-0.0415313
0.0265179
0.0154018
-0.0124305
0.0699171
-0.0426785
-0.0579389
0.0502554
0.134173
0.0124809
0.0230648
-0.0453123
-0.0348261
0.0678407
0.0253908
-0.0495932
-0.0155744
-0.106116
0.00925802
0.0893628
-0.05869
0.0595708
-0.146862
0.352614
-0.01763
0.0177577
0.0390633
0.013782
-0.0330828
0.0502373
-0.0323675
-0.0259315
-0.0316659
0.0309968
0.0904494
-0.0651467
-0.0306122
0.0100235
0.135278
-0.00582701
0.0915247
-0.222951
-0.0677496
0.00278785
-0.078562
-0.0891824
0.166385
-0.319564
0.013699
0.129276
0.118022
0.0353038
-0.10593
0.364335
-0.00195556
0.0522632
0.0815667
-0.0665492
-0.287902
0.342756
-0.0688595
-0.0626968
-0.0273919
0.0258365
0.000164532
0.0054194
-0.138557
0.0182575
-0.0242506
-0.0117865
0.174051
-0.309808
-0.0848908
-0.0493553
-0.209476
-0.108475
0.375627
-0.555324
-0.00799048
0.10164
0.113236
0.0531117
0.0103299
0.254437
-0.0945047
-0.0268866
0.230487
-0.115265
-0.39684
0.41527
-0.155301
-0.00156848
-0.0145356
-0.0331432
-0.169418
-0.0254076
-0.239855
-0.0104342
-0.176821
0.0122807
0.14599
-0.352679
-0.181681
-0.0784564
-0.133052
-0.0682584
0.428094
-0.460811
0.0138246
0.0725614
-0.0573079
0.0840019
0.00836094
0.215843
-0.0497323
0.00531792
0.189081
-0.019284
-0.309926
0.377142
-0.134727
0.138521
0.0310791
0.020674
-0.189835
0.0754691
-0.175323
0.053232
-0.112642
0.0877011
-0.0243551
-0.271189
-0.203607
-0.00113372
0.007344
0.197692
0.23812
-0.236715
-0.00578497
0.0265138
-0.0511787
0.0773506
-0.0804462
0.0137468
-0.0398461
0.108012
-0.140679
-0.0359016
0.0238044
-0.0309956
-0.0933046
0.0752224
-0.0883338
0.0669143
0.0772931
0.0532872
-0.1129
-0.0599698
-0.124821
0.0678494
0.132501
-0.000495388
-0.0623342
-0.00442715
-0.160773
-0.0455448
0.0549732
0.0201264
-0.0514113
0.222269
-0.0142902
0.0436037
-0.0912719
-0.074309
-0.0792734
0.212952
-0.137541
0.172249
-0.0620769
-0.0413246
0.0322222
-0.104991
-0.216217
-0.030492
-0.00783285
-0.0172994
-0.0991511
0.0743835
-0.147934
0.206767
-0.0581271
-0.0402426
-0.0559666
0.0398289
-0.122582
0.186228
0.0377643
-0.0728886
-0.0445425
0.250565
-0.0742753
0.019808
-0.065762
-0.13121
0.0724069
-0.0022545
-0.134454
0.199693
-0.136592
-0.041305
0.0147623
0.252763
-0.229661
0.303091
-0.0748833
-0.117606
0.0656564
0.129943
-0.173559
0.0171072
-0.00953064
-0.0891065
-0.0819184
-0.0302107
-0.175374
0.201683
-0.0393038
-0.0958386
-0.0581714
0.09084
-0.158537
0.163503
-0.101924
-0.08641
0.138843
0.17928
-0.0555558
0.0132133
-0.119769
-0.0394754
-0.116335
0.197747
-0.0550638
0.214509
-0.0563648
-0.115563
-0.0199822
-0.0401354
-0.0874088
0.193752
-0.0989331
-0.0965067
-0.0431758
0.132639
-0.199192
0.0723779
-0.0900233
-0.0334368
0.107132
0.0774072
0.028946
0.151044
-0.125097
-0.0557925
0.117221
0.00743627
0.0167808
0.158498
-0.126866
-0.14927
0.413905
0.0237084
0.00844588
0.0250872
-0.217913
-0.196088
0.2452
0.178555
0.00874031
0.0840325
-0.226206
-0.207163
0.0866305
0.117792
-0.0178734
0.0848353
-0.110942
-0.0600012
-0.00246611
0.0316221
-0.00746667
0.112523
-0.220638
0.15476
0.0910599
-0.0128858
0.0911133
-0.0599543
-0.0420608
0.13245
0.139168
-0.036192
0.0667259
0.00187039
-0.033303
0.122806
0.06663
-0.0372187
0.0537912
0.0257232
-0.0510608
-0.0467894
-0.013375
0.0216623
0.0118156
0.075415
-0.00724005
0.18002
0.0435387
0.128091
-0.0460792
0.0983673
-0.171969
-0.00115959
0.119745
-0.0220373
-0.0107903
-0.0448255
-0.114397
-0.0460162
0.123161
-0.0471482
0.0561718
-0.0067282
-0.116925
-0.0250189
0.102775
0.0194182
0.0457355
0.0256922
-0.111028
-0.0887839
0.00220685
0.0622373
0.0949365
0.124985
-0.1113
0.00765485
-0.059693
0.0788917
0.272786
0.0110861
-0.130647
0.396213
0.0222076
-0.0934496
0.350362
-0.0877534
-0.13437
0.477888
0.00770594
-0.0018533
0.425369
-0.0981234
-0.130663
0.516893
-0.043633
-0.0519735
0.171486
-0.0326921
-0.187302
0.365219
-0.048661
-0.059907
0.170865
0.0447376
-0.118724
0.294972
-0.175849
0.0835379
-0.00911849
-0.147163
0.173835
-0.221044
-0.115674
-0.131871
-0.110359
-0.227695
0.241563
-0.344245
-0.170916
-0.238862
-0.0499435
-0.127769
0.361337
-0.473803
-0.00441449
-0.259909
0.0269741
-0.00878118
0.363581
-0.3423
-0.0840464
0.0599012
-0.0514262
0.107774
0.171886
-0.103797
0.00581728
0.0748245
0.0606607
-0.0100551
0.0208014
-0.140687
0.00520068
-0.114406
0.272405
-0.115656
0.0947111
-0.0776866
0.020144
-0.0343978
0.159202
-0.159978
0.230083
-0.240027
0.08603
-0.0248739
-0.11254
-0.0584007
0.168542
-0.27379
-0.00652918
0.122521
-0.277066
0.170847
0.208178
-0.307779
-0.110672
0.111021
0.126203
0.219807
-0.195864
-0.121139
-0.00314146
0.252115
-0.163474
0.00333137
-0.0717987
0.121386
-0.0598505
0.243449
-0.358552
0.18177
0.128926
0.0591986
-0.0263894
0.0621895
-0.224132
0.0344642
-0.0843501
0.137541
-0.0866808
0.0427976
0.00805818
0.0924849
-0.184853
0.00495336
-0.127146
0.241784
0.212761
0.175731
0.244134
-0.0577393
-0.0521316
0.0775518
-0.113266
-0.00484967
-0.0492484
-0.0187691
-0.0730527
-0.0339291
-0.394963
0.018486
-0.307874
0.286073
-0.0644677
0.0392746
-0.338183
0.0606554
-0.0648324
0.314233
-0.0755126
0.157589
-0.144674
0.14189
-0.000498757
0.126088
-0.0660813
0.144975
0.0594567
0.272827
0.272437
0.050836
-0.0549926
-0.00314089
-0.0940792
0.0975883
-0.0321472
0.0945768
-0.0294291
0.0634418
-0.249883
-0.0484277
-0.185177
0.0778217
-0.0445642
0.1207
-0.349925
0.000189503
-0.0671978
0.0963075
-0.0589182
0.143282
-0.144831
-0.00352416
-0.135108
0.150901
-0.0482138
0.0174044
0.0393033
0.144556
-0.0379609
0.22039
-0.0770053
0.0165733
-0.111153
0.0812904
0.0886862
0.105815
-0.0757741
0.0604841
-0.144318
-0.00240594
0.151439
-0.0608506
-0.0193358
0.058267
-0.249968
0.00991901
-0.0201489
0.0715447
-0.0228333
0.0578382
-0.117657
-0.0568943
-0.0939132
0.12091
-0.00807782
0.135939
-0.0326187
0.0216547
-0.0353843
0.150588
-0.012657
0.0923317
-0.0203172
0.00714515
0.255975
0.109352
-0.0256176
0.115386
-0.0833771
0.0476241
0.161371
0.132732
-0.0143091
0.0505718
-0.111972
0.0396975
0.119954
0.165398
-0.0657323
0.0334358
-0.0522563
-0.00273391
0.069452
-0.0469681
-1.26061e-41
-1.26061e-41
-1.26061e-41
-1.26061e-41
-1.26061e-41
-1.26061e-41
-1.26061e-41
-1.26061e-41
-1.26061e-41
-1.26061e-41
-1.26061e-41
-1.26061e-41
-1.26061e-41
-1.26061e-41
-1.26061e-41
-1.26061e-41
-1.26061e-41
-1.26061e-41
1.26061e-41
-1.26061e-41
-1.26061e-41
-1.26061e-41
-1.26061e-41
-1.26061e-41
-1.26061e-41
-1.26061e-41
-1.26061e-41
-1.26061e-41
-1.26061e-41
-1.26061e-41
-1.26061e-41
-1.26061e-41
-1.26061e-41
-1.26061e-41
-1.26061e-41
-1.26061e-41
-1.26061e-41
-1.26061e-41
-1.26061e-41
-1.26061e-41
-1.26061e-41
-1.26061e-41
-1.26061e-41
-1.26061e-41
-1.26061e-41
-1.26061e-41
-1.26061e-41
-1.26061e-41
1.26061e-41
-1.26061e-41
-1.26061e-41
-1.26061e-41
-1.26061e-41
-1.26061e-41
-1.26061e-41
-1.26061e-41
-1.26061e-41
-1.26061e-41
-1.26061e-41
-1.26061e-41
-1.26061e-41
-1.26061e-41
-1.26061e-41
-1.26061e-41
-1.26061e-41
-1.26061e-41
-1.26061e-41
-1.26061e-41
-1.26061e-41
-1.26061e-41
-1.26061e-41
-1.26061e-41
-1.26061e-41
-1.26061e-41
-1.26061e-41
-1.26061e-41
-1.26061e-41
-1.26061e-41
1.26061e-41
-1.26061e-41
-1.26061e-41
-1.26061e-41
-1.26061e-41
-1.26061e-41
-1.26061e-41
-1.26061e-41
-1.26061e-41
-1.26061e-41
-1.26061e-41
-1.26061e-41
-1.26061e-41
-1.26061e-41
-1.26061e-41
-1.26061e-41
1.26061e-41
-1.26061e-41
-1.26061e-41
-1.26061e-41
-1.26061e-41
-1.26061e-41
-1.26061e-41
-1.26061e-41
-1.26061e-41
-1.26061e-41
-1.26061e-41
-1.26061e-41
-1.26061e-41
-1.26061e-41
-1.26061e-41
-1.26061e-41
-1.26061e-41
-1.26061e-41
-1.26061e-41
-1.26061e-41
-1.26061e-41
-1.26061e-41
-1.26061e-41
-1.26061e-41
-1.26061e-41
-1.26061e-41
1.26061e-41
-1.26061e-41
-1.26061e-41
-1.26061e-41
-1.26061e-41
-1.26061e-41
-1.26061e-41
-1.26061e-41
-1.26061e-41
-1.26061e-41
-1.26061e-41
-1.26061e-41
-1.26061e-41
-1.26061e-41
-1.26061e-41
-1.26061e-41
-1.26061e-41
-1.26061e-41
1.13197e-41
-1.26061e-41
-1.26061e-41
-1.26061e-41
-1.26061e-41
-1.26061e-41
-1.26061e-41
-1.26061e-41
-1.26061e-41
-1.26061e-41
-1.26061e-41
-1.26061e-41
0.0942153
0.102825
-0.0226978
0.116598
0.0382306
0.0804232
0.0600942
0.0636459
0.0481545
0.0858884
0.0694495
0.0353785
0.0233803
0.0378347
0.0656995
0.0461325
0.0935079
0.152603
0.0468311
0.065187
0.0449653
0.0606608
0.133478
0.0811522
0.0581441
0.0971051
-0.0217059
0.0600412
0.194511
0.091556
-0.0349747
0.0867686
-0.0194159
0.0753438
-0.0601562
0.0482188
0.0532985
0.0407921
-0.00332804
0.128064
-0.000229565
-0.0125457
0.0833476
0.0900768
-0.0073715
0.0739372
0.0965329
-0.0403741
0.0210735
0.11673
-0.00379764
0.0518059
0.0504067
-0.0290247
-0.0310974
0.0673002
-0.10151
0.0761306
0.0474403
0.0428238
0.0619595
0.209111
0.0825096
-0.0500566
-0.00247995
0.131038
0.225089
0.169864
-0.018993
0.0952183
-0.000593367
0.125467
0.264282
0.140108
-0.0887553
0.197267
0.115065
0.0657331
0.180536
0.0533531
-0.0497261
0.181093
0.0669232
-0.0621984
0.0725184
-0.00870954
-0.0694667
0.130766
0.0814934
0.0464164
-0.150138
0.0849368
0.0799075
-0.0482757
0.111704
-0.0976973
-0.410281
0.123986
-0.0383847
0.0624699
0.015129
0.0347879
-0.434587
0.186257
0.0264079
0.0646163
0.0391503
0.191315
-0.322033
0.100083
-0.0278368
0.0706935
0.00444293
0.0794543
-0.131784
-0.0203153
-0.072371
0.146952
0.0437821
-0.0505549
-0.344935
-0.0212967
0.147587
-0.00937428
-0.175596
0.161925
-1.06983
-0.317372
-0.0462153
-0.313834
-0.269363
-0.0814081
-1.28086
-0.415912
-0.0467838
-0.33088
-0.228013
-0.122156
-0.921201
-0.199179
0.0122744
-0.148121
-0.24744
-0.143775
-0.250638
-0.00945463
0.00832446
0.0846867
-0.228187
0.115489
-1.38729e-42
-1.38729e-42
-1.38729e-42
-1.38729e-42
-1.38729e-42
-1.38729e-42
-1.38729e-42
-1.38729e-42
-1.38729e-42
-1.38729e-42
-1.38729e-42
-1.38729e-42
-1.38729e-42
-1.38729e-42
-1.38729e-42
-1.38729e-42
-1.38729e-42
-1.38729e-42
-1.38729e-42
-1.38729e-42
-1.38729e-42
-1.38729e-42
-1.38729e-42
-1.38729e-42
-1.38729e-42
-1.38729e-42
-1.38729e-42
-1.38729e-42
-1.38729e-42
-1.38729e-42
-1.38729e-42
-1.38729e-42
-1.38729e-42
-1.38729e-42
-1.38729e-42
-1.38729e-42
-1.38729e-42
-1.38729e-42
-1.38729e-42
-1.38729e-42
-1.38729e-42
-1.38729e-42
-1.38729e-42
-1.38729e-42
-1.38729e-42
-1.38729e-42
-1.38729e-42
-1.38729e-42
-1.38729e-42
-1.38729e-42
-1.38729e-42
-1.38729e-42
-1.38729e-42
-1.38729e-42
-1.38729e-42
-1.38729e-42
-1.38729e-42
-1.38729e-42
-1.38729e-42
-1.38729e-42
-1.38729e-42
-1.38729e-42
-1.38729e-42
-1.38729e-42
-1.38729e-42
-1.38729e-42
-1.38729e-42
-1.38729e-42
-1.38729e-42
-1.38729e-42
-1.38729e-42
-1.38729e-42
-1.38729e-42
-1.38729e-42
-1.38729e-42
-1.38729e-42
-1.38729e-42
-1.38729e-42
-1.38729e-42
-1.38729e-42
-1.38729e-42
-1.38729e-42
-1.38729e-42
-1.38729e-42
-1.38729e-42
-1.38729e-42
-1.38729e-42
-1.38729e-42
-1.38729e-42
-1.38729e-42
-1.38729e-42
-1.38729e-42
-1.38729e-42
-1.38729e-42
-1.38729e-42
-1.38729e-42
-1.38729e-42
-1.38729e-42
-1.38729e-42
-1.38729e-42
-1.38729e-42
-1.38729e-42
-1.38729e-42
-1.38729e-42
-1.38729e-42
-1.38729e-42
-1.38729e-42
-1.38729e-42
-1.38729e-42
-1.38729e-42
-1.38729e-42
-1.38729e-42
-1.38729e-42
-1.38729e-42
-1.38729e-42
-1.38729e-42
-1.38729e-42
-1.38729e-42
-1.38729e-42
-1.38729e-42
-1.38729e-42
-1.38729e-42
-1.38729e-42
-1.38729e-42
-1.38729e-42
-1.38729e-42
-1.38729e-42
-1.38729e-42
-1.38729e-42
-1.38729e-42
-1.38729e-42
-1.38729e-42
-1.38729e-42
-1.38729e-42
-1.38729e-42
-1.38729e-42
-1.38729e-42
-1.38729e-42
-1.38729e-42
-1.38729e-42
-1.38729e-42
-1.38729e-42
-1.38729e-42
-1.38729e-42
-1.38729e-42
-1.38729e-42
-1.38729e-42
-1.38729e-42
-1.38729e-42
-1.38729e-42
-0.0246421
-0.0380174
0.0271125
-0.0429715
0.047272
0.0210322
0.0471009
-0.0326571
0.0317272
-0.0248419
0.137651
-0.0250144
0.04572
-0.122741
-0.0468862
0.119539
0.134373
-0.00426307
0.0351327
0.0101673
-0.227202
0.192234
0.297557
0.159661
-0.0814894
0.316138
-0.325193
0.103551
0.222879
0.283392
-0.0852942
-0.0889288
0.107941
0.0199808
0.0085285
0.0148116
-0.0440672
-0.106203
0.0500085
0.0832251
-0.0601648
0.104776
0.0640051
-0.0604043
-0.26909
0.0669729
0.102755
0.10381
0.0987243
-0.00797848
-0.442045
-0.0921158
0.137508
0.0789964
0.0615914
0.0820901
-0.278879
-0.0882595
0.0855164
-0.0462789
-0.0266367
-0.0568936
0.0544011
0.0618191
0.0260319
-0.0640693
0.0638182
-0.138694
-0.0991391
0.0139549
0.101055
0.100605
0.104789
0.0848169
-0.401999
-0.0587257
0.215031
0.0823707
0.173882
0.0467669
-0.389952
-0.131634
0.0693324
-0.0403162
0.0522068
0.0633909
-0.137719
0.0603489
0.182289
-0.0180003
-0.0082874
-0.103314
0.0742883
0.00769037
-0.148342
0.0168968
0.024893
-0.116847
-0.0887598
0.0134691
0.173065
-0.00025954
0.0928202
0.0757565
-0.343406
-0.0428381
0.0584975
0.0118928
-0.0288749
0.153024
-0.34216
-0.0372187
-0.019457
-0.0796863
-0.0688036
0.0909065
-0.127239
0.15164
0.051781
0.092445
-0.0272209
-0.200421
-0.15413
-0.00543925
-0.200797
-0.0615173
0.0902638
-0.107122
-0.137626
0.0403036
0.202884
-0.0875088
0.155433
-0.015405
-0.30592
-0.0930924
0.0521133
0.0314
0.175935
0.0513803
-0.291238
0.0279237
0.122896
-0.109592
0.0491562
0.0123215
-0.305832
0.077774
-0.0112843
-0.0241546
-0.0136981
0.050153
-0.195612
0.120675
-0.0913731
0.26565
-0.0582606
0.0162455
0.0292571
-0.013848
0.0418875
-0.00188508
-0.0415313
0.0265179
0.0154018
-0.0124305
0.0699171
-0.0426785
-0.0579389
0.0502554
0.134173
0.0124809
0.0230648
-0.0453123
-0.0348261
0.0678407
0.0253908
-0.0495932
-0.0155744
-0.106116
0.00925802
0.0893628
-0.05869
0.0595708
-0.146862
0.352614
-0.01763
0.0177577
0.0390633
0.013782
-0.0330828
0.0502373
-0.0323675
-0.0259315
-0.0316659
0.0309968
0.0904494
-0.0651467
-0.0306122
0.0100235
0.135278
-0.00582701
0.0915247
-0.222951
-0.0677496
0.00278785
-0.078562
-0.0891824
0.166385
-0.319564
0.013699
0.129276
0.118022
0.0353038
-0.10593
0.364335
-0.00195556
0.0522632
0.0815667
-0.0665492
-0.287902
0.342756
-0.0688595
-0.0626968
-0.0273919
0.0258365
0.000164532
0.0054194
-0.138557
0.0182575
-0.0242506
-0.0117865
0.174051
-0.309808
-0.0848908
-0.0493553
-0.209476
-0.108475
0.375627
-0.555324
-0.00799048
0.10164
0.113236
0.0531117
0.0103299
0.254437
-0.0945047
-0.0268866
0.230487
-0.115265
-0.39684
0.41527
-0.155301
-0.00156848
-0.0145356
-0.0331432
-0.169418
-0.0254076
-0.239855
-0.0104342
-0.176821
0.0122807
0.14599
-0.352679
-0.181681
-0.0784564
-0.133052
-0.0682584
0.428094
-0.460811
0.0138246
0.0725614
-0.0573079
0.0840019
0.00836094
0.215843
-0.0497323
0.00531792
0.189081
-0.019284
-0.309926
0.377142
-0.134727
0.138521
0.0310791
0.020674
-0.189835
0.0754691
-0.175323
0.053232
-0.112642
0.0877011
-0.0243551
-0.271189
-0.203607
-0.00113372
0.007344
0.197692
0.23812
-0.236715
-0.00578497
0.0265138
-0.0511787
0.0773506
-0.0804462
0.0137468
-0.0398461
0.108012
-0.140679
-0.0359016
0.0238044
-0.0309956
-0.0933046
0.0752224
-0.0883338
0.0669143
0.0772931
0.0532872
-0.1129
-0.0599698
-0.124821
0.0678494
0.132501
-0.000495388
-0.0623342
-0.00442715
-0.160773
-0.0455448
0.0549732
0.0201264
-0.0514113
0.222269
-0.0142902
0.0436037
-0.0912719
-0.074309
-0.0792734
0.212952
-0.137541
0.172249
-0.0620769
-0.0413246
0.0322222
-0.104991
-0.216217
-0.030492
-0.00783285
-0.0172994
-0.0991511
0.0743835
-0.147934
0.206767
-0.0581271
-0.0402426
-0.0559666
0.0398289
-0.122582
0.186228
0.0377643
-0.0728886
-0.0445425
0.250565
-0.0742753
0.019808
-0.065762
-0.13121
0.0724069
-0.0022545
-0.134454
0.199693
-0.136592
-0.041305
0.0147623
0.252763
-0.229661
0.303091
-0.0748833
-0.117606
0.0656564
0.129943
-0.173559
0.0171072
-0.00953064
-0.0891065
-0.0819184
-0.0302107
-0.175374
0.201683
-0.0393038
-0.0958386
-0.0581714
0.09084
-0.158537
0.163503
-0.101924
-0.08641
0.138843
0.17928
-0.0555558
0.0132133
-0.119769
-0.0394754
-0.116335
0.197747
-0.0550638
0.214509
-0.0563648
-0.115563
-0.0199822
-0.0401354
-0.0874088
0.193752
-0.0989331
-0.0965067
-0.0431758
0.132639
-0.199192
0.0723779
-0.0900233
-0.0334368
0.107132
0.0774072
0.028946
0.151044
-0.125097
-0.0557925
0.117221
0.00743627
0.0167808
0.158498
-0.126866
-0.14927
0.413905
0.0237084
0.00844588
0.0250872
-0.217913
-0.196088
0.2452
0.178555
0.00874031
0.0840325
-0.226206
-0.207163
0.0866305
0.117792
-0.0178734
0.0848353
-0.110942
-0.0600012
-0.00246611
0.0316221
-0.00746667
0.112523
-0.220638
0.15476
0.0910599
-0.0128858
0.0911133
-0.0599543
-0.0420608
0.13245
0.139168
-0.036192
0.0667259
0.00187039
-0.033303
0.122806
0.06663
-0.0372187
0.0537912
0.0257232
-0.0510608
-0.0467894
-0.013375
0.0216623
0.0118156
0.075415
-0.00724005
0.18002
0.0435387
0.128091
-0.0460792
0.0983673
-0.171969
-0.00115959
0.119745
-0.0220373
-0.0107903
-0.0448255
-0.114397
-0.0460162
0.123161
-0.0471482
0.0561718
-0.0067282
-0.116925
-0.0250189
0.102775
0.0194182
0.0457355
0.0256922
-0.111028
-0.0887839
0.00220685
0.0622373
0.0949365
0.124985
-0.1113
0.00765485
-0.059693
0.0788917
0.272786
0.0110861
-0.130647
0.396213
0.0222076
-0.0934496
0.350362
-0.0877534
-0.13437
0.477888
0.00770594
-0.0018533
0.425369
-0.0981234
-0.130663
0.516893
-0.043633
-0.0519735
0.171486
-0.0326921
-0.187302
0.365219
-0.048661
-0.059907
0.170865
0.0447376
-0.118724
0.294972
-0.175849
0.0835379
-0.00911849
-0.147163
0.173835
-0.221044
-0.115674
-0.131871
-0.110359
-0.227695
0.241563
-0.344245
-0.170916
-0.238862
-0.0499435
-0.127769
0.361337
-0.473803
-0.00441449
-0.259909
0.0269741
-0.00878118
0.363581
-0.3423
-0.0840464
0.0599012
-0.0514262
0.107774
0.171886
-0.103797
0.00581728
0.0748245
0.0606607
-0.0100551
0.0208014
-0.140687
0.00520068
-0.114406
0.272405
-0.115656
0.0947111
-0.0776866
0.020144
-0.0343978
0.159202
-0.159978
0.230083
-0.240027
0.08603
-0.0248739
-0.11254
-0.0584007
0.168542
-0.27379
-0.00652918
0.122521
-0.277066
0.170847
0.208178
-0.307779
-0.110672
0.111021
0.126203
0.219807
-0.195864
-0.121139
-0.00314146
0.252115
-0.163474
0.00333137
-0.0717987
0.121386
-0.0598505
0.243449
-0.358552
0.18177
0.128926
0.0591986
-0.0263894
0.0621895
-0.224132
0.0344642
-0.0843501
0.137541
-0.0866808
0.0427976
0.00805818
0.0924849
-0.184853
0.00495336
-0.127146
0.241784
0.212761
0.175731
0.244134
-0.0577393
-0.0521316
0.0775518
-0.113266
-0.00484967
-0.0492484
-0.0187691
-0.0730527
-0.0339291
-0.394963
0.018486
-0.307874
0.286073
-0.0644677
0.0392746
-0.338183
0.0606554
-0.0648324
0.314233
-0.0755126
0.157589
-0.144674
0.14189
-0.000498757
0.126088
-0.0660813
0.144975
0.0594567
0.272827
0.272437
0.050836
-0.0549926
-0.00314089
-0.0940792
0.0975883
-0.0321472
0.0945768
-0.0294291
0.0634418
-0.249883
-0.0484277
-0.185177
0.0778217
-0.0445642
0.1207
-0.349925
0.000189503
-0.0671978
0.0963075
-0.0589182
0.143282
-0.144831
-0.00352416
-0.135108
0.150901
-0.0482138
0.0174044
0.0393033
0.144556
-0.0379609
0.22039
-0.0770053
0.0165733
-0.111153
0.0812904
0.0886862
0.105815
-0.0757741
0.0604841
-0.144318
-0.00240594
0.151439
-0.0608506
-0.0193358
0.058267
-0.249968
0.00991901
-0.0201489
0.0715447
-0.0228333
0.0578382
-0.117657
-0.0568943
-0.0939132
0.12091
-0.00807782
0.135939
-0.0326187
0.0216547
-0.0353843
0.150588
-0.012657
0.0923317
-0.0203172
0.00714515
0.255975
0.109352
-0.0256176
0.115386
-0.0833771
0.0476241
0.161371
0.132732
-0.0143091
0.0505718
-0.111972
0.0396975
0.119954
0.165398
-0.0657323
0.0334358
-0.0522563
-0.00273391
0.069452
-0.0469681
-1.26061e-41
-1.26061e-41
-1.26061e-41
-1.26061e-41
-1.26061e-41
-1.26061e-41
-1.26061e-41
-1.26061e-41
-1.26061e-41
-1.26061e-41
-1.26061e-41
-1.26061e-41
-1.26061e-41
-1.26061e-41
-1.26061e-41
-1.26061e-41
-1.26061e-41
-1.26061e-41
1.26061e-41
-1.26061e-41
-1.26061e-41
-1.26061e-41
-1.26061e-41
-1.26061e-41
-1.26061e-41
-1.26061e-41
-1.26061e-41
-1.26061e-41
-1.26061e-41
-1.26061e-41
-1.26061e-41
-1.26061e-41
-1.26061e-41
-1.26061e-41
-1.26061e-41
-1.26061e-41
-1.26061e-41
-1.26061e-41
-1.26061e-41
-1.26061e-41
-1.26061e-41
-1.26061e-41
-1.26061e-41
-1.26061e-41
-1.26061e-41
-1.26061e-41
-1.26061e-41
-1.26061e-41
1.26061e-41
-1.26061e-41
-1.26061e-41
-1.26061e-41
-1.26061e-41
-1.26061e-41
-1.26061e-41
-1.26061e-41
-1.26061e-41
-1.26061e-41
-1.26061e-41
-1.26061e-41
-1.26061e-41
-1.26061e-41
-1.26061e-41
-1.26061e-41
-1.26061e-41
-1.26061e-41
-1.26061e-41
-1.26061e-41
-1.26061e-41
-1.26061e-41
-1.26061e-41
-1.26061e-41
-1.26061e-41
-1.26061e-41
-1.26061e-41
-1.26061e-41
-1.26061e-41
-1.26061e-41
1.26061e-41
-1.26061e-41
-1.26061e-41
-1.26061e-41
-1.26061e-41
-1.26061e-41
-1.26061e-41
-1.26061e-41
-1.26061e-41
-1.26061e-41
-1.26061e-41
-1.26061e-41
-1.26061e-41
-1.26061e-41
-1.26061e-41
-1.26061e-41
1.26061e-41
-1.26061e-41
-1.26061e-41
-1.26061e-41
-1.26061e-41
-1.26061e-41
-1.26061e-41
-1.26061e-41
-1.26061e-41
-1.26061e-41
-1.26061e-41
-1.26061e-41
-1.26061e-41
-1.26061e-41
-1.26061e-41
-1.26061e-41
-1.26061e-41
-1.26061e-41
-1.26061e-41
-1.26061e-41
-1.26061e-41
-1.26061e-41
-1.26061e-41
-1.26061e-41
-1.26061e-41
-1.26061e-41
1.26061e-41
-1.26061e-41
-1.26061e-41
-1.26061e-41
-1.26061e-41
-1.26061e-41
-1.26061e-41
-1.26061e-41
-1.26061e-41
-1.26061e-41
-1.26061e-41
-1.26061e-41
-1.26061e-41
-1.26061e-41
-1.26061e-41
-1.26061e-41
-1.26061e-41
-1.26061e-41
1.13197e-41
-1.26061e-41
-1.26061e-41
-1.26061e-41
-1.26061e-41
-1.26061e-41
-1.26061e-41
-1.26061e-41
-1.26061e-41
-1.26061e-41
-1.26061e-41
-1.26061e-41
0.0942153
0.102825
-0.0226978
0.116598
0.0382306
0.0804232
0.0600942
0.0636459
0.0481545
0.0858884
0.0694495
0.0353785
0.0233803
0.0378347
0.0656995
0.0461325
0.0935079
0.152603
0.0468311
0.065187
0.0449653
0.0606608
0.133478
0.0811522
0.0581441
0.0971051
-0.0217059
0.0600412
0.194511
0.091556
-0.0349747
0.0867686
-0.0194159
0.0753438
-0.0601562
0.0482188
0.0532985
0.0407921
-0.00332804
0.128064
-0.000229565
-0.0125457
0.0833476
0.0900768
-0.0073715
0.0739372
0.0965329
-0.0403741
0.0210735
0.11673
-0.00379764
0.0518059
0.0504067
-0.0290247
-0.0310974
0.0673002
-0.10151
0.0761306
0.0474403
0.0428238
0.0619595
0.209111
0.0825096
-0.0500566
-0.00247995
0.131038
0.225089
0.169864
-0.018993
0.0952183
-0.000593367
0.125467
0.264282
0.140108
-0.0887553
0.197267
0.115065
0.0657331
0.180536
0.0533531
-0.0497261
0.181093
0.0669232
-0.0621984
0.0725184
-0.00870954
-0.0694667
0.130766
0.0814934
0.0464164
-0.150138
0.0849368
0.0799075
-0.0482757
0.111704
-0.0976973
-0.410281
0.123986
-0.0383847
0.0624699
0.015129
0.0347879
-0.434587
0.186257
0.0264079
0.0646163
0.0391503
0.191315
-0.322033
0.100083
-0.0278368
0.0706935
0.00444293
0.0794543
-0.131784
-0.0203153
-0.072371
0.146952
0.0437821
-0.0505549
-0.344935
-0.0212967
0.147587
-0.00937428
-0.175596
0.161925
-1.06983
-0.317372
-0.0462153
-0.313834
-0.269363
-0.0814081
-1.28086
-0.415912
-0.0467838
-0.33088
-0.228013
-0.122156
-0.921201
-0.199179
0.0122744
-0.148121
-0.24744
-0.143775
-0.250638
-0.00945463
0.00832446
0.0846867
-0.228187
0.115489
-1.38729e-42
-1.38729e-42
-1.38729e-42
-1.38729e-42
-1.38729e-42
-1.38729e-42
-1.38729e-42
-1.38729e-42
-1.38729e-42
-1.38729e-42
-1.38729e-42
-1.38729e-42
-1.38729e-42
-1.38729e-42
-1.38729e-42
-1.38729e-42
-1.38729e-42
-1.38729e-42
-1.38729e-42
-1.38729e-42
-1.38729e-42
-1.38729e-42
-1.38729e-42
-1.38729e-42
-1.38729e-42
-1.38729e-42
-1.38729e-42
-1.38729e-42
-1.38729e-42
-1.38729e-42
-1.38729e-42
-1.38729e-42
-1.38729e-42
-1.38729e-42
-1.38729e-42
-1.38729e-42
-1.38729e-42
-1.38729e-42
-1.38729e-42
-1.38729e-42
-1.38729e-42
-1.38729e-42
-1.38729e-42
-1.38729e-42
-1.38729e-42
-1.38729e-42
-1.38729e-42
-1.38729e-42
-1.38729e-42
-1.38729e-42
-1.38729e-42
-1.38729e-42
-1.38729e-42
-1.38729e-42
-1.38729e-42
-1.38729e-42
-1.38729e-42
-1.38729e-42
-1.38729e-42
-1.38729e-42
-1.38729e-42
-1.38729e-42
-1.38729e-42
-1.38729e-42
-1.38729e-42
-1.38729e-42
-1.38729e-42
-1.38729e-42
-1.38729e-42
-1.38729e-42
-1.38729e-42
-1.38729e-42
-1.38729e-42
-1.38729e-42
-1.38729e-42
-1.38729e-42
-1.38729e-42
-1.38729e-42
-1.38729e-42
-1.38729e-42
-1.38729e-42
-1.38729e-42
-1.38729e-42
-1.38729e-42
-1.38729e-42
-1.38729e-42
-1.38729e-42
-1.38729e-42
-1.38729e-42
-1.38729e-42
-1.38729e-42
-1.38729e-42
-1.38729e-42
-1.38729e-42
-1.38729e-42
-1.38729e-42
-1.38729e-42
-1.38729e-42
-1.38729e-42
-1.38729e-42
-1.38729e-42
-1.38729e-42
-1.38729e-42
-1.38729e-42
-1.38729e-42
-1.38729e-42
-1.38729e-42
-1.38729e-42
-1.38729e-42
-1.38729e-42
-1.38729e-42
-1.38729e-42
-1.38729e-42
-1.38729e-42
-1.38729e-42
-1.38729e-42
-1.38729e-42
-1.38729e-42
-1.38729e-42
-1.38729e-42
-1.38729e-42
-1.38729e-42
-1.38729e-42
-1.38729e-42
-1.38729e-42
-1.38729e-42
-1.38729e-42
-1.38729e-42
-1.38729e-42
-1.38729e-42
-1.38729e-42
-1.38729e-42
-1.38729e-42
-1.38729e-42
-1.38729e-42
-1.38729e-42
-1.38729e-42
-1.38729e-42
-1.38729e-42
-1.38729e-42
-1.38729e-42
-1.38729e-42
-1.38729e-42
-1.38729e-42
-1.38729e-42
-1.38729e-42
-1.38729e-42
-1.38729e-42
-1.38729e-42
-1.38729e-42
-0.0246421
-0.0380174
0.0271125
-0.0429715
0.047272
0.0210322
0.0471009
-0.0326571
0.0317272
-0.0248419
0.137651
-0.0250144
0.04572
-0.122741
-0.0468862
0.119539
0.134373
-0.00426307
0.0351327
0.0101673
-0.227202
0.192234
0.297557
0.159661
-0.0814894
0.316138
-0.325193
0.103551
0.222879
0.283392
-0.0852942
-0.0889288
0.107941
0.0199808
0.0085285
0.0148116
-0.0440672
-0.106203
0.0500085
0.0832251
-0.0601648
0.104776
0.0640051
-0.0604043
-0.26909
0.0669729
0.102755
0.10381
0.0987243
-0.00797848
-0.442045
-0.0921158
0.137508
0.0789964
0.0615914
0.0820901
-0.278879
-0.0882595
0.0855164
-0.0462789
-0.0266367
-0.0568936
0.0544011
0.0618191
0.0260319
-0.0640693
0.0638182
-0.138694
-0.0991391
0.0139549
0.101055
0.100605
0.104789
0.0848169
-0.401999
-0.0587257
0.215031
0.0823707
0.173882
0.0467669
-0.389952
-0.131634
0.0693324
-0.0403162
0.0522068
0.0633909
-0.137719
0.0603489
0.182289
-0.0180003
-0.0082874
-0.103314
0.0742883
0.00769037
-0.148342
0.0168968
0.024893
-0.116847
-0.0887598
0.0134691
0.173065
-0.00025954
0.0928202
0.0757565
-0.343406
-0.0428381
0.0584975
0.0118928
-0.0288749
0.153024
-0.34216
-0.0372187
-0.019457
-0.0796863
-0.0688036
0.0909065
-0.127239
0.15164
0.051781
0.092445
-0.0272209
-0.200421
-0.15413
-0.00543925
-0.200797
-0.0615173
0.0902638
-0.107122
-0.137626
0.0403036
0.202884
-0.0875088
0.155433
-0.015405
-0.30592
-0.0930924
0.0521133
0.0314
0.175935
0.0513803
-0.291238
0.0279237
0.122896
-0.109592
0.0491562
0.0123215
-0.305832
0.077774
-0.0112843
-0.0241546
-0.0136981
0.050153
-0.195612
0.120675
-0.0913731
0.26565
-0.0582606
0.0162455
0.0292571
-0.013848
0.0418875
-0.00188508
-0.0415313
0.0265179
0.0154018
-0.0124305
0.0699171
-0.0426785
-0.0579389
0.0502554
0.134173
0.0124809
0.0230648
-0.0453123
-0.0348261
0.0678407
0.0253908
-0.0495932
-0.0155744
-0.106116
0.00925802
0.0893628
-0.05869
0.0595708
-0.146862
0.352614
-0.01763
0.0177577
0.0390633
0.013782
-0.0330828
0.0502373
-0.0323675
-0.0259315
-0.0316659
0.0309968
0.0904494
-0.0651467
-0.0306122
0.0100235
0.135278
-0.00582701
0.0915247
-0.222951
-0.0677496
0.00278785
-0.078562
-0.0891824
0.166385
-0.319564
0.013699
0.129276
0.118022
0.0353038
-0.10593
0.364335
-0.00195556
0.0522632
0.0815667
-0.0665492
-0.287902
0.342756
-0.0688595
-0.0626968
-0.0273919
0.0258365
0.000164532
0.0054194
-0.138557
0.0182575
-0.0242506
-0.0117865
0.174051
-0.309808
-0.0848908
-0.0493553
-0.209476
-0.108475
0.375627
-0.555324
-0.00799048
0.10164
0.113236
0.0531117
0.0103299
0.254437
-0.0945047
-0.0268866
0.230487
-0.115265
-0.39684
0.41527
-0.155301
-0.00156848
-0.0145356
-0.0331432
-0.169418
-0.0254076
-0.239855
-0.0104342
-0.176821
0.0122807
0.14599
-0.352679
-0.181681
-0.0784564
-0.133052
-0.0682584
0.428094
-0.460811
0.0138246
0.0725614
-0.0573079
0.0840019
0.00836094
0.215843
-0.0497323
0.00531792
0.189081
-0.019284
-0.309926
0.377142
-0.134727
0.138521
0.0310791
0.020674
-0.189835
0.0754691
-0.175323
0.053232
-0.112642
0.0877011
-0.0243551
-0.271189
-0.203607
-0.00113372
0.007344
0.197692
0.23812
-0.236715
-0.00578497
0.0265138
-0.0511787
0.0773506
-0.0804462
0.0137468
-0.0398461
0.108012
-0.140679
-0.0359016
0.0238044
-0.0309956
-0.0933046
0.0752224
-0.0883338
0.0669143
0.0772931
0.0532872
-0.1129
-0.0599698
-0.124821
0.0678494
0.132501
-0.000495388
-0.0623342
-0.00442715
-0.160773
-0.0455448
0.0549732
0.0201264
-0.0514113
0.222269
-0.0142902
0.0436037
-0.0912719
-0.074309
-0.0792734
0.212952
-0.137541
0.172249
-0.0620769
-0.0413246
0.0322222
-0.104991
-0.216217
-0.030492
-0.00783285
-0.0172994
-0.0991511
0.0743835
-0.147934
0.206767
-0.0581271
-0.0402426
-0.0559666
0.0398289
-0.122582
0.186228
0.0377643
-0.0728886
-0.0445425
0.250565
-0.0742753
0.019808
-0.065762
-0.13121
0.0724069
-0.0022545
-0.134454
0.199693
-0.136592
-0.041305
0.0147623
0.252763
-0.229661
0.303091
-0.0748833
-0.117606
0.0656564
0.129943
-0.173559
0.0171072
-0.00953064
-0.0891065
-0.0819184
-0.0302107
-0.175374
0.201683
-0.0393038
-0.0958386
-0.0581714
0.09084
-0.158537
0.163503
-0.101924
-0.08641
0.138843
0.17928
-0.0555558
0.0132133
-0.119769
-0.0394754
-0.116335
0.197747
-0.0550638
0.214509
-0.0563648
-0.115563
-0.0199822
-0.0401354
-0.0874088
0.193752
-0.0989331
-0.0965067
-0.0431758
0.132639
-0.199192
0.0723779
-0.0900233
-0.0334368
0.107132
0.0774072
0.028946
0.151044
-0.125097
-0.0557925
0.117221
0.00743627
0.0167808
0.158498
-0.126866
-0.14927
0.413905
0.0237084
0.00844588
0.0250872
-0.217913
-0.196088
0.2452
0.178555
0.00874031
0.0840325
-0.226206
-0.207163
0.0866305
0.117792
-0.0178734
0.0848353
-0.110942
-0.0600012
-0.00246611
0.0316221
-0.00746667
0.112523
-0.220638
0.15476
0.0910599
-0.0128858
0.0911133
-0.0599543
-0.0420608
0.13245
0.139168
-0.036192
0.0667259
0.00187039
-0.033303
0.122806
0.06663
-0.0372187
0.0537912
0.0257232
-0.0510608
-0.0467894
-0.013375
0.0216623
0.0118156
0.075415
-0.00724005
0.18002
0.0435387
0.128091
-0.0460792
0.0983673
-0.171969
-0.00115959
0.119745
-0.0220373
-0.0107903
-0.0448255
-0.114397
-0.0460162
0.123161
-0.0471482
0.0561718
-0.0067282
-0.116925
-0.0250189
0.102775
0.0194182
0.0457355
0.0256922
-0.111028
-0.0887839
0.00220685
0.0622373
0.0949365
0.124985
-0.1113
0.00765485
-0.059693
0.0788917
0.272786
0.0110861
-0.130647
0.396213
0.0222076
-0.0934496
0.350362
-0.0877534
-0.13437
0.477888
0.00770594
-0.0018533
0.425369
-0.0981234
-0.130663
0.516893
-0.043633
-0.0519735
0.171486
-0.0326921
-0.187302
0.365219
-0.048661
-0.059907
0.170865
0.0447376
-0.118724
0.294972
-0.175849
0.0835379
-0.00911849
-0.147163
0.173835
-0.221044
-0.115674
-0.131871
-0.110359
-0.227695
0.241563
-0.344245
-0.170916
-0.238862
-0.0499435
-0.127769
0.361337
-0.473803
-0.00441449
-0.259909
0.0269741
-0.00878118
0.363581
-0.3423
-0.0840464
0.0599012
-0.0514262
0.107774
0.171886
-0.103797
0.00581728
0.0748245
0.0606607
-0.0100551
0.0208014
-0.140687
0.00520068
-0.114406
0.272405
-0.115656
0.0947111
-0.0776866
0.020144
-0.0343978
0.159202
-0.159978
0.230083
-0.240027
0.08603
-0.0248739
-0.11254
-0.0584007
0.168542
-0.27379
-0.00652918
0.122521
-0.277066
0.170847
0.208178
-0.307779
-0.110672
0.111021
0.126203
0.219807
-0.195864
-0.121139
-0.00314146
0.252115
-0.163474
0.00333137
-0.0717987
0.121386
-0.0598505
0.243449
-0.358552
0.18177
0.128926
0.0591986
-0.0263894
0.0621895
-0.224132
0.0344642
-0.0843501
0.137541
-0.0866808
0.0427976
0.00805818
0.0924849
-0.184853
0.00495336
-0.127146
0.241784
0.212761
0.175731
0.244134
-0.0577393
-0.0521316
0.0775518
-0.113266
-0.00484967
-0.0492484
-0.0187691
-0.0730527
-0.0339291
-0.394963
0.018486
-0.307874
0.286073
-0.0644677
0.0392746
-0.338183
0.0606554
-0.0648324
0.314233
-0.0755126
0.157589
-0.144674
0.14189
-0.000498757
0.126088
-0.0660813
0.144975
0.0594567
0.272827
0.272437
0.050836
-0.0549926
-0.00314089
-0.0940792
0.0975883
-0.0321472
0.0945768
-0.0294291
0.0634418
-0.249883
-0.0484277
-0.185177
0.0778217
-0.0445642
0.1207
-0.349925
0.000189503
-0.0671978
0.0963075
-0.0589182
0.143282
-0.144831
-0.00352416
-0.135108
0.150901
-0.0482138
0.0174044
0.0393033
0.144556
-0.0379609
0.22039
-0.0770053
0.0165733
-0.111153
0.0812904
0.0886862
0.105815
-0.0757741
0.0604841
-0.144318
-0.00240594
0.151439
-0.0608506
-0.0193358
0.058267
-0.249968
0.00991901
-0.0201489
0.0715447
-0.0228333
0.0578382
-0.117657
-0.0568943
-0.0939132
0.12091
-0.00807782
0.135939
-0.0326187
0.0216547
-0.0353843
0.150588
-0.012657
0.0923317
-0.0203172
0.00714515
0.255975
0.109352
-0.0256176
0.115386
-0.0833771
0.0476241
0.161371
0.132732
-0.0143091
0.0505718
-0.111972
0.0396975
0.119954
0.165398
-0.0657323
0.0334358
-0.0522563
-0.00273391
0.069452
-0.0469681
-1.26061e-41
-1.26061e-41
-1.26061e-41
-1.26061e-41
-1.26061e-41
-1.26061e-41
-1.26061e-41
-1.26061e-41
-1.26061e-41
-1.26061e-41
-1.26061e-41
-1.26061e-41
-1.26061e-41
-1.26061e-41
-1.26061e-41
-1.26061e-41
-1.26061e-41
-1.26061e-41
1.26061e-41
-1.26061e-41
-1.26061e-41
-1.26061e-41
-1.26061e-41
-1.26061e-41
-1.26061e-41
-1.26061e-41
-1.26061e-41
-1.26061e-41
-1.26061e-41
-1.26061e-41
-1.26061e-41
-1.26061e-41
-1.26061e-41
-1.26061e-41
-1.26061e-41
-1.26061e-41
-1.26061e-41
-1.26061e-41
-1.26061e-41
-1.26061e-41
-1.26061e-41
-1.26061e-41
-1.26061e-41
-1.26061e-41
-1.26061e-41
-1.26061e-41
-1.26061e-41
-1.26061e-41
1.26061e-41
-1.26061e-41
-1.26061e-41
-1.26061e-41
-1.26061e-41
-1.26061e-41
-1.26061e-41
-1.26061e-41
-1.26061e-41
-1.26061e-41
-1.26061e-41
-1.26061e-41
-1.26061e-41
-1.26061e-41
-1.26061e-41
-1.26061e-41
-1.26061e-41
-1.26061e-41
-1.26061e-41
-1.26061e-41
-1.26061e-41
-1.26061e-41
-1.26061e-41
-1.26061e-41
-1.26061e-41
-1.26061e-41
-1.26061e-41
-1.26061e-41
-1.26061e-41
-1.26061e-41
1.26061e-41
-1.26061e-41
-1.26061e-41
-1.26061e-41
-1.26061e-41
-1.26061e-41
-1.26061e-41
-1.26061e-41
-1.26061e-41
-1.26061e-41
-1.26061e-41
-1.26061e-41
-1.26061e-41
-1.26061e-41
-1.26061e-41
-1.26061e-41
1.26061e-41
-1.26061e-41
-1.26061e-41
-1.26061e-41
-1.26061e-41
-1.26061e-41
-1.26061e-41
-1.26061e-41
-1.26061e-41
-1.26061e-41
-1.26061e-41
-1.26061e-41
-1.26061e-41
-1.26061e-41
-1.26061e-41
-1.26061e-41
-1.26061e-41
-1.26061e-41
-1.26061e-41
-1.26061e-41
-1.26061e-41
-1.26061e-41
-1.26061e-41
-1.26061e-41
-1.26061e-41
-1.26061e-41
1.26061e-41
-1.26061e-41
-1.26061e-41
-1.26061e-41
-1.26061e-41
-1.26061e-41
-1.26061e-41
-1.26061e-41
-1.26061e-41
-1.26061e-41
-1.26061e-41
-1.26061e-41
-1.26061e-41
-1.26061e-41
-1.26061e-41
-1.26061e-41
-1.26061e-41
-1.26061e-41
1.13197e-41
-1.26061e-41
-1.26061e-41
-1.26061e-41
-1.26061e-41
-1.26061e-41
-1.26061e-41
-1.26061e-41
-1.26061e-41
-1.26061e-41
-1.26061e-41
-1.26061e-41
0.0942153
0.102825
-0.0226978
0.116598
0.0382306
0.0804232
0.0600942
0.0636459
0.0481545
0.0858884
0.0694495
0.0353785
0.0233803
0.0378347
0.0656995
0.0461325
0.0935079
0.152603
0.0468311
0.065187
0.0449653
0.0606608
0.133478
0.0811522
0.0581441
0.0971051
-0.0217059
0.0600412
0.194511
0.091556
-0.0349747
0.0867686
-0.0194159
0.0753438
-0.0601562
0.0482188
0.0532985
0.0407921
-0.00332804
0.128064
-0.000229565
-0.0125457
0.0833476
0.0900768
-0.0073715
0.0739372
0.0965329
-0.0403741
0.0210735
0.11673
-0.00379764
0.0518059
0.0504067
-0.0290247
-0.0310974
0.0673002
-0.10151
0.0761306
0.0474403
0.0428238
0.0619595
0.209111
0.0825096
-0.0500566
-0.00247995
0.131038
0.225089
0.169864
-0.018993
0.0952183
-0.000593367
0.125467
0.264282
0.140108
-0.0887553
0.197267
0.115065
0.0657331
0.180536
0.0533531
-0.0497261
0.181093
0.0669232
-0.0621984
0.0725184
-0.00870954
-0.0694667
0.130766
0.0814934
0.0464164
-0.150138
0.0849368
0.0799075
-0.0482757
0.111704
-0.0976973
-0.410281
0.123986
-0.0383847
0.0624699
0.015129
0.0347879
-0.434587
0.186257
0.0264079
0.0646163
0.0391503
0.191315
-0.322033
0.100083
-0.0278368
0.0706935
0.00444293
0.0794543
-0.131784
-0.0203153
-0.072371
0.146952
0.0437821
-0.0505549
-0.344935
-0.0212967
0.147587
-0.00937428
-0.175596
0.161925
-1.06983
-0.317372
-0.0462153
-0.313834
-0.269363
-0.0814081
-1.28086
-0.415912
-0.0467838
-0.33088
-0.228013
-0.122156
-0.921201
-0.199179
0.0122744
-0.148121
-0.24744
-0.143775
-0.250638
-0.00945463
0.00832446
0.0846867
-0.228187
0.115489
-1.38729e-42
-1.38729e-42
-1.38729e-42
-1.38729e-42
-1.38729e-42
-1.38729e-42
-1.38729e-42
-1.38729e-42
-1.38729e-42
-1.38729e-42
-1.38729e-42
-1.38729e-42
-1.38729e-42
-1.38729e-42
-1.38729e-42
-1.38729e-42
-1.38729e-42
-1.38729e-42
-1.38729e-42
-1.38729e-42
-1.38729e-42
-1.38729e-42
-1.38729e-42
-1.38729e-42
-1.38729e-42
-1.38729e-42
-1.38729e-42
-1.38729e-42
-1.38729e-42
-1.38729e-42
-1.38729e-42
-1.38729e-42
-1.38729e-42
-1.38729e-42
-1.38729e-42
-1.38729e-42
-1.38729e-42
-1.38729e-42
-1.38729e-42
-1.38729e-42
-1.38729e-42
-1.38729e-42
-1.38729e-42
-1.38729e-42
-1.38729e-42
-1.38729e-42
-1.38729e-42
-1.38729e-42
-1.38729e-42
-1.38729e-42
-1.38729e-42
-1.38729e-42
-1.38729e-42
-1.38729e-42
-1.38729e-42
-1.38729e-42
-1.38729e-42
-1.38729e-42
-1.38729e-42
-1.38729e-42
-1.38729e-42
-1.38729e-42
-1.38729e-42
-1.38729e-42
-1.38729e-42
-1.38729e-42
-1.38729e-42
-1.38729e-42
-1.38729e-42
-1.38729e-42
-1.38729e-42
-1.38729e-42
-1.38729e-42
-1.38729e-42
-1.38729e-42
-1.38729e-42
-1.38729e-42
-1.38729e-42
-1.38729e-42
-1.38729e-42
-1.38729e-42
-1.38729e-42
-1.38729e-42
-1.38729e-42
-1.38729e-42
-1.38729e-42
-1.38729e-42
-1.38729e-42
-1.38729e-42
-1.38729e-42
-1.38729e-42
-1.38729e-42
-1.38729e-42
-1.38729e-42
-1.38729e-42
-1.38729e-42
-1.38729e-42
-1.38729e-42
-1.38729e-42
-1.38729e-42
-1.38729e-42
-1.38729e-42
-1.38729e-42
-1.38729e-42
-1.38729e-42
-1.38729e-42
-1.38729e-42
-1.38729e-42
-1.38729e-42
-1.38729e-42
-1.38729e-42
-1.38729e-42
-1.38729e-42
-1.38729e-42
-1.38729e-42
-1.38729e-42
-1.38729e-42
-1.38729e-42
-1.38729e-42
-1.38729e-42
-1.38729e-42
-1.38729e-42
-1.38729e-42
-1.38729e-42
-1.38729e-42
-1.38729e-42
-1.38729e-42
-1.38729e-42
-1.38729e-42
-1.38729e-42
-1.38729e-42
-1.38729e-42
-1.38729e-42
-1.38729e-42
-1.38729e-42
-1.38729e-42
-1.38729e-42
-1.38729e-42
-1.38729e-42
-1.38729e-42
-1.38729e-42
-1.38729e-42
-1.38729e-42
-1.38729e-42
-1.38729e-42
-1.38729e-42
-1.38729e-42
-1.38729e-42
-1.38729e-42
-1.38729e-42
-0.0246421
-0.0380174
0.0271125
-0.0429715
0.047272
0.0210322
0.0471009
-0.0326571
0.0317272
-0.0248419
0.137651
-0.0250144
0.04572
-0.122741
-0.0468862
0.119539
0.134373
-0.00426307
0.0351327
0.0101673
-0.227202
0.192234
0.297557
0.159661
-0.0814894
0.316138
-0.325193
0.103551
0.222879
0.283392
-0.0852942
-0.0889288
0.107941
0.0199808
0.0085285
0.0148116
-0.0440672
-0.106203
0.0500085
0.0832251
-0.0601648
0.104776
0.0640051
-0.0604043
-0.26909
0.0669729
0.102755
0.10381
0.0987243
-0.00797848
-0.442045
-0.0921158
0.137508
0.0789964
0.0615914
0.0820901
-0.278879
-0.0882595
0.0855164
-0.0462789
-0.0266367
-0.0568936
0.0544011
0.0618191
0.0260319
-0.0640693
0.0638182
-0.138694
-0.0991391
0.0139549
0.101055
0.100605
0.104789
0.0848169
-0.401999
-0.0587257
0.215031
0.0823707
0.173882
0.0467669
-0.389952
-0.131634
0.0693324
-0.0403162
0.0522068
0.0633909
-0.137719
0.0603489
0.182289
-0.0180003
-0.0082874
-0.103314
0.0742883
0.00769037
-0.148342
0.0168968
0.024893
-0.116847
-0.0887598
0.0134691
0.173065
-0.00025954
0.0928202
0.0757565
-0.343406
-0.0428381
0.0584975
0.0118928
-0.0288749
0.153024
-0.34216
-0.0372187
-0.019457
-0.0796863
-0.0688036
0.0909065
-0.127239
0.15164
0.051781
0.092445
-0.0272209
-0.200421
-0.15413
-0.00543925
-0.200797
-0.0615173
0.0902638
-0.107122
-0.137626
0.0403036
0.202884
-0.0875088
0.155433
-0.015405
-0.30592
-0.0930924
0.0521133
0.0314
0.175935
0.0513803
-0.291238
0.0279237
0.122896
-0.109592
0.0491562
0.0123215
-0.305832
0.077774
-0.0112843
-0.0241546
-0.0136981
0.050153
-0.195612
0.120675
-0.0913731
0.26565
-0.0582606
0.0162455
0.0292571
-0.013848
0.0418875
-0.00188508
-0.0415313
0.0265179
0.0154018
-0.0124305
0.0699171
-0.0426785
-0.0579389
0.0502554
0.134173
0.0124809
0.0230648
-0.0453123
-0.0348261
0.0678407
0.0253908
-0.0495932
-0.0155744
-0.106116
0.00925802
0.0893628
-0.05869
0.0595708
-0.146862
0.352614
-0.01763
0.0177577
0.0390633
0.013782
-0.0330828
0.0502373
-0.0323675
-0.0259315
-0.0316659
0.0309968
0.0904494
-0.0651467
-0.0306122
0.0100235
0.135278
-0.00582701
0.0915247
-0.222951
-0.0677496
0.00278785
-0.078562
-0.0891824
0.166385
-0.319564
0.013699
0.129276
0.118022
0.0353038
-0.10593
0.364335
-0.00195556
0.0522632
0.0815667
-0.0665492
-0.287902
0.342756
-0.0688595
-0.0626968
-0.0273919
0.0258365
0.000164532
0.0054194
-0.138557
0.0182575
-0.0242506
-0.0117865
0.174051
-0.309808
-0.0848908
-0.0493553
-0.209476
-0.108475
0.375627
-0.555324
-0.00799048
0.10164
0.113236
0.0531117
0.0103299
0.254437
-0.0945047
-0.0268866
0.230487
-0.115265
-0.39684
0.41527
-0.155301
-0.00156848
-0.0145356
-0.0331432
-0.169418
-0.0254076
-0.239855
-0.0104342
-0.176821
0.0122807
0.14599
-0.352679
-0.181681
-0.0784564
-0.133052
-0.0682584
0.428094
-0.460811
0.0138246
0.0725614
-0.0573079
0.0840019
0.00836094
0.215843
-0.0497323
0.00531792
0.189081
-0.019284
-0.309926
0.377142
-0.134727
0.138521
0.0310791
0.020674
-0.189835
0.0754691
-0.175323
0.053232
-0.112642
0.0877011
-0.0243551
-0.271189
-0.203607
-0.00113372
0.007344
0.197692
0.23812
-0.236715
-0.00578497
0.0265138
-0.0511787
0.0773506
-0.0804462
0.0137468
-0.0398461
0.108012
-0.140679
-0.0359016
0.0238044
-0.0309956
-0.0933046
0.0752224
-0.0883338
0.0669143
0.0772931
0.0532872
-0.1129
-0.0599698
-0.124821
0.0678494
0.132501
-0.000495388
-0.0623342
-0.00442715
-0.160773
-0.0455448
0.0549732
0.0201264
-0.0514113
0.222269
-0.0142902
0.0436037
-0.0912719
-0.074309
-0.0792734
0.212952
-0.137541
0.172249
-0.0620769
-0.0413246
0.0322222
-0.104991
-0.216217
-0.030492
-0.00783285
-0.0172994
-0.0991511
0.0743835
-0.147934
0.206767
-0.0581271
-0.0402426
-0.0559666
0.0398289
-0.122582
0.186228
0.0377643
-0.0728886
-0.0445425
0.250565
-0.0742753
0.019808
-0.065762
-0.13121
0.0724069
-0.0022545
-0.134454
0.199693
-0.136592
-0.041305
0.0147623
0.252763
-0.229661
0.303091
-0.0748833
-0.117606
0.0656564
0.129943
-0.173559
0.0171072
-0.00953064
-0.0891065
-0.0819184
-0.0302107
-0.175374
0.201683
-0.0393038
-0.0958386
-0.0581714
0.09084
-0.158537
0.163503
-0.101924
-0.08641
0.138843
0.17928
-0.0555558
0.0132133
-0.119769
-0.0394754
-0.116335
0.197747
-0.0550638
0.214509
-0.0563648
-0.115563
-0.0199822
-0.0401354
-0.0874088
0.193752
-0.0989331
-0.0965067
-0.0431758
0.132639
-0.199192
0.0723779
-0.0900233
-0.0334368
0.107132
0.0774072
0.028946
0.151044
-0.125097
-0.0557925
0.117221
0.00743627
0.0167808
0.158498
-0.126866
-0.14927
0.413905
0.0237084
0.00844588
0.0250872
-0.217913
-0.196088
0.2452
0.178555
0.00874031
0.0840325
-0.226206
-0.207163
0.0866305
0.117792
-0.0178734
0.0848353
-0.110942
-0.0600012
-0.00246611
0.0316221
-0.00746667
0.112523
-0.220638
0.15476
0.0910599
-0.0128858
0.0911133
-0.0599543
-0.0420608
0.13245
0.139168
-0.036192
0.0667259
0.00187039
-0.033303
0.122806
0.06663
-0.0372187
0.0537912
0.0257232
-0.0510608
-0.0467894
-0.013375
0.0216623
0.0118156
0.075415
-0.00724005
0.18002
0.0435387
0.128091
-0.0460792
0.0983673
-0.171969
-0.00115959
0.119745
-0.0220373
-0.0107903
-0.0448255
-0.114397
-0.0460162
0.123161
-0.0471482
0.0561718
-0.0067282
-0.116925
-0.0250189
0.102775
0.0194182
0.0457355
0.0256922
-0.111028
-0.0887839
0.00220685
0.0622373
0.0949365
0.124985
-0.1113
0.00765485
-0.059693
0.0788917
0.272786
0.0110861
-0.130647
0.396213
0.0222076
-0.0934496
0.350362
-0.0877534
-0.13437
0.477888
0.00770594
-0.0018533
0.425369
-0.0981234
-0.130663
0.516893
-0.043633
-0.0519735
0.171486
-0.0326921
-0.187302
0.365219
-0.048661
-0.059907
0.170865
0.0447376
-0.118724
0.294972
-0.175849
0.0835379
-0.00911849
-0.147163
0.173835
-0.221044
-0.115674
-0.131871
-0.110359
-0.227695
0.241563
-0.344245
-0.170916
-0.238862
-0.0499435
-0.127769
0.361337
-0.473803
-0.00441449
-0.259909
0.0269741
-0.00878118
0.363581
-0.3423
-0.0840464
0.0599012
-0.0514262
0.107774
0.171886
-0.103797
0.00581728
0.0748245
0.0606607
-0.0100551
0.0208014
-0.140687
0.00520068
-0.114406
0.272405
-0.115656
0.0947111
-0.0776866
0.020144
-0.0343978
0.159202
-0.159978
0.230083
-0.240027
0.08603
-0.0248739
-0.11254
-0.0584007
0.168542
-0.27379
-0.00652918
0.122521
-0.277066
0.170847
0.208178
-0.307779
-0.110672
0.111021
0.126203
0.219807
-0.195864
-0.121139
-0.00314146
0.252115
-0.163474
0.00333137
-0.0717987
0.121386
-0.0598505
0.243449
-0.358552
0.18177
0.128926
0.0591986
-0.0263894
0.0621895
-0.224132
0.0344642
-0.0843501
0.137541
-0.0866808
0.0427976
0.00805818
0.0924849
-0.184853
0.00495336
-0.127146
0.241784
0.212761
0.175731
0.244134
-0.0577393
-0.0521316
0.0775518
-0.113266
-0.00484967
-0.0492484
-0.0187691
-0.0730527
-0.0339291
-0.394963
0.018486
-0.307874
0.286073
-0.0644677
0.0392746
-0.338183
0.0606554
-0.0648324
0.314233
-0.0755126
0.157589
-0.144674
0.14189
-0.000498757
0.126088
-0.0660813
0.144975
0.0594567
0.272827
0.272437
0.050836
-0.0549926
-0.00314089
-0.0940792
0.0975883
-0.0321472
0.0945768
-0.0294291
0.0634418
-0.249883
-0.0484277
-0.185177
0.0778217
-0.0445642
0.1207
-0.349925
0.000189503
-0.0671978
0.0963075
-0.0589182
0.143282
-0.144831
-0.00352416
-0.135108
0.150901
-0.0482138
0.0174044
0.0393033
0.144556
-0.0379609
0.22039
-0.0770053
0.0165733
-0.111153
0.0812904
0.0886862
0.105815
-0.0757741
0.0604841
-0.144318
-0.00240594
0.151439
-0.0608506
-0.0193358
0.058267
-0.249968
0.00991901
-0.0201489
0.0715447
-0.0228333
0.0578382
-0.117657
-0.0568943
-0.0939132
0.12091
-0.00807782
0.135939
-0.0326187
0.0216547
-0.0353843
0.150588
-0.012657
0.0923317
-0.0203172
0.00714515
0.255975
0.109352
-0.0256176
0.115386
-0.0833771
0.0476241
0.161371
0.132732
-0.0143091
0.0505718
-0.111972
0.0396975
0.119954
0.165398
-0.0657323
0.0334358
-0.0522563
-0.00273391
0.069452
-0.0469681
-1.26061e-41
-1.26061e-41
-1.26061e-41
-1.26061e-41
-1.26061e-41
-1.26061e-41
-1.26061e-41
-1.26061e-41
-1.26061e-41
-1.26061e-41
-1.26061e-41
-1.26061e-41
-1.26061e-41
-1.26061e-41
-1.26061e-41
-1.26061e-41
-1.26061e-41
-1.26061e-41
1.26061e-41
-1.26061e-41
-1.26061e-41
-1.26061e-41
-1.26061e-41
-1.26061e-41
-1.26061e-41
-1.26061e-41
-1.26061e-41
-1.26061e-41
-1.26061e-41
-1.26061e-41
-1.26061e-41
-1.26061e-41
-1.26061e-41
-1.26061e-41
-1.26061e-41
-1.26061e-41
-1.26061e-41
-1.26061e-41
-1.26061e-41
-1.26061e-41
-1.26061e-41
-1.26061e-41
-1.26061e-41
-1.26061e-41
-1.26061e-41
-1.26061e-41
-1.26061e-41
-1.26061e-41
1.26061e-41
-1.26061e-41
-1.26061e-41
-1.26061e-41
-1.26061e-41
-1.26061e-41
-1.26061e-41
-1.26061e-41
-1.26061e-41
-1.26061e-41
-1.26061e-41
-1.26061e-41
-1.26061e-41
-1.26061e-41
-1.26061e-41
-1.26061e-41
-1.26061e-41
-1.26061e-41
-1.26061e-41
-1.26061e-41
-1.26061e-41
-1.26061e-41
-1.26061e-41
-1.26061e-41
-1.26061e-41
-1.26061e-41
-1.26061e-41
-1.26061e-41
-1.26061e-41
-1.26061e-41
1.26061e-41
-1.26061e-41
-1.26061e-41
-1.26061e-41
-1.26061e-41
-1.26061e-41
-1.26061e-41
-1.26061e-41
-1.26061e-41
-1.26061e-41
-1.26061e-41
-1.26061e-41
-1.26061e-41
-1.26061e-41
-1.26061e-41
-1.26061e-41
1.26061e-41
-1.26061e-41
-1.26061e-41
-1.26061e-41
-1.26061e-41
-1.26061e-41
-1.26061e-41
-1.26061e-41
-1.26061e-41
-1.26061e-41
-1.26061e-41
-1.26061e-41
-1.26061e-41
-1.26061e-41
-1.26061e-41
-1.26061e-41
-1.26061e-41
-1.26061e-41
-1.26061e-41
-1.26061e-41
-1.26061e-41
-1.26061e-41
-1.26061e-41
-1.26061e-41
-1.26061e-41
-1.26061e-41
1.26061e-41
-1.26061e-41
-1.26061e-41
-1.26061e-41
-1.26061e-41
-1.26061e-41
-1.26061e-41
-1.26061e-41
-1.26061e-41
-1.26061e-41
-1.26061e-41
-1.26061e-41
-1.26061e-41
-1.26061e-41
-1.26061e-41
-1.26061e-41
-1.26061e-41
-1.26061e-41
1.13197e-41
-1.26061e-41
-1.26061e-41
-1.26061e-41
-1.26061e-41
-1.26061e-41
-1.26061e-41
-1.26061e-41
-1.26061e-41
-1.26061e-41
-1.26061e-41
-1.26061e-41
0.0942153
0.102825
-0.0226978
0.116598
0.0382306
0.0804232
0.0600942
0.0636459
0.0481545
0.0858884
0.0694495
0.0353785
0.0233803
0.0378347
0.0656995
0.0461325
0.0935079
0.152603
0.0468311
0.065187
0.0449653
0.0606608
0.133478
0.0811522
0.0581441
0.0971051
-0.0217059
0.0600412
0.194511
0.091556
-0.0349747
0.0867686
-0.0194159
0.0753438
-0.0601562
0.0482188
0.0532985
0.0407921
-0.00332804
0.128064
-0.000229565
-0.0125457
0.0833476
0.0900768
-0.0073715
0.0739372
0.0965329
-0.0403741
0.0210735
0.11673
-0.00379764
0.0518059
0.0504067
-0.0290247
-0.0310974
0.0673002
-0.10151
0.0761306
0.0474403
0.0428238
0.0619595
0.209111
0.0825096
-0.0500566
-0.00247995
0.131038
0.225089
0.169864
-0.018993
0.0952183
-0.000593367
0.125467
0.264282
0.140108
-0.0887553
0.197267
0.115065
0.0657331
0.180536
0.0533531
-0.0497261
0.181093
0.0669232
-0.0621984
0.0725184
-0.00870954
-0.0694667
0.130766
0.0814934
0.0464164
-0.150138
0.0849368
0.0799075
-0.0482757
0.111704
-0.0976973
-0.410281
0.123986
-0.0383847
0.0624699
0.015129
0.0347879
-0.434587
0.186257
0.0264079
0.0646163
0.0391503
0.191315
-0.322033
0.100083
-0.0278368
0.0706935
0.00444293
0.0794543
-0.131784
-0.0203153
-0.072371
0.146952
0.0437821
-0.0505549
-0.344935
-0.0212967
0.147587
-0.00937428
-0.175596
0.161925
-1.06983
-0.317372
-0.0462153
-0.313834
-0.269363
-0.0814081
-1.28086
-0.415912
-0.0467838
-0.33088
-0.228013
-0.122156
-0.921201
-0.199179
0.0122744
-0.148121
-0.24744
-0.143775
-0.250638
-0.00945463
0.00832446
0.0846867
-0.228187
0.115489
-1.38729e-42
-1.38729e-42
-1.38729e-42
-1.38729e-42
-1.38729e-42
-1.38729e-42
-1.38729e-42
-1.38729e-42
-1.38729e-42
-1.38729e-42
-1.38729e-42
-1.38729e-42
-1.38729e-42
-1.38729e-42
-1.38729e-42
-1.38729e-42
-1.38729e-42
-1.38729e-42
-1.38729e-42
-1.38729e-42
-1.38729e-42
-1.38729e-42
-1.38729e-42
-1.38729e-42
-1.38729e-42
-1.38729e-42
-1.38729e-42
-1.38729e-42
-1.38729e-42
-1.38729e-42
-1.38729e-42
-1.38729e-42
-1.38729e-42
-1.38729e-42
-1.38729e-42
-1.38729e-42
-1.38729e-42
-1.38729e-42
-1.38729e-42
-1.38729e-42
-1.38729e-42
-1.38729e-42
-1.38729e-42
-1.38729e-42
-1.38729e-42
-1.38729e-42
-1.38729e-42
-1.38729e-42
-1.38729e-42
-1.38729e-42
-1.38729e-42
-1.38729e-42
-1.38729e-42
-1.38729e-42
-1.38729e-42
-1.38729e-42
-1.38729e-42
-1.38729e-42
-1.38729e-42
-1.38729e-42
-1.38729e-42
-1.38729e-42
-1.38729e-42
-1.38729e-42
-1.38729e-42
-1.38729e-42
-1.38729e-42
-1.38729e-42
-1.38729e-42
-1.38729e-42
-1.38729e-42
-1.38729e-42
-1.38729e-42
-1.38729e-42
-1.38729e-42
-1.38729e-42
-1.38729e-42
-1.38729e-42
-1.38729e-42
-1.38729e-42
-1.38729e-42
-1.38729e-42
-1.38729e-42
-1.38729e-42
-1.38729e-42
-1.38729e-42
-1.38729e-42
-1.38729e-42
-1.38729e-42
-1.38729e-42
-1.38729e-42
-1.38729e-42
-1.38729e-42
-1.38729e-42
-1.38729e-42
-1.38729e-42
-1.38729e-42
-1.38729e-42
-1.38729e-42
-1.38729e-42
-1.38729e-42
-1.38729e-42
-1.38729e-42
-1.38729e-42
-1.38729e-42
-1.38729e-42
-1.38729e-42
-1.38729e-42
-1.38729e-42
-1.38729e-42
-1.38729e-42
-1.38729e-42
-1.38729e-42
-1.38729e-42
-1.38729e-42
-1.38729e-42
-1.38729e-42
-1.38729e-42
-1.38729e-42
-1.38729e-42
-1.38729e-42
-1.38729e-42
-1.38729e-42
-1.38729e-42
-1.38729e-42
-1.38729e-42
-1.38729e-42
-1.38729e-42
-1.38729e-42
-1.38729e-42
-1.38729e-42
-1.38729e-42
-1.38729e-42
-1.38729e-42
-1.38729e-42
-1.38729e-42
-1.38729e-42
-1.38729e-42
-1.38729e-42
-1.38729e-42
-1.38729e-42
-1.38729e-42
-1.38729e-42
-1.38729e-42
-1.38729e-42
-1.38729e-42
-1.38729e-42
-1.38729e-42
-1.38729e-42
-1.38729e-42
-0.0246421
-0.0380174
0.0271125
-0.0429715
0.047272
0.0210322
0.0471009
-0.0326571
0.0317272
-0.0248419
0.137651
-0.0250144
0.04572
-0.122741
-0.0468862
0.119539
0.134373
-0.00426307
0.0351327
0.0101673
-0.227202
0.192234
0.297557
0.159661
-0.0814894
0.316138
-0.325193
0.103551
0.222879
0.283392
-0.0852942
-0.0889288
0.107941
0.0199808
0.0085285
0.0148116
-0.0440672
-0.106203
0.0500085
0.0832251
-0.0601648
0.104776
0.0640051
-0.0604043
-0.26909
0.0669729
0.102755
0.10381
0.0987243
-0.00797848
-0.442045
-0.0921158
0.137508
0.0789964
0.0615914
0.0820901
-0.278879
-0.0882595
0.0855164
-0.0462789
-0.0266367
-0.0568936
0.0544011
0.0618191
0.0260319
-0.0640693
0.0638182
-0.138694
-0.0991391
0.0139549
0.101055
0.100605
0.104789
0.0848169
-0.401999
-0.0587257
0.215031
0.0823707
0.173882
0.0467669
-0.389952
-0.131634
0.0693324
-0.0403162
0.0522068
0.0633909
-0.137719
0.0603489
0.182289
-0.0180003
-0.0082874
-0.103314
0.0742883
0.00769037
-0.148342
0.0168968
0.024893
-0.116847
-0.0887598
0.0134691
0.173065
-0.00025954
0.0928202
0.0757565
-0.343406
-0.0428381
0.0584975
0.0118928
-0.0288749
0.153024
-0.34216
-0.0372187
-0.019457
-0.0796863
-0.0688036
0.0909065
-0.127239
0.15164
0.051781
0.092445
-0.0272209
-0.200421
-0.15413
-0.00543925
-0.200797
-0.0615173
0.0902638
-0.107122
-0.137626
0.0403036
0.202884
-0.0875088
0.155433
-0.015405
-0.30592
-0.0930924
0.0521133
0.0314
0.175935
0.0513803
-0.291238
0.0279237
0.122896
-0.109592
0.0491562
0.0123215
-0.305832
0.077774
-0.0112843
-0.0241546
-0.0136981
0.050153
-0.195612
0.120675
-0.0913731
0.26565
-0.0582606
0.0162455
0.0292571
-0.013848
0.0418875
-0.00188508
-0.0415313
0.0265179
0.0154018
-0.0124305
0.0699171
-0.0426785
-0.0579389
0.0502554
0.134173
0.0124809
0.0230648
-0.0453123
-0.0348261
0.0678407
0.0253908
-0.0495932
-0.0155744
-0.106116
0.00925802
0.0893628
-0.05869
0.0595708
-0.146862
0.352614
-0.01763
0.0177577
0.0390633
0.013782
-0.0330828
0.0502373
-0.0323675
-0.0259315
-0.0316659
0.0309968
0.0904494
-0.0651467
-0.0306122
0.0100235
0.135278
-0.00582701
0.0915247
-0.222951
-0.0677496
0.00278785
-0.078562
-0.0891824
0.166385
-0.319564
0.013699
0.129276
0.118022
0.0353038
-0.10593
0.364335
-0.00195556
0.0522632
0.0815667
-0.0665492
-0.287902
0.342756
-0.0688595
-0.0626968
-0.0273919
0.0258365
0.000164532
0.0054194
-0.138557
0.0182575
-0.0242506
-0.0117865
0.174051
-0.309808
-0.0848908
-0.0493553
-0.209476
-0.108475
0.375627
-0.555324
-0.00799048
0.10164
0.113236
0.0531117
0.0103299
0.254437
-0.0945047
-0.0268866
0.230487
-0.115265
-0.39684
0.41527
-0.155301
-0.00156848
-0.0145356
-0.0331432
-0.169418
-0.0254076
-0.239855
-0.0104342
-0.176821
0.0122807
0.14599
-0.352679
-0.181681
-0.0784564
-0.133052
-0.0682584
0.428094
-0.460811
0.0138246
0.0725614
-0.0573079
0.0840019
0.00836094
0.215843
-0.0497323
0.00531792
0.189081
-0.019284
-0.309926
0.377142
-0.134727
0.138521
0.0310791
0.020674
-0.189835
0.0754691
-0.175323
0.053232
-0.112642
0.0877011
-0.0243551
-0.271189
-0.203607
-0.00113372
0.007344
0.197692
0.23812
-0.236715
-0.00578497
0.0265138
-0.0511787
0.0773506
-0.0804462
0.0137468
-0.0398461
0.108012
-0.140679
-0.0359016
0.0238044
-0.0309956
-0.0933046
0.0752224
-0.0883338
0.0669143
0.0772931
0.0532872
-0.1129
-0.0599698
-0.124821
0.0678494
0.132501
-0.000495388
-0.0623342
-0.00442715
-0.160773
-0.0455448
0.0549732
0.0201264
-0.0514113
0.222269
-0.0142902
0.0436037
-0.0912719
-0.074309
-0.0792734
0.212952
-0.137541
0.172249
-0.0620769
-0.0413246
0.0322222
-0.104991
-0.216217
-0.030492
-0.00783285
-0.0172994
-0.0991511
0.0743835
-0.147934
0.206767
-0.0581271
-0.0402426
-0.0559666
0.0398289
-0.122582
0.186228
0.0377643
-0.0728886
-0.0445425
0.250565
-0.0742753
0.019808
-0.065762
-0.13121
0.0724069
-0.0022545
-0.134454
0.199693
-0.136592
-0.041305
0.0147623
0.252763
-0.229661
0.303091
-0.0748833
-0.117606
0.0656564
0.129943
-0.173559
0.0171072
-0.00953064
-0.0891065
-0.0819184
-0.0302107
-0.175374
0.201683
-0.0393038
-0.0958386
-0.0581714
0.09084
-0.158537
0.163503
-0.101924
-0.08641
0.138843
0.17928
-0.0555558
0.0132133
-0.119769
-0.0394754
-0.116335
0.197747
-0.0550638
0.214509
-0.0563648
-0.115563
-0.0199822
-0.0401354
-0.0874088
0.193752
-0.0989331
-0.0965067
-0.0431758
0.132639
-0.199192
0.0723779
-0.0900233
-0.0334368
0.107132
0.0774072
0.028946
0.151044
-0.125097
-0.0557925
0.117221
0.00743627
0.0167808
0.158498
-0.126866
-0.14927
0.413905
0.0237084
0.00844588
0.0250872
-0.217913
-0.196088
0.2452
0.178555
0.00874031
0.0840325
-0.226206
-0.207163
0.0866305
0.117792
-0.0178734
0.0848353
-0.110942
-0.0600012
-0.00246611
0.0316221
-0.00746667
0.112523
-0.220638
0.15476
0.0910599
-0.0128858
0.0911133
-0.0599543
-0.0420608
0.13245
0.139168
-0.036192
0.0667259
0.00187039
-0.033303
0.122806
0.06663
-0.0372187
0.0537912
0.0257232
-0.0510608
-0.0467894
-0.013375
0.0216623
0.0118156
0.075415
-0.00724005
0.18002
0.0435387
0.128091
-0.0460792
0.0983673
-0.171969
-0.00115959
0.119745
-0.0220373
-0.0107903
-0.0448255
-0.114397
-0.0460162
0.123161
-0.0471482
0.0561718
-0.0067282
-0.116925
-0.0250189
0.102775
0.0194182
0.0457355
0.0256922
-0.111028
-0.0887839
0.00220685
0.0622373
0.0949365
0.124985
-0.1113
0.00765485
-0.059693
0.0788917
0.272786
0.0110861
-0.130647
0.396213
0.0222076
-0.0934496
0.350362
-0.0877534
-0.13437
0.477888
0.00770594
-0.0018533
0.425369
-0.0981234
-0.130663
0.516893
-0.043633
-0.0519735
0.171486
-0.0326921
-0.187302
0.365219
-0.048661
-0.059907
0.170865
0.0447376
-0.118724
0.294972
-0.175849
0.0835379
-0.00911849
-0.147163
0.173835
-0.221044
-0.115674
-0.131871
-0.110359
-0.227695
0.241563
-0.344245
-0.170916
-0.238862
-0.0499435
-0.127769
0.361337
-0.473803
-0.00441449
-0.259909
0.0269741
-0.00878118
0.363581
-0.3423
-0.0840464
0.0599012
-0.0514262
0.107774
0.171886
-0.103797
0.00581728
0.0748245
0.0606607
-0.0100551
0.0208014
-0.140687
0.00520068
-0.114406
0.272405
-0.115656
0.0947111
-0.0776866
0.020144
-0.0343978
0.159202
-0.159978
0.230083
-0.240027
0.08603
-0.0248739
-0.11254
-0.0584007
0.168542
-0.27379
-0.00652918
0.122521
-0.277066
0.170847
0.208178
-0.307779
-0.110672
0.111021
0.126203
0.219807
-0.195864
-0.121139
-0.00314146
0.252115
-0.163474
0.00333137
-0.0717987
0.121386
-0.0598505
0.243449
-0.358552
0.18177
0.128926
0.0591986
-0.0263894
0.0621895
-0.224132
0.0344642
-0.0843501
0.137541
-0.0866808
0.0427976
0.00805818
0.0924849
-0.184853
0.00495336
-0.127146
0.241784
0.212761
0.175731
0.244134
-0.0577393
-0.0521316
0.0775518
-0.113266
-0.00484967
-0.0492484
-0.0187691
-0.0730527
-0.0339291
-0.394963
0.018486
-0.307874
0.286073
-0.0644677
0.0392746
-0.338183
0.0606554
-0.0648324
0.314233
-0.0755126
0.157589
-0.144674
0.14189
-0.000498757
0.126088
-0.0660813
0.144975
0.0594567
0.272827
0.272437
0.050836
-0.0549926
-0.00314089
-0.0940792
0.0975883
-0.0321472
0.0945768
-0.0294291
0.0634418
-0.249883
-0.0484277
-0.185177
0.0778217
-0.0445642
0.1207
-0.349925
0.000189503
-0.0671978
0.0963075
-0.0589182
0.143282
-0.144831
-0.00352416
-0.135108
0.150901
-0.0482138
0.0174044
0.0393033
0.144556
-0.0379609
0.22039
-0.0770053
0.0165733
-0.111153
0.0812904
0.0886862
0.105815
-0.0757741
0.0604841
-0.144318
-0.00240594
0.151439
-0.0608506
-0.0193358
0.058267
-0.249968
0.00991901
-0.0201489
0.0715447
-0.0228333
0.0578382
-0.117657
-0.0568943
-0.0939132
0.12091
-0.00807782
0.135939
-0.0326187
0.0216547
-0.0353843
0.150588
-0.012657
0.0923317
-0.0203172
0.00714515
0.255975
0.109352
-0.0256176
0.115386
-0.0833771
0.0476241
0.161371
0.132732
-0.0143091
0.0505718
-0.111972
0.0396975
0.119954
0.165398
-0.0657323
0.0334358
-0.0522563
-0.00273391
0.069452
-0.0469681
-1.26061e-41
-1.26061e-41
-1.26061e-41
-1.26061e-41
-1.26061e-41
-1.26061e-41
-1.26061e-41
-1.26061e-41
-1.26061e-41
-1.26061e-41
-1.26061e-41
-1.26061e-41
-1.26061e-41
-1.26061e-41
-1.26061e-41
-1.26061e-41
-1.26061e-41
-1.26061e-41
1.26061e-41
-1.26061e-41
-1.26061e-41
-1.26061e-41
-1.26061e-41
-1.26061e-41
-1.26061e-41
-1.26061e-41
-1.26061e-41
-1.26061e-41
-1.26061e-41
-1.26061e-41
-1.26061e-41
-1.26061e-41
-1.26061e-41
-1.26061e-41
-1.26061e-41
-1.26061e-41
-1.26061e-41
-1.26061e-41
-1.26061e-41
-1.26061e-41
-1.26061e-41
-1.26061e-41
-1.26061e-41
-1.26061e-41
-1.26061e-41
-1.26061e-41
-1.26061e-41
-1.26061e-41
1.26061e-41
-1.26061e-41
-1.26061e-41
-1.26061e-41
-1.26061e-41
-1.26061e-41
-1.26061e-41
-1.26061e-41
-1.26061e-41
-1.26061e-41
-1.26061e-41
-1.26061e-41
-1.26061e-41
-1.26061e-41
-1.26061e-41
-1.26061e-41
-1.26061e-41
-1.26061e-41
-1.26061e-41
-1.26061e-41
-1.26061e-41
-1.26061e-41
-1.26061e-41
-1.26061e-41
-1.26061e-41
-1.26061e-41
-1.26061e-41
-1.26061e-41
-1.26061e-41
-1.26061e-41
1.26061e-41
-1.26061e-41
-1.26061e-41
-1.26061e-41
-1.26061e-41
-1.26061e-41
-1.26061e-41
-1.26061e-41
-1.26061e-41
-1.26061e-41
-1.26061e-41
-1.26061e-41
-1.26061e-41
-1.26061e-41
-1.26061e-41
-1.26061e-41
1.26061e-41
-1.26061e-41
-1.26061e-41
-1.26061e-41
-1.26061e-41
-1.26061e-41
-1.26061e-41
-1.26061e-41
-1.26061e-41
-1.26061e-41
-1.26061e-41
-1.26061e-41
-1.26061e-41
-1.26061e-41
-1.26061e-41
-1.26061e-41
-1.26061e-41
-1.26061e-41
-1.26061e-41
-1.26061e-41
-1.26061e-41
-1.26061e-41
-1.26061e-41
-1.26061e-41
-1.26061e-41
-1.26061e-41
1.26061e-41
-1.26061e-41
-1.26061e-41
-1.26061e-41
-1.26061e-41
-1.26061e-41
-1.26061e-41
-1.26061e-41
-1.26061e-41
-1.26061e-41
-1.26061e-41
-1.26061e-41
-1.26061e-41
-1.26061e-41
-1.26061e-41
-1.26061e-41
-1.26061e-41
-1.26061e-41
1.13197e-41
-1.26061e-41
-1.26061e-41
-1.26061e-41
-1.26061e-41
-1.26061e-41
-1.26061e-41
-1.26061e-41
-1.26061e-41
-1.26061e-41
-1.26061e-41
-1.26061e-41
0.0942153
0.102825
-0.0226978
0.116598
0.0382306
0.0804232
0.0600942
0.0636459
0.0481545
0.0858884
0.0694495
0.0353785
0.0233803
0.0378347
0.0656995
0.0461325
0.0935079
0.152603
0.0468311
0.065187
0.0449653
0.0606608
0.133478
0.0811522
0.0581441
0.0971051
-0.0217059
0.0600412
0.194511
0.091556
-0.0349747
0.0867686
-0.0194159
0.0753438
-0.0601562
0.0482188
0.0532985
0.0407921
-0.00332804
0.128064
-0.000229565
-0.0125457
0.0833476
0.0900768
-0.0073715
0.0739372
0.0965329
-0.0403741
0.0210735
0.11673
-0.00379764
0.0518059
0.0504067
-0.0290247
-0.0310974
0.0673002
-0.10151
0.0761306
0.0474403
0.0428238
0.0619595
0.209111
0.0825096
-0.0500566
-0.00247995
0.131038
0.225089
0.169864
-0.018993
0.0952183
-0.000593367
0.125467
0.264282
0.140108
-0.0887553
0.197267
0.115065
0.0657331
0.180536
0.0533531
-0.0497261
0.181093
0.0669232
-0.0621984
0.0725184
-0.00870954
-0.0694667
0.130766
0.0814934
0.0464164
-0.150138
0.0849368
0.0799075
-0.0482757
0.111704
-0.0976973
-0.410281
0.123986
-0.0383847
0.0624699
0.015129
0.0347879
-0.434587
0.186257
0.0264079
0.0646163
0.0391503
0.191315
-0.322033
0.100083
-0.0278368
0.0706935
0.00444293
0.0794543
-0.131784
-0.0203153
-0.072371
0.146952
0.0437821
-0.0505549
-0.344935
-0.0212967
0.147587
-0.00937428
-0.175596
0.161925
-1.06983
-0.317372
-0.0462153
-0.313834
-0.269363
-0.0814081
-1.28086
-0.415912
-0.0467838
-0.33088
-0.228013
-0.122156
-0.921201
-0.199179
0.0122744
-0.148121
-0.24744
-0.143775
-0.250638
-0.00945463
0.00832446
0.0846867
-0.228187
0.115489
-1.38729e-42
-1.38729e-42
-1.38729e-42
-1.38729e-42
-1.38729e-42
-1.38729e-42
-1.38729e-42
-1.38729e-42
-1.38729e-42
-1.38729e-42
-1.38729e-42
-1.38729e-42
-1.38729e-42
-1.38729e-42
-1.38729e-42
-1.38729e-42
-1.38729e-42
-1.38729e-42
-1.38729e-42
-1.38729e-42
-1.38729e-42
-1.38729e-42
-1.38729e-42
-1.38729e-42
-1.38729e-42
-1.38729e-42
-1.38729e-42
-1.38729e-42
-1.38729e-42
-1.38729e-42
-1.38729e-42
-1.38729e-42
-1.38729e-42
-1.38729e-42
-1.38729e-42
-1.38729e-42
-1.38729e-42
-1.38729e-42
-1.38729e-42
-1.38729e-42
-1.38729e-42
-1.38729e-42
-1.38729e-42
-1.38729e-42
-1.38729e-42
-1.38729e-42
-1.38729e-42
-1.38729e-42
-1.38729e-42
-1.38729e-42
-1.38729e-42
-1.38729e-42
-1.38729e-42
-1.38729e-42
-1.38729e-42
-1.38729e-42
-1.38729e-42
-1.38729e-42
-1.38729e-42
-1.38729e-42
-1.38729e-42
-1.38729e-42
-1.38729e-42
-1.38729e-42
-1.38729e-42
-1.38729e-42
-1.38729e-42
-1.38729e-42
-1.38729e-42
-1.38729e-42
-1.38729e-42
-1.38729e-42
-1.38729e-42
-1.38729e-42
-1.38729e-42
-1.38729e-42
-1.38729e-42
-1.38729e-42
-1.38729e-42
-1.38729e-42
-1.38729e-42
-1.38729e-42
-1.38729e-42
-1.38729e-42
-1.38729e-42
-1.38729e-42
-1.38729e-42
-1.38729e-42
-1.38729e-42
-1.38729e-42
-1.38729e-42
-1.38729e-42
-1.38729e-42
-1.38729e-42
-1.38729e-42
-1.38729e-42
-1.38729e-42
-1.38729e-42
-1.38729e-42
-1.38729e-42
-1.38729e-42
-1.38729e-42
-1.38729e-42
-1.38729e-42
-1.38729e-42
-1.38729e-42
-1.38729e-42
-1.38729e-42
-1.38729e-42
-1.38729e-42
-1.38729e-42
-1.38729e-42
-1.38729e-42
-1.38729e-42
-1.38729e-42
-1.38729e-42
-1.38729e-42
-1.38729e-42
-1.38729e-42
-1.38729e-42
-1.38729e-42
-1.38729e-42
-1.38729e-42
-1.38729e-42
-1.38729e-42
-1.38729e-42
-1.38729e-42
-1.38729e-42
-1.38729e-42
-1.38729e-42
-1.38729e-42
-1.38729e-42
-1.38729e-42
-1.38729e-42
-1.38729e-42
-1.38729e-42
-1.38729e-42
-1.38729e-42
-1.38729e-42
-1.38729e-42
-1.38729e-42
-1.38729e-42
-1.38729e-42
-1.38729e-42
-1.38729e-42
-1.38729e-42
-1.38729e-42
-1.38729e-42
-1.38729e-42
-1.38729e-42
-0.0246421
-0.0380174
0.0271125
-0.0429715
0.047272
0.0210322
0.0471009
-0.0326571
0.0317272
-0.0248419
0.137651
-0.0250144
0.04572
-0.122741
-0.0468862
0.119539
0.134373
-0.00426307
0.0351327
0.0101673
-0.227202
0.192234
0.297557
0.159661
-0.0814894
0.316138
-0.325193
0.103551
0.222879
0.283392
-0.0852942
-0.0889288
0.107941
0.0199808
0.0085285
0.0148116
-0.0440672
-0.106203
0.0500085
0.0832251
-0.0601648
0.104776
0.0640051
-0.0604043
-0.26909
0.0669729
0.102755
0.10381
0.0987243
-0.00797848
-0.442045
-0.0921158
0.137508
0.0789964
0.0615914
0.0820901
-0.278879
-0.0882595
0.0855164
-0.0462789
-0.0266367
-0.0568936
0.0544011
0.0618191
0.0260319
-0.0640693
0.0638182
-0.138694
-0.0991391
0.0139549
0.101055
0.100605
0.104789
0.0848169
-0.401999
-0.0587257
0.215031
0.0823707
0.173882
0.0467669
-0.389952
-0.131634
0.0693324
-0.0403162
0.0522068
0.0633909
-0.137719
0.0603489
0.182289
-0.0180003
-0.0082874
-0.103314
0.0742883
0.00769037
-0.148342
0.0168968
0.024893
-0.116847
-0.0887598
0.0134691
0.173065
-0.00025954
0.0928202
0.0757565
-0.343406
-0.0428381
0.0584975
0.0118928
-0.0288749
0.153024
-0.34216
-0.0372187
-0.019457
-0.0796863
-0.0688036
0.0909065
-0.127239
0.15164
0.051781
0.092445
-0.0272209
-0.200421
-0.15413
-0.00543925
-0.200797
-0.0615173
0.0902638
-0.107122
-0.137626
0.0403036
0.202884
-0.0875088
0.155433
-0.015405
-0.30592
-0.0930924
0.0521133
0.0314
0.175935
0.0513803
-0.291238
0.0279237
0.122896
-0.109592
0.0491562
0.0123215
-0.305832
0.077774
-0.0112843
-0.0241546
-0.0136981
0.050153
-0.195612
0.120675
-0.0913731
0.26565
-0.0582606
0.0162455
0.0292571
-0.013848
0.0418875
-0.00188508
-0.0415313
0.0265179
0.0154018
-0.0124305
0.0699171
-0.0426785
-0.0579389
0.0502554
0.134173
0.0124809
0.0230648
-0.0453123
-0.0348261
0.0678407
0.0253908
-0.0495932
-0.0155744
-0.106116
0.00925802
0.0893628
-0.05869
0.0595708
-0.146862
0.352614
-0.01763
0.0177577
0.0390633
0.013782
-0.0330828
0.0502373
-0.0323675
-0.0259315
-0.0316659
0.0309968
0.0904494
-0.0651467
-0.0306122
0.0100235
0.135278
-0.00582701
0.0915247
-0.222951
-0.0677496
0.00278785
-0.078562
-0.0891824
0.166385
-0.319564
0.013699
0.129276
0.118022
0.0353038
-0.10593
0.364335
-0.00195556
0.0522632
0.0815667
-0.0665492
-0.287902
0.342756
-0.0688595
-0.0626968
-0.0273919
0.0258365
0.000164532
0.0054194
-0.138557
0.0182575
-0.0242506
-0.0117865
0.174051
-0.309808
-0.0848908
-0.0493553
-0.209476
-0.108475
0.375627
-0.555324
-0.00799048
0.10164
0.113236
0.0531117
0.0103299
0.254437
-0.0945047
-0.0268866
0.230487
-0.115265
-0.39684
0.41527
-0.155301
-0.00156848
-0.0145356
-0.0331432
-0.169418
-0.0254076
-0.239855
-0.0104342
-0.176821
0.0122807
0.14599
-0.352679
-0.181681
-0.0784564
-0.133052
-0.0682584
0.428094
-0.460811
0.0138246
0.0725614
-0.0573079
0.0840019
0.00836094
0.215843
-0.0497323
0.00531792
0.189081
-0.019284
-0.309926
0.377142
-0.134727
0.138521
0.0310791
0.020674
-0.189835
0.0754691
-0.175323
0.053232
-0.112642
0.0877011
-0.0243551
-0.271189
-0.203607
-0.00113372
0.007344
0.197692
0.23812
-0.236715
-0.00578497
0.0265138
-0.0511787
0.0773506
-0.0804462
0.0137468
-0.0398461
0.108012
-0.140679
-0.0359016
0.0238044
-0.0309956
-0.0933046
0.0752224
-0.0883338
0.0669143
0.0772931
0.0532872
-0.1129
-0.0599698
-0.124821
0.0678494
0.132501
-0.000495388
-0.0623342
-0.00442715
-0.160773
-0.0455448
0.0549732
0.0201264
-0.0514113
0.222269
-0.0142902
0.0436037
-0.0912719
-0.074309
-0.0792734
0.212952
-0.137541
0.172249
-0.0620769
-0.0413246
0.0322222
-0.104991
-0.216217
-0.030492
-0.00783285
-0.0172994
-0.0991511
0.0743835
-0.147934
0.206767
-0.0581271
-0.0402426
-0.0559666
0.0398289
-0.122582
0.186228
0.0377643
-0.0728886
-0.0445425
0.250565
-0.0742753
0.019808
-0.065762
-0.13121
0.0724069
-0.0022545
-0.134454
0.199693
-0.136592
-0.041305
0.0147623
0.252763
-0.229661
0.303091
-0.0748833
-0.117606
0.0656564
0.129943
-0.173559
0.0171072
-0.00953064
-0.0891065
-0.0819184
-0.0302107
-0.175374
0.201683
-0.0393038
-0.0958386
-0.0581714
0.09084
-0.158537
0.163503
-0.101924
-0.08641
0.138843
0.17928
-0.0555558
0.0132133
-0.119769
-0.0394754
-0.116335
0.197747
-0.0550638
0.214509
-0.0563648
-0.115563
-0.0199822
-0.0401354
-0.0874088
0.193752
-0.0989331
-0.0965067
-0.0431758
0.132639
-0.199192
0.0723779
-0.0900233
-0.0334368
0.107132
0.0774072
0.028946
0.151044
-0.125097
-0.0557925
0.117221
0.00743627
0.0167808
0.158498
-0.126866
-0.14927
0.413905
0.0237084
0.00844588
0.0250872
-0.217913
-0.196088
0.2452
0.178555
0.00874031
0.0840325
-0.226206
-0.207163
0.0866305
0.117792
-0.0178734
0.0848353
-0.110942
-0.0600012
-0.00246611
0.0316221
-0.00746667
0.112523
-0.220638
0.15476
0.0910599
-0.0128858
0.0911133
-0.0599543
-0.0420608
0.13245
0.139168
-0.036192
0.0667259
0.00187039
-0.033303
0.122806
0.06663
-0.0372187
0.0537912
0.0257232
-0.0510608
-0.0467894
-0.013375
0.0216623
0.0118156
0.075415
-0.00724005
0.18002
0.0435387
0.128091
-0.0460792
0.0983673
-0.171969
-0.00115959
0.119745
-0.0220373
-0.0107903
-0.0448255
-0.114397
-0.0460162
0.123161
-0.0471482
0.0561718
-0.0067282
-0.116925
-0.0250189
0.102775
0.0194182
0.0457355
0.0256922
-0.111028
-0.0887839
0.00220685
0.0622373
0.0949365
0.124985
-0.1113
0.00765485
-0.059693
0.0788917
0.272786
0.0110861
-0.130647
0.396213
0.0222076
-0.0934496
0.350362
-0.0877534
-0.13437
0.477888
0.00770594
-0.0018533
0.425369
-0.0981234
-0.130663
0.516893
-0.043633
-0.0519735
0.171486
-0.0326921
-0.187302
0.365219
-0.048661
-0.059907
0.170865
0.0447376
-0.118724
0.294972
-0.175849
0.0835379
-0.00911849
-0.147163
0.173835
-0.221044
-0.115674
-0.131871
-0.110359
-0.227695
0.241563
-0.344245
-0.170916
-0.238862
-0.0499435
-0.127769
0.361337
-0.473803
-0.00441449
-0.259909
0.0269741
-0.00878118
0.363581
-0.3423
-0.0840464
0.0599012
-0.0514262
0.107774
0.171886
-0.103797
0.00581728
0.0748245
0.0606607
-0.0100551
0.0208014
-0.140687
0.00520068
-0.114406
0.272405
-0.115656
0.0947111
-0.0776866
0.020144
-0.0343978
0.159202
-0.159978
0.230083
-0.240027
0.08603
-0.0248739
-0.11254
-0.0584007
0.168542
-0.27379
-0.00652918
0.122521
-0.277066
0.170847
0.208178
-0.307779
-0.110672
0.111021
0.126203
0.219807
-0.195864
-0.121139
-0.00314146
0.252115
-0.163474
0.00333137
-0.0717987
0.121386
-0.0598505
0.243449
-0.358552
0.18177
0.128926
0.0591986
-0.0263894
0.0621895
-0.224132
0.0344642
-0.0843501
0.137541
-0.0866808
0.0427976
0.00805818
0.0924849
-0.184853
0.00495336
-0.127146
0.241784
0.212761
0.175731
0.244134
-0.0577393
-0.0521316
0.0775518
-0.113266
-0.00484967
-0.0492484
-0.0187691
-0.0730527
-0.0339291
-0.394963
0.018486
-0.307874
0.286073
-0.0644677
0.0392746
-0.338183
0.0606554
-0.0648324
0.314233
-0.0755126
0.157589
-0.144674
0.14189
-0.000498757
0.126088
-0.0660813
0.144975
0.0594567
0.272827
0.272437
0.050836
-0.0549926
-0.00314089
-0.0940792
0.0975883
-0.0321472
0.0945768
-0.0294291
0.0634418
-0.249883
-0.0484277
-0.185177
0.0778217
-0.0445642
0.1207
-0.349925
0.000189503
-0.0671978
0.0963075
-0.0589182
0.143282
-0.144831
-0.00352416
-0.135108
0.150901
-0.0482138
0.0174044
0.0393033
0.144556
-0.0379609
0.22039
-0.0770053
0.0165733
-0.111153
0.0812904
0.0886862
0.105815
-0.0757741
0.0604841
-0.144318
-0.00240594
0.151439
-0.0608506
-0.0193358
0.058267
-0.249968
0.00991901
-0.0201489
0.0715447
-0.0228333
0.0578382
-0.117657
-0.0568943
-0.0939132
0.12091
-0.00807782
0.135939
-0.0326187
0.0216547
-0.0353843
0.150588
-0.012657
0.0923317
-0.0203172
0.00714515
0.255975
0.109352
-0.0256176
0.115386
-0.0833771
0.0476241
0.161371
0.132732
-0.0143091
0.0505718
-0.111972
0.0396975
0.119954
0.165398
-0.0657323
0.0334358
-0.0522563
-0.00273391
0.069452
-0.0469681
-1.26061e-41
-1.26061e-41
-1.26061e-41
-1.26061e-41
-1.26061e-41
-1.26061e-41
-1.26061e-41
-1.26061e-41
-1.26061e-41
-1.26061e-41
-1.26061e-41
-1.26061e-41
-1.26061e-41
-1.26061e-41
-1.26061e-41
-1.26061e-41
-1.26061e-41
-1.26061e-41
1.26061e-41
-1.26061e-41
-1.26061e-41
-1.26061e-41
-1.26061e-41
-1.26061e-41
-1.26061e-41
-1.26061e-41
-1.26061e-41
-1.26061e-41
-1.26061e-41
-1.26061e-41
-1.26061e-41
-1.26061e-41
-1.26061e-41
-1.26061e-41
-1.26061e-41
-1.26061e-41
-1.26061e-41
-1.26061e-41
-1.26061e-41
-1.26061e-41
-1.26061e-41
-1.26061e-41
-1.26061e-41
-1.26061e-41
-1.26061e-41
-1.26061e-41
-1.26061e-41
-1.26061e-41
1.26061e-41
-1.26061e-41
-1.26061e-41
-1.26061e-41
-1.26061e-41
-1.26061e-41
-1.26061e-41
-1.26061e-41
-1.26061e-41
-1.26061e-41
-1.26061e-41
-1.26061e-41
-1.26061e-41
-1.26061e-41
-1.26061e-41
-1.26061e-41
-1.26061e-41
-1.26061e-41
-1.26061e-41
-1.26061e-41
-1.26061e-41
-1.26061e-41
-1.26061e-41
-1.26061e-41
-1.26061e-41
-1.26061e-41
-1.26061e-41
-1.26061e-41
-1.26061e-41
-1.26061e-41
1.26061e-41
-1.26061e-41
-1.26061e-41
-1.26061e-41
-1.26061e-41
-1.26061e-41
-1.26061e-41
-1.26061e-41
-1.26061e-41
-1.26061e-41
-1.26061e-41
-1.26061e-41
-1.26061e-41
-1.26061e-41
-1.26061e-41
-1.26061e-41
1.26061e-41
-1.26061e-41
-1.26061e-41
-1.26061e-41
-1.26061e-41
-1.26061e-41
-1.26061e-41
-1.26061e-41
-1.26061e-41
-1.26061e-41
-1.26061e-41
-1.26061e-41
-1.26061e-41
-1.26061e-41
-1.26061e-41
-1.26061e-41
-1.26061e-41
-1.26061e-41
-1.26061e-41
-1.26061e-41
-1.26061e-41
-1.26061e-41
-1.26061e-41
-1.26061e-41
-1.26061e-41
-1.26061e-41
1.26061e-41
-1.26061e-41
-1.26061e-41
-1.26061e-41
-1.26061e-41
-1.26061e-41
-1.26061e-41
-1.26061e-41
-1.26061e-41
-1.26061e-41
-1.26061e-41
-1.26061e-41
-1.26061e-41
-1.26061e-41
-1.26061e-41
-1.26061e-41
-1.26061e-41
-1.26061e-41
1.13197e-41
-1.26061e-41
-1.26061e-41
-1.26061e-41
-1.26061e-41
-1.26061e-41
-1.26061e-41
-1.26061e-41
-1.26061e-41
-1.26061e-41
-1.26061e-41
-1.26061e-41
0.0942153
0.102825
-0.0226978
0.116598
0.0382306
0.0804232
0.0600942
0.0636459
0.0481545
0.0858884
0.0694495
0.0353785
0.0233803
0.0378347
0.0656995
0.0461325
0.0935079
0.152603
0.0468311
0.065187
0.0449653
0.0606608
0.133478
0.0811522
0.0581441
0.0971051
-0.0217059
0.0600412
0.194511
0.091556
-0.0349747
0.0867686
-0.0194159
0.0753438
-0.0601562
0.0482188
0.0532985
0.0407921
-0.00332804
0.128064
-0.000229565
-0.0125457
0.0833476
0.0900768
-0.0073715
0.0739372
0.0965329
-0.0403741
0.0210735
0.11673
-0.00379764
0.0518059
0.0504067
-0.0290247
-0.0310974
0.0673002
-0.10151
0.0761306
0.0474403
0.0428238
0.0619595
0.209111
0.0825096
-0.0500566
-0.00247995
0.131038
0.225089
0.169864
-0.018993
0.0952183
-0.000593367
0.125467
0.264282
0.140108
-0.0887553
0.197267
0.115065
0.0657331
0.180536
0.0533531
-0.0497261
0.181093
0.0669232
-0.0621984
0.0725184
-0.00870954
-0.0694667
0.130766
0.0814934
0.0464164
-0.150138
0.0849368
0.0799075
-0.0482757
0.111704
-0.0976973
-0.410281
0.123986
-0.0383847
0.0624699
0.015129
0.0347879
-0.434587
0.186257
0.0264079
0.0646163
0.0391503
0.191315
-0.322033
0.100083
-0.0278368
0.0706935
0.00444293
0.0794543
-0.131784
-0.0203153
-0.072371
0.146952
0.0437821
-0.0505549
-0.344935
-0.0212967
0.147587
-0.00937428
-0.175596
0.161925
-1.06983
-0.317372
-0.0462153
-0.313834
-0.269363
-0.0814081
-1.28086
-0.415912
-0.0467838
-0.33088
-0.228013
-0.122156
-0.921201
-0.199179
0.0122744
-0.148121
-0.24744
-0.143775
-0.250638
-0.00945463
0.00832446
0.0846867
-0.228187
0.115489
-1.38729e-42
-1.38729e-42
-1.38729e-42
-1.38729e-42
-1.38729e-42
-1.38729e-42
-1.38729e-42
-1.38729e-42
-1.38729e-42
-1.38729e-42
-1.38729e-42
-1.38729e-42
-1.38729e-42
-1.38729e-42
-1.38729e-42
-1.38729e-42
-1.38729e-42
-1.38729e-42
-1.38729e-42
-1.38729e-42
-1.38729e-42
-1.38729e-42
-1.38729e-42
-1.38729e-42
-1.38729e-42
-1.38729e-42
-1.38729e-42
-1.38729e-42
-1.38729e-42
-1.38729e-42
-1.38729e-42
-1.38729e-42
-1.38729e-42
-1.38729e-42
-1.38729e-42
-1.38729e-42
-1.38729e-42
-1.38729e-42
-1.38729e-42
-1.38729e-42
-1.38729e-42
-1.38729e-42
-1.38729e-42
-1.38729e-42
-1.38729e-42
-1.38729e-42
-1.38729e-42
-1.38729e-42
-1.38729e-42
-1.38729e-42
-1.38729e-42
-1.38729e-42
-1.38729e-42
-1.38729e-42
-1.38729e-42
-1.38729e-42
-1.38729e-42
-1.38729e-42
-1.38729e-42
-1.38729e-42
-1.38729e-42
-1.38729e-42
-1.38729e-42
-1.38729e-42
-1.38729e-42
-1.38729e-42
-1.38729e-42
-1.38729e-42
-1.38729e-42
-1.38729e-42
-1.38729e-42
-1.38729e-42
-1.38729e-42
-1.38729e-42
-1.38729e-42
-1.38729e-42
-1.38729e-42
-1.38729e-42
-1.38729e-42
-1.38729e-42
-1.38729e-42
-1.38729e-42
-1.38729e-42
-1.38729e-42
-1.38729e-42
-1.38729e-42
-1.38729e-42
-1.38729e-42
-1.38729e-42
-1.38729e-42
-1.38729e-42
-1.38729e-42
-1.38729e-42
-1.38729e-42
-1.38729e-42
-1.38729e-42
-1.38729e-42
-1.38729e-42
-1.38729e-42
-1.38729e-42
-1.38729e-42
-1.38729e-42
-1.38729e-42
-1.38729e-42
-1.38729e-42
-1.38729e-42
-1.38729e-42
-1.38729e-42
-1.38729e-42
-1.38729e-42
-1.38729e-42
-1.38729e-42
-1.38729e-42
-1.38729e-42
-1.38729e-42
-1.38729e-42
-1.38729e-42
-1.38729e-42
-1.38729e-42
-1.38729e-42
-1.38729e-42
-1.38729e-42
-1.38729e-42
-1.38729e-42
-1.38729e-42
-1.38729e-42
-1.38729e-42
-1.38729e-42
-1.38729e-42
-1.38729e-42
-1.38729e-42
-1.38729e-42
-1.38729e-42
-1.38729e-42
-1.38729e-42
-1.38729e-42
-1.38729e-42
-1.38729e-42
-1.38729e-42
-1.38729e-42
-1.38729e-42
-1.38729e-42
-1.38729e-42
-1.38729e-42
-1.38729e-42
-1.38729e-42
-1.38729e-42
-1.38729e-42
-1.38729e-42
-1.38729e-42
-0.0246421
-0.0380174
0.0271125
-0.0429715
0.047272
0.0210322
0.0471009
-0.0326571
0.0317272
-0.0248419
0.137651
-0.0250144
0.04572
-0.122741
-0.0468862
0.119539
0.134373
-0.00426307
0.0351327
0.0101673
-0.227202
0.192234
0.297557
0.159661
-0.0814894
0.316138
-0.325193
0.103551
0.222879
0.283392
-0.0852942
-0.0889288
0.107941
0.0199808
0.0085285
0.0148116
-0.0440672
-0.106203
0.0500085
0.0832251
-0.0601648
0.104776
0.0640051
-0.0604043
-0.26909
0.0669729
0.102755
0.10381
0.0987243
-0.00797848
-0.442045
-0.0921158
0.137508
0.0789964
0.0615914
0.0820901
-0.278879
-0.0882595
0.0855164
-0.0462789
-0.0266367
-0.0568936
0.0544011
0.0618191
0.0260319
-0.0640693
0.0638182
-0.138694
-0.0991391
0.0139549
0.101055
0.100605
0.104789
0.0848169
-0.401999
-0.0587257
0.215031
0.0823707
0.173882
0.0467669
-0.389952
-0.131634
0.0693324
-0.0403162
0.0522068
0.0633909
-0.137719
0.0603489
0.182289
-0.0180003
-0.0082874
-0.103314
0.0742883
0.00769037
-0.148342
0.0168968
0.024893
-0.116847
-0.0887598
0.0134691
0.173065
-0.00025954
0.0928202
0.0757565
-0.343406
-0.0428381
0.0584975
0.0118928
-0.0288749
0.153024
-0.34216
-0.0372187
-0.019457
-0.0796863
-0.0688036
0.0909065
-0.127239
0.15164
0.051781
0.092445
-0.0272209
-0.200421
-0.15413
-0.00543925
-0.200797
-0.0615173
0.0902638
-0.107122
-0.137626
0.0403036
0.202884
-0.0875088
0.155433
-0.015405
-0.30592
-0.0930924
0.0521133
0.0314
0.175935
0.0513803
-0.291238
0.0279237
0.122896
-0.109592
0.0491562
0.0123215
-0.305832
0.077774
-0.0112843
-0.0241546
-0.0136981
0.050153
-0.195612
0.120675
-0.0913731
0.26565
-0.0582606
0.0162455
0.0292571
-0.013848
0.0418875
-0.00188508
-0.0415313
0.0265179
0.0154018
-0.0124305
0.0699171
-0.0426785
-0.0579389
0.0502554
0.134173
0.0124809
0.0230648
-0.0453123
-0.0348261
0.0678407
0.0253908
-0.0495932
-0.0155744
-0.106116
0.00925802
0.0893628
-0.05869
0.0595708
-0.146862
0.352614
-0.01763
0.0177577
0.0390633
0.013782
-0.0330828
0.0502373
-0.0323675
-0.0259315
-0.0316659
0.0309968
0.0904494
-0.0651467
-0.0306122
0.0100235
0.135278
-0.00582701
0.0915247
-0.222951
-0.0677496
0.00278785
-0.078562
-0.0891824
0.166385
-0.319564
0.013699
0.129276
0.118022
0.0353038
-0.10593
0.364335
-0.00195556
0.0522632
0.0815667
-0.0665492
-0.287902
0.342756
-0.0688595
-0.0626968
-0.0273919
0.0258365
0.000164532
0.0054194
-0.138557
0.0182575
-0.0242506
-0.0117865
0.174051
-0.309808
-0.0848908
-0.0493553
-0.209476
-0.108475
0.375627
-0.555324
-0.00799048
0.10164
0.113236
0.0531117
0.0103299
0.254437
-0.0945047
-0.0268866
0.230487
-0.115265
-0.39684
0.41527
-0.155301
-0.00156848
-0.0145356
-0.0331432
-0.169418
-0.0254076
-0.239855
-0.0104342
-0.176821
0.0122807
0.14599
-0.352679
-0.181681
-0.0784564
-0.133052
-0.0682584
0.428094
-0.460811
0.0138246
0.0725614
-0.0573079
0.0840019
0.00836094
0.215843
-0.0497323
0.00531792
0.189081
-0.019284
-0.309926
0.377142
-0.134727
0.138521
0.0310791
0.020674
-0.189835
0.0754691
-0.175323
0.053232
-0.112642
0.0877011
-0.0243551
-0.271189
-0.203607
-0.00113372
0.007344
0.197692
0.23812
-0.236715
-0.00578497
0.0265138
-0.0511787
0.0773506
-0.0804462
0.0137468
-0.0398461
0.108012
-0.140679
-0.0359016
0.0238044
-0.0309956
-0.0933046
0.0752224
-0.0883338
0.0669143
0.0772931
0.0532872
-0.1129
-0.0599698
-0.124821
0.0678494
0.132501
-0.000495388
-0.0623342
-0.00442715
-0.160773
-0.0455448
0.0549732
0.0201264
-0.0514113
0.222269
-0.0142902
0.0436037
-0.0912719
-0.074309
-0.0792734
0.212952
-0.137541
0.172249
-0.0620769
-0.0413246
0.0322222
-0.104991
-0.216217
-0.030492
-0.00783285
-0.0172994
-0.0991511
0.0743835
-0.147934
0.206767
-0.0581271
-0.0402426
-0.0559666
0.0398289
-0.122582
0.186228
0.0377643
-0.0728886
-0.0445425
0.250565
-0.0742753
0.019808
-0.065762
-0.13121
0.0724069
-0.0022545
-0.134454
0.199693
-0.136592
-0.041305
0.0147623
0.252763
-0.229661
0.303091
-0.0748833
-0.117606
0.0656564
0.129943
-0.173559
0.0171072
-0.00953064
-0.0891065
-0.0819184
-0.0302107
-0.175374
0.201683
-0.0393038
-0.0958386
-0.0581714
0.09084
-0.158537
0.163503
-0.101924
-0.08641
0.138843
0.17928
-0.0555558
0.0132133
-0.119769
-0.0394754
-0.116335
0.197747
-0.0550638
0.214509
-0.0563648
-0.115563
-0.0199822
-0.0401354
-0.0874088
0.193752
-0.0989331
-0.0965067
-0.0431758
0.132639
-0.199192
0.0723779
-0.0900233
-0.0334368
0.107132
0.0774072
0.028946
0.151044
-0.125097
-0.0557925
0.117221
0.00743627
0.0167808
0.158498
-0.126866
-0.14927
0.413905
0.0237084
0.00844588
0.0250872
-0.217913
-0.196088
0.2452
0.178555
0.00874031
0.0840325
-0.226206
-0.207163
0.0866305
0.117792
-0.0178734
0.0848353
-0.110942
-0.0600012
-0.00246611
0.0316221
-0.00746667
0.112523
-0.220638
0.15476
0.0910599
-0.0128858
0.0911133
-0.0599543
-0.0420608
0.13245
0.139168
-0.036192
0.0667259
0.00187039
-0.033303
0.122806
0.06663
-0.0372187
0.0537912
0.0257232
-0.0510608
-0.0467894
-0.013375
0.0216623
0.0118156
0.075415
-0.00724005
0.18002
0.0435387
0.128091
-0.0460792
0.0983673
-0.171969
-0.00115959
0.119745
-0.0220373
-0.0107903
-0.0448255
-0.114397
-0.0460162
0.123161
-0.0471482
0.0561718
-0.0067282
-0.116925
-0.0250189
0.102775
0.0194182
0.0457355
0.0256922
-0.111028
-0.0887839
0.00220685
0.0622373
0.0949365
0.124985
-0.1113
0.00765485
-0.059693
0.0788917
0.272786
0.0110861
-0.130647
0.396213
0.0222076
-0.0934496
0.350362
-0.0877534
-0.13437
0.477888
0.00770594
-0.0018533
0.425369
-0.0981234
-0.130663
0.516893
-0.043633
-0.0519735
0.171486
-0.0326921
-0.187302
0.365219
-0.048661
-0.059907
0.170865
0.0447376
-0.118724
0.294972
-0.175849
0.0835379
-0.00911849
-0.147163
0.173835
-0.221044
-0.115674
-0.131871
-0.110359
-0.227695
0.241563
-0.344245
-0.170916
-0.238862
-0.0499435
-0.127769
0.361337
-0.473803
-0.00441449
-0.259909
0.0269741
-0.00878118
0.363581
-0.3423
-0.0840464
0.0599012
-0.0514262
0.107774
0.171886
-0.103797
0.00581728
0.0748245
0.0606607
-0.0100551
0.0208014
-0.140687
0.00520068
-0.114406
