-8.35266e-39
-9.51445e-39
-5.79378e-40
-6.10816e-40
-1.8529e-38
-1.24805e-38
-5.40658e-39
-6.60272e-39
7.67962e-40
-1.58927e-40
-1.64071e-38
-1.25104e-38
-8.09277e-39
-4.67259e-39
2.85228e-39
-4.02817e-39
-1.62582e-38
-8.50597e-39
-7.41038e-39
-8.48044e-39
-9.32772e-40
-5.33929e-39
-1.48743e-38
-7.33934e-39
-1.24435e-38
-1.14425e-38
-1.39989e-39
-5.71225e-39
-1.55171e-38
-5.20474e-39
-7.98794e-39
-7.80757e-39
-1.53928e-39
-3.52785e-39
-1.0674e-38
-1.94285e-38
-4.75972e-39
-8.63069e-39
-1.58932e-39
3.47701e-40
-8.46715e-39
-2.07589e-38
-9.39689e-39
-6.9819e-39
-2.75424e-39
-2.55183e-39
-8.65697e-39
-1.90558e-38
-6.53718e-39
-4.93633e-39
-2.01261e-39
-3.24332e-39
-9.22861e-39
-1.71419e-38
-1.08127e-38
-6.11218e-39
-1.71307e-39
-1.68534e-39
-8.76966e-39
-1.5656e-38
-1.13771e-38
-1.1772e-38
-1.04426e-38
-8.75798e-40
-1.55653e-38
-1.90152e-38
-8.81595e-39
-1.09231e-38
-9.0548e-39
1.24232e-40
-1.28754e-38
-2.02212e-38
-1.18425e-38
-1.14871e-38
-1.17818e-38
-4.32662e-39
-1.02549e-38
-1.97925e-38
-9.39964e-39
-9.41056e-39
-1.25819e-38
-3.39193e-39
-1.00818e-38
-1.75366e-38
-1.13364e-38
-9.01781e-39
-1.0881e-38
3.24954e-39
-1.04639e-38
-1.65972e-38
-1.04253e-38
-9.45759e-39
-1.50431e-38
-7.08305e-39
-1.20773e-38
-2.5759e-38
-9.36887e-39
-1.06733e-38
-1.31838e-38
-4.89496e-39
-1.09707e-38
-2.43332e-38
-1.09115e-38
-9.22832e-39
-1.48805e-38
-6.54992e-39
-8.1194e-39
-2.2899e-38
-8.922e-39
-3.70488e-39
-1.72914e-38
-5.71305e-39
-8.99558e-39
-2.28032e-38
-1.19814e-38
-9.29741e-39
-1.75087e-38
-3.34994e-39
-7.72651e-39
-2.09412e-38
-1.30813e-38
-1.12548e-38
-1.4089e-38
-8.71509e-39
-1.06965e-38
-2.04335e-38
-9.05247e-39
-1.15768e-38
-1.51868e-38
-7.37066e-39
-8.30693e-39
-2.08581e-38
-1.11433e-38
-1.0455e-38
-1.66969e-38
-2.58004e-39
-8.45404e-39
-2.1151e-38
-7.82323e-39
-7.06437e-39
-1.7334e-38
-6.80631e-39
-9.0012e-39
-2.17002e-38
-1.34822e-38
-8.56088e-39
-1.82377e-38
-4.19235e-39
-7.78733e-39
-1.96476e-38
-0.0762193
-0.305376
0.109351
-0.224219
-0.108156
0.185701
-0.440522
-0.338113
-0.104426
-0.183712
-0.0877529
-0.108616
-0.358281
-0.164729
-0.0172463
-0.198293
-0.0977883
0.0558913
-0.237035
-0.0195955
-0.0640021
-0.196648
-0.183541
-0.0283572
0.0482765
-0.130686
-0.134837
-0.100853
0.0392034
0.140701
-0.00415427
-0.0740423
0.0211641
-0.20183
0.0395019
0.155987
-0.155252
-0.0627224
-0.0696651
-0.0908695
-0.0565742
0.00629558
-0.0924751
-0.0744767
-0.01375
-0.0721264
-0.00941716
0.00996683
0.000623361
-0.0569357
-0.0719238
-0.0996621
-0.0546361
-0.0649082
0.0254256
-0.00406378
-0.190471
0.00338148
0.0454419
0.184295
-0.0674082
0.012819
0.0613121
-0.109774
0.0241497
0.174208
-0.136142
-0.0797031
-0.0439478
-0.118104
-0.000476904
0.0148135
-0.141622
-0.102192
-0.0828797
-0.0941191
0.0466767
-0.0455024
-0.0688593
-0.0728198
-0.0877013
-0.038323
0.0561709
-0.0746924
0.0546008
0.00806221
-0.150759
-0.00365144
0.130275
0.184578
-0.00672595
0.0475997
0.0983741
0.0105615
0.0329318
0.0578987
-0.0432537
0.0171099
0.0119076
-0.0478741
-0.00305091
0.0388812
-0.0436569
0.0211628
0.00893742
0.0242295
0.0371703
0.0667507
-0.00532437
-0.00701569
-0.0439853
0.0542366
0.069135
0.013292
-0.0093331
0.0313642
-0.0672711
0.0177045
0.0652401
0.0951127
0.0653632
0.0256913
0.232246
0.0393945
0.0553049
0.13907
0.0595815
0.0372107
0.0182204
0.033581
0.0791932
0.0557723
0.0450707
0.0779277
0.0794834
0.0304326
0.0739223
0.168996
0.0624706
0.0221994
0.0154345
0.0275712
0.137968
0.127494
0.0552409
0.065672
0.0770144
-0.0364007
0.14863
0.0400362
-0.0221706
-0.104233
-0.00537086
0.111648
-0.0228177
-0.0935417
-0.0305952
-0.0560209
-0.0326362
0.119266
0.0169836
-0.0884872
0.0537958
-0.104266
0.00935534
0.185773
0.0621496
0.0370615
0.00120729
-0.195988
-0.0789967
0.23457
0.040557
-0.00798951
-0.0322682
-0.316927
0.0251854
0.19045
0.0297882
0.121442
-0.0433117
-0.103059
0.0263263
0.111931
0.0271069
-0.0362782
-0.0375054
-0.163821
-0.0327892
0.246931
0.056051
-0.00978221
-0.0878469
-0.273401
-0.0733607
0.268803
0.0378916
0.0532302
-0.0657708
-0.364173
-0.0585344
0.318362
0.0663547
0.0590952
-0.0336494
-0.337149
0.11478
0.312031
0.136667
0.013706
-0.018544
-0.116919
0.0641436
0.187189
0.000290984
0.0621213
-0.081687
-0.329316
-0.070178
0.31383
0.0294803
0.0718096
-0.154219
-0.423664
-0.0544795
0.44293
0.0982406
0.0801007
-0.1908
-0.376286
-0.0365215
0.293208
0.140395
0.0329223
-0.0685371
-0.27698
0.0410038
0.246759
0.062492
0.0360463
-0.0646544
-0.155504
0.0246602
0.222389
0.0110796
0.111018
-0.116273
-0.30289
-0.0456187
0.304707
0.0262548
0.183971
-0.166047
-0.336678
0.011939
0.321518
0.0792073
0.0369651
-0.132133
-0.293254
-0.0647548
0.298435
0.0939269
-0.0375065
-0.0706744
-0.205196
-0.029199
0.161255
0.0574951
-0.0483359
-0.0122688
-0.0982086
0.0723119
0.277581
0.00609956
0.264422
-0.0978155
-0.132757
-0.0293104
0.175846
0.0662674
0.0918687
-0.163532
-0.112719
0.0135447
0.168997
0.0146946
0.0707683
-0.160693
-0.121987
-0.0227099
0.14632
-0.0770113
0.0674539
-0.065818
-0.132501
-0.0643842
0.130964
0.0785541
0.0402825
-0.00446388
0.255142
0.103767
-0.275988
-0.201469
0.128628
0.0203821
0.219846
-0.0754187
-0.255074
-0.0318771
0.0786801
0.0153409
0.203232
-0.00636646
-0.0920046
-0.11016
0.15193
-0.00737993
0.112194
0.0562981
-0.126667
-0.0291948
0.054712
-0.0953632
0.133108
-0.0139848
-0.114011
-0.00253713
-0.155236
-0.0772019
0.351328
0.0870746
-0.408727
0.0213221
-0.0776555
-0.110111
0.36421
0.0776357
-0.428245
0.0503419
-0.0476198
-0.0267076
0.271842
-0.00202815
-0.382906
-0.0117873
0.0692003
-0.0674584
0.300042
-0.0897258
-0.276907
-0.0152718
0.0671655
0.00088888
0.0921012
0.0468301
-0.0673974
-0.0218498
-0.0183805
-0.0794474
0.284089
-0.00459567
-0.285944
-0.0825532
0.0629012
-0.182635
0.314241
0.00728353
-0.418373
0.0221197
-0.0654273
-0.137058
0.523528
0.0498723
-0.520465
0.0719299
-0.0880438
-0.0408601
0.364276
-0.0559406
-0.375092
0.0281788
0.0781312
-0.0726615
0.104803
0.0256296
0.0205277
-0.0471495
0.156835
-0.110757
0.154224
-0.0658066
-0.227189
-0.0192871
0.0472795
-0.207833
0.273555
-0.0971597
-0.240144
-0.00552911
-0.0668498
-0.154922
0.310583
0.0216667
-0.265215
0.12523
-0.178244
-0.0422947
0.326946
0.0121896
-0.197013
0.0582527
-0.00296058
-0.0349853
0.207964
0.0236732
-0.0412535
-0.0822864
0.244918
-0.0758584
0.14218
-0.0212888
-0.185949
0.173863
-0.088372
-0.152651
0.0896219
-0.061711
-0.0314492
0.0287005
-0.0127177
-0.0938657
0.0348151
0.0308011
0.0493937
0.00643872
0.0718448
-0.0415698
0.179238
-0.0119594
-0.0127426
0.0891254
-0.01403
0.00592721
0.246289
0.0731693
-0.0613033
0.0856887
0.0278836
-1.38729e-42
-1.38729e-42
-1.38729e-42
-1.38729e-42
-1.38729e-42
-1.38729e-42
-1.38729e-42
-1.38729e-42
-1.38729e-42
-1.38729e-42
-1.38729e-42
-1.38729e-42
-1.38729e-42
-1.38729e-42
-1.38729e-42
-1.38729e-42
-1.38729e-42
-1.38729e-42
-1.38729e-42
-1.38729e-42
-1.38729e-42
-1.38729e-42
-1.38729e-42
-1.38729e-42
-1.38729e-42
-1.38729e-42
-1.38729e-42
-1.38729e-42
-1.38729e-42
-1.38729e-42
-1.38729e-42
-1.38729e-42
-1.38729e-42
-1.38729e-42
-1.38729e-42
-1.38729e-42
-1.38729e-42
-1.38729e-42
-1.38729e-42
-1.38729e-42
-1.38729e-42
-1.38729e-42
-1.38729e-42
-1.38729e-42
-1.38729e-42
-1.38729e-42
-1.38729e-42
-1.38729e-42
-1.38729e-42
-1.38729e-42
-1.38729e-42
-1.38729e-42
-1.38729e-42
-1.38729e-42
-1.38729e-42
-1.38729e-42
-1.38729e-42
-1.38729e-42
-1.38729e-42
-1.38729e-42
-1.38729e-42
-1.38729e-42
-1.38729e-42
-1.38729e-42
-1.38729e-42
-1.38729e-42
-1.38729e-42
-1.38729e-42
-1.38729e-42
-1.38729e-42
-1.38729e-42
-1.38729e-42
-1.38729e-42
-1.38729e-42
-1.38729e-42
-1.38729e-42
-1.38729e-42
-1.38729e-42
-1.38729e-42
-1.38729e-42
-1.38729e-42
-1.38729e-42
-1.38729e-42
-1.38729e-42
-1.38729e-42
-1.38729e-42
-1.38729e-42
-1.38729e-42
-1.38729e-42
-1.38729e-42
-1.38729e-42
-1.38729e-42
-1.38729e-42
-1.38729e-42
-1.38729e-42
-1.38729e-42
-1.38729e-42
-1.38729e-42
-1.38729e-42
-1.38729e-42
-1.38729e-42
-1.38729e-42
-1.38729e-42
-1.38729e-42
-1.38729e-42
-1.38729e-42
-1.38729e-42
-1.38729e-42
-1.38729e-42
-1.38729e-42
-1.38729e-42
-1.38729e-42
-1.38729e-42
-1.38729e-42
-1.38729e-42
-1.38729e-42
-1.38729e-42
-1.38729e-42
-1.38729e-42
-1.38729e-42
-1.38729e-42
-1.38729e-42
-1.38729e-42
-1.38729e-42
-1.38729e-42
-1.38729e-42
-1.38729e-42
-1.38729e-42
-1.38729e-42
-1.38729e-42
-1.38729e-42
-1.38729e-42
-1.38729e-42
-1.38729e-42
-1.38729e-42
-1.38729e-42
-1.38729e-42
-1.38729e-42
-1.38729e-42
-1.38729e-42
-1.38729e-42
-1.38729e-42
-1.38729e-42
-1.38729e-42
-1.38729e-42
-1.38729e-42
-1.38729e-42
-1.38729e-42
-1.38729e-42
-1.38729e-42
-0.0806073
0.149904
0.113749
0.0395984
-0.0197404
0.303215
0.0535242
0.110619
0.0116768
-0.0781257
0.0812992
0.10755
0.126248
0.0441669
-0.0851694
-0.0255791
0.159051
0.116795
-0.0125015
-0.0394204
0.0375018
0.0717595
0.167777
0.0532262
-0.0777266
-0.0466427
0.300442
0.0445467
0.0731454
0.176119
0.0793626
0.0448616
0.118965
-0.0419571
-0.00834998
-0.0976473
0.123583
0.0196779
-0.100158
-0.0328856
0.0133306
-0.0552889
0.238843
0.046292
-0.0602415
0.0305489
0.000591575
0.122879
0.090787
-0.114841
0.00954851
0.0243811
-0.000833809
0.0449564
-0.0549058
-0.0590494
0.331716
-0.2275
-0.0368921
-0.0564998
0.125557
-0.0783582
-0.0069831
-0.015809
-0.052766
0.0820882
0.207959
0.0065802
-0.085375
0.0771978
0.126136
0.0175977
0.359258
0.17558
0.00647362
0.101823
-0.0002906
0.319793
0.230913
-0.114434
-0.0458993
-0.162032
-0.0953895
0.0524929
-0.0728048
-0.218899
0.282911
-0.447006
-0.0463468
-0.125595
0.132603
-0.167015
-0.0698638
-0.019839
-0.109689
0.0305344
0.158491
-0.0735837
-0.16073
0.00428426
0.109884
-0.064445
0.278787
0.0439833
-0.0708929
-0.0895132
0.0221918
0.165826
0.188309
-0.078533
-0.119233
-0.304195
-0.0259754
-0.0959466
-0.0227197
-0.328736
0.19134
-0.41724
-0.00914069
-0.190214
0.0772779
-0.149744
0.0321279
-0.0323772
-0.172323
0.169815
0.295344
-0.140721
-0.175777
-0.0982093
0.0919326
-0.0139139
0.427095
-0.0898117
-0.109201
-0.205658
0.0220016
0.179675
0.295625
-0.0439084
-0.131219
-0.230542
-0.00114888
-0.132756
-0.115834
-0.112728
0.23652
-0.243635
-0.165468
0.0941338
-1.38729e-42
-1.38729e-42
-1.38729e-42
-1.38729e-42
-1.38729e-42
-1.38729e-42
-1.38729e-42
-1.38729e-42
-1.38729e-42
-1.38729e-42
-1.38729e-42
-1.38729e-42
-1.38729e-42
-1.38729e-42
-1.38729e-42
-1.38729e-42
-1.38729e-42
-1.38729e-42
-1.38729e-42
-1.38729e-42
-1.38729e-42
-1.38729e-42
-1.38729e-42
-1.38729e-42
-1.38729e-42
-1.38729e-42
-1.38729e-42
-1.38729e-42
-1.38729e-42
-1.38729e-42
-1.38729e-42
-1.38729e-42
-1.38729e-42
-1.38729e-42
-1.38729e-42
-1.38729e-42
-1.38729e-42
-1.38729e-42
-1.38729e-42
-1.38729e-42
-1.38729e-42
-1.38729e-42
-1.38729e-42
-1.38729e-42
-1.38729e-42
-1.38729e-42
-1.38729e-42
-1.38729e-42
-1.38729e-42
-1.38729e-42
-1.38729e-42
-1.38729e-42
-1.38729e-42
-1.38729e-42
-1.38729e-42
-1.38729e-42
-1.38729e-42
-1.38729e-42
-1.38729e-42
-1.38729e-42
-1.38729e-42
-1.38729e-42
-1.38729e-42
-1.38729e-42
-1.38729e-42
-1.38729e-42
-1.38729e-42
-1.38729e-42
-1.38729e-42
-1.38729e-42
-1.38729e-42
-1.38729e-42
-1.38729e-42
-1.38729e-42
-1.38729e-42
-1.38729e-42
-1.38729e-42
-1.38729e-42
-1.38729e-42
-1.38729e-42
-1.38729e-42
-1.38729e-42
-1.38729e-42
-1.38729e-42
-1.38729e-42
-1.38729e-42
-1.38729e-42
-1.38729e-42
-1.38729e-42
-1.38729e-42
-1.38729e-42
-1.38729e-42
-1.38729e-42
-1.38729e-42
-1.38729e-42
-1.38729e-42
-1.38729e-42
-1.38729e-42
-1.38729e-42
-1.38729e-42
-1.38729e-42
-1.38729e-42
-1.38729e-42
-1.38729e-42
-1.38729e-42
-1.38729e-42
-1.38729e-42
-1.38729e-42
-1.38729e-42
-1.38729e-42
-1.38729e-42
-1.38729e-42
-1.38729e-42
-1.38729e-42
-1.38729e-42
-1.38729e-42
-1.38729e-42
-1.38729e-42
-1.38729e-42
-1.38729e-42
-1.38729e-42
-1.38729e-42
-1.38729e-42
-1.38729e-42
-1.38729e-42
-1.38729e-42
-1.38729e-42
-1.38729e-42
-1.38729e-42
-1.38729e-42
-1.38729e-42
-1.38729e-42
-1.38729e-42
-1.38729e-42
-1.38729e-42
-1.38729e-42
-1.38729e-42
-1.38729e-42
-1.38729e-42
-1.38729e-42
-1.38729e-42
-1.38729e-42
-1.38729e-42
-1.38729e-42
-1.38729e-42
-1.38729e-42
-1.38729e-42
-1.38729e-42
-1.38729e-42
-1.38729e-42
-0.131397
-0.0870304
-0.172134
0.189824
0.0603307
0.0597351
-0.30745
-0.156861
0.0163693
0.0362166
-0.176919
0.0380981
-0.398765
-0.104159
0.23036
-0.0696243
-0.212183
0.0988742
-0.27554
-0.0215262
0.107374
-0.0929566
-0.15067
0.141841
-0.155653
0.180823
-0.00764867
-0.0492547
-0.0226153
0.246447
-0.0518497
-0.172167
-0.142388
0.216658
0.0236378
5.36386e-05
-0.134094
-0.128519
-0.0852182
0.194704
0.0981831
-0.0492834
-0.196021
0.0229884
0.302346
0.00619245
-4.06635e-05
0.150024
-0.134226
0.148229
0.117483
-0.195041
0.00835766
0.124647
-0.121492
0.276208
0.024411
-0.162465
0.124588
0.0303291
0.0529008
-0.191275
-0.090642
0.133838
-0.0558342
0.0148785
0.0501239
-0.0946492
-0.219806
0.253857
0.0826036
0.00651455
-0.02351
0.253412
0.136518
0.172657
0.221375
0.0399937
0.00520798
0.217331
0.123129
-0.121171
0.0772634
0.00161667
0.000965812
0.175974
-0.0271694
-0.164092
-0.0826497
-0.0261181
0.111245
-0.094656
-0.00853496
0.101605
-0.0529627
0.0308039
0.215291
-0.0274277
-0.155467
0.147745
-0.0467201
0.0136083
0.193868
0.168412
-0.161381
0.148756
0.128273
-0.284706
0.178852
0.222545
-0.0236782
0.0407781
0.216691
-0.243884
0.101793
0.141756
0.0529873
-0.130327
-0.0366566
-0.138881
0.126216
0.134388
-0.00494862
0.0460607
-0.0500572
0.00403795
0.219786
0.164277
-0.0843399
0.0491278
0.335474
-0.117127
0.251249
0.171761
-0.0607582
0.207001
-0.181249
-0.261243
0.228938
0.15408
-0.0209505
0.22546
-0.0393119
-0.12989
0.0732782
0.0763181
0.0158515
0.0641971
0.197417
-0.159077
-8.35266e-39
-9.51445e-39
-5.79378e-40
-6.10816e-40
-1.8529e-38
-1.24805e-38
-5.40658e-39
-6.60272e-39
7.67962e-40
-1.58927e-40
-1.64071e-38
-1.25104e-38
-8.09277e-39
-4.67259e-39
2.85228e-39
-4.02817e-39
-1.62582e-38
-8.50597e-39
-7.41038e-39
-8.48044e-39
-9.32772e-40
-5.33929e-39
-1.48743e-38
-7.33934e-39
-1.24435e-38
-1.14425e-38
-1.39989e-39
-5.71225e-39
-1.55171e-38
-5.20474e-39
-7.98794e-39
-7.80757e-39
-1.53928e-39
-3.52785e-39
-1.0674e-38
-1.94285e-38
-4.75972e-39
-8.63069e-39
-1.58932e-39
3.47701e-40
-8.46715e-39
-2.07589e-38
-9.39689e-39
-6.9819e-39
-2.75424e-39
-2.55183e-39
-8.65697e-39
-1.90558e-38
-6.53718e-39
-4.93633e-39
-2.01261e-39
-3.24332e-39
-9.22861e-39
-1.71419e-38
-1.08127e-38
-6.11218e-39
-1.71307e-39
-1.68534e-39
-8.76966e-39
-1.5656e-38
-1.13771e-38
-1.1772e-38
-1.04426e-38
-8.75798e-40
-1.55653e-38
-1.90152e-38
-8.81595e-39
-1.09231e-38
-9.0548e-39
1.24232e-40
-1.28754e-38
-2.02212e-38
-1.18425e-38
-1.14871e-38
-1.17818e-38
-4.32662e-39
-1.02549e-38
-1.97925e-38
-9.39964e-39
-9.41056e-39
-1.25819e-38
-3.39193e-39
-1.00818e-38
-1.75366e-38
-1.13364e-38
-9.01781e-39
-1.0881e-38
3.24954e-39
-1.04639e-38
-1.65972e-38
-1.04253e-38
-9.45759e-39
-1.50431e-38
-7.08305e-39
-1.20773e-38
-2.5759e-38
-9.36887e-39
-1.06733e-38
-1.31838e-38
-4.89496e-39
-1.09707e-38
-2.43332e-38
-1.09115e-38
-9.22832e-39
-1.48805e-38
-6.54992e-39
-8.1194e-39
-2.2899e-38
-8.922e-39
-3.70488e-39
-1.72914e-38
-5.71305e-39
-8.99558e-39
-2.28032e-38
-1.19814e-38
-9.29741e-39
-1.75087e-38
-3.34994e-39
-7.72651e-39
-2.09412e-38
-1.30813e-38
-1.12548e-38
-1.4089e-38
-8.71509e-39
-1.06965e-38
-2.04335e-38
-9.05247e-39
-1.15768e-38
-1.51868e-38
-7.37066e-39
-8.30693e-39
-2.08581e-38
-1.11433e-38
-1.0455e-38
-1.66969e-38
-2.58004e-39
-8.45404e-39
-2.1151e-38
-7.82323e-39
-7.06437e-39
-1.7334e-38
-6.80631e-39
-9.0012e-39
-2.17002e-38
-1.34822e-38
-8.56088e-39
-1.82377e-38
-4.19235e-39
-7.78733e-39
-1.96476e-38
-0.0762193
-0.305376
0.109351
-0.224219
-0.108156
0.185701
-0.440522
-0.338113
-0.104426
-0.183712
-0.0877529
-0.108616
-0.358281
-0.164729
-0.0172463
-0.198293
-0.0977883
0.0558913
-0.237035
-0.0195955
-0.0640021
-0.196648
-0.183541
-0.0283572
0.0482765
-0.130686
-0.134837
-0.100853
0.0392034
0.140701
-0.00415427
-0.0740423
0.0211641
-0.20183
0.0395019
0.155987
-0.155252
-0.0627224
-0.0696651
-0.0908695
-0.0565742
0.00629558
-0.0924751
-0.0744767
-0.01375
-0.0721264
-0.00941716
0.00996683
0.000623361
-0.0569357
-0.0719238
-0.0996621
-0.0546361
-0.0649082
0.0254256
-0.00406378
-0.190471
0.00338148
0.0454419
0.184295
-0.0674082
0.012819
0.0613121
-0.109774
0.0241497
0.174208
-0.136142
-0.0797031
-0.0439478
-0.118104
-0.000476904
0.0148135
-0.141622
-0.102192
-0.0828797
-0.0941191
0.0466767
-0.0455024
-0.0688593
-0.0728198
-0.0877013
-0.038323
0.0561709
-0.0746924
0.0546008
0.00806221
-0.150759
-0.00365144
0.130275
0.184578
-0.00672595
0.0475997
0.0983741
0.0105615
0.0329318
0.0578987
-0.0432537
0.0171099
0.0119076
-0.0478741
-0.00305091
0.0388812
-0.0436569
0.0211628
0.00893742
0.0242295
0.0371703
0.0667507
-0.00532437
-0.00701569
-0.0439853
0.0542366
0.069135
0.013292
-0.0093331
0.0313642
-0.0672711
0.0177045
0.0652401
0.0951127
0.0653632
0.0256913
0.232246
0.0393945
0.0553049
0.13907
0.0595815
0.0372107
0.0182204
0.033581
0.0791932
0.0557723
0.0450707
0.0779277
0.0794834
0.0304326
0.0739223
0.168996
0.0624706
0.0221994
0.0154345
0.0275712
0.137968
0.127494
0.0552409
0.065672
0.0770144
-0.0364007
0.14863
0.0400362
-0.0221706
-0.104233
-0.00537086
0.111648
-0.0228177
-0.0935417
-0.0305952
-0.0560209
-0.0326362
0.119266
0.0169836
-0.0884872
0.0537958
-0.104266
0.00935534
0.185773
0.0621496
0.0370615
0.00120729
-0.195988
-0.0789967
0.23457
0.040557
-0.00798951
-0.0322682
-0.316927
0.0251854
0.19045
0.0297882
0.121442
-0.0433117
-0.103059
0.0263263
0.111931
0.0271069
-0.0362782
-0.0375054
-0.163821
-0.0327892
0.246931
0.056051
-0.00978221
-0.0878469
-0.273401
-0.0733607
0.268803
0.0378916
0.0532302
-0.0657708
-0.364173
-0.0585344
0.318362
0.0663547
0.0590952
-0.0336494
-0.337149
0.11478
0.312031
0.136667
0.013706
-0.018544
-0.116919
0.0641436
0.187189
0.000290984
0.0621213
-0.081687
-0.329316
-0.070178
0.31383
0.0294803
0.0718096
-0.154219
-0.423664
-0.0544795
0.44293
0.0982406
0.0801007
-0.1908
-0.376286
-0.0365215
0.293208
0.140395
0.0329223
-0.0685371
-0.27698
0.0410038
0.246759
0.062492
0.0360463
-0.0646544
-0.155504
0.0246602
0.222389
0.0110796
0.111018
-0.116273
-0.30289
-0.0456187
0.304707
0.0262548
0.183971
-0.166047
-0.336678
0.011939
0.321518
0.0792073
0.0369651
-0.132133
-0.293254
-0.0647548
0.298435
0.0939269
-0.0375065
-0.0706744
-0.205196
-0.029199
0.161255
0.0574951
-0.0483359
-0.0122688
-0.0982086
0.0723119
0.277581
0.00609956
0.264422
-0.0978155
-0.132757
-0.0293104
0.175846
0.0662674
0.0918687
-0.163532
-0.112719
0.0135447
0.168997
0.0146946
0.0707683
-0.160693
-0.121987
-0.0227099
0.14632
-0.0770113
0.0674539
-0.065818
-0.132501
-0.0643842
0.130964
0.0785541
0.0402825
-0.00446388
0.255142
0.103767
-0.275988
-0.201469
0.128628
0.0203821
0.219846
-0.0754187
-0.255074
-0.0318771
0.0786801
0.0153409
0.203232
-0.00636646
-0.0920046
-0.11016
0.15193
-0.00737993
0.112194
0.0562981
-0.126667
-0.0291948
0.054712
-0.0953632
0.133108
-0.0139848
-0.114011
-0.00253713
-0.155236
-0.0772019
0.351328
0.0870746
-0.408727
0.0213221
-0.0776555
-0.110111
0.36421
0.0776357
-0.428245
0.0503419
-0.0476198
-0.0267076
0.271842
-0.00202815
-0.382906
-0.0117873
0.0692003
-0.0674584
0.300042
-0.0897258
-0.276907
-0.0152718
0.0671655
0.00088888
0.0921012
0.0468301
-0.0673974
-0.0218498
-0.0183805
-0.0794474
0.284089
-0.00459567
-0.285944
-0.0825532
0.0629012
-0.182635
0.314241
0.00728353
-0.418373
0.0221197
-0.0654273
-0.137058
0.523528
0.0498723
-0.520465
0.0719299
-0.0880438
-0.0408601
0.364276
-0.0559406
-0.375092
0.0281788
0.0781312
-0.0726615
0.104803
0.0256296
0.0205277
-0.0471495
0.156835
-0.110757
0.154224
-0.0658066
-0.227189
-0.0192871
0.0472795
-0.207833
0.273555
-0.0971597
-0.240144
-0.00552911
-0.0668498
-0.154922
0.310583
0.0216667
-0.265215
0.12523
-0.178244
-0.0422947
0.326946
0.0121896
-0.197013
0.0582527
-0.00296058
-0.0349853
0.207964
0.0236732
-0.0412535
-0.0822864
0.244918
-0.0758584
0.14218
-0.0212888
-0.185949
0.173863
-0.088372
-0.152651
0.0896219
-0.061711
-0.0314492
0.0287005
-0.0127177
-0.0938657
0.0348151
0.0308011
0.0493937
0.00643872
0.0718448
-0.0415698
0.179238
-0.0119594
-0.0127426
0.0891254
-0.01403
0.00592721
0.246289
0.0731693
-0.0613033
0.0856887
0.0278836
-1.38729e-42
-1.38729e-42
-1.38729e-42
-1.38729e-42
-1.38729e-42
-1.38729e-42
-1.38729e-42
-1.38729e-42
-1.38729e-42
-1.38729e-42
-1.38729e-42
-1.38729e-42
-1.38729e-42
-1.38729e-42
-1.38729e-42
-1.38729e-42
-1.38729e-42
-1.38729e-42
-1.38729e-42
-1.38729e-42
-1.38729e-42
-1.38729e-42
-1.38729e-42
-1.38729e-42
-1.38729e-42
-1.38729e-42
-1.38729e-42
-1.38729e-42
-1.38729e-42
-1.38729e-42
-1.38729e-42
-1.38729e-42
-1.38729e-42
-1.38729e-42
-1.38729e-42
-1.38729e-42
-1.38729e-42
-1.38729e-42
-1.38729e-42
-1.38729e-42
-1.38729e-42
-1.38729e-42
-1.38729e-42
-1.38729e-42
-1.38729e-42
-1.38729e-42
-1.38729e-42
-1.38729e-42
-1.38729e-42
-1.38729e-42
-1.38729e-42
-1.38729e-42
-1.38729e-42
-1.38729e-42
-1.38729e-42
-1.38729e-42
-1.38729e-42
-1.38729e-42
-1.38729e-42
-1.38729e-42
-1.38729e-42
-1.38729e-42
-1.38729e-42
-1.38729e-42
-1.38729e-42
-1.38729e-42
-1.38729e-42
-1.38729e-42
-1.38729e-42
-1.38729e-42
-1.38729e-42
-1.38729e-42
-1.38729e-42
-1.38729e-42
-1.38729e-42
-1.38729e-42
-1.38729e-42
-1.38729e-42
-1.38729e-42
-1.38729e-42
-1.38729e-42
-1.38729e-42
-1.38729e-42
-1.38729e-42
-1.38729e-42
-1.38729e-42
-1.38729e-42
-1.38729e-42
-1.38729e-42
-1.38729e-42
-1.38729e-42
-1.38729e-42
-1.38729e-42
-1.38729e-42
-1.38729e-42
-1.38729e-42
-1.38729e-42
-1.38729e-42
-1.38729e-42
-1.38729e-42
-1.38729e-42
-1.38729e-42
-1.38729e-42
-1.38729e-42
-1.38729e-42
-1.38729e-42
-1.38729e-42
-1.38729e-42
-1.38729e-42
-1.38729e-42
-1.38729e-42
-1.38729e-42
-1.38729e-42
-1.38729e-42
-1.38729e-42
-1.38729e-42
-1.38729e-42
-1.38729e-42
-1.38729e-42
-1.38729e-42
-1.38729e-42
-1.38729e-42
-1.38729e-42
-1.38729e-42
-1.38729e-42
-1.38729e-42
-1.38729e-42
-1.38729e-42
-1.38729e-42
-1.38729e-42
-1.38729e-42
-1.38729e-42
-1.38729e-42
-1.38729e-42
-1.38729e-42
-1.38729e-42
-1.38729e-42
-1.38729e-42
-1.38729e-42
-1.38729e-42
-1.38729e-42
-1.38729e-42
-1.38729e-42
-1.38729e-42
-1.38729e-42
-1.38729e-42
-1.38729e-42
-1.38729e-42
-1.38729e-42
-1.38729e-42
-0.0806073
0.149904
0.113749
0.0395984
-0.0197404
0.303215
0.0535242
0.110619
0.0116768
-0.0781257
0.0812992
0.10755
0.126248
0.0441669
-0.0851694
-0.0255791
0.159051
0.116795
-0.0125015
-0.0394204
0.0375018
0.0717595
0.167777
0.0532262
-0.0777266
-0.0466427
0.300442
0.0445467
0.0731454
0.176119
0.0793626
0.0448616
0.118965
-0.0419571
-0.00834998
-0.0976473
0.123583
0.0196779
-0.100158
-0.0328856
0.0133306
-0.0552889
0.238843
0.046292
-0.0602415
0.0305489
0.000591575
0.122879
0.090787
-0.114841
0.00954851
0.0243811
-0.000833809
0.0449564
-0.0549058
-0.0590494
0.331716
-0.2275
-0.0368921
-0.0564998
0.125557
-0.0783582
-0.0069831
-0.015809
-0.052766
0.0820882
0.207959
0.0065802
-0.085375
0.0771978
0.126136
0.0175977
0.359258
0.17558
0.00647362
0.101823
-0.0002906
0.319793
0.230913
-0.114434
-0.0458993
-0.162032
-0.0953895
0.0524929
-0.0728048
-0.218899
0.282911
-0.447006
-0.0463468
-0.125595
0.132603
-0.167015
-0.0698638
-0.019839
-0.109689
0.0305344
0.158491
-0.0735837
-0.16073
0.00428426
0.109884
-0.064445
0.278787
0.0439833
-0.0708929
-0.0895132
0.0221918
0.165826
0.188309
-0.078533
-0.119233
-0.304195
-0.0259754
-0.0959466
-0.0227197
-0.328736
0.19134
-0.41724
-0.00914069
-0.190214
0.0772779
-0.149744
0.0321279
-0.0323772
-0.172323
0.169815
0.295344
-0.140721
-0.175777
-0.0982093
0.0919326
-0.0139139
0.427095
-0.0898117
-0.109201
-0.205658
0.0220016
0.179675
0.295625
-0.0439084
-0.131219
-0.230542
-0.00114888
-0.132756
-0.115834
-0.112728
0.23652
-0.243635
-0.165468
0.0941338
-1.38729e-42
-1.38729e-42
-1.38729e-42
-1.38729e-42
-1.38729e-42
-1.38729e-42
-1.38729e-42
-1.38729e-42
-1.38729e-42
-1.38729e-42
-1.38729e-42
-1.38729e-42
-1.38729e-42
-1.38729e-42
-1.38729e-42
-1.38729e-42
-1.38729e-42
-1.38729e-42
-1.38729e-42
-1.38729e-42
-1.38729e-42
-1.38729e-42
-1.38729e-42
-1.38729e-42
-1.38729e-42
-1.38729e-42
-1.38729e-42
-1.38729e-42
-1.38729e-42
-1.38729e-42
-1.38729e-42
-1.38729e-42
-1.38729e-42
-1.38729e-42
-1.38729e-42
-1.38729e-42
-1.38729e-42
-1.38729e-42
-1.38729e-42
-1.38729e-42
-1.38729e-42
-1.38729e-42
-1.38729e-42
-1.38729e-42
-1.38729e-42
-1.38729e-42
-1.38729e-42
-1.38729e-42
-1.38729e-42
-1.38729e-42
-1.38729e-42
-1.38729e-42
-1.38729e-42
-1.38729e-42
-1.38729e-42
-1.38729e-42
-1.38729e-42
-1.38729e-42
-1.38729e-42
-1.38729e-42
-1.38729e-42
-1.38729e-42
-1.38729e-42
-1.38729e-42
-1.38729e-42
-1.38729e-42
-1.38729e-42
-1.38729e-42
-1.38729e-42
-1.38729e-42
-1.38729e-42
-1.38729e-42
-1.38729e-42
-1.38729e-42
-1.38729e-42
-1.38729e-42
-1.38729e-42
-1.38729e-42
-1.38729e-42
-1.38729e-42
-1.38729e-42
-1.38729e-42
-1.38729e-42
-1.38729e-42
-1.38729e-42
-1.38729e-42
-1.38729e-42
-1.38729e-42
-1.38729e-42
-1.38729e-42
-1.38729e-42
-1.38729e-42
-1.38729e-42
-1.38729e-42
-1.38729e-42
-1.38729e-42
-1.38729e-42
-1.38729e-42
-1.38729e-42
-1.38729e-42
-1.38729e-42
-1.38729e-42
-1.38729e-42
-1.38729e-42
-1.38729e-42
-1.38729e-42
-1.38729e-42
-1.38729e-42
-1.38729e-42
-1.38729e-42
-1.38729e-42
-1.38729e-42
-1.38729e-42
-1.38729e-42
-1.38729e-42
-1.38729e-42
-1.38729e-42
-1.38729e-42
-1.38729e-42
-1.38729e-42
-1.38729e-42
-1.38729e-42
-1.38729e-42
-1.38729e-42
-1.38729e-42
-1.38729e-42
-1.38729e-42
-1.38729e-42
-1.38729e-42
-1.38729e-42
-1.38729e-42
-1.38729e-42
-1.38729e-42
-1.38729e-42
-1.38729e-42
-1.38729e-42
-1.38729e-42
-1.38729e-42
-1.38729e-42
-1.38729e-42
-1.38729e-42
-1.38729e-42
-1.38729e-42
-1.38729e-42
-1.38729e-42
-1.38729e-42
-1.38729e-42
-1.38729e-42
-1.38729e-42
-1.38729e-42
-0.131397
-0.0870304
-0.172134
0.189824
0.0603307
0.0597351
-0.30745
-0.156861
0.0163693
0.0362166
-0.176919
0.0380981
-0.398765
-0.104159
0.23036
-0.0696243
-0.212183
0.0988742
-0.27554
-0.0215262
0.107374
-0.0929566
-0.15067
0.141841
-0.155653
0.180823
-0.00764867
-0.0492547
-0.0226153
0.246447
-0.0518497
-0.172167
-0.142388
0.216658
0.0236378
5.36386e-05
-0.134094
-0.128519
-0.0852182
0.194704
0.0981831
-0.0492834
-0.196021
0.0229884
0.302346
0.00619245
-4.06635e-05
0.150024
-0.134226
0.148229
0.117483
-0.195041
0.00835766
0.124647
-0.121492
0.276208
0.024411
-0.162465
0.124588
0.0303291
0.0529008
-0.191275
-0.090642
0.133838
-0.0558342
0.0148785
0.0501239
-0.0946492
-0.219806
0.253857
0.0826036
0.00651455
-0.02351
0.253412
0.136518
0.172657
0.221375
0.0399937
0.00520798
0.217331
0.123129
-0.121171
0.0772634
0.00161667
0.000965812
0.175974
-0.0271694
-0.164092
-0.0826497
-0.0261181
0.111245
-0.094656
-0.00853496
0.101605
-0.0529627
0.0308039
0.215291
-0.0274277
-0.155467
0.147745
-0.0467201
0.0136083
0.193868
0.168412
-0.161381
0.148756
0.128273
-0.284706
0.178852
0.222545
-0.0236782
0.0407781
0.216691
-0.243884
0.101793
0.141756
0.0529873
-0.130327
-0.0366566
-0.138881
0.126216
0.134388
-0.00494862
0.0460607
-0.0500572
0.00403795
0.219786
0.164277
-0.0843399
0.0491278
0.335474
-0.117127
0.251249
0.171761
-0.0607582
0.207001
-0.181249
-0.261243
0.228938
0.15408
-0.0209505
0.22546
-0.0393119
-0.12989
0.0732782
0.0763181
0.0158515
0.0641971
0.197417
-0.159077
-8.35266e-39
-9.51445e-39
-5.79378e-40
-6.10816e-40
-1.8529e-38
-1.24805e-38
-5.40658e-39
-6.60272e-39
7.67962e-40
-1.58927e-40
-1.64071e-38
-1.25104e-38
-8.09277e-39
-4.67259e-39
2.85228e-39
-4.02817e-39
-1.62582e-38
-8.50597e-39
-7.41038e-39
-8.48044e-39
-9.32772e-40
-5.33929e-39
-1.48743e-38
-7.33934e-39
-1.24435e-38
-1.14425e-38
-1.39989e-39
-5.71225e-39
-1.55171e-38
-5.20474e-39
-7.98794e-39
-7.80757e-39
-1.53928e-39
-3.52785e-39
-1.0674e-38
-1.94285e-38
-4.75972e-39
-8.63069e-39
-1.58932e-39
3.47701e-40
-8.46715e-39
-2.07589e-38
-9.39689e-39
-6.9819e-39
-2.75424e-39
-2.55183e-39
-8.65697e-39
-1.90558e-38
-6.53718e-39
-4.93633e-39
-2.01261e-39
-3.24332e-39
-9.22861e-39
-1.71419e-38
-1.08127e-38
-6.11218e-39
-1.71307e-39
-1.68534e-39
-8.76966e-39
-1.5656e-38
-1.13771e-38
-1.1772e-38
-1.04426e-38
-8.75798e-40
-1.55653e-38
-1.90152e-38
-8.81595e-39
-1.09231e-38
-9.0548e-39
1.24232e-40
-1.28754e-38
-2.02212e-38
-1.18425e-38
-1.14871e-38
-1.17818e-38
-4.32662e-39
-1.02549e-38
-1.97925e-38
-9.39964e-39
-9.41056e-39
-1.25819e-38
-3.39193e-39
-1.00818e-38
-1.75366e-38
-1.13364e-38
-9.01781e-39
-1.0881e-38
3.24954e-39
-1.04639e-38
-1.65972e-38
-1.04253e-38
-9.45759e-39
-1.50431e-38
-7.08305e-39
-1.20773e-38
-2.5759e-38
-9.36887e-39
-1.06733e-38
-1.31838e-38
-4.89496e-39
-1.09707e-38
-2.43332e-38
-1.09115e-38
-9.22832e-39
-1.48805e-38
-6.54992e-39
-8.1194e-39
-2.2899e-38
-8.922e-39
-3.70488e-39
-1.72914e-38
-5.71305e-39
-8.99558e-39
-2.28032e-38
-1.19814e-38
-9.29741e-39
-1.75087e-38
-3.34994e-39
-7.72651e-39
-2.09412e-38
-1.30813e-38
-1.12548e-38
-1.4089e-38
-8.71509e-39
-1.06965e-38
-2.04335e-38
-9.05247e-39
-1.15768e-38
-1.51868e-38
-7.37066e-39
-8.30693e-39
-2.08581e-38
-1.11433e-38
-1.0455e-38
-1.66969e-38
-2.58004e-39
-8.45404e-39
-2.1151e-38
-7.82323e-39
-7.06437e-39
-1.7334e-38
-6.80631e-39
-9.0012e-39
-2.17002e-38
-1.34822e-38
-8.56088e-39
-1.82377e-38
-4.19235e-39
-7.78733e-39
-1.96476e-38
-0.0762193
-0.305376
0.109351
-0.224219
-0.108156
0.185701
-0.440522
-0.338113
-0.104426
-0.183712
-0.0877529
-0.108616
-0.358281
-0.164729
-0.0172463
-0.198293
-0.0977883
0.0558913
-0.237035
-0.0195955
-0.0640021
-0.196648
-0.183541
-0.0283572
0.0482765
-0.130686
-0.134837
-0.100853
0.0392034
0.140701
-0.00415427
-0.0740423
0.0211641
-0.20183
0.0395019
0.155987
-0.155252
-0.0627224
-0.0696651
-0.0908695
-0.0565742
0.00629558
-0.0924751
-0.0744767
-0.01375
-0.0721264
-0.00941716
0.00996683
0.000623361
-0.0569357
-0.0719238
-0.0996621
-0.0546361
-0.0649082
0.0254256
-0.00406378
-0.190471
0.00338148
0.0454419
0.184295
-0.0674082
0.012819
0.0613121
-0.109774
0.0241497
0.174208
-0.136142
-0.0797031
-0.0439478
-0.118104
-0.000476904
0.0148135
-0.141622
-0.102192
-0.0828797
-0.0941191
0.0466767
-0.0455024
-0.0688593
-0.0728198
-0.0877013
-0.038323
0.0561709
-0.0746924
0.0546008
0.00806221
-0.150759
-0.00365144
0.130275
0.184578
-0.00672595
0.0475997
0.0983741
0.0105615
0.0329318
0.0578987
-0.0432537
0.0171099
0.0119076
-0.0478741
-0.00305091
0.0388812
-0.0436569
0.0211628
0.00893742
0.0242295
0.0371703
0.0667507
-0.00532437
-0.00701569
-0.0439853
0.0542366
0.069135
0.013292
-0.0093331
0.0313642
-0.0672711
0.0177045
0.0652401
0.0951127
0.0653632
0.0256913
0.232246
0.0393945
0.0553049
0.13907
0.0595815
0.0372107
0.0182204
0.033581
0.0791932
0.0557723
0.0450707
0.0779277
0.0794834
0.0304326
0.0739223
0.168996
0.0624706
0.0221994
0.0154345
0.0275712
0.137968
0.127494
0.0552409
0.065672
0.0770144
-0.0364007
0.14863
0.0400362
-0.0221706
-0.104233
-0.00537086
0.111648
-0.0228177
-0.0935417
-0.0305952
-0.0560209
-0.0326362
0.119266
0.0169836
-0.0884872
0.0537958
-0.104266
0.00935534
0.185773
0.0621496
0.0370615
0.00120729
-0.195988
-0.0789967
0.23457
0.040557
-0.00798951
-0.0322682
-0.316927
0.0251854
0.19045
0.0297882
0.121442
-0.0433117
-0.103059
0.0263263
0.111931
0.0271069
-0.0362782
-0.0375054
-0.163821
-0.0327892
0.246931
0.056051
-0.00978221
-0.0878469
-0.273401
-0.0733607
0.268803
0.0378916
0.0532302
-0.0657708
-0.364173
-0.0585344
0.318362
0.0663547
0.0590952
-0.0336494
-0.337149
0.11478
0.312031
0.136667
0.013706
-0.018544
-0.116919
0.0641436
0.187189
0.000290984
0.0621213
-0.081687
-0.329316
-0.070178
0.31383
0.0294803
0.0718096
-0.154219
-0.423664
-0.0544795
0.44293
0.0982406
0.0801007
-0.1908
-0.376286
-0.0365215
0.293208
0.140395
0.0329223
-0.0685371
-0.27698
0.0410038
0.246759
0.062492
0.0360463
-0.0646544
-0.155504
0.0246602
0.222389
0.0110796
0.111018
-0.116273
-0.30289
-0.0456187
0.304707
0.0262548
0.183971
-0.166047
-0.336678
0.011939
0.321518
0.0792073
0.0369651
-0.132133
-0.293254
-0.0647548
0.298435
0.0939269
-0.0375065
-0.0706744
-0.205196
-0.029199
0.161255
0.0574951
-0.0483359
-0.0122688
-0.0982086
0.0723119
0.277581
0.00609956
0.264422
-0.0978155
-0.132757
-0.0293104
0.175846
0.0662674
0.0918687
-0.163532
-0.112719
0.0135447
0.168997
0.0146946
0.0707683
-0.160693
-0.121987
-0.0227099
0.14632
-0.0770113
0.0674539
-0.065818
-0.132501
-0.0643842
0.130964
0.0785541
0.0402825
-0.00446388
0.255142
0.103767
-0.275988
-0.201469
0.128628
0.0203821
0.219846
-0.0754187
-0.255074
-0.0318771
0.0786801
0.0153409
0.203232
-0.00636646
-0.0920046
-0.11016
0.15193
-0.00737993
0.112194
0.0562981
-0.126667
-0.0291948
0.054712
-0.0953632
0.133108
-0.0139848
-0.114011
-0.00253713
-0.155236
-0.0772019
0.351328
0.0870746
-0.408727
0.0213221
-0.0776555
-0.110111
0.36421
0.0776357
-0.428245
0.0503419
-0.0476198
-0.0267076
0.271842
-0.00202815
-0.382906
-0.0117873
0.0692003
-0.0674584
0.300042
-0.0897258
-0.276907
-0.0152718
0.0671655
0.00088888
0.0921012
0.0468301
-0.0673974
-0.0218498
-0.0183805
-0.0794474
0.284089
-0.00459567
-0.285944
-0.0825532
0.0629012
-0.182635
0.314241
0.00728353
-0.418373
0.0221197
-0.0654273
-0.137058
0.523528
0.0498723
-0.520465
0.0719299
-0.0880438
-0.0408601
0.364276
-0.0559406
-0.375092
0.0281788
0.0781312
-0.0726615
0.104803
0.0256296
0.0205277
-0.0471495
0.156835
-0.110757
0.154224
-0.0658066
-0.227189
-0.0192871
0.0472795
-0.207833
0.273555
-0.0971597
-0.240144
-0.00552911
-0.0668498
-0.154922
0.310583
0.0216667
-0.265215
0.12523
-0.178244
-0.0422947
0.326946
0.0121896
-0.197013
0.0582527
-0.00296058
-0.0349853
0.207964
0.0236732
-0.0412535
-0.0822864
0.244918
-0.0758584
0.14218
-0.0212888
-0.185949
0.173863
-0.088372
-0.152651
0.0896219
-0.061711
-0.0314492
0.0287005
-0.0127177
-0.0938657
0.0348151
0.0308011
0.0493937
0.00643872
0.0718448
-0.0415698
0.179238
-0.0119594
-0.0127426
0.0891254
-0.01403
0.00592721
0.246289
0.0731693
-0.0613033
0.0856887
0.0278836
-1.38729e-42
-1.38729e-42
-1.38729e-42
-1.38729e-42
-1.38729e-42
-1.38729e-42
-1.38729e-42
-1.38729e-42
-1.38729e-42
-1.38729e-42
-1.38729e-42
-1.38729e-42
-1.38729e-42
-1.38729e-42
-1.38729e-42
-1.38729e-42
-1.38729e-42
-1.38729e-42
-1.38729e-42
-1.38729e-42
-1.38729e-42
-1.38729e-42
-1.38729e-42
-1.38729e-42
-1.38729e-42
-1.38729e-42
-1.38729e-42
-1.38729e-42
-1.38729e-42
-1.38729e-42
-1.38729e-42
-1.38729e-42
-1.38729e-42
-1.38729e-42
-1.38729e-42
-1.38729e-42
-1.38729e-42
-1.38729e-42
-1.38729e-42
-1.38729e-42
-1.38729e-42
-1.38729e-42
-1.38729e-42
-1.38729e-42
-1.38729e-42
-1.38729e-42
-1.38729e-42
-1.38729e-42
-1.38729e-42
-1.38729e-42
-1.38729e-42
-1.38729e-42
-1.38729e-42
-1.38729e-42
-1.38729e-42
-1.38729e-42
-1.38729e-42
-1.38729e-42
-1.38729e-42
-1.38729e-42
-1.38729e-42
-1.38729e-42
-1.38729e-42
-1.38729e-42
-1.38729e-42
-1.38729e-42
-1.38729e-42
-1.38729e-42
-1.38729e-42
-1.38729e-42
-1.38729e-42
-1.38729e-42
-1.38729e-42
-1.38729e-42
-1.38729e-42
-1.38729e-42
-1.38729e-42
-1.38729e-42
-1.38729e-42
-1.38729e-42
-1.38729e-42
-1.38729e-42
-1.38729e-42
-1.38729e-42
-1.38729e-42
-1.38729e-42
-1.38729e-42
-1.38729e-42
-1.38729e-42
-1.38729e-42
-1.38729e-42
-1.38729e-42
-1.38729e-42
-1.38729e-42
-1.38729e-42
-1.38729e-42
-1.38729e-42
-1.38729e-42
-1.38729e-42
-1.38729e-42
-1.38729e-42
-1.38729e-42
-1.38729e-42
-1.38729e-42
-1.38729e-42
-1.38729e-42
-1.38729e-42
-1.38729e-42
-1.38729e-42
-1.38729e-42
-1.38729e-42
-1.38729e-42
-1.38729e-42
-1.38729e-42
-1.38729e-42
-1.38729e-42
-1.38729e-42
-1.38729e-42
-1.38729e-42
-1.38729e-42
-1.38729e-42
-1.38729e-42
-1.38729e-42
-1.38729e-42
-1.38729e-42
-1.38729e-42
-1.38729e-42
-1.38729e-42
-1.38729e-42
-1.38729e-42
-1.38729e-42
-1.38729e-42
-1.38729e-42
-1.38729e-42
-1.38729e-42
-1.38729e-42
-1.38729e-42
-1.38729e-42
-1.38729e-42
-1.38729e-42
-1.38729e-42
-1.38729e-42
-1.38729e-42
-1.38729e-42
-1.38729e-42
-1.38729e-42
-1.38729e-42
-1.38729e-42
-1.38729e-42
-1.38729e-42
-0.0806073
0.149904
0.113749
0.0395984
-0.0197404
0.303215
0.0535242
0.110619
0.0116768
-0.0781257
0.0812992
0.10755
0.126248
0.0441669
-0.0851694
-0.0255791
0.159051
0.116795
-0.0125015
-0.0394204
0.0375018
0.0717595
0.167777
0.0532262
-0.0777266
-0.0466427
0.300442
0.0445467
0.0731454
0.176119
0.0793626
0.0448616
0.118965
-0.0419571
-0.00834998
-0.0976473
0.123583
0.0196779
-0.100158
-0.0328856
0.0133306
-0.0552889
0.238843
0.046292
-0.0602415
0.0305489
0.000591575
0.122879
0.090787
-0.114841
0.00954851
0.0243811
-0.000833809
0.0449564
-0.0549058
-0.0590494
0.331716
-0.2275
-0.0368921
-0.0564998
0.125557
-0.0783582
-0.0069831
-0.015809
-0.052766
0.0820882
0.207959
0.0065802
-0.085375
0.0771978
0.126136
0.0175977
0.359258
0.17558
0.00647362
0.101823
-0.0002906
0.319793
0.230913
-0.114434
-0.0458993
-0.162032
-0.0953895
0.0524929
-0.0728048
-0.218899
0.282911
-0.447006
-0.0463468
-0.125595
0.132603
-0.167015
-0.0698638
-0.019839
-0.109689
0.0305344
0.158491
-0.0735837
-0.16073
0.00428426
0.109884
-0.064445
0.278787
0.0439833
-0.0708929
-0.0895132
0.0221918
0.165826
0.188309
-0.078533
-0.119233
-0.304195
-0.0259754
-0.0959466
-0.0227197
-0.328736
0.19134
-0.41724
-0.00914069
-0.190214
0.0772779
-0.149744
0.0321279
-0.0323772
-0.172323
0.169815
0.295344
-0.140721
-0.175777
-0.0982093
0.0919326
-0.0139139
0.427095
-0.0898117
-0.109201
-0.205658
0.0220016
0.179675
0.295625
-0.0439084
-0.131219
-0.230542
-0.00114888
-0.132756
-0.115834
-0.112728
0.23652
-0.243635
-0.165468
0.0941338
-1.38729e-42
-1.38729e-42
-1.38729e-42
-1.38729e-42
-1.38729e-42
-1.38729e-42
-1.38729e-42
-1.38729e-42
-1.38729e-42
-1.38729e-42
-1.38729e-42
-1.38729e-42
-1.38729e-42
-1.38729e-42
-1.38729e-42
-1.38729e-42
-1.38729e-42
-1.38729e-42
-1.38729e-42
-1.38729e-42
-1.38729e-42
-1.38729e-42
-1.38729e-42
-1.38729e-42
-1.38729e-42
-1.38729e-42
-1.38729e-42
-1.38729e-42
-1.38729e-42
-1.38729e-42
-1.38729e-42
-1.38729e-42
-1.38729e-42
-1.38729e-42
-1.38729e-42
-1.38729e-42
-1.38729e-42
-1.38729e-42
-1.38729e-42
-1.38729e-42
-1.38729e-42
-1.38729e-42
-1.38729e-42
-1.38729e-42
-1.38729e-42
-1.38729e-42
-1.38729e-42
-1.38729e-42
-1.38729e-42
-1.38729e-42
-1.38729e-42
-1.38729e-42
-1.38729e-42
-1.38729e-42
-1.38729e-42
-1.38729e-42
-1.38729e-42
-1.38729e-42
-1.38729e-42
-1.38729e-42
-1.38729e-42
-1.38729e-42
-1.38729e-42
-1.38729e-42
-1.38729e-42
-1.38729e-42
-1.38729e-42
-1.38729e-42
-1.38729e-42
-1.38729e-42
-1.38729e-42
-1.38729e-42
-1.38729e-42
-1.38729e-42
-1.38729e-42
-1.38729e-42
-1.38729e-42
-1.38729e-42
-1.38729e-42
-1.38729e-42
-1.38729e-42
-1.38729e-42
-1.38729e-42
-1.38729e-42
-1.38729e-42
-1.38729e-42
-1.38729e-42
-1.38729e-42
-1.38729e-42
-1.38729e-42
-1.38729e-42
-1.38729e-42
-1.38729e-42
-1.38729e-42
-1.38729e-42
-1.38729e-42
-1.38729e-42
-1.38729e-42
-1.38729e-42
-1.38729e-42
-1.38729e-42
-1.38729e-42
-1.38729e-42
-1.38729e-42
-1.38729e-42
-1.38729e-42
-1.38729e-42
-1.38729e-42
-1.38729e-42
-1.38729e-42
-1.38729e-42
-1.38729e-42
-1.38729e-42
-1.38729e-42
-1.38729e-42
-1.38729e-42
-1.38729e-42
-1.38729e-42
-1.38729e-42
-1.38729e-42
-1.38729e-42
-1.38729e-42
-1.38729e-42
-1.38729e-42
-1.38729e-42
-1.38729e-42
-1.38729e-42
-1.38729e-42
-1.38729e-42
-1.38729e-42
-1.38729e-42
-1.38729e-42
-1.38729e-42
-1.38729e-42
-1.38729e-42
-1.38729e-42
-1.38729e-42
-1.38729e-42
-1.38729e-42
-1.38729e-42
-1.38729e-42
-1.38729e-42
-1.38729e-42
-1.38729e-42
-1.38729e-42
-1.38729e-42
-1.38729e-42
-1.38729e-42
-1.38729e-42
-1.38729e-42
-0.131397
-0.0870304
-0.172134
0.189824
0.0603307
0.0597351
-0.30745
-0.156861
0.0163693
0.0362166
-0.176919
0.0380981
-0.398765
-0.104159
0.23036
-0.0696243
-0.212183
0.0988742
-0.27554
-0.0215262
0.107374
-0.0929566
-0.15067
0.141841
-0.155653
0.180823
-0.00764867
-0.0492547
-0.0226153
0.246447
-0.0518497
-0.172167
-0.142388
0.216658
0.0236378
5.36386e-05
-0.134094
-0.128519
-0.0852182
0.194704
0.0981831
-0.0492834
-0.196021
0.0229884
0.302346
0.00619245
-4.06635e-05
0.150024
-0.134226
0.148229
0.117483
-0.195041
0.00835766
0.124647
-0.121492
0.276208
0.024411
-0.162465
0.124588
0.0303291
0.0529008
-0.191275
-0.090642
0.133838
-0.0558342
0.0148785
0.0501239
-0.0946492
-0.219806
0.253857
0.0826036
0.00651455
-0.02351
0.253412
0.136518
0.172657
0.221375
0.0399937
0.00520798
0.217331
0.123129
-0.121171
0.0772634
0.00161667
0.000965812
0.175974
-0.0271694
-0.164092
-0.0826497
-0.0261181
0.111245
-0.094656
-0.00853496
0.101605
-0.0529627
0.0308039
0.215291
-0.0274277
-0.155467
0.147745
-0.0467201
0.0136083
0.193868
0.168412
-0.161381
0.148756
0.128273
-0.284706
0.178852
0.222545
-0.0236782
0.0407781
0.216691
-0.243884
0.101793
0.141756
0.0529873
-0.130327
-0.0366566
-0.138881
0.126216
0.134388
-0.00494862
0.0460607
-0.0500572
0.00403795
0.219786
0.164277
-0.0843399
0.0491278
0.335474
-0.117127
0.251249
0.171761
-0.0607582
0.207001
-0.181249
-0.261243
0.228938
0.15408
-0.0209505
0.22546
-0.0393119
-0.12989
0.0732782
0.0763181
0.0158515
0.0641971
0.197417
-0.159077
-8.35266e-39
-9.51445e-39
-5.79378e-40
-6.10816e-40
-1.8529e-38
-1.24805e-38
-5.40658e-39
-6.60272e-39
7.67962e-40
-1.58927e-40
-1.64071e-38
-1.25104e-38
-8.09277e-39
-4.67259e-39
2.85228e-39
-4.02817e-39
-1.62582e-38
-8.50597e-39
-7.41038e-39
-8.48044e-39
-9.32772e-40
-5.33929e-39
-1.48743e-38
-7.33934e-39
-1.24435e-38
-1.14425e-38
-1.39989e-39
-5.71225e-39
-1.55171e-38
-5.20474e-39
-7.98794e-39
-7.80757e-39
-1.53928e-39
-3.52785e-39
-1.0674e-38
-1.94285e-38
-4.75972e-39
-8.63069e-39
-1.58932e-39
3.47701e-40
-8.46715e-39
-2.07589e-38
-9.39689e-39
-6.9819e-39
-2.75424e-39
-2.55183e-39
-8.65697e-39
-1.90558e-38
-6.53718e-39
-4.93633e-39
-2.01261e-39
-3.24332e-39
-9.22861e-39
-1.71419e-38
-1.08127e-38
-6.11218e-39
-1.71307e-39
-1.68534e-39
-8.76966e-39
-1.5656e-38
-1.13771e-38
-1.1772e-38
-1.04426e-38
-8.75798e-40
-1.55653e-38
-1.90152e-38
-8.81595e-39
-1.09231e-38
-9.0548e-39
1.24232e-40
-1.28754e-38
-2.02212e-38
-1.18425e-38
-1.14871e-38
-1.17818e-38
-4.32662e-39
-1.02549e-38
-1.97925e-38
-9.39964e-39
-9.41056e-39
-1.25819e-38
-3.39193e-39
-1.00818e-38
-1.75366e-38
-1.13364e-38
-9.01781e-39
-1.0881e-38
3.24954e-39
-1.04639e-38
-1.65972e-38
-1.04253e-38
-9.45759e-39
-1.50431e-38
-7.08305e-39
-1.20773e-38
-2.5759e-38
-9.36887e-39
-1.06733e-38
-1.31838e-38
-4.89496e-39
-1.09707e-38
-2.43332e-38
-1.09115e-38
-9.22832e-39
-1.48805e-38
-6.54992e-39
-8.1194e-39
-2.2899e-38
-8.922e-39
-3.70488e-39
-1.72914e-38
-5.71305e-39
-8.99558e-39
-2.28032e-38
-1.19814e-38
-9.29741e-39
-1.75087e-38
-3.34994e-39
-7.72651e-39
-2.09412e-38
-1.30813e-38
-1.12548e-38
-1.4089e-38
-8.71509e-39
-1.06965e-38
-2.04335e-38
-9.05247e-39
-1.15768e-38
-1.51868e-38
-7.37066e-39
-8.30693e-39
-2.08581e-38
-1.11433e-38
-1.0455e-38
-1.66969e-38
-2.58004e-39
-8.45404e-39
-2.1151e-38
-7.82323e-39
-7.06437e-39
-1.7334e-38
-6.80631e-39
-9.0012e-39
-2.17002e-38
-1.34822e-38
-8.56088e-39
-1.82377e-38
-4.19235e-39
-7.78733e-39
-1.96476e-38
-0.0762193
-0.305376
0.109351
-0.224219
-0.108156
0.185701
-0.440522
-0.338113
-0.104426
-0.183712
-0.0877529
-0.108616
-0.358281
-0.164729
-0.0172463
-0.198293
-0.0977883
0.0558913
-0.237035
-0.0195955
-0.0640021
-0.196648
-0.183541
-0.0283572
0.0482765
-0.130686
-0.134837
-0.100853
0.0392034
0.140701
-0.00415427
-0.0740423
0.0211641
-0.20183
0.0395019
0.155987
-0.155252
-0.0627224
-0.0696651
-0.0908695
-0.0565742
0.00629558
-0.0924751
-0.0744767
-0.01375
-0.0721264
-0.00941716
0.00996683
0.000623361
-0.0569357
-0.0719238
-0.0996621
-0.0546361
-0.0649082
0.0254256
-0.00406378
-0.190471
0.00338148
0.0454419
0.184295
-0.0674082
0.012819
0.0613121
-0.109774
0.0241497
0.174208
-0.136142
-0.0797031
-0.0439478
-0.118104
-0.000476904
0.0148135
-0.141622
-0.102192
-0.0828797
-0.0941191
0.0466767
-0.0455024
-0.0688593
-0.0728198
-0.0877013
-0.038323
0.0561709
-0.0746924
0.0546008
0.00806221
-0.150759
-0.00365144
0.130275
0.184578
-0.00672595
0.0475997
0.0983741
0.0105615
0.0329318
0.0578987
-0.0432537
0.0171099
0.0119076
-0.0478741
-0.00305091
0.0388812
-0.0436569
0.0211628
0.00893742
0.0242295
0.0371703
0.0667507
-0.00532437
-0.00701569
-0.0439853
0.0542366
0.069135
0.013292
-0.0093331
0.0313642
-0.0672711
0.0177045
0.0652401
0.0951127
0.0653632
0.0256913
0.232246
0.0393945
0.0553049
0.13907
0.0595815
0.0372107
0.0182204
0.033581
0.0791932
0.0557723
0.0450707
0.0779277
0.0794834
0.0304326
0.0739223
0.168996
0.0624706
0.0221994
0.0154345
0.0275712
0.137968
0.127494
0.0552409
0.065672
0.0770144
-0.0364007
0.14863
0.0400362
-0.0221706
-0.104233
-0.00537086
0.111648
-0.0228177
-0.0935417
-0.0305952
-0.0560209
-0.0326362
0.119266
0.0169836
-0.0884872
0.0537958
-0.104266
0.00935534
0.185773
0.0621496
0.0370615
0.00120729
-0.195988
-0.0789967
0.23457
0.040557
-0.00798951
-0.0322682
-0.316927
0.0251854
0.19045
0.0297882
0.121442
-0.0433117
-0.103059
0.0263263
0.111931
0.0271069
-0.0362782
-0.0375054
-0.163821
-0.0327892
0.246931
0.056051
-0.00978221
-0.0878469
-0.273401
-0.0733607
0.268803
0.0378916
0.0532302
-0.0657708
-0.364173
-0.0585344
0.318362
0.0663547
0.0590952
-0.0336494
-0.337149
0.11478
0.312031
0.136667
0.013706
-0.018544
-0.116919
0.0641436
0.187189
0.000290984
0.0621213
-0.081687
-0.329316
-0.070178
0.31383
0.0294803
0.0718096
-0.154219
-0.423664
-0.0544795
0.44293
0.0982406
0.0801007
-0.1908
-0.376286
-0.0365215
0.293208
0.140395
0.0329223
-0.0685371
-0.27698
0.0410038
0.246759
0.062492
0.0360463
-0.0646544
-0.155504
0.0246602
0.222389
0.0110796
0.111018
-0.116273
-0.30289
-0.0456187
0.304707
0.0262548
0.183971
-0.166047
-0.336678
0.011939
0.321518
0.0792073
0.0369651
-0.132133
-0.293254
-0.0647548
0.298435
0.0939269
-0.0375065
-0.0706744
-0.205196
-0.029199
0.161255
0.0574951
-0.0483359
-0.0122688
-0.0982086
0.0723119
0.277581
0.00609956
0.264422
-0.0978155
-0.132757
-0.0293104
0.175846
0.0662674
0.0918687
-0.163532
-0.112719
0.0135447
0.168997
0.0146946
0.0707683
-0.160693
-0.121987
-0.0227099
0.14632
-0.0770113
0.0674539
-0.065818
-0.132501
-0.0643842
0.130964
0.0785541
0.0402825
-0.00446388
0.255142
0.103767
-0.275988
-0.201469
0.128628
0.0203821
0.219846
-0.0754187
-0.255074
-0.0318771
0.0786801
0.0153409
0.203232
-0.00636646
-0.0920046
-0.11016
0.15193
-0.00737993
0.112194
0.0562981
-0.126667
-0.0291948
0.054712
-0.0953632
0.133108
-0.0139848
-0.114011
-0.00253713
-0.155236
-0.0772019
0.351328
0.0870746
-0.408727
0.0213221
-0.0776555
-0.110111
0.36421
0.0776357
-0.428245
0.0503419
-0.0476198
-0.0267076
0.271842
-0.00202815
-0.382906
-0.0117873
0.0692003
-0.0674584
0.300042
-0.0897258
-0.276907
-0.0152718
0.0671655
0.00088888
0.0921012
0.0468301
-0.0673974
-0.0218498
-0.0183805
-0.0794474
0.284089
-0.00459567
-0.285944
-0.0825532
0.0629012
-0.182635
0.314241
0.00728353
-0.418373
0.0221197
-0.0654273
-0.137058
0.523528
0.0498723
-0.520465
0.0719299
-0.0880438
-0.0408601
0.364276
-0.0559406
-0.375092
0.0281788
0.0781312
-0.0726615
0.104803
0.0256296
0.0205277
-0.0471495
0.156835
-0.110757
0.154224
-0.0658066
-0.227189
-0.0192871
0.0472795
-0.207833
0.273555
-0.0971597
-0.240144
-0.00552911
-0.0668498
-0.154922
0.310583
0.0216667
-0.265215
0.12523
-0.178244
-0.0422947
0.326946
0.0121896
-0.197013
0.0582527
-0.00296058
-0.0349853
0.207964
0.0236732
-0.0412535
-0.0822864
0.244918
-0.0758584
0.14218
-0.0212888
-0.185949
0.173863
-0.088372
-0.152651
0.0896219
-0.061711
-0.0314492
0.0287005
-0.0127177
-0.0938657
0.0348151
0.0308011
0.0493937
0.00643872
0.0718448
-0.0415698
0.179238
-0.0119594
-0.0127426
0.0891254
-0.01403
0.00592721
0.246289
0.0731693
-0.0613033
0.0856887
0.0278836
-1.38729e-42
-1.38729e-42
-1.38729e-42
-1.38729e-42
-1.38729e-42
-1.38729e-42
-1.38729e-42
-1.38729e-42
-1.38729e-42
-1.38729e-42
-1.38729e-42
-1.38729e-42
-1.38729e-42
-1.38729e-42
-1.38729e-42
-1.38729e-42
-1.38729e-42
-1.38729e-42
-1.38729e-42
-1.38729e-42
-1.38729e-42
-1.38729e-42
-1.38729e-42
-1.38729e-42
-1.38729e-42
-1.38729e-42
-1.38729e-42
-1.38729e-42
-1.38729e-42
-1.38729e-42
-1.38729e-42
-1.38729e-42
-1.38729e-42
-1.38729e-42
-1.38729e-42
-1.38729e-42
-1.38729e-42
-1.38729e-42
-1.38729e-42
-1.38729e-42
-1.38729e-42
-1.38729e-42
-1.38729e-42
-1.38729e-42
-1.38729e-42
-1.38729e-42
-1.38729e-42
-1.38729e-42
-1.38729e-42
-1.38729e-42
-1.38729e-42
-1.38729e-42
-1.38729e-42
-1.38729e-42
-1.38729e-42
-1.38729e-42
-1.38729e-42
-1.38729e-42
-1.38729e-42
-1.38729e-42
-1.38729e-42
-1.38729e-42
-1.38729e-42
-1.38729e-42
-1.38729e-42
-1.38729e-42
-1.38729e-42
-1.38729e-42
-1.38729e-42
-1.38729e-42
-1.38729e-42
-1.38729e-42
-1.38729e-42
-1.38729e-42
-1.38729e-42
-1.38729e-42
-1.38729e-42
-1.38729e-42
-1.38729e-42
-1.38729e-42
-1.38729e-42
-1.38729e-42
-1.38729e-42
-1.38729e-42
-1.38729e-42
-1.38729e-42
-1.38729e-42
-1.38729e-42
-1.38729e-42
-1.38729e-42
-1.38729e-42
-1.38729e-42
-1.38729e-42
-1.38729e-42
-1.38729e-42
-1.38729e-42
-1.38729e-42
-1.38729e-42
-1.38729e-42
-1.38729e-42
-1.38729e-42
-1.38729e-42
-1.38729e-42
-1.38729e-42
-1.38729e-42
-1.38729e-42
-1.38729e-42
-1.38729e-42
-1.38729e-42
-1.38729e-42
-1.38729e-42
-1.38729e-42
-1.38729e-42
-1.38729e-42
-1.38729e-42
-1.38729e-42
-1.38729e-42
-1.38729e-42
-1.38729e-42
-1.38729e-42
-1.38729e-42
-1.38729e-42
-1.38729e-42
-1.38729e-42
-1.38729e-42
-1.38729e-42
-1.38729e-42
-1.38729e-42
-1.38729e-42
-1.38729e-42
-1.38729e-42
-1.38729e-42
-1.38729e-42
-1.38729e-42
-1.38729e-42
-1.38729e-42
-1.38729e-42
-1.38729e-42
-1.38729e-42
-1.38729e-42
-1.38729e-42
-1.38729e-42
-1.38729e-42
-1.38729e-42
-1.38729e-42
-1.38729e-42
-1.38729e-42
-1.38729e-42
-1.38729e-42
-1.38729e-42
-0.0806073
0.149904
0.113749
0.0395984
-0.0197404
0.303215
0.0535242
0.110619
0.0116768
-0.0781257
0.0812992
0.10755
0.126248
0.0441669
-0.0851694
-0.0255791
0.159051
0.116795
-0.0125015
-0.0394204
0.0375018
0.0717595
0.167777
0.0532262
-0.0777266
-0.0466427
0.300442
0.0445467
0.0731454
0.176119
0.0793626
0.0448616
0.118965
-0.0419571
-0.00834998
-0.0976473
0.123583
0.0196779
-0.100158
-0.0328856
0.0133306
-0.0552889
0.238843
0.046292
-0.0602415
0.0305489
0.000591575
0.122879
0.090787
-0.114841
0.00954851
0.0243811
-0.000833809
0.0449564
-0.0549058
-0.0590494
0.331716
-0.2275
-0.0368921
-0.0564998
0.125557
-0.0783582
-0.0069831
-0.015809
-0.052766
0.0820882
0.207959
0.0065802
-0.085375
0.0771978
0.126136
0.0175977
0.359258
0.17558
0.00647362
0.101823
-0.0002906
0.319793
0.230913
-0.114434
-0.0458993
-0.162032
-0.0953895
0.0524929
-0.0728048
-0.218899
0.282911
-0.447006
-0.0463468
-0.125595
0.132603
-0.167015
-0.0698638
-0.019839
-0.109689
0.0305344
0.158491
-0.0735837
-0.16073
0.00428426
0.109884
-0.064445
0.278787
0.0439833
-0.0708929
-0.0895132
0.0221918
0.165826
0.188309
-0.078533
-0.119233
-0.304195
-0.0259754
-0.0959466
-0.0227197
-0.328736
0.19134
-0.41724
-0.00914069
-0.190214
0.0772779
-0.149744
0.0321279
-0.0323772
-0.172323
0.169815
0.295344
-0.140721
-0.175777
-0.0982093
0.0919326
-0.0139139
0.427095
-0.0898117
-0.109201
-0.205658
0.0220016
0.179675
0.295625
-0.0439084
-0.131219
-0.230542
-0.00114888
-0.132756
-0.115834
-0.112728
0.23652
-0.243635
-0.165468
0.0941338
-1.38729e-42
-1.38729e-42
-1.38729e-42
-1.38729e-42
-1.38729e-42
-1.38729e-42
-1.38729e-42
-1.38729e-42
-1.38729e-42
-1.38729e-42
-1.38729e-42
-1.38729e-42
-1.38729e-42
-1.38729e-42
-1.38729e-42
-1.38729e-42
-1.38729e-42
-1.38729e-42
-1.38729e-42
-1.38729e-42
-1.38729e-42
-1.38729e-42
-1.38729e-42
-1.38729e-42
-1.38729e-42
-1.38729e-42
-1.38729e-42
-1.38729e-42
-1.38729e-42
-1.38729e-42
-1.38729e-42
-1.38729e-42
-1.38729e-42
-1.38729e-42
-1.38729e-42
-1.38729e-42
-1.38729e-42
-1.38729e-42
-1.38729e-42
-1.38729e-42
-1.38729e-42
-1.38729e-42
-1.38729e-42
-1.38729e-42
-1.38729e-42
-1.38729e-42
-1.38729e-42
-1.38729e-42
-1.38729e-42
-1.38729e-42
-1.38729e-42
-1.38729e-42
-1.38729e-42
-1.38729e-42
-1.38729e-42
-1.38729e-42
-1.38729e-42
-1.38729e-42
-1.38729e-42
-1.38729e-42
-1.38729e-42
-1.38729e-42
-1.38729e-42
-1.38729e-42
-1.38729e-42
-1.38729e-42
-1.38729e-42
-1.38729e-42
-1.38729e-42
-1.38729e-42
-1.38729e-42
-1.38729e-42
-1.38729e-42
-1.38729e-42
-1.38729e-42
-1.38729e-42
-1.38729e-42
-1.38729e-42
-1.38729e-42
-1.38729e-42
-1.38729e-42
-1.38729e-42
-1.38729e-42
-1.38729e-42
-1.38729e-42
-1.38729e-42
-1.38729e-42
-1.38729e-42
-1.38729e-42
-1.38729e-42
-1.38729e-42
-1.38729e-42
-1.38729e-42
-1.38729e-42
-1.38729e-42
-1.38729e-42
-1.38729e-42
-1.38729e-42
-1.38729e-42
-1.38729e-42
-1.38729e-42
-1.38729e-42
-1.38729e-42
-1.38729e-42
-1.38729e-42
-1.38729e-42
-1.38729e-42
-1.38729e-42
-1.38729e-42
-1.38729e-42
-1.38729e-42
-1.38729e-42
-1.38729e-42
-1.38729e-42
-1.38729e-42
-1.38729e-42
-1.38729e-42
-1.38729e-42
-1.38729e-42
-1.38729e-42
-1.38729e-42
-1.38729e-42
-1.38729e-42
-1.38729e-42
-1.38729e-42
-1.38729e-42
-1.38729e-42
-1.38729e-42
-1.38729e-42
-1.38729e-42
-1.38729e-42
-1.38729e-42
-1.38729e-42
-1.38729e-42
-1.38729e-42
-1.38729e-42
-1.38729e-42
-1.38729e-42
-1.38729e-42
-1.38729e-42
-1.38729e-42
-1.38729e-42
-1.38729e-42
-1.38729e-42
-1.38729e-42
-1.38729e-42
-1.38729e-42
-1.38729e-42
-1.38729e-42
-1.38729e-42
-0.131397
-0.0870304
-0.172134
0.189824
0.0603307
0.0597351
-0.30745
-0.156861
0.0163693
0.0362166
-0.176919
0.0380981
-0.398765
-0.104159
0.23036
-0.0696243
-0.212183
0.0988742
-0.27554
-0.0215262
0.107374
-0.0929566
-0.15067
0.141841
-0.155653
0.180823
-0.00764867
-0.0492547
-0.0226153
0.246447
-0.0518497
-0.172167
-0.142388
0.216658
0.0236378
5.36386e-05
-0.134094
-0.128519
-0.0852182
0.194704
0.0981831
-0.0492834
-0.196021
0.0229884
0.302346
0.00619245
-4.06635e-05
0.150024
-0.134226
0.148229
0.117483
-0.195041
0.00835766
0.124647
-0.121492
0.276208
0.024411
-0.162465
0.124588
0.0303291
0.0529008
-0.191275
-0.090642
0.133838
-0.0558342
0.0148785
0.0501239
-0.0946492
-0.219806
0.253857
0.0826036
0.00651455
-0.02351
0.253412
0.136518
0.172657
0.221375
0.0399937
0.00520798
0.217331
0.123129
-0.121171
0.0772634
0.00161667
0.000965812
0.175974
-0.0271694
-0.164092
-0.0826497
-0.0261181
0.111245
-0.094656
-0.00853496
0.101605
-0.0529627
0.0308039
0.215291
-0.0274277
-0.155467
0.147745
-0.0467201
0.0136083
0.193868
0.168412
-0.161381
0.148756
0.128273
-0.284706
0.178852
0.222545
-0.0236782
0.0407781
0.216691
-0.243884
0.101793
0.141756
0.0529873
-0.130327
-0.0366566
-0.138881
0.126216
0.134388
-0.00494862
0.0460607
-0.0500572
0.00403795
0.219786
0.164277
-0.0843399
0.0491278
0.335474
-0.117127
0.251249
0.171761
-0.0607582
0.207001
-0.181249
-0.261243
0.228938
0.15408
-0.0209505
0.22546
-0.0393119
-0.12989
0.0732782
0.0763181
0.0158515
0.0641971
0.197417
-0.159077
-8.35266e-39
-9.51445e-39
-5.79378e-40
-6.10816e-40
-1.8529e-38
-1.24805e-38
-5.40658e-39
-6.60272e-39
7.67962e-40
-1.58927e-40
-1.64071e-38
-1.25104e-38
-8.09277e-39
-4.67259e-39
2.85228e-39
-4.02817e-39
-1.62582e-38
-8.50597e-39
-7.41038e-39
-8.48044e-39
-9.32772e-40
-5.33929e-39
-1.48743e-38
-7.33934e-39
-1.24435e-38
-1.14425e-38
-1.39989e-39
-5.71225e-39
-1.55171e-38
-5.20474e-39
-7.98794e-39
-7.80757e-39
-1.53928e-39
-3.52785e-39
-1.0674e-38
-1.94285e-38
-4.75972e-39
-8.63069e-39
-1.58932e-39
3.47701e-40
-8.46715e-39
-2.07589e-38
-9.39689e-39
-6.9819e-39
-2.75424e-39
-2.55183e-39
-8.65697e-39
-1.90558e-38
-6.53718e-39
-4.93633e-39
-2.01261e-39
-3.24332e-39
-9.22861e-39
-1.71419e-38
-1.08127e-38
-6.11218e-39
-1.71307e-39
-1.68534e-39
-8.76966e-39
-1.5656e-38
-1.13771e-38
-1.1772e-38
-1.04426e-38
-8.75798e-40
-1.55653e-38
-1.90152e-38
-8.81595e-39
-1.09231e-38
-9.0548e-39
1.24232e-40
-1.28754e-38
-2.02212e-38
-1.18425e-38
-1.14871e-38
-1.17818e-38
-4.32662e-39
-1.02549e-38
-1.97925e-38
-9.39964e-39
-9.41056e-39
-1.25819e-38
-3.39193e-39
-1.00818e-38
-1.75366e-38
-1.13364e-38
-9.01781e-39
-1.0881e-38
3.24954e-39
-1.04639e-38
-1.65972e-38
-1.04253e-38
-9.45759e-39
-1.50431e-38
-7.08305e-39
-1.20773e-38
-2.5759e-38
-9.36887e-39
-1.06733e-38
-1.31838e-38
-4.89496e-39
-1.09707e-38
-2.43332e-38
-1.09115e-38
-9.22832e-39
-1.48805e-38
-6.54992e-39
-8.1194e-39
-2.2899e-38
-8.922e-39
-3.70488e-39
-1.72914e-38
-5.71305e-39
-8.99558e-39
-2.28032e-38
-1.19814e-38
-9.29741e-39
-1.75087e-38
-3.34994e-39
-7.72651e-39
-2.09412e-38
-1.30813e-38
-1.12548e-38
-1.4089e-38
-8.71509e-39
-1.06965e-38
-2.04335e-38
-9.05247e-39
-1.15768e-38
-1.51868e-38
-7.37066e-39
-8.30693e-39
-2.08581e-38
-1.11433e-38
-1.0455e-38
-1.66969e-38
-2.58004e-39
-8.45404e-39
-2.1151e-38
-7.82323e-39
-7.06437e-39
-1.7334e-38
-6.80631e-39
-9.0012e-39
-2.17002e-38
-1.34822e-38
-8.56088e-39
-1.82377e-38
-4.19235e-39
-7.78733e-39
-1.96476e-38
-0.0762193
-0.305376
0.109351
-0.224219
-0.108156
0.185701
-0.440522
-0.338113
-0.104426
-0.183712
-0.0877529
-0.108616
-0.358281
-0.164729
-0.0172463
-0.198293
-0.0977883
0.0558913
-0.237035
-0.0195955
-0.0640021
-0.196648
-0.183541
-0.0283572
0.0482765
-0.130686
-0.134837
-0.100853
0.0392034
0.140701
-0.00415427
-0.0740423
0.0211641
-0.20183
0.0395019
0.155987
-0.155252
-0.0627224
-0.0696651
-0.0908695
-0.0565742
0.00629558
-0.0924751
-0.0744767
-0.01375
-0.0721264
-0.00941716
0.00996683
0.000623361
-0.0569357
-0.0719238
-0.0996621
-0.0546361
-0.0649082
0.0254256
-0.00406378
-0.190471
0.00338148
0.0454419
0.184295
-0.0674082
0.012819
0.0613121
-0.109774
0.0241497
0.174208
-0.136142
-0.0797031
-0.0439478
-0.118104
-0.000476904
0.0148135
-0.141622
-0.102192
-0.0828797
-0.0941191
0.0466767
-0.0455024
-0.0688593
-0.0728198
-0.0877013
-0.038323
0.0561709
-0.0746924
0.0546008
0.00806221
-0.150759
-0.00365144
0.130275
0.184578
-0.00672595
0.0475997
0.0983741
0.0105615
0.0329318
0.0578987
-0.0432537
0.0171099
0.0119076
-0.0478741
-0.00305091
0.0388812
-0.0436569
0.0211628
0.00893742
0.0242295
0.0371703
0.0667507
-0.00532437
-0.00701569
-0.0439853
0.0542366
0.069135
0.013292
-0.0093331
0.0313642
-0.0672711
0.0177045
0.0652401
0.0951127
0.0653632
0.0256913
0.232246
0.0393945
0.0553049
0.13907
0.0595815
0.0372107
0.0182204
0.033581
0.0791932
0.0557723
0.0450707
0.0779277
0.0794834
0.0304326
0.0739223
0.168996
0.0624706
0.0221994
0.0154345
0.0275712
0.137968
0.127494
0.0552409
0.065672
0.0770144
-0.0364007
0.14863
0.0400362
-0.0221706
-0.104233
-0.00537086
0.111648
-0.0228177
-0.0935417
-0.0305952
-0.0560209
-0.0326362
0.119266
0.0169836
-0.0884872
0.0537958
-0.104266
0.00935534
0.185773
0.0621496
0.0370615
0.00120729
-0.195988
-0.0789967
0.23457
0.040557
-0.00798951
-0.0322682
-0.316927
0.0251854
0.19045
0.0297882
0.121442
-0.0433117
-0.103059
0.0263263
0.111931
0.0271069
-0.0362782
-0.0375054
-0.163821
-0.0327892
0.246931
0.056051
-0.00978221
-0.0878469
-0.273401
-0.0733607
0.268803
0.0378916
0.0532302
-0.0657708
-0.364173
-0.0585344
0.318362
0.0663547
0.0590952
-0.0336494
-0.337149
0.11478
0.312031
0.136667
0.013706
-0.018544
-0.116919
0.0641436
0.187189
0.000290984
0.0621213
-0.081687
-0.329316
-0.070178
0.31383
0.0294803
0.0718096
-0.154219
-0.423664
-0.0544795
0.44293
0.0982406
0.0801007
-0.1908
-0.376286
-0.0365215
0.293208
0.140395
0.0329223
-0.0685371
-0.27698
0.0410038
0.246759
0.062492
0.0360463
-0.0646544
-0.155504
0.0246602
0.222389
0.0110796
0.111018
-0.116273
-0.30289
-0.0456187
0.304707
0.0262548
0.183971
-0.166047
-0.336678
0.011939
0.321518
0.0792073
0.0369651
-0.132133
-0.293254
-0.0647548
0.298435
0.0939269
-0.0375065
-0.0706744
-0.205196
-0.029199
0.161255
0.0574951
-0.0483359
-0.0122688
-0.0982086
0.0723119
0.277581
0.00609956
0.264422
-0.0978155
-0.132757
-0.0293104
0.175846
0.0662674
0.0918687
-0.163532
-0.112719
0.0135447
0.168997
0.0146946
0.0707683
-0.160693
-0.121987
-0.0227099
0.14632
-0.0770113
0.0674539
-0.065818
-0.132501
-0.0643842
0.130964
0.0785541
0.0402825
-0.00446388
0.255142
0.103767
-0.275988
-0.201469
0.128628
0.0203821
0.219846
-0.0754187
-0.255074
-0.0318771
0.0786801
0.0153409
0.203232
-0.00636646
-0.0920046
-0.11016
0.15193
-0.00737993
0.112194
0.0562981
-0.126667
-0.0291948
0.054712
-0.0953632
0.133108
-0.0139848
-0.114011
-0.00253713
-0.155236
-0.0772019
0.351328
0.0870746
-0.408727
0.0213221
-0.0776555
-0.110111
0.36421
0.0776357
-0.428245
0.0503419
-0.0476198
-0.0267076
0.271842
-0.00202815
-0.382906
-0.0117873
0.0692003
-0.0674584
0.300042
-0.0897258
-0.276907
-0.0152718
0.0671655
0.00088888
0.0921012
0.0468301
-0.0673974
-0.0218498
-0.0183805
-0.0794474
0.284089
-0.00459567
-0.285944
-0.0825532
0.0629012
-0.182635
0.314241
0.00728353
-0.418373
0.0221197
-0.0654273
-0.137058
0.523528
0.0498723
-0.520465
0.0719299
-0.0880438
-0.0408601
0.364276
-0.0559406
-0.375092
0.0281788
0.0781312
-0.0726615
0.104803
0.0256296
0.0205277
-0.0471495
0.156835
-0.110757
0.154224
-0.0658066
-0.227189
-0.0192871
0.0472795
-0.207833
0.273555
-0.0971597
-0.240144
-0.00552911
-0.0668498
-0.154922
0.310583
0.0216667
-0.265215
0.12523
-0.178244
-0.0422947
0.326946
0.0121896
-0.197013
0.0582527
-0.00296058
-0.0349853
0.207964
0.0236732
-0.0412535
-0.0822864
0.244918
-0.0758584
0.14218
-0.0212888
-0.185949
0.173863
-0.088372
-0.152651
0.0896219
-0.061711
-0.0314492
0.0287005
-0.0127177
-0.0938657
0.0348151
0.0308011
0.0493937
0.00643872
0.0718448
-0.0415698
0.179238
-0.0119594
-0.0127426
0.0891254
-0.01403
0.00592721
0.246289
0.0731693
-0.0613033
0.0856887
0.0278836
-1.38729e-42
-1.38729e-42
-1.38729e-42
-1.38729e-42
-1.38729e-42
-1.38729e-42
-1.38729e-42
-1.38729e-42
-1.38729e-42
-1.38729e-42
-1.38729e-42
-1.38729e-42
-1.38729e-42
-1.38729e-42
-1.38729e-42
-1.38729e-42
-1.38729e-42
-1.38729e-42
-1.38729e-42
-1.38729e-42
-1.38729e-42
-1.38729e-42
-1.38729e-42
-1.38729e-42
-1.38729e-42
-1.38729e-42
-1.38729e-42
-1.38729e-42
-1.38729e-42
-1.38729e-42
-1.38729e-42
-1.38729e-42
-1.38729e-42
-1.38729e-42
-1.38729e-42
-1.38729e-42
-1.38729e-42
-1.38729e-42
-1.38729e-42
-1.38729e-42
-1.38729e-42
-1.38729e-42
-1.38729e-42
-1.38729e-42
-1.38729e-42
-1.38729e-42
-1.38729e-42
-1.38729e-42
-1.38729e-42
-1.38729e-42
-1.38729e-42
-1.38729e-42
-1.38729e-42
-1.38729e-42
-1.38729e-42
-1.38729e-42
-1.38729e-42
-1.38729e-42
-1.38729e-42
-1.38729e-42
-1.38729e-42
-1.38729e-42
-1.38729e-42
-1.38729e-42
-1.38729e-42
-1.38729e-42
-1.38729e-42
-1.38729e-42
-1.38729e-42
-1.38729e-42
-1.38729e-42
-1.38729e-42
-1.38729e-42
-1.38729e-42
-1.38729e-42
-1.38729e-42
-1.38729e-42
-1.38729e-42
-1.38729e-42
-1.38729e-42
-1.38729e-42
-1.38729e-42
-1.38729e-42
-1.38729e-42
-1.38729e-42
-1.38729e-42
-1.38729e-42
-1.38729e-42
-1.38729e-42
-1.38729e-42
-1.38729e-42
-1.38729e-42
-1.38729e-42
-1.38729e-42
-1.38729e-42
-1.38729e-42
-1.38729e-42
-1.38729e-42
-1.38729e-42
-1.38729e-42
-1.38729e-42
-1.38729e-42
-1.38729e-42
-1.38729e-42
-1.38729e-42
-1.38729e-42
-1.38729e-42
-1.38729e-42
-1.38729e-42
-1.38729e-42
-1.38729e-42
-1.38729e-42
-1.38729e-42
-1.38729e-42
-1.38729e-42
-1.38729e-42
-1.38729e-42
-1.38729e-42
-1.38729e-42
-1.38729e-42
-1.38729e-42
-1.38729e-42
-1.38729e-42
-1.38729e-42
-1.38729e-42
-1.38729e-42
-1.38729e-42
-1.38729e-42
-1.38729e-42
-1.38729e-42
-1.38729e-42
-1.38729e-42
-1.38729e-42
-1.38729e-42
-1.38729e-42
-1.38729e-42
-1.38729e-42
-1.38729e-42
-1.38729e-42
-1.38729e-42
-1.38729e-42
-1.38729e-42
-1.38729e-42
-1.38729e-42
-1.38729e-42
-1.38729e-42
-1.38729e-42
-1.38729e-42
-1.38729e-42
-1.38729e-42
-0.0806073
0.149904
0.113749
0.0395984
-0.0197404
0.303215
0.0535242
0.110619
0.0116768
-0.0781257
0.0812992
0.10755
0.126248
0.0441669
-0.0851694
-0.0255791
0.159051
0.116795
-0.0125015
-0.0394204
0.0375018
0.0717595
0.167777
0.0532262
-0.0777266
-0.0466427
0.300442
0.0445467
0.0731454
0.176119
0.0793626
0.0448616
0.118965
-0.0419571
-0.00834998
-0.0976473
0.123583
0.0196779
-0.100158
-0.0328856
0.0133306
-0.0552889
0.238843
0.046292
-0.0602415
0.0305489
0.000591575
0.122879
0.090787
-0.114841
0.00954851
0.0243811
-0.000833809
0.0449564
-0.0549058
-0.0590494
0.331716
-0.2275
-0.0368921
-0.0564998
0.125557
-0.0783582
-0.0069831
-0.015809
-0.052766
0.0820882
0.207959
0.0065802
-0.085375
0.0771978
0.126136
0.0175977
0.359258
0.17558
0.00647362
0.101823
-0.0002906
0.319793
0.230913
-0.114434
-0.0458993
-0.162032
-0.0953895
0.0524929
-0.0728048
-0.218899
0.282911
-0.447006
-0.0463468
-0.125595
0.132603
-0.167015
-0.0698638
-0.019839
-0.109689
0.0305344
0.158491
-0.0735837
-0.16073
0.00428426
0.109884
-0.064445
0.278787
0.0439833
-0.0708929
-0.0895132
0.0221918
0.165826
0.188309
-0.078533
-0.119233
-0.304195
-0.0259754
-0.0959466
-0.0227197
-0.328736
0.19134
-0.41724
-0.00914069
-0.190214
0.0772779
-0.149744
0.0321279
-0.0323772
-0.172323
0.169815
0.295344
-0.140721
-0.175777
-0.0982093
0.0919326
-0.0139139
0.427095
-0.0898117
-0.109201
-0.205658
0.0220016
0.179675
0.295625
-0.0439084
-0.131219
-0.230542
-0.00114888
-0.132756
-0.115834
-0.112728
0.23652
-0.243635
-0.165468
0.0941338
-1.38729e-42
-1.38729e-42
-1.38729e-42
-1.38729e-42
-1.38729e-42
-1.38729e-42
-1.38729e-42
-1.38729e-42
-1.38729e-42
-1.38729e-42
-1.38729e-42
-1.38729e-42
-1.38729e-42
-1.38729e-42
-1.38729e-42
-1.38729e-42
-1.38729e-42
-1.38729e-42
-1.38729e-42
-1.38729e-42
-1.38729e-42
-1.38729e-42
-1.38729e-42
-1.38729e-42
-1.38729e-42
-1.38729e-42
-1.38729e-42
-1.38729e-42
-1.38729e-42
-1.38729e-42
-1.38729e-42
-1.38729e-42
-1.38729e-42
-1.38729e-42
-1.38729e-42
-1.38729e-42
-1.38729e-42
-1.38729e-42
-1.38729e-42
-1.38729e-42
-1.38729e-42
-1.38729e-42
-1.38729e-42
-1.38729e-42
-1.38729e-42
-1.38729e-42
-1.38729e-42
-1.38729e-42
-1.38729e-42
-1.38729e-42
-1.38729e-42
-1.38729e-42
-1.38729e-42
-1.38729e-42
-1.38729e-42
-1.38729e-42
-1.38729e-42
-1.38729e-42
-1.38729e-42
-1.38729e-42
-1.38729e-42
-1.38729e-42
-1.38729e-42
-1.38729e-42
-1.38729e-42
-1.38729e-42
-1.38729e-42
-1.38729e-42
-1.38729e-42
-1.38729e-42
-1.38729e-42
-1.38729e-42
-1.38729e-42
-1.38729e-42
-1.38729e-42
-1.38729e-42
-1.38729e-42
-1.38729e-42
-1.38729e-42
-1.38729e-42
-1.38729e-42
-1.38729e-42
-1.38729e-42
-1.38729e-42
-1.38729e-42
-1.38729e-42
-1.38729e-42
-1.38729e-42
-1.38729e-42
-1.38729e-42
-1.38729e-42
-1.38729e-42
-1.38729e-42
-1.38729e-42
-1.38729e-42
-1.38729e-42
-1.38729e-42
-1.38729e-42
-1.38729e-42
-1.38729e-42
-1.38729e-42
-1.38729e-42
-1.38729e-42
-1.38729e-42
-1.38729e-42
-1.38729e-42
-1.38729e-42
-1.38729e-42
-1.38729e-42
-1.38729e-42
-1.38729e-42
-1.38729e-42
-1.38729e-42
-1.38729e-42
-1.38729e-42
-1.38729e-42
-1.38729e-42
-1.38729e-42
-1.38729e-42
-1.38729e-42
-1.38729e-42
-1.38729e-42
-1.38729e-42
-1.38729e-42
-1.38729e-42
-1.38729e-42
-1.38729e-42
-1.38729e-42
-1.38729e-42
-1.38729e-42
-1.38729e-42
-1.38729e-42
-1.38729e-42
-1.38729e-42
-1.38729e-42
-1.38729e-42
-1.38729e-42
-1.38729e-42
-1.38729e-42
-1.38729e-42
-1.38729e-42
-1.38729e-42
-1.38729e-42
-1.38729e-42
-1.38729e-42
-1.38729e-42
-1.38729e-42
-1.38729e-42
-1.38729e-42
-1.38729e-42
-0.131397
-0.0870304
-0.172134
0.189824
0.0603307
0.0597351
-0.30745
-0.156861
0.0163693
0.0362166
-0.176919
0.0380981
-0.398765
-0.104159
0.23036
-0.0696243
-0.212183
0.0988742
-0.27554
-0.0215262
0.107374
-0.0929566
-0.15067
0.141841
-0.155653
0.180823
-0.00764867
-0.0492547
-0.0226153
0.246447
-0.0518497
-0.172167
-0.142388
0.216658
0.0236378
5.36386e-05
-0.134094
-0.128519
-0.0852182
0.194704
0.0981831
-0.0492834
-0.196021
0.0229884
0.302346
0.00619245
-4.06635e-05
0.150024
-0.134226
0.148229
0.117483
-0.195041
0.00835766
0.124647
-0.121492
0.276208
0.024411
-0.162465
0.124588
0.0303291
0.0529008
-0.191275
-0.090642
0.133838
-0.0558342
0.0148785
0.0501239
-0.0946492
-0.219806
0.253857
0.0826036
0.00651455
-0.02351
0.253412
0.136518
0.172657
0.221375
0.0399937
0.00520798
0.217331
0.123129
-0.121171
0.0772634
0.00161667
0.000965812
0.175974
-0.0271694
-0.164092
-0.0826497
-0.0261181
0.111245
-0.094656
-0.00853496
0.101605
-0.0529627
0.0308039
0.215291
-0.0274277
-0.155467
0.147745
-0.0467201
0.0136083
0.193868
0.168412
-0.161381
0.148756
0.128273
-0.284706
0.178852
0.222545
-0.0236782
0.0407781
0.216691
-0.243884
0.101793
0.141756
0.0529873
-0.130327
-0.0366566
-0.138881
0.126216
0.134388
-0.00494862
0.0460607
-0.0500572
0.00403795
0.219786
0.164277
-0.0843399
0.0491278
0.335474
-0.117127
0.251249
0.171761
-0.0607582
0.207001
-0.181249
-0.261243
0.228938
0.15408
-0.0209505
0.22546
-0.0393119
-0.12989
0.0732782
0.0763181
0.0158515
0.0641971
0.197417
-0.159077
-8.35266e-39
-9.51445e-39
-5.79378e-40
-6.10816e-40
-1.8529e-38
-1.24805e-38
-5.40658e-39
-6.60272e-39
7.67962e-40
-1.58927e-40
-1.64071e-38
-1.25104e-38
-8.09277e-39
-4.67259e-39
2.85228e-39
-4.02817e-39
-1.62582e-38
-8.50597e-39
-7.41038e-39
-8.48044e-39
-9.32772e-40
-5.33929e-39
-1.48743e-38
-7.33934e-39
-1.24435e-38
-1.14425e-38
-1.39989e-39
-5.71225e-39
-1.55171e-38
-5.20474e-39
-7.98794e-39
-7.80757e-39
-1.53928e-39
-3.52785e-39
-1.0674e-38
-1.94285e-38
-4.75972e-39
-8.63069e-39
-1.58932e-39
3.47701e-40
-8.46715e-39
-2.07589e-38
-9.39689e-39
-6.9819e-39
-2.75424e-39
-2.55183e-39
-8.65697e-39
-1.90558e-38
-6.53718e-39
-4.93633e-39
-2.01261e-39
-3.24332e-39
-9.22861e-39
-1.71419e-38
-1.08127e-38
-6.11218e-39
-1.71307e-39
-1.68534e-39
-8.76966e-39
-1.5656e-38
-1.13771e-38
-1.1772e-38
-1.04426e-38
-8.75798e-40
-1.55653e-38
-1.90152e-38
-8.81595e-39
-1.09231e-38
-9.0548e-39
1.24232e-40
-1.28754e-38
-2.02212e-38
-1.18425e-38
-1.14871e-38
-1.17818e-38
-4.32662e-39
-1.02549e-38
-1.97925e-38
-9.39964e-39
-9.41056e-39
-1.25819e-38
-3.39193e-39
-1.00818e-38
-1.75366e-38
-1.13364e-38
-9.01781e-39
-1.0881e-38
3.24954e-39
-1.04639e-38
-1.65972e-38
-1.04253e-38
-9.45759e-39
-1.50431e-38
-7.08305e-39
-1.20773e-38
-2.5759e-38
-9.36887e-39
-1.06733e-38
-1.31838e-38
-4.89496e-39
-1.09707e-38
-2.43332e-38
-1.09115e-38
-9.22832e-39
-1.48805e-38
-6.54992e-39
-8.1194e-39
-2.2899e-38
-8.922e-39
-3.70488e-39
-1.72914e-38
-5.71305e-39
-8.99558e-39
-2.28032e-38
-1.19814e-38
-9.29741e-39
-1.75087e-38
-3.34994e-39
-7.72651e-39
-2.09412e-38
-1.30813e-38
-1.12548e-38
-1.4089e-38
-8.71509e-39
-1.06965e-38
-2.04335e-38
-9.05247e-39
-1.15768e-38
-1.51868e-38
-7.37066e-39
-8.30693e-39
-2.08581e-38
-1.11433e-38
-1.0455e-38
-1.66969e-38
-2.58004e-39
-8.45404e-39
-2.1151e-38
-7.82323e-39
-7.06437e-39
-1.7334e-38
-6.80631e-39
-9.0012e-39
-2.17002e-38
-1.34822e-38
-8.56088e-39
-1.82377e-38
-4.19235e-39
-7.78733e-39
-1.96476e-38
-0.0762193
-0.305376
0.109351
-0.224219
-0.108156
0.185701
-0.440522
-0.338113
-0.104426
-0.183712
-0.0877529
-0.108616
-0.358281
-0.164729
-0.0172463
-0.198293
-0.0977883
0.0558913
-0.237035
-0.0195955
-0.0640021
-0.196648
-0.183541
-0.0283572
0.0482765
-0.130686
-0.134837
-0.100853
0.0392034
0.140701
-0.00415427
-0.0740423
0.0211641
-0.20183
0.0395019
0.155987
-0.155252
-0.0627224
-0.0696651
-0.0908695
-0.0565742
0.00629558
-0.0924751
-0.0744767
-0.01375
-0.0721264
-0.00941716
0.00996683
0.000623361
-0.0569357
-0.0719238
-0.0996621
-0.0546361
-0.0649082
0.0254256
-0.00406378
-0.190471
0.00338148
0.0454419
0.184295
-0.0674082
0.012819
0.0613121
-0.109774
0.0241497
0.174208
-0.136142
-0.0797031
-0.0439478
-0.118104
-0.000476904
0.0148135
-0.141622
-0.102192
-0.0828797
-0.0941191
0.0466767
-0.0455024
-0.0688593
-0.0728198
-0.0877013
-0.038323
0.0561709
-0.0746924
0.0546008
0.00806221
-0.150759
-0.00365144
0.130275
0.184578
-0.00672595
0.0475997
0.0983741
0.0105615
0.0329318
0.0578987
-0.0432537
0.0171099
0.0119076
-0.0478741
-0.00305091
0.0388812
-0.0436569
0.0211628
0.00893742
0.0242295
0.0371703
0.0667507
-0.00532437
-0.00701569
-0.0439853
0.0542366
0.069135
0.013292
-0.0093331
0.0313642
-0.0672711
0.0177045
0.0652401
0.0951127
0.0653632
0.0256913
0.232246
0.0393945
0.0553049
0.13907
0.0595815
0.0372107
0.0182204
0.033581
0.0791932
0.0557723
0.0450707
0.0779277
0.0794834
0.0304326
0.0739223
0.168996
0.0624706
0.0221994
0.0154345
0.0275712
0.137968
0.127494
0.0552409
0.065672
0.0770144
-0.0364007
0.14863
0.0400362
-0.0221706
-0.104233
-0.00537086
0.111648
-0.0228177
-0.0935417
-0.0305952
-0.0560209
-0.0326362
0.119266
0.0169836
-0.0884872
0.0537958
-0.104266
0.00935534
0.185773
0.0621496
0.0370615
0.00120729
-0.195988
-0.0789967
0.23457
0.040557
-0.00798951
-0.0322682
-0.316927
0.0251854
0.19045
0.0297882
0.121442
-0.0433117
-0.103059
0.0263263
0.111931
0.0271069
-0.0362782
-0.0375054
-0.163821
-0.0327892
0.246931
0.056051
-0.00978221
-0.0878469
-0.273401
-0.0733607
0.268803
0.0378916
0.0532302
-0.0657708
-0.364173
-0.0585344
0.318362
0.0663547
0.0590952
-0.0336494
-0.337149
0.11478
0.312031
0.136667
0.013706
-0.018544
-0.116919
0.0641436
0.187189
0.000290984
0.0621213
-0.081687
-0.329316
-0.070178
0.31383
0.0294803
0.0718096
-0.154219
-0.423664
-0.0544795
0.44293
0.0982406
0.0801007
-0.1908
-0.376286
-0.0365215
0.293208
0.140395
0.0329223
-0.0685371
-0.27698
0.0410038
0.246759
0.062492
0.0360463
-0.0646544
-0.155504
0.0246602
0.222389
0.0110796
0.111018
-0.116273
-0.30289
-0.0456187
0.304707
0.0262548
0.183971
-0.166047
-0.336678
0.011939
0.321518
0.0792073
0.0369651
-0.132133
-0.293254
-0.0647548
0.298435
0.0939269
-0.0375065
-0.0706744
-0.205196
-0.029199
0.161255
0.0574951
-0.0483359
-0.0122688
-0.0982086
0.0723119
0.277581
0.00609956
0.264422
-0.0978155
-0.132757
-0.0293104
0.175846
0.0662674
0.0918687
-0.163532
-0.112719
0.0135447
0.168997
0.0146946
0.0707683
-0.160693
-0.121987
-0.0227099
0.14632
-0.0770113
0.0674539
-0.065818
-0.132501
-0.0643842
0.130964
0.0785541
0.0402825
-0.00446388
0.255142
0.103767
-0.275988
-0.201469
0.128628
0.0203821
0.219846
-0.0754187
-0.255074
-0.0318771
0.0786801
0.0153409
0.203232
-0.00636646
-0.0920046
-0.11016
0.15193
-0.00737993
0.112194
0.0562981
-0.126667
-0.0291948
0.054712
-0.0953632
0.133108
-0.0139848
-0.114011
-0.00253713
-0.155236
-0.0772019
0.351328
0.0870746
-0.408727
0.0213221
-0.0776555
-0.110111
0.36421
0.0776357
-0.428245
0.0503419
-0.0476198
-0.0267076
0.271842
-0.00202815
-0.382906
-0.0117873
0.0692003
-0.0674584
0.300042
-0.0897258
-0.276907
-0.0152718
0.0671655
0.00088888
0.0921012
0.0468301
-0.0673974
-0.0218498
-0.0183805
-0.0794474
0.284089
-0.00459567
-0.285944
-0.0825532
0.0629012
-0.182635
0.314241
0.00728353
-0.418373
0.0221197
-0.0654273
-0.137058
0.523528
0.0498723
-0.520465
0.0719299
-0.0880438
-0.0408601
0.364276
-0.0559406
-0.375092
0.0281788
0.0781312
-0.0726615
0.104803
0.0256296
0.0205277
-0.0471495
0.156835
-0.110757
0.154224
-0.0658066
-0.227189
-0.0192871
0.0472795
-0.207833
0.273555
-0.0971597
-0.240144
-0.00552911
-0.0668498
-0.154922
0.310583
0.0216667
-0.265215
0.12523
-0.178244
-0.0422947
0.326946
0.0121896
-0.197013
0.0582527
-0.00296058
-0.0349853
0.207964
0.0236732
-0.0412535
-0.0822864
0.244918
-0.0758584
0.14218
-0.0212888
-0.185949
0.173863
-0.088372
-0.152651
0.0896219
-0.061711
-0.0314492
0.0287005
-0.0127177
-0.0938657
0.0348151
0.0308011
0.0493937
0.00643872
0.0718448
-0.0415698
0.179238
-0.0119594
-0.0127426
0.0891254
-0.01403
0.00592721
0.246289
0.0731693
-0.0613033
0.0856887
0.0278836
-1.38729e-42
-1.38729e-42
-1.38729e-42
-1.38729e-42
-1.38729e-42
-1.38729e-42
-1.38729e-42
-1.38729e-42
-1.38729e-42
-1.38729e-42
-1.38729e-42
-1.38729e-42
-1.38729e-42
-1.38729e-42
-1.38729e-42
-1.38729e-42
-1.38729e-42
-1.38729e-42
-1.38729e-42
-1.38729e-42
-1.38729e-42
-1.38729e-42
-1.38729e-42
-1.38729e-42
-1.38729e-42
-1.38729e-42
-1.38729e-42
-1.38729e-42
-1.38729e-42
-1.38729e-42
-1.38729e-42
-1.38729e-42
-1.38729e-42
-1.38729e-42
-1.38729e-42
-1.38729e-42
-1.38729e-42
-1.38729e-42
-1.38729e-42
-1.38729e-42
-1.38729e-42
-1.38729e-42
-1.38729e-42
-1.38729e-42
-1.38729e-42
-1.38729e-42
-1.38729e-42
-1.38729e-42
-1.38729e-42
-1.38729e-42
-1.38729e-42
-1.38729e-42
-1.38729e-42
-1.38729e-42
-1.38729e-42
-1.38729e-42
-1.38729e-42
-1.38729e-42
-1.38729e-42
-1.38729e-42
-1.38729e-42
-1.38729e-42
-1.38729e-42
-1.38729e-42
-1.38729e-42
-1.38729e-42
-1.38729e-42
-1.38729e-42
-1.38729e-42
-1.38729e-42
-1.38729e-42
-1.38729e-42
-1.38729e-42
-1.38729e-42
-1.38729e-42
-1.38729e-42
-1.38729e-42
-1.38729e-42
-1.38729e-42
-1.38729e-42
-1.38729e-42
-1.38729e-42
-1.38729e-42
-1.38729e-42
-1.38729e-42
-1.38729e-42
-1.38729e-42
-1.38729e-42
-1.38729e-42
-1.38729e-42
-1.38729e-42
-1.38729e-42
-1.38729e-42
-1.38729e-42
-1.38729e-42
-1.38729e-42
-1.38729e-42
-1.38729e-42
-1.38729e-42
-1.38729e-42
-1.38729e-42
-1.38729e-42
-1.38729e-42
-1.38729e-42
-1.38729e-42
-1.38729e-42
-1.38729e-42
-1.38729e-42
-1.38729e-42
-1.38729e-42
-1.38729e-42
-1.38729e-42
-1.38729e-42
-1.38729e-42
-1.38729e-42
-1.38729e-42
-1.38729e-42
-1.38729e-42
-1.38729e-42
-1.38729e-42
-1.38729e-42
-1.38729e-42
-1.38729e-42
-1.38729e-42
-1.38729e-42
-1.38729e-42
-1.38729e-42
-1.38729e-42
-1.38729e-42
-1.38729e-42
-1.38729e-42
-1.38729e-42
-1.38729e-42
-1.38729e-42
-1.38729e-42
-1.38729e-42
-1.38729e-42
-1.38729e-42
-1.38729e-42
-1.38729e-42
-1.38729e-42
-1.38729e-42
-1.38729e-42
-1.38729e-42
-1.38729e-42
-1.38729e-42
-1.38729e-42
-1.38729e-42
-1.38729e-42
-1.38729e-42
-0.0806073
0.149904
0.113749
0.0395984
-0.0197404
0.303215
0.0535242
0.110619
0.0116768
-0.0781257
0.0812992
0.10755
0.126248
0.0441669
-0.0851694
-0.0255791
0.159051
0.116795
-0.0125015
-0.0394204
0.0375018
0.0717595
0.167777
0.0532262
-0.0777266
-0.0466427
0.300442
0.0445467
0.0731454
0.176119
0.0793626
0.0448616
0.118965
-0.0419571
-0.00834998
-0.0976473
0.123583
0.0196779
-0.100158
-0.0328856
0.0133306
-0.0552889
0.238843
0.046292
-0.0602415
0.0305489
0.000591575
0.122879
0.090787
-0.114841
0.00954851
0.0243811
-0.000833809
0.0449564
-0.0549058
-0.0590494
0.331716
-0.2275
-0.0368921
-0.0564998
0.125557
-0.0783582
-0.0069831
-0.015809
-0.052766
0.0820882
0.207959
0.0065802
-0.085375
0.0771978
0.126136
0.0175977
0.359258
0.17558
0.00647362
0.101823
-0.0002906
0.319793
0.230913
-0.114434
-0.0458993
-0.162032
-0.0953895
0.0524929
-0.0728048
-0.218899
0.282911
-0.447006
-0.0463468
-0.125595
0.132603
-0.167015
-0.0698638
-0.019839
-0.109689
0.0305344
0.158491
-0.0735837
-0.16073
0.00428426
0.109884
-0.064445
0.278787
0.0439833
-0.0708929
-0.0895132
0.0221918
0.165826
0.188309
-0.078533
-0.119233
-0.304195
-0.0259754
-0.0959466
-0.0227197
-0.328736
0.19134
-0.41724
-0.00914069
-0.190214
0.0772779
-0.149744
0.0321279
-0.0323772
-0.172323
0.169815
0.295344
-0.140721
-0.175777
-0.0982093
0.0919326
-0.0139139
0.427095
-0.0898117
-0.109201
-0.205658
0.0220016
0.179675
0.295625
-0.0439084
-0.131219
-0.230542
-0.00114888
-0.132756
-0.115834
-0.112728
0.23652
-0.243635
-0.165468
0.0941338
-1.38729e-42
-1.38729e-42
-1.38729e-42
-1.38729e-42
-1.38729e-42
-1.38729e-42
-1.38729e-42
-1.38729e-42
-1.38729e-42
-1.38729e-42
-1.38729e-42
-1.38729e-42
-1.38729e-42
-1.38729e-42
-1.38729e-42
-1.38729e-42
-1.38729e-42
-1.38729e-42
-1.38729e-42
-1.38729e-42
-1.38729e-42
-1.38729e-42
-1.38729e-42
-1.38729e-42
-1.38729e-42
-1.38729e-42
-1.38729e-42
-1.38729e-42
-1.38729e-42
-1.38729e-42
-1.38729e-42
-1.38729e-42
-1.38729e-42
-1.38729e-42
-1.38729e-42
-1.38729e-42
-1.38729e-42
-1.38729e-42
-1.38729e-42
-1.38729e-42
-1.38729e-42
-1.38729e-42
-1.38729e-42
-1.38729e-42
-1.38729e-42
-1.38729e-42
-1.38729e-42
-1.38729e-42
-1.38729e-42
-1.38729e-42
-1.38729e-42
-1.38729e-42
-1.38729e-42
-1.38729e-42
-1.38729e-42
-1.38729e-42
-1.38729e-42
-1.38729e-42
-1.38729e-42
-1.38729e-42
-1.38729e-42
-1.38729e-42
-1.38729e-42
-1.38729e-42
-1.38729e-42
-1.38729e-42
-1.38729e-42
-1.38729e-42
-1.38729e-42
-1.38729e-42
-1.38729e-42
-1.38729e-42
-1.38729e-42
-1.38729e-42
-1.38729e-42
-1.38729e-42
-1.38729e-42
-1.38729e-42
-1.38729e-42
-1.38729e-42
-1.38729e-42
-1.38729e-42
-1.38729e-42
-1.38729e-42
-1.38729e-42
-1.38729e-42
-1.38729e-42
-1.38729e-42
-1.38729e-42
-1.38729e-42
-1.38729e-42
-1.38729e-42
-1.38729e-42
-1.38729e-42
-1.38729e-42
-1.38729e-42
-1.38729e-42
-1.38729e-42
-1.38729e-42
-1.38729e-42
-1.38729e-42
-1.38729e-42
-1.38729e-42
-1.38729e-42
-1.38729e-42
-1.38729e-42
-1.38729e-42
-1.38729e-42
-1.38729e-42
-1.38729e-42
-1.38729e-42
-1.38729e-42
-1.38729e-42
-1.38729e-42
-1.38729e-42
-1.38729e-42
-1.38729e-42
-1.38729e-42
-1.38729e-42
-1.38729e-42
-1.38729e-42
-1.38729e-42
-1.38729e-42
-1.38729e-42
-1.38729e-42
-1.38729e-42
-1.38729e-42
-1.38729e-42
-1.38729e-42
-1.38729e-42
-1.38729e-42
-1.38729e-42
-1.38729e-42
-1.38729e-42
-1.38729e-42
-1.38729e-42
-1.38729e-42
-1.38729e-42
-1.38729e-42
-1.38729e-42
-1.38729e-42
-1.38729e-42
-1.38729e-42
-1.38729e-42
-1.38729e-42
-1.38729e-42
-1.38729e-42
-1.38729e-42
-1.38729e-42
-1.38729e-42
-0.131397
-0.0870304
-0.172134
0.189824
0.0603307
0.0597351
-0.30745
-0.156861
0.0163693
0.0362166
-0.176919
0.0380981
-0.398765
-0.104159
0.23036
-0.0696243
-0.212183
0.0988742
-0.27554
-0.0215262
0.107374
-0.0929566
-0.15067
0.141841
-0.155653
0.180823
-0.00764867
-0.0492547
-0.0226153
0.246447
-0.0518497
-0.172167
-0.142388
0.216658
0.0236378
5.36386e-05
-0.134094
-0.128519
-0.0852182
0.194704
0.0981831
-0.0492834
-0.196021
0.0229884
0.302346
0.00619245
-4.06635e-05
0.150024
-0.134226
0.148229
0.117483
-0.195041
0.00835766
0.124647
-0.121492
0.276208
0.024411
-0.162465
0.124588
0.0303291
0.0529008
-0.191275
-0.090642
0.133838
-0.0558342
0.0148785
0.0501239
-0.0946492
-0.219806
0.253857
0.0826036
0.00651455
-0.02351
0.253412
0.136518
0.172657
0.221375
0.0399937
0.00520798
0.217331
0.123129
-0.121171
0.0772634
0.00161667
0.000965812
0.175974
-0.0271694
-0.164092
-0.0826497
-0.0261181
0.111245
-0.094656
-0.00853496
0.101605
-0.0529627
0.0308039
0.215291
-0.0274277
-0.155467
0.147745
-0.0467201
0.0136083
0.193868
0.168412
-0.161381
0.148756
0.128273
-0.284706
0.178852
0.222545
-0.0236782
0.0407781
0.216691
-0.243884
0.101793
0.141756
0.0529873
-0.130327
-0.0366566
-0.138881
0.126216
0.134388
-0.00494862
0.0460607
-0.0500572
0.00403795
0.219786
0.164277
-0.0843399
0.0491278
0.335474
-0.117127
0.251249
0.171761
-0.0607582
0.207001
-0.181249
-0.261243
0.228938
0.15408
-0.0209505
0.22546
-0.0393119
-0.12989
0.0732782
0.0763181
0.0158515
0.0641971
0.197417
-0.159077
-8.35266e-39
-9.51445e-39
-5.79378e-40
-6.10816e-40
-1.8529e-38
-1.24805e-38
-5.40658e-39
-6.60272e-39
7.67962e-40
-1.58927e-40
-1.64071e-38
-1.25104e-38
-8.09277e-39
-4.67259e-39
2.85228e-39
-4.02817e-39
-1.62582e-38
-8.50597e-39
-7.41038e-39
-8.48044e-39
-9.32772e-40
-5.33929e-39
-1.48743e-38
-7.33934e-39
-1.24435e-38
-1.14425e-38
-1.39989e-39
-5.71225e-39
-1.55171e-38
-5.20474e-39
-7.98794e-39
-7.80757e-39
-1.53928e-39
-3.52785e-39
-1.0674e-38
-1.94285e-38
-4.75972e-39
-8.63069e-39
-1.58932e-39
3.47701e-40
-8.46715e-39
-2.07589e-38
-9.39689e-39
-6.9819e-39
-2.75424e-39
-2.55183e-39
-8.65697e-39
-1.90558e-38
-6.53718e-39
-4.93633e-39
-2.01261e-39
-3.24332e-39
-9.22861e-39
-1.71419e-38
-1.08127e-38
-6.11218e-39
-1.71307e-39
-1.68534e-39
-8.76966e-39
-1.5656e-38
-1.13771e-38
-1.1772e-38
-1.04426e-38
-8.75798e-40
-1.55653e-38
-1.90152e-38
-8.81595e-39
-1.09231e-38
-9.0548e-39
1.24232e-40
-1.28754e-38
-2.02212e-38
-1.18425e-38
-1.14871e-38
-1.17818e-38
-4.32662e-39
-1.02549e-38
-1.97925e-38
-9.39964e-39
-9.41056e-39
-1.25819e-38
-3.39193e-39
-1.00818e-38
-1.75366e-38
-1.13364e-38
-9.01781e-39
-1.0881e-38
3.24954e-39
-1.04639e-38
-1.65972e-38
-1.04253e-38
-9.45759e-39
-1.50431e-38
-7.08305e-39
-1.20773e-38
-2.5759e-38
-9.36887e-39
-1.06733e-38
-1.31838e-38
-4.89496e-39
-1.09707e-38
-2.43332e-38
-1.09115e-38
-9.22832e-39
-1.48805e-38
-6.54992e-39
-8.1194e-39
-2.2899e-38
-8.922e-39
-3.70488e-39
-1.72914e-38
-5.71305e-39
-8.99558e-39
-2.28032e-38
-1.19814e-38
-9.29741e-39
-1.75087e-38
-3.34994e-39
-7.72651e-39
-2.09412e-38
-1.30813e-38
-1.12548e-38
-1.4089e-38
-8.71509e-39
-1.06965e-38
-2.04335e-38
-9.05247e-39
-1.15768e-38
-1.51868e-38
-7.37066e-39
-8.30693e-39
-2.08581e-38
-1.11433e-38
-1.0455e-38
-1.66969e-38
-2.58004e-39
-8.45404e-39
-2.1151e-38
-7.82323e-39
-7.06437e-39
-1.7334e-38
-6.80631e-39
-9.0012e-39
-2.17002e-38
-1.34822e-38
-8.56088e-39
-1.82377e-38
-4.19235e-39
-7.78733e-39
-1.96476e-38
-0.0762193
-0.305376
0.109351
-0.224219
-0.108156
0.185701
-0.440522
-0.338113
-0.104426
-0.183712
-0.0877529
-0.108616
-0.358281
-0.164729
-0.0172463
-0.198293
-0.0977883
0.0558913
-0.237035
-0.0195955
-0.0640021
-0.196648
-0.183541
-0.0283572
0.0482765
-0.130686
-0.134837
-0.100853
0.0392034
0.140701
-0.00415427
-0.0740423
0.0211641
-0.20183
0.0395019
0.155987
-0.155252
-0.0627224
-0.0696651
-0.0908695
-0.0565742
0.00629558
-0.0924751
-0.0744767
-0.01375
-0.0721264
-0.00941716
0.00996683
0.000623361
-0.0569357
-0.0719238
-0.0996621
-0.0546361
-0.0649082
0.0254256
-0.00406378
-0.190471
0.00338148
0.0454419
0.184295
-0.0674082
0.012819
0.0613121
-0.109774
0.0241497
0.174208
-0.136142
-0.0797031
-0.0439478
-0.118104
-0.000476904
0.0148135
-0.141622
-0.102192
-0.0828797
-0.0941191
0.0466767
-0.0455024
-0.0688593
-0.0728198
-0.0877013
-0.038323
0.0561709
-0.0746924
0.0546008
0.00806221
-0.150759
-0.00365144
0.130275
0.184578
-0.00672595
0.0475997
0.0983741
0.0105615
0.0329318
0.0578987
-0.0432537
0.0171099
0.0119076
-0.0478741
-0.00305091
0.0388812
-0.0436569
0.0211628
0.00893742
0.0242295
0.0371703
0.0667507
-0.00532437
-0.00701569
-0.0439853
0.0542366
0.069135
0.013292
-0.0093331
0.0313642
-0.0672711
0.0177045
0.0652401
0.0951127
0.0653632
0.0256913
0.232246
0.0393945
0.0553049
0.13907
0.0595815
0.0372107
0.0182204
0.033581
0.0791932
0.0557723
0.0450707
0.0779277
0.0794834
0.0304326
0.0739223
0.168996
0.0624706
0.0221994
0.0154345
0.0275712
0.137968
0.127494
0.0552409
0.065672
0.0770144
-0.0364007
0.14863
0.0400362
-0.0221706
-0.104233
-0.00537086
0.111648
-0.0228177
-0.0935417
-0.0305952
-0.0560209
-0.0326362
0.119266
0.0169836
-0.0884872
0.0537958
-0.104266
0.00935534
0.185773
0.0621496
0.0370615
0.00120729
-0.195988
-0.0789967
0.23457
0.040557
-0.00798951
-0.0322682
-0.316927
0.0251854
0.19045
0.0297882
0.121442
-0.0433117
-0.103059
0.0263263
0.111931
0.0271069
-0.0362782
-0.0375054
-0.163821
-0.0327892
0.246931
0.056051
-0.00978221
-0.0878469
-0.273401
-0.0733607
0.268803
0.0378916
0.0532302
-0.0657708
-0.364173
-0.0585344
0.318362
0.0663547
0.0590952
-0.0336494
-0.337149
0.11478
0.312031
0.136667
0.013706
-0.018544
-0.116919
0.0641436
0.187189
0.000290984
0.0621213
-0.081687
-0.329316
-0.070178
0.31383
0.0294803
0.0718096
-0.154219
-0.423664
-0.0544795
0.44293
0.0982406
0.0801007
-0.1908
-0.376286
-0.0365215
0.293208
0.140395
0.0329223
-0.0685371
-0.27698
0.0410038
0.246759
0.062492
0.0360463
-0.0646544
-0.155504
0.0246602
0.222389
0.0110796
0.111018
-0.116273
-0.30289
-0.0456187
0.304707
0.0262548
0.183971
-0.166047
-0.336678
0.011939
0.321518
0.0792073
0.0369651
-0.132133
-0.293254
-0.0647548
0.298435
0.0939269
-0.0375065
-0.0706744
-0.205196
-0.029199
0.161255
0.0574951
-0.0483359
-0.0122688
-0.0982086
0.0723119
0.277581
0.00609956
0.264422
-0.0978155
-0.132757
-0.0293104
0.175846
0.0662674
0.0918687
-0.163532
-0.112719
0.0135447
0.168997
0.0146946
0.0707683
-0.160693
-0.121987
-0.0227099
0.14632
-0.0770113
0.0674539
-0.065818
-0.132501
-0.0643842
0.130964
0.0785541
0.0402825
-0.00446388
0.255142
0.103767
-0.275988
-0.201469
0.128628
0.0203821
0.219846
-0.0754187
-0.255074
-0.0318771
0.0786801
0.0153409
0.203232
-0.00636646
-0.0920046
-0.11016
0.15193
-0.00737993
0.112194
0.0562981
-0.126667
-0.0291948
0.054712
-0.0953632
0.133108
-0.0139848
-0.114011
-0.00253713
-0.155236
-0.0772019
0.351328
0.0870746
-0.408727
0.0213221
-0.0776555
-0.110111
0.36421
0.0776357
-0.428245
0.0503419
-0.0476198
-0.0267076
0.271842
-0.00202815
-0.382906
-0.0117873
0.0692003
-0.0674584
0.300042
-0.0897258
-0.276907
-0.0152718
0.0671655
0.00088888
0.0921012
0.0468301
-0.0673974
-0.0218498
-0.0183805
-0.0794474
0.284089
-0.00459567
-0.285944
-0.0825532
0.0629012
-0.182635
0.314241
0.00728353
-0.418373
0.0221197
-0.0654273
-0.137058
0.523528
0.0498723
-0.520465
0.0719299
-0.0880438
-0.0408601
0.364276
-0.0559406
-0.375092
0.0281788
0.0781312
-0.0726615
0.104803
0.0256296
0.0205277
-0.0471495
0.156835
-0.110757
0.154224
-0.0658066
-0.227189
-0.0192871
0.0472795
-0.207833
0.273555
-0.0971597
-0.240144
-0.00552911
-0.0668498
-0.154922
0.310583
0.0216667
-0.265215
0.12523
-0.178244
-0.0422947
0.326946
0.0121896
-0.197013
0.0582527
-0.00296058
-0.0349853
0.207964
0.0236732
-0.0412535
-0.0822864
0.244918
-0.0758584
0.14218
-0.0212888
-0.185949
0.173863
-0.088372
-0.152651
0.0896219
-0.061711
-0.0314492
0.0287005
-0.0127177
-0.0938657
0.0348151
0.0308011
0.0493937
0.00643872
0.0718448
-0.0415698
0.179238
-0.0119594
-0.0127426
0.0891254
-0.01403
0.00592721
0.246289
0.0731693
-0.0613033
0.0856887
0.0278836
-1.38729e-42
-1.38729e-42
-1.38729e-42
-1.38729e-42
-1.38729e-42
-1.38729e-42
-1.38729e-42
-1.38729e-42
-1.38729e-42
-1.38729e-42
-1.38729e-42
-1.38729e-42
-1.38729e-42
-1.38729e-42
-1.38729e-42
-1.38729e-42
-1.38729e-42
-1.38729e-42
-1.38729e-42
-1.38729e-42
-1.38729e-42
-1.38729e-42
-1.38729e-42
-1.38729e-42
-1.38729e-42
-1.38729e-42
-1.38729e-42
-1.38729e-42
-1.38729e-42
-1.38729e-42
-1.38729e-42
-1.38729e-42
-1.38729e-42
-1.38729e-42
-1.38729e-42
-1.38729e-42
-1.38729e-42
-1.38729e-42
-1.38729e-42
-1.38729e-42
-1.38729e-42
-1.38729e-42
-1.38729e-42
-1.38729e-42
-1.38729e-42
-1.38729e-42
-1.38729e-42
-1.38729e-42
-1.38729e-42
-1.38729e-42
-1.38729e-42
-1.38729e-42
-1.38729e-42
-1.38729e-42
-1.38729e-42
-1.38729e-42
-1.38729e-42
-1.38729e-42
-1.38729e-42
-1.38729e-42
-1.38729e-42
-1.38729e-42
-1.38729e-42
-1.38729e-42
-1.38729e-42
-1.38729e-42
-1.38729e-42
-1.38729e-42
-1.38729e-42
-1.38729e-42
-1.38729e-42
-1.38729e-42
-1.38729e-42
-1.38729e-42
-1.38729e-42
-1.38729e-42
-1.38729e-42
-1.38729e-42
-1.38729e-42
-1.38729e-42
-1.38729e-42
-1.38729e-42
-1.38729e-42
-1.38729e-42
-1.38729e-42
-1.38729e-42
-1.38729e-42
-1.38729e-42
-1.38729e-42
-1.38729e-42
-1.38729e-42
-1.38729e-42
-1.38729e-42
-1.38729e-42
-1.38729e-42
-1.38729e-42
-1.38729e-42
-1.38729e-42
-1.38729e-42
-1.38729e-42
-1.38729e-42
-1.38729e-42
-1.38729e-42
-1.38729e-42
-1.38729e-42
-1.38729e-42
-1.38729e-42
-1.38729e-42
-1.38729e-42
-1.38729e-42
-1.38729e-42
-1.38729e-42
-1.38729e-42
-1.38729e-42
-1.38729e-42
-1.38729e-42
-1.38729e-42
-1.38729e-42
-1.38729e-42
-1.38729e-42
-1.38729e-42
-1.38729e-42
-1.38729e-42
-1.38729e-42
-1.38729e-42
-1.38729e-42
-1.38729e-42
-1.38729e-42
-1.38729e-42
-1.38729e-42
-1.38729e-42
-1.38729e-42
-1.38729e-42
-1.38729e-42
-1.38729e-42
-1.38729e-42
-1.38729e-42
-1.38729e-42
-1.38729e-42
-1.38729e-42
-1.38729e-42
-1.38729e-42
-1.38729e-42
-1.38729e-42
-1.38729e-42
-1.38729e-42
-1.38729e-42
-1.38729e-42
-1.38729e-42
-1.38729e-42
-0.0806073
0.149904
0.113749
0.0395984
-0.0197404
0.303215
0.0535242
0.110619
0.0116768
-0.0781257
0.0812992
0.10755
0.126248
0.0441669
-0.0851694
-0.0255791
0.159051
0.116795
-0.0125015
-0.0394204
0.0375018
0.0717595
0.167777
0.0532262
-0.0777266
-0.0466427
0.300442
0.0445467
0.0731454
0.176119
0.0793626
0.0448616
0.118965
-0.0419571
-0.00834998
-0.0976473
0.123583
0.0196779
-0.100158
-0.0328856
0.0133306
-0.0552889
0.238843
0.046292
-0.0602415
0.0305489
0.000591575
0.122879
0.090787
-0.114841
0.00954851
0.0243811
-0.000833809
0.0449564
-0.0549058
-0.0590494
0.331716
-0.2275
-0.0368921
-0.0564998
0.125557
-0.0783582
-0.0069831
-0.015809
-0.052766
0.0820882
0.207959
0.0065802
-0.085375
0.0771978
0.126136
0.0175977
0.359258
0.17558
0.00647362
0.101823
-0.0002906
0.319793
0.230913
-0.114434
-0.0458993
-0.162032
-0.0953895
0.0524929
-0.0728048
-0.218899
0.282911
-0.447006
-0.0463468
-0.125595
0.132603
-0.167015
-0.0698638
-0.019839
-0.109689
0.0305344
0.158491
-0.0735837
-0.16073
0.00428426
0.109884
-0.064445
0.278787
0.0439833
-0.0708929
-0.0895132
0.0221918
0.165826
0.188309
-0.078533
-0.119233
-0.304195
-0.0259754
-0.0959466
-0.0227197
-0.328736
0.19134
-0.41724
-0.00914069
-0.190214
0.0772779
-0.149744
0.0321279
-0.0323772
-0.172323
0.169815
0.295344
-0.140721
-0.175777
-0.0982093
0.0919326
-0.0139139
0.427095
-0.0898117
-0.109201
-0.205658
0.0220016
0.179675
0.295625
-0.0439084
-0.131219
-0.230542
-0.00114888
-0.132756
-0.115834
-0.112728
0.23652
-0.243635
-0.165468
0.0941338
-1.38729e-42
-1.38729e-42
-1.38729e-42
-1.38729e-42
-1.38729e-42
-1.38729e-42
-1.38729e-42
-1.38729e-42
-1.38729e-42
-1.38729e-42
-1.38729e-42
-1.38729e-42
-1.38729e-42
-1.38729e-42
-1.38729e-42
-1.38729e-42
-1.38729e-42
-1.38729e-42
-1.38729e-42
-1.38729e-42
-1.38729e-42
-1.38729e-42
-1.38729e-42
-1.38729e-42
-1.38729e-42
-1.38729e-42
-1.38729e-42
-1.38729e-42
-1.38729e-42
-1.38729e-42
-1.38729e-42
-1.38729e-42
-1.38729e-42
-1.38729e-42
-1.38729e-42
-1.38729e-42
-1.38729e-42
-1.38729e-42
-1.38729e-42
-1.38729e-42
-1.38729e-42
-1.38729e-42
-1.38729e-42
-1.38729e-42
-1.38729e-42
-1.38729e-42
-1.38729e-42
-1.38729e-42
-1.38729e-42
-1.38729e-42
-1.38729e-42
-1.38729e-42
-1.38729e-42
-1.38729e-42
-1.38729e-42
-1.38729e-42
-1.38729e-42
-1.38729e-42
-1.38729e-42
-1.38729e-42
-1.38729e-42
-1.38729e-42
-1.38729e-42
-1.38729e-42
-1.38729e-42
-1.38729e-42
-1.38729e-42
-1.38729e-42
-1.38729e-42
-1.38729e-42
-1.38729e-42
-1.38729e-42
-1.38729e-42
-1.38729e-42
-1.38729e-42
-1.38729e-42
-1.38729e-42
-1.38729e-42
-1.38729e-42
-1.38729e-42
-1.38729e-42
-1.38729e-42
-1.38729e-42
-1.38729e-42
-1.38729e-42
-1.38729e-42
-1.38729e-42
-1.38729e-42
-1.38729e-42
-1.38729e-42
-1.38729e-42
-1.38729e-42
-1.38729e-42
-1.38729e-42
-1.38729e-42
-1.38729e-42
-1.38729e-42
-1.38729e-42
-1.38729e-42
-1.38729e-42
-1.38729e-42
-1.38729e-42
-1.38729e-42
-1.38729e-42
-1.38729e-42
-1.38729e-42
-1.38729e-42
-1.38729e-42
-1.38729e-42
-1.38729e-42
-1.38729e-42
-1.38729e-42
-1.38729e-42
-1.38729e-42
-1.38729e-42
-1.38729e-42
-1.38729e-42
-1.38729e-42
-1.38729e-42
-1.38729e-42
-1.38729e-42
-1.38729e-42
-1.38729e-42
-1.38729e-42
-1.38729e-42
-1.38729e-42
-1.38729e-42
-1.38729e-42
-1.38729e-42
-1.38729e-42
-1.38729e-42
-1.38729e-42
-1.38729e-42
-1.38729e-42
-1.38729e-42
-1.38729e-42
-1.38729e-42
-1.38729e-42
-1.38729e-42
-1.38729e-42
-1.38729e-42
-1.38729e-42
-1.38729e-42
-1.38729e-42
-1.38729e-42
-1.38729e-42
-1.38729e-42
-1.38729e-42
-1.38729e-42
-1.38729e-42
-0.131397
-0.0870304
-0.172134
0.189824
0.0603307
0.0597351
-0.30745
-0.156861
0.0163693
0.0362166
-0.176919
0.0380981
-0.398765
-0.104159
0.23036
-0.0696243
-0.212183
0.0988742
-0.27554
-0.0215262
0.107374
-0.0929566
-0.15067
0.141841
-0.155653
0.180823
-0.00764867
-0.0492547
-0.0226153
0.246447
-0.0518497
-0.172167
-0.142388
0.216658
0.0236378
5.36386e-05
-0.134094
-0.128519
-0.0852182
0.194704
0.0981831
-0.0492834
-0.196021
0.0229884
0.302346
0.00619245
-4.06635e-05
0.150024
-0.134226
0.148229
0.117483
-0.195041
0.00835766
0.124647
-0.121492
0.276208
0.024411
-0.162465
0.124588
0.0303291
0.0529008
-0.191275
-0.090642
0.133838
-0.0558342
0.0148785
0.0501239
-0.0946492
-0.219806
0.253857
0.0826036
0.00651455
-0.02351
0.253412
0.136518
0.172657
0.221375
0.0399937
0.00520798
0.217331
0.123129
-0.121171
0.0772634
0.00161667
0.000965812
0.175974
-0.0271694
-0.164092
-0.0826497
-0.0261181
0.111245
-0.094656
-0.00853496
0.101605
-0.0529627
0.0308039
0.215291
-0.0274277
-0.155467
0.147745
-0.0467201
0.0136083
0.193868
0.168412
-0.161381
0.148756
0.128273
-0.284706
0.178852
0.222545
-0.0236782
0.0407781
0.216691
-0.243884
0.101793
0.141756
0.0529873
-0.130327
-0.0366566
-0.138881
0.126216
0.134388
-0.00494862
0.0460607
-0.0500572
0.00403795
0.219786
0.164277
-0.0843399
0.0491278
0.335474
-0.117127
0.251249
0.171761
-0.0607582
0.207001
-0.181249
-0.261243
0.228938
0.15408
-0.0209505
0.22546
-0.0393119
-0.12989
0.0732782
0.0763181
0.0158515
0.0641971
0.197417
-0.159077
-8.35266e-39
-9.51445e-39
-5.79378e-40
-6.10816e-40
-1.8529e-38
-1.24805e-38
-5.40658e-39
-6.60272e-39
7.67962e-40
-1.58927e-40
-1.64071e-38
-1.25104e-38
-8.09277e-39
-4.67259e-39
2.85228e-39
-4.02817e-39
-1.62582e-38
-8.50597e-39
-7.41038e-39
-8.48044e-39
-9.32772e-40
-5.33929e-39
-1.48743e-38
-7.33934e-39
-1.24435e-38
-1.14425e-38
-1.39989e-39
-5.71225e-39
-1.55171e-38
-5.20474e-39
-7.98794e-39
-7.80757e-39
-1.53928e-39
-3.52785e-39
-1.0674e-38
-1.94285e-38
-4.75972e-39
-8.63069e-39
-1.58932e-39
3.47701e-40
-8.46715e-39
-2.07589e-38
-9.39689e-39
-6.9819e-39
-2.75424e-39
-2.55183e-39
-8.65697e-39
-1.90558e-38
-6.53718e-39
-4.93633e-39
-2.01261e-39
-3.24332e-39
-9.22861e-39
-1.71419e-38
-1.08127e-38
-6.11218e-39
-1.71307e-39
-1.68534e-39
-8.76966e-39
-1.5656e-38
-1.13771e-38
-1.1772e-38
-1.04426e-38
-8.75798e-40
-1.55653e-38
-1.90152e-38
-8.81595e-39
-1.09231e-38
-9.0548e-39
1.24232e-40
-1.28754e-38
-2.02212e-38
-1.18425e-38
-1.14871e-38
-1.17818e-38
-4.32662e-39
-1.02549e-38
-1.97925e-38
-9.39964e-39
-9.41056e-39
-1.25819e-38
-3.39193e-39
-1.00818e-38
-1.75366e-38
-1.13364e-38
-9.01781e-39
-1.0881e-38
3.24954e-39
-1.04639e-38
-1.65972e-38
-1.04253e-38
-9.45759e-39
-1.50431e-38
-7.08305e-39
-1.20773e-38
-2.5759e-38
-9.36887e-39
-1.06733e-38
-1.31838e-38
-4.89496e-39
-1.09707e-38
-2.43332e-38
-1.09115e-38
-9.22832e-39
-1.48805e-38
-6.54992e-39
-8.1194e-39
-2.2899e-38
-8.922e-39
-3.70488e-39
-1.72914e-38
-5.71305e-39
-8.99558e-39
-2.28032e-38
-1.19814e-38
-9.29741e-39
-1.75087e-38
-3.34994e-39
-7.72651e-39
-2.09412e-38
-1.30813e-38
-1.12548e-38
-1.4089e-38
-8.71509e-39
-1.06965e-38
-2.04335e-38
-9.05247e-39
-1.15768e-38
-1.51868e-38
-7.37066e-39
-8.30693e-39
-2.08581e-38
-1.11433e-38
-1.0455e-38
-1.66969e-38
-2.58004e-39
-8.45404e-39
-2.1151e-38
-7.82323e-39
-7.06437e-39
-1.7334e-38
-6.80631e-39
-9.0012e-39
-2.17002e-38
-1.34822e-38
-8.56088e-39
-1.82377e-38
-4.19235e-39
-7.78733e-39
-1.96476e-38
-0.0762193
-0.305376
0.109351
-0.224219
-0.108156
0.185701
-0.440522
-0.338113
-0.104426
-0.183712
-0.0877529
-0.108616
-0.358281
-0.164729
-0.0172463
-0.198293
-0.0977883
0.0558913
-0.237035
-0.0195955
-0.0640021
-0.196648
-0.183541
-0.0283572
0.0482765
-0.130686
-0.134837
-0.100853
0.0392034
0.140701
-0.00415427
-0.0740423
0.0211641
-0.20183
0.0395019
0.155987
-0.155252
-0.0627224
-0.0696651
-0.0908695
-0.0565742
0.00629558
-0.0924751
-0.0744767
-0.01375
-0.0721264
-0.00941716
0.00996683
0.000623361
-0.0569357
-0.0719238
-0.0996621
-0.0546361
-0.0649082
0.0254256
-0.00406378
-0.190471
0.00338148
0.0454419
0.184295
-0.0674082
0.012819
0.0613121
-0.109774
0.0241497
0.174208
-0.136142
-0.0797031
-0.0439478
-0.118104
-0.000476904
0.0148135
-0.141622
-0.102192
-0.0828797
-0.0941191
0.0466767
-0.0455024
-0.0688593
-0.0728198
-0.0877013
-0.038323
0.0561709
-0.0746924
0.0546008
0.00806221
-0.150759
-0.00365144
0.130275
0.184578
-0.00672595
0.0475997
0.0983741
0.0105615
0.0329318
0.0578987
-0.0432537
0.0171099
0.0119076
-0.0478741
-0.00305091
0.0388812
-0.0436569
0.0211628
0.00893742
0.0242295
0.0371703
0.0667507
-0.00532437
-0.00701569
-0.0439853
0.0542366
0.069135
0.013292
-0.0093331
0.0313642
-0.0672711
0.0177045
0.0652401
0.0951127
0.0653632
0.0256913
0.232246
0.0393945
0.0553049
0.13907
0.0595815
0.0372107
0.0182204
0.033581
0.0791932
0.0557723
0.0450707
0.0779277
0.0794834
0.0304326
0.0739223
0.168996
0.0624706
0.0221994
0.0154345
0.0275712
0.137968
0.127494
0.0552409
0.065672
0.0770144
-0.0364007
0.14863
0.0400362
-0.0221706
-0.104233
-0.00537086
0.111648
-0.0228177
-0.0935417
-0.0305952
-0.0560209
-0.0326362
0.119266
0.0169836
-0.0884872
0.0537958
-0.104266
0.00935534
0.185773
0.0621496
0.0370615
0.00120729
-0.195988
-0.0789967
0.23457
0.040557
-0.00798951
-0.0322682
-0.316927
0.0251854
0.19045
0.0297882
0.121442
-0.0433117
-0.103059
0.0263263
0.111931
0.0271069
-0.0362782
-0.0375054
-0.163821
-0.0327892
0.246931
0.056051
-0.00978221
-0.0878469
-0.273401
-0.0733607
0.268803
0.0378916
0.0532302
-0.0657708
-0.364173
-0.0585344
0.318362
0.0663547
0.0590952
-0.0336494
-0.337149
0.11478
0.312031
0.136667
0.013706
-0.018544
-0.116919
0.0641436
0.187189
0.000290984
0.0621213
-0.081687
-0.329316
-0.070178
0.31383
0.0294803
0.0718096
-0.154219
-0.423664
-0.0544795
0.44293
0.0982406
0.0801007
-0.1908
-0.376286
-0.0365215
0.293208
0.140395
0.0329223
-0.0685371
-0.27698
0.0410038
0.246759
0.062492
0.0360463
-0.0646544
-0.155504
0.0246602
0.222389
0.0110796
0.111018
-0.116273
-0.30289
-0.0456187
0.304707
0.0262548
0.183971
-0.166047
-0.336678
0.011939
0.321518
0.0792073
0.0369651
-0.132133
-0.293254
-0.0647548
0.298435
0.0939269
-0.0375065
-0.0706744
-0.205196
-0.029199
0.161255
0.0574951
-0.0483359
-0.0122688
-0.0982086
0.0723119
0.277581
0.00609956
0.264422
-0.0978155
-0.132757
-0.0293104
0.175846
0.0662674
0.0918687
-0.163532
-0.112719
0.0135447
0.168997
0.0146946
0.0707683
-0.160693
-0.121987
-0.0227099
0.14632
-0.0770113
0.0674539
-0.065818
-0.132501
-0.0643842
0.130964
0.0785541
0.0402825
-0.00446388
0.255142
0.103767
-0.275988
-0.201469
0.128628
0.0203821
0.219846
-0.0754187
-0.255074
-0.0318771
0.0786801
0.0153409
0.203232
-0.00636646
-0.0920046
-0.11016
0.15193
-0.00737993
0.112194
0.0562981
-0.126667
-0.0291948
0.054712
-0.0953632
0.133108
-0.0139848
-0.114011
-0.00253713
-0.155236
-0.0772019
0.351328
0.0870746
-0.408727
0.0213221
-0.0776555
-0.110111
0.36421
0.0776357
-0.428245
0.0503419
-0.0476198
-0.0267076
0.271842
-0.00202815
-0.382906
-0.0117873
0.0692003
-0.0674584
0.300042
-0.0897258
-0.276907
-0.0152718
0.0671655
0.00088888
0.0921012
0.0468301
-0.0673974
-0.0218498
-0.0183805
-0.0794474
0.284089
-0.00459567
-0.285944
-0.0825532
0.0629012
-0.182635
0.314241
0.00728353
-0.418373
0.0221197
-0.0654273
-0.137058
0.523528
0.0498723
-0.520465
0.0719299
-0.0880438
-0.0408601
0.364276
-0.0559406
-0.375092
0.0281788
0.0781312
-0.0726615
0.104803
0.0256296
0.0205277
-0.0471495
0.156835
-0.110757
0.154224
-0.0658066
-0.227189
-0.0192871
0.0472795
-0.207833
0.273555
-0.0971597
-0.240144
-0.00552911
-0.0668498
-0.154922
0.310583
0.0216667
-0.265215
0.12523
-0.178244
-0.0422947
0.326946
0.0121896
-0.197013
0.0582527
-0.00296058
-0.0349853
0.207964
0.0236732
-0.0412535
-0.0822864
0.244918
-0.0758584
0.14218
-0.0212888
-0.185949
0.173863
-0.088372
-0.152651
0.0896219
-0.061711
-0.0314492
0.0287005
-0.0127177
-0.0938657
0.0348151
0.0308011
