-0.171585
0.241005
-0.0408964
0.0556112
-0.169065
0.0481272
0.352847
-0.396619
0.040586
0.0796502
-0.15378
0.0360314
-0.0819669
0.187149
-0.11483
-0.258084
0.340977
-0.0875836
0.24456
0.122275
0.250599
-0.0128387
-0.7315
-0.324984
0.207636
0.127321
0.25407
-0.226961
0.300879
-0.100667
-0.40733
0.224896
-0.215647
0.570088
0.515288
0.681098
-0.70113
-1.23077
-0.82706
0.527873
0.497322
0.683385
-0.34445
0.198861
-0.210792
-0.268074
0.0988381
-0.258029
0.675234
0.604229
0.774796
-0.889594
-1.20952
-0.946628
0.672288
0.612196
0.771781
-0.219399
0.0377221
-0.305656
-0.0287808
0.0705013
-0.157278
0.379918
0.220607
0.44286
-0.522918
-0.838203
-0.58729
0.384368
0.220521
0.490497
-0.00913314
-0.00690123
-0.167577
-0.0312752
-0.0867665
0.0445649
0.135787
-0.163039
-0.122011
0.399946
0.199984
0.094017
-0.0956915
0.0419601
-0.170839
-0.260039
0.31077
-0.0649708
-0.122884
-0.00425827
0.148487
-0.528017
-0.612568
-0.343831
0.0694875
-0.175847
0.0470545
0.739183
0.563891
0.616202
-0.238191
-0.0341974
-0.309591
0.231728
0.406914
0.274765
0.176069
0.133165
0.16086
-1.09953
-1.23072
-1.05075
0.14225
-0.00504701
0.180348
0.44411
0.468349
0.408111
-0.194979
0.0100798
-0.0779016
0.66021
0.58076
0.49645
0.234649
0.110231
0.0506136
-0.696342
-0.793415
-0.755669
0.0298646
-0.0284947
-0.0280886
-0.184952
0.076719
0.169103
-0.246389
-0.181901
0.025185
0.379075
0.273075
0.439536
0.0290008
-0.156637
0.0989448
0.22159
-0.244681
-0.0997772
-0.229108
-0.0797894
0.0318419
0.140863
0.208189
0.172385
-0.251103
-0.280116
-0.00311528
-0.0927535
0.0679393
0.366521
-0.138191
-0.100628
0.150115
0.236654
-0.0558003
-0.0921848
0.444198
-0.0572607
-0.160762
0.34512
-0.339668
-0.167236
0.248643
-0.0554813
0.0318716
0.219839
-0.0793995
-0.082713
0.0278199
-0.0715078
-0.230145
0.0138394
-0.101684
-0.442076
-0.025724
-0.339244
-0.539506
-0.0695164
-0.0974628
-0.354266
0.13287
0.0507905
-0.243348
-0.141971
0.191446
0.0737693
0.265928
0.965615
0.527878
0.26095
0.771949
0.496491
0.287183
0.818126
0.442892
0.0326296
0.218811
-0.231211
-0.356148
-0.303764
0.284557
-0.592328
-0.240231
0.447603
-1.07849
-0.924495
0.135346
-0.442068
-0.366687
0.331102
0.0957994
-0.114484
-0.0904554
-0.171585
0.241005
-0.0408964
0.0556112
-0.169065
0.0481272
0.352847
-0.396619
0.040586
0.0796502
-0.15378
0.0360314
-0.0819669
0.187149
-0.11483
-0.258084
0.340977
-0.0875836
0.24456
0.122275
0.250599
-0.0128387
-0.7315
-0.324984
0.207636
0.127321
0.25407
-0.226961
0.300879
-0.100667
-0.40733
0.224896
-0.215647
0.570088
0.515288
0.681098
-0.70113
-1.23077
-0.82706
0.527873
0.497322
0.683385
-0.34445
0.198861
-0.210792
-0.268074
0.0988381
-0.258029
0.675234
0.604229
0.774796
-0.889594
-1.20952
-0.946628
0.672288
0.612196
0.771781
-0.219399
0.0377221
-0.305656
-0.0287808
0.0705013
-0.157278
0.379918
0.220607
0.44286
-0.522918
-0.838203
-0.58729
0.384368
0.220521
0.490497
-0.00913314
-0.00690123
-0.167577
-0.0312752
-0.0867665
0.0445649
0.135787
-0.163039
-0.122011
0.399946
0.199984
0.094017
-0.0956915
0.0419601
-0.170839
-0.260039
0.31077
-0.0649708
-0.122884
-0.00425827
0.148487
-0.528017
-0.612568
-0.343831
0.0694875
-0.175847
0.0470545
0.739183
0.563891
0.616202
-0.238191
-0.0341974
-0.309591
0.231728
0.406914
0.274765
0.176069
0.133165
0.16086
-1.09953
-1.23072
-1.05075
0.14225
-0.00504701
0.180348
0.44411
0.468349
0.408111
-0.194979
0.0100798
-0.0779016
0.66021
0.58076
0.49645
0.234649
0.110231
0.0506136
-0.696342
-0.793415
-0.755669
0.0298646
-0.0284947
-0.0280886
-0.184952
0.076719
0.169103
-0.246389
-0.181901
0.025185
0.379075
0.273075
0.439536
0.0290008
-0.156637
0.0989448
0.22159
-0.244681
-0.0997772
-0.229108
-0.0797894
0.0318419
0.140863
0.208189
0.172385
-0.251103
-0.280116
-0.00311528
-0.0927535
0.0679393
0.366521
-0.138191
-0.100628
0.150115
0.236654
-0.0558003
-0.0921848
0.444198
-0.0572607
-0.160762
0.34512
-0.339668
-0.167236
0.248643
-0.0554813
0.0318716
0.219839
-0.0793995
-0.082713
0.0278199
-0.0715078
-0.230145
0.0138394
-0.101684
-0.442076
-0.025724
-0.339244
-0.539506
-0.0695164
-0.0974628
-0.354266
0.13287
0.0507905
-0.243348
-0.141971
0.191446
0.0737693
0.265928
0.965615
0.527878
0.26095
0.771949
0.496491
0.287183
0.818126
0.442892
0.0326296
0.218811
-0.231211
-0.356148
-0.303764
0.284557
-0.592328
-0.240231
0.447603
-1.07849
-0.924495
0.135346
-0.442068
-0.366687
0.331102
0.0957994
-0.114484
-0.0904554
-0.171585
0.241005
-0.0408964
0.0556112
-0.169065
0.0481272
0.352847
-0.396619
0.040586
0.0796502
-0.15378
0.0360314
-0.0819669
0.187149
-0.11483
-0.258084
0.340977
-0.0875836
0.24456
0.122275
0.250599
-0.0128387
-0.7315
-0.324984
0.207636
0.127321
0.25407
-0.226961
0.300879
-0.100667
-0.40733
0.224896
-0.215647
0.570088
0.515288
0.681098
-0.70113
-1.23077
-0.82706
0.527873
0.497322
0.683385
-0.34445
0.198861
-0.210792
-0.268074
0.0988381
-0.258029
0.675234
0.604229
0.774796
-0.889594
-1.20952
-0.946628
0.672288
0.612196
0.771781
-0.219399
0.0377221
-0.305656
-0.0287808
0.0705013
-0.157278
0.379918
0.220607
0.44286
-0.522918
-0.838203
-0.58729
0.384368
0.220521
0.490497
-0.00913314
-0.00690123
-0.167577
-0.0312752
-0.0867665
0.0445649
0.135787
-0.163039
-0.122011
0.399946
0.199984
0.094017
-0.0956915
0.0419601
-0.170839
-0.260039
0.31077
-0.0649708
-0.122884
-0.00425827
0.148487
-0.528017
-0.612568
-0.343831
0.0694875
-0.175847
0.0470545
0.739183
0.563891
0.616202
-0.238191
-0.0341974
-0.309591
0.231728
0.406914
0.274765
0.176069
0.133165
0.16086
-1.09953
-1.23072
-1.05075
0.14225
-0.00504701
0.180348
0.44411
0.468349
0.408111
-0.194979
0.0100798
-0.0779016
0.66021
0.58076
0.49645
0.234649
0.110231
0.0506136
-0.696342
-0.793415
-0.755669
0.0298646
-0.0284947
-0.0280886
-0.184952
0.076719
0.169103
-0.246389
-0.181901
0.025185
0.379075
0.273075
0.439536
0.0290008
-0.156637
0.0989448
0.22159
-0.244681
-0.0997772
-0.229108
-0.0797894
0.0318419
0.140863
0.208189
0.172385
-0.251103
-0.280116
-0.00311528
-0.0927535
0.0679393
0.366521
-0.138191
-0.100628
0.150115
0.236654
-0.0558003
-0.0921848
0.444198
-0.0572607
-0.160762
0.34512
-0.339668
-0.167236
0.248643
-0.0554813
0.0318716
0.219839
-0.0793995
-0.082713
0.0278199
-0.0715078
-0.230145
0.0138394
-0.101684
-0.442076
-0.025724
-0.339244
-0.539506
-0.0695164
-0.0974628
-0.354266
0.13287
0.0507905
-0.243348
-0.141971
0.191446
0.0737693
0.265928
0.965615
0.527878
0.26095
0.771949
0.496491
0.287183
0.818126
0.442892
0.0326296
0.218811
-0.231211
-0.356148
-0.303764
0.284557
-0.592328
-0.240231
0.447603
-1.07849
-0.924495
0.135346
-0.442068
-0.366687
0.331102
0.0957994
-0.114484
-0.0904554
-0.171585
0.241005
-0.0408964
0.0556112
-0.169065
0.0481272
0.352847
-0.396619
0.040586
0.0796502
-0.15378
0.0360314
-0.0819669
0.187149
-0.11483
-0.258084
0.340977
-0.0875836
0.24456
0.122275
0.250599
-0.0128387
-0.7315
-0.324984
0.207636
0.127321
0.25407
-0.226961
0.300879
-0.100667
-0.40733
0.224896
-0.215647
0.570088
0.515288
0.681098
-0.70113
-1.23077
-0.82706
0.527873
0.497322
0.683385
-0.34445
0.198861
-0.210792
-0.268074
0.0988381
-0.258029
0.675234
0.604229
0.774796
-0.889594
-1.20952
-0.946628
0.672288
0.612196
0.771781
-0.219399
0.0377221
-0.305656
-0.0287808
0.0705013
-0.157278
0.379918
0.220607
0.44286
-0.522918
-0.838203
-0.58729
0.384368
0.220521
0.490497
-0.00913314
-0.00690123
-0.167577
-0.0312752
-0.0867665
0.0445649
0.135787
-0.163039
-0.122011
0.399946
0.199984
0.094017
-0.0956915
0.0419601
-0.170839
-0.260039
0.31077
-0.0649708
-0.122884
-0.00425827
0.148487
-0.528017
-0.612568
-0.343831
0.0694875
-0.175847
0.0470545
0.739183
0.563891
0.616202
-0.238191
-0.0341974
-0.309591
0.231728
0.406914
0.274765
0.176069
0.133165
0.16086
-1.09953
-1.23072
-1.05075
0.14225
-0.00504701
0.180348
0.44411
0.468349
0.408111
-0.194979
0.0100798
-0.0779016
0.66021
0.58076
0.49645
0.234649
0.110231
0.0506136
-0.696342
-0.793415
-0.755669
0.0298646
-0.0284947
-0.0280886
-0.184952
0.076719
0.169103
-0.246389
-0.181901
0.025185
0.379075
0.273075
0.439536
0.0290008
-0.156637
0.0989448
0.22159
-0.244681
-0.0997772
-0.229108
-0.0797894
0.0318419
0.140863
0.208189
0.172385
-0.251103
-0.280116
-0.00311528
-0.0927535
0.0679393
0.366521
-0.138191
-0.100628
0.150115
0.236654
-0.0558003
-0.0921848
0.444198
-0.0572607
-0.160762
0.34512
-0.339668
-0.167236
0.248643
-0.0554813
0.0318716
0.219839
-0.0793995
-0.082713
0.0278199
-0.0715078
-0.230145
0.0138394
-0.101684
-0.442076
-0.025724
-0.339244
-0.539506
-0.0695164
-0.0974628
-0.354266
0.13287
0.0507905
-0.243348
-0.141971
0.191446
0.0737693
0.265928
0.965615
0.527878
0.26095
0.771949
0.496491
0.287183
0.818126
0.442892
0.0326296
0.218811
-0.231211
-0.356148
-0.303764
0.284557
-0.592328
-0.240231
0.447603
-1.07849
-0.924495
0.135346
-0.442068
-0.366687
0.331102
0.0957994
-0.114484
-0.0904554
-0.171585
0.241005
-0.0408964
0.0556112
-0.169065
0.0481272
0.352847
-0.396619
0.040586
0.0796502
-0.15378
0.0360314
-0.0819669
0.187149
-0.11483
-0.258084
0.340977
-0.0875836
0.24456
0.122275
0.250599
-0.0128387
-0.7315
-0.324984
0.207636
0.127321
0.25407
-0.226961
0.300879
-0.100667
-0.40733
0.224896
-0.215647
0.570088
0.515288
0.681098
-0.70113
-1.23077
-0.82706
0.527873
0.497322
0.683385
-0.34445
0.198861
-0.210792
-0.268074
0.0988381
-0.258029
0.675234
0.604229
0.774796
-0.889594
-1.20952
-0.946628
0.672288
0.612196
0.771781
-0.219399
0.0377221
-0.305656
-0.0287808
0.0705013
-0.157278
0.379918
0.220607
0.44286
-0.522918
-0.838203
-0.58729
0.384368
0.220521
0.490497
-0.00913314
-0.00690123
-0.167577
-0.0312752
-0.0867665
0.0445649
0.135787
-0.163039
-0.122011
0.399946
0.199984
0.094017
-0.0956915
0.0419601
-0.170839
-0.260039
0.31077
-0.0649708
-0.122884
-0.00425827
0.148487
-0.528017
-0.612568
-0.343831
0.0694875
-0.175847
0.0470545
0.739183
0.563891
0.616202
-0.238191
-0.0341974
-0.309591
0.231728
0.406914
0.274765
0.176069
0.133165
0.16086
-1.09953
-1.23072
-1.05075
0.14225
-0.00504701
0.180348
0.44411
0.468349
0.408111
-0.194979
0.0100798
-0.0779016
0.66021
0.58076
0.49645
0.234649
0.110231
0.0506136
-0.696342
-0.793415
-0.755669
0.0298646
-0.0284947
-0.0280886
-0.184952
0.076719
0.169103
-0.246389
-0.181901
0.025185
0.379075
0.273075
0.439536
0.0290008
-0.156637
0.0989448
0.22159
-0.244681
-0.0997772
-0.229108
-0.0797894
0.0318419
0.140863
0.208189
0.172385
-0.251103
-0.280116
-0.00311528
-0.0927535
0.0679393
0.366521
-0.138191
-0.100628
0.150115
0.236654
-0.0558003
-0.0921848
0.444198
-0.0572607
-0.160762
0.34512
-0.339668
-0.167236
0.248643
-0.0554813
0.0318716
0.219839
-0.0793995
-0.082713
0.0278199
-0.0715078
-0.230145
0.0138394
-0.101684
-0.442076
-0.025724
-0.339244
-0.539506
-0.0695164
-0.0974628
-0.354266
0.13287
0.0507905
-0.243348
-0.141971
0.191446
0.0737693
0.265928
0.965615
0.527878
0.26095
0.771949
0.496491
0.287183
0.818126
0.442892
0.0326296
0.218811
-0.231211
-0.356148
-0.303764
0.284557
-0.592328
-0.240231
0.447603
-1.07849
-0.924495
0.135346
-0.442068
-0.366687
0.331102
0.0957994
-0.114484
-0.0904554
-0.171585
0.241005
-0.0408964
0.0556112
-0.169065
0.0481272
0.352847
-0.396619
0.040586
0.0796502
-0.15378
0.0360314
-0.0819669
0.187149
-0.11483
-0.258084
0.340977
-0.0875836
0.24456
0.122275
0.250599
-0.0128387
-0.7315
-0.324984
0.207636
0.127321
0.25407
-0.226961
0.300879
-0.100667
-0.40733
0.224896
-0.215647
0.570088
0.515288
0.681098
-0.70113
-1.23077
-0.82706
0.527873
0.497322
0.683385
-0.34445
0.198861
-0.210792
-0.268074
0.0988381
-0.258029
0.675234
0.604229
0.774796
-0.889594
-1.20952
-0.946628
0.672288
0.612196
0.771781
-0.219399
0.0377221
-0.305656
-0.0287808
0.0705013
-0.157278
0.379918
0.220607
0.44286
-0.522918
-0.838203
-0.58729
0.384368
0.220521
0.490497
-0.00913314
-0.00690123
-0.167577
-0.0312752
-0.0867665
0.0445649
0.135787
-0.163039
-0.122011
0.399946
0.199984
0.094017
-0.0956915
0.0419601
-0.170839
-0.260039
0.31077
-0.0649708
-0.122884
-0.00425827
0.148487
-0.528017
-0.612568
-0.343831
0.0694875
-0.175847
0.0470545
0.739183
0.563891
0.616202
-0.238191
-0.0341974
-0.309591
0.231728
0.406914
0.274765
0.176069
0.133165
0.16086
-1.09953
-1.23072
-1.05075
0.14225
-0.00504701
0.180348
0.44411
0.468349
0.408111
-0.194979
0.0100798
-0.0779016
0.66021
0.58076
0.49645
0.234649
0.110231
0.0506136
-0.696342
-0.793415
-0.755669
0.0298646
-0.0284947
-0.0280886
-0.184952
0.076719
0.169103
-0.246389
-0.181901
0.025185
0.379075
0.273075
0.439536
0.0290008
-0.156637
0.0989448
0.22159
-0.244681
-0.0997772
-0.229108
-0.0797894
0.0318419
0.140863
0.208189
0.172385
-0.251103
-0.280116
-0.00311528
-0.0927535
0.0679393
0.366521
-0.138191
-0.100628
0.150115
0.236654
-0.0558003
-0.0921848
0.444198
-0.0572607
-0.160762
0.34512
-0.339668
-0.167236
0.248643
-0.0554813
0.0318716
0.219839
-0.0793995
-0.082713
0.0278199
-0.0715078
-0.230145
0.0138394
-0.101684
-0.442076
-0.025724
-0.339244
-0.539506
-0.0695164
-0.0974628
-0.354266
0.13287
0.0507905
-0.243348
-0.141971
0.191446
0.0737693
0.265928
0.965615
0.527878
0.26095
0.771949
0.496491
0.287183
0.818126
0.442892
0.0326296
0.218811
-0.231211
-0.356148
-0.303764
0.284557
-0.592328
-0.240231
0.447603
-1.07849
-0.924495
0.135346
-0.442068
-0.366687
0.331102
0.0957994
-0.114484
-0.0904554
-0.171585
0.241005
-0.0408964
0.0556112
-0.169065
0.0481272
0.352847
-0.396619
0.040586
0.0796502
-0.15378
0.0360314
-0.0819669
0.187149
-0.11483
-0.258084
0.340977
-0.0875836
0.24456
0.122275
0.250599
-0.0128387
-0.7315
-0.324984
0.207636
0.127321
0.25407
-0.226961
0.300879
-0.100667
-0.40733
0.224896
-0.215647
0.570088
0.515288
0.681098
-0.70113
-1.23077
-0.82706
0.527873
0.497322
0.683385
-0.34445
0.198861
-0.210792
-0.268074
0.0988381
-0.258029
0.675234
0.604229
0.774796
-0.889594
-1.20952
-0.946628
0.672288
0.612196
0.771781
-0.219399
0.0377221
-0.305656
-0.0287808
0.0705013
-0.157278
0.379918
0.220607
0.44286
-0.522918
-0.838203
-0.58729
0.384368
0.220521
0.490497
-0.00913314
-0.00690123
-0.167577
-0.0312752
-0.0867665
0.0445649
0.135787
-0.163039
-0.122011
0.399946
0.199984
0.094017
-0.0956915
0.0419601
-0.170839
-0.260039
0.31077
-0.0649708
-0.122884
-0.00425827
0.148487
-0.528017
-0.612568
-0.343831
0.0694875
-0.175847
0.0470545
0.739183
0.563891
0.616202
-0.238191
-0.0341974
-0.309591
0.231728
0.406914
0.274765
0.176069
0.133165
0.16086
-1.09953
-1.23072
-1.05075
0.14225
-0.00504701
0.180348
0.44411
0.468349
0.408111
-0.194979
0.0100798
-0.0779016
0.66021
0.58076
0.49645
0.234649
0.110231
0.0506136
-0.696342
-0.793415
-0.755669
0.0298646
-0.0284947
-0.0280886
-0.184952
0.076719
0.169103
-0.246389
-0.181901
0.025185
0.379075
0.273075
0.439536
0.0290008
-0.156637
0.0989448
0.22159
-0.244681
-0.0997772
-0.229108
-0.0797894
0.0318419
0.140863
0.208189
0.172385
-0.251103
-0.280116
-0.00311528
-0.0927535
0.0679393
0.366521
-0.138191
-0.100628
0.150115
0.236654
-0.0558003
-0.0921848
0.444198
-0.0572607
-0.160762
0.34512
-0.339668
-0.167236
0.248643
-0.0554813
0.0318716
0.219839
-0.0793995
-0.082713
0.0278199
-0.0715078
-0.230145
0.0138394
-0.101684
-0.442076
-0.025724
-0.339244
-0.539506
-0.0695164
-0.0974628
-0.354266
0.13287
0.0507905
-0.243348
-0.141971
0.191446
0.0737693
0.265928
0.965615
0.527878
0.26095
0.771949
0.496491
0.287183
0.818126
0.442892
0.0326296
0.218811
-0.231211
-0.356148
-0.303764
0.284557
-0.592328
-0.240231
0.447603
-1.07849
-0.924495
0.135346
-0.442068
-0.366687
0.331102
0.0957994
-0.114484
-0.0904554
-0.171585
0.241005
-0.0408964
0.0556112
-0.169065
0.0481272
0.352847
-0.396619
0.040586
0.0796502
-0.15378
0.0360314
-0.0819669
0.187149
-0.11483
-0.258084
0.340977
-0.0875836
0.24456
0.122275
0.250599
-0.0128387
-0.7315
-0.324984
0.207636
0.127321
0.25407
-0.226961
0.300879
-0.100667
-0.40733
0.224896
-0.215647
0.570088
0.515288
0.681098
-0.70113
-1.23077
-0.82706
0.527873
0.497322
0.683385
-0.34445
0.198861
-0.210792
-0.268074
0.0988381
-0.258029
0.675234
0.604229
0.774796
-0.889594
-1.20952
-0.946628
0.672288
0.612196
0.771781
-0.219399
0.0377221
-0.305656
-0.0287808
0.0705013
-0.157278
0.379918
0.220607
0.44286
-0.522918
-0.838203
-0.58729
0.384368
0.220521
0.490497
-0.00913314
-0.00690123
-0.167577
-0.0312752
-0.0867665
0.0445649
0.135787
-0.163039
-0.122011
0.399946
0.199984
0.094017
-0.0956915
0.0419601
-0.170839
-0.260039
0.31077
-0.0649708
-0.122884
-0.00425827
0.148487
-0.528017
-0.612568
-0.343831
0.0694875
-0.175847
0.0470545
0.739183
0.563891
0.616202
-0.238191
-0.0341974
-0.309591
0.231728
0.406914
0.274765
0.176069
0.133165
0.16086
-1.09953
-1.23072
-1.05075
0.14225
-0.00504701
0.180348
0.44411
0.468349
0.408111
-0.194979
0.0100798
-0.0779016
0.66021
0.58076
0.49645
0.234649
0.110231
0.0506136
-0.696342
-0.793415
-0.755669
0.0298646
-0.0284947
-0.0280886
-0.184952
0.076719
0.169103
-0.246389
-0.181901
0.025185
0.379075
0.273075
0.439536
0.0290008
-0.156637
0.0989448
0.22159
-0.244681
-0.0997772
-0.229108
-0.0797894
0.0318419
0.140863
0.208189
0.172385
-0.251103
-0.280116
-0.00311528
-0.0927535
0.0679393
0.366521
-0.138191
-0.100628
0.150115
0.236654
-0.0558003
-0.0921848
0.444198
-0.0572607
-0.160762
0.34512
-0.339668
-0.167236
0.248643
-0.0554813
0.0318716
0.219839
-0.0793995
-0.082713
0.0278199
-0.0715078
-0.230145
0.0138394
-0.101684
-0.442076
-0.025724
-0.339244
-0.539506
-0.0695164
-0.0974628
-0.354266
0.13287
0.0507905
-0.243348
-0.141971
0.191446
0.0737693
0.265928
0.965615
0.527878
0.26095
0.771949
0.496491
0.287183
0.818126
0.442892
0.0326296
0.218811
-0.231211
-0.356148
-0.303764
0.284557
-0.592328
-0.240231
0.447603
-1.07849
-0.924495
0.135346
-0.442068
-0.366687
0.331102
0.0957994
-0.114484
-0.0904554
-0.171585
0.241005
-0.0408964
0.0556112
-0.169065
0.0481272
0.352847
-0.396619
0.040586
0.0796502
-0.15378
0.0360314
-0.0819669
0.187149
-0.11483
-0.258084
0.340977
-0.0875836
0.24456
0.122275
0.250599
-0.0128387
-0.7315
-0.324984
0.207636
0.127321
0.25407
-0.226961
0.300879
-0.100667
-0.40733
0.224896
-0.215647
0.570088
0.515288
0.681098
-0.70113
-1.23077
-0.82706
0.527873
0.497322
0.683385
-0.34445
0.198861
-0.210792
-0.268074
0.0988381
-0.258029
0.675234
0.604229
0.774796
-0.889594
-1.20952
-0.946628
0.672288
0.612196
0.771781
-0.219399
0.0377221
-0.305656
-0.0287808
0.0705013
-0.157278
0.379918
0.220607
0.44286
-0.522918
-0.838203
-0.58729
0.384368
0.220521
0.490497
-0.00913314
-0.00690123
-0.167577
-0.0312752
-0.0867665
0.0445649
0.135787
-0.163039
-0.122011
0.399946
0.199984
0.094017
-0.0956915
0.0419601
-0.170839
-0.260039
0.31077
-0.0649708
-0.122884
-0.00425827
0.148487
-0.528017
-0.612568
-0.343831
0.0694875
-0.175847
0.0470545
0.739183
0.563891
0.616202
-0.238191
-0.0341974
-0.309591
0.231728
0.406914
0.274765
0.176069
0.133165
0.16086
-1.09953
-1.23072
-1.05075
0.14225
-0.00504701
0.180348
0.44411
0.468349
0.408111
-0.194979
0.0100798
-0.0779016
0.66021
0.58076
0.49645
0.234649
0.110231
0.0506136
-0.696342
-0.793415
-0.755669
0.0298646
-0.0284947
-0.0280886
-0.184952
0.076719
0.169103
-0.246389
-0.181901
0.025185
0.379075
0.273075
0.439536
0.0290008
-0.156637
0.0989448
0.22159
-0.244681
-0.0997772
-0.229108
-0.0797894
0.0318419
0.140863
0.208189
0.172385
-0.251103
-0.280116
-0.00311528
-0.0927535
0.0679393
0.366521
-0.138191
-0.100628
0.150115
0.236654
-0.0558003
-0.0921848
0.444198
-0.0572607
-0.160762
0.34512
-0.339668
-0.167236
0.248643
-0.0554813
0.0318716
0.219839
-0.0793995
-0.082713
0.0278199
-0.0715078
-0.230145
0.0138394
-0.101684
-0.442076
-0.025724
-0.339244
-0.539506
-0.0695164
-0.0974628
-0.354266
0.13287
0.0507905
-0.243348
-0.141971
0.191446
0.0737693
0.265928
0.965615
0.527878
0.26095
0.771949
0.496491
0.287183
0.818126
0.442892
0.0326296
0.218811
-0.231211
-0.356148
-0.303764
0.284557
-0.592328
-0.240231
0.447603
-1.07849
-0.924495
0.135346
-0.442068
-0.366687
0.331102
0.0957994
-0.114484
-0.0904554
-0.171585
0.241005
-0.0408964
0.0556112
-0.169065
0.0481272
0.352847
-0.396619
0.040586
0.0796502
-0.15378
0.0360314
-0.0819669
0.187149
-0.11483
-0.258084
0.340977
-0.0875836
0.24456
0.122275
0.250599
-0.0128387
-0.7315
-0.324984
0.207636
0.127321
0.25407
-0.226961
0.300879
-0.100667
-0.40733
0.224896
-0.215647
0.570088
0.515288
0.681098
-0.70113
-1.23077
-0.82706
0.527873
0.497322
0.683385
-0.34445
0.198861
-0.210792
-0.268074
0.0988381
-0.258029
0.675234
0.604229
0.774796
-0.889594
-1.20952
-0.946628
0.672288
0.612196
0.771781
-0.219399
0.0377221
-0.305656
-0.0287808
0.0705013
-0.157278
0.379918
0.220607
0.44286
-0.522918
-0.838203
-0.58729
0.384368
0.220521
0.490497
-0.00913314
-0.00690123
-0.167577
-0.0312752
-0.0867665
0.0445649
0.135787
-0.163039
-0.122011
0.399946
0.199984
0.094017
-0.0956915
0.0419601
-0.170839
-0.260039
0.31077
-0.0649708
-0.122884
-0.00425827
0.148487
-0.528017
-0.612568
-0.343831
0.0694875
-0.175847
0.0470545
0.739183
0.563891
0.616202
-0.238191
-0.0341974
-0.309591
0.231728
0.406914
0.274765
0.176069
0.133165
0.16086
-1.09953
-1.23072
-1.05075
0.14225
-0.00504701
0.180348
0.44411
0.468349
0.408111
-0.194979
0.0100798
-0.0779016
0.66021
0.58076
0.49645
0.234649
0.110231
0.0506136
-0.696342
-0.793415
-0.755669
0.0298646
-0.0284947
-0.0280886
-0.184952
0.076719
0.169103
-0.246389
-0.181901
0.025185
0.379075
0.273075
0.439536
0.0290008
-0.156637
0.0989448
0.22159
-0.244681
-0.0997772
-0.229108
-0.0797894
0.0318419
0.140863
0.208189
0.172385
-0.251103
-0.280116
-0.00311528
-0.0927535
0.0679393
0.366521
-0.138191
-0.100628
0.150115
0.236654
-0.0558003
-0.0921848
0.444198
-0.0572607
-0.160762
0.34512
-0.339668
-0.167236
0.248643
-0.0554813
0.0318716
0.219839
-0.0793995
-0.082713
0.0278199
-0.0715078
-0.230145
0.0138394
-0.101684
-0.442076
-0.025724
-0.339244
-0.539506
-0.0695164
-0.0974628
-0.354266
0.13287
0.0507905
-0.243348
-0.141971
0.191446
0.0737693
0.265928
0.965615
0.527878
0.26095
0.771949
0.496491
0.287183
0.818126
0.442892
0.0326296
0.218811
-0.231211
-0.356148
-0.303764
0.284557
-0.592328
-0.240231
0.447603
-1.07849
-0.924495
0.135346
-0.442068
-0.366687
0.331102
0.0957994
-0.114484
-0.0904554
-0.171585
0.241005
-0.0408964
0.0556112
-0.169065
0.0481272
0.352847
-0.396619
0.040586
0.0796502
-0.15378
0.0360314
-0.0819669
0.187149
-0.11483
-0.258084
0.340977
-0.0875836
0.24456
0.122275
0.250599
-0.0128387
-0.7315
-0.324984
0.207636
0.127321
0.25407
-0.226961
0.300879
-0.100667
-0.40733
0.224896
-0.215647
0.570088
0.515288
0.681098
-0.70113
-1.23077
-0.82706
0.527873
0.497322
0.683385
-0.34445
0.198861
-0.210792
-0.268074
0.0988381
-0.258029
0.675234
0.604229
0.774796
-0.889594
-1.20952
-0.946628
0.672288
0.612196
0.771781
-0.219399
0.0377221
-0.305656
-0.0287808
0.0705013
-0.157278
0.379918
0.220607
0.44286
-0.522918
-0.838203
-0.58729
0.384368
0.220521
0.490497
-0.00913314
-0.00690123
-0.167577
-0.0312752
-0.0867665
0.0445649
0.135787
-0.163039
-0.122011
0.399946
0.199984
0.094017
-0.0956915
0.0419601
-0.170839
-0.260039
0.31077
-0.0649708
-0.122884
-0.00425827
0.148487
-0.528017
-0.612568
-0.343831
0.0694875
-0.175847
0.0470545
0.739183
0.563891
0.616202
-0.238191
-0.0341974
-0.309591
0.231728
0.406914
0.274765
0.176069
0.133165
0.16086
-1.09953
-1.23072
-1.05075
0.14225
-0.00504701
0.180348
0.44411
0.468349
0.408111
-0.194979
0.0100798
-0.0779016
0.66021
0.58076
0.49645
0.234649
0.110231
0.0506136
-0.696342
-0.793415
-0.755669
0.0298646
-0.0284947
-0.0280886
-0.184952
0.076719
0.169103
-0.246389
-0.181901
0.025185
0.379075
0.273075
0.439536
0.0290008
-0.156637
0.0989448
0.22159
-0.244681
-0.0997772
-0.229108
-0.0797894
0.0318419
0.140863
0.208189
0.172385
-0.251103
-0.280116
-0.00311528
-0.0927535
0.0679393
0.366521
-0.138191
-0.100628
0.150115
0.236654
-0.0558003
-0.0921848
0.444198
-0.0572607
-0.160762
0.34512
-0.339668
-0.167236
0.248643
-0.0554813
0.0318716
0.219839
-0.0793995
-0.082713
0.0278199
-0.0715078
-0.230145
0.0138394
-0.101684
-0.442076
-0.025724
-0.339244
-0.539506
-0.0695164
-0.0974628
-0.354266
0.13287
0.0507905
-0.243348
-0.141971
0.191446
0.0737693
0.265928
0.965615
0.527878
0.26095
0.771949
0.496491
0.287183
0.818126
0.442892
0.0326296
0.218811
-0.231211
-0.356148
-0.303764
0.284557
-0.592328
-0.240231
0.447603
-1.07849
-0.924495
0.135346
-0.442068
-0.366687
0.331102
0.0957994
-0.114484
-0.0904554
-0.171585
0.241005
-0.0408964
0.0556112
-0.169065
0.0481272
0.352847
-0.396619
0.040586
0.0796502
-0.15378
0.0360314
-0.0819669
0.187149
-0.11483
-0.258084
0.340977
-0.0875836
0.24456
0.122275
0.250599
-0.0128387
-0.7315
-0.324984
0.207636
0.127321
0.25407
-0.226961
0.300879
-0.100667
-0.40733
0.224896
-0.215647
0.570088
0.515288
0.681098
-0.70113
-1.23077
-0.82706
0.527873
0.497322
0.683385
-0.34445
0.198861
-0.210792
-0.268074
0.0988381
-0.258029
0.675234
0.604229
0.774796
-0.889594
-1.20952
-0.946628
0.672288
0.612196
0.771781
-0.219399
0.0377221
-0.305656
-0.0287808
0.0705013
-0.157278
0.379918
0.220607
0.44286
-0.522918
-0.838203
-0.58729
0.384368
0.220521
0.490497
-0.00913314
-0.00690123
-0.167577
-0.0312752
-0.0867665
0.0445649
0.135787
-0.163039
-0.122011
0.399946
0.199984
0.094017
-0.0956915
0.0419601
-0.170839
-0.260039
0.31077
-0.0649708
-0.122884
-0.00425827
0.148487
-0.528017
-0.612568
-0.343831
0.0694875
-0.175847
0.0470545
0.739183
0.563891
0.616202
-0.238191
-0.0341974
-0.309591
0.231728
0.406914
0.274765
0.176069
0.133165
0.16086
-1.09953
-1.23072
-1.05075
0.14225
-0.00504701
0.180348
0.44411
0.468349
0.408111
-0.194979
0.0100798
-0.0779016
0.66021
0.58076
0.49645
0.234649
0.110231
0.0506136
-0.696342
-0.793415
-0.755669
0.0298646
-0.0284947
-0.0280886
-0.184952
0.076719
0.169103
-0.246389
-0.181901
0.025185
0.379075
0.273075
0.439536
0.0290008
-0.156637
0.0989448
0.22159
-0.244681
-0.0997772
-0.229108
-0.0797894
0.0318419
0.140863
0.208189
0.172385
-0.251103
-0.280116
-0.00311528
-0.0927535
0.0679393
0.366521
-0.138191
-0.100628
0.150115
0.236654
-0.0558003
-0.0921848
0.444198
-0.0572607
-0.160762
0.34512
-0.339668
-0.167236
0.248643
-0.0554813
0.0318716
0.219839
-0.0793995
-0.082713
0.0278199
-0.0715078
-0.230145
0.0138394
-0.101684
-0.442076
-0.025724
-0.339244
-0.539506
-0.0695164
-0.0974628
-0.354266
0.13287
0.0507905
-0.243348
-0.141971
0.191446
0.0737693
0.265928
0.965615
0.527878
0.26095
0.771949
0.496491
0.287183
0.818126
0.442892
0.0326296
0.218811
-0.231211
-0.356148
-0.303764
0.284557
-0.592328
-0.240231
0.447603
-1.07849
-0.924495
0.135346
-0.442068
-0.366687
0.331102
0.0957994
-0.114484
-0.0904554
-0.171585
0.241005
-0.0408964
0.0556112
-0.169065
0.0481272
0.352847
-0.396619
0.040586
0.0796502
-0.15378
0.0360314
-0.0819669
0.187149
-0.11483
-0.258084
0.340977
-0.0875836
0.24456
0.122275
0.250599
-0.0128387
-0.7315
-0.324984
0.207636
0.127321
0.25407
-0.226961
0.300879
-0.100667
-0.40733
0.224896
-0.215647
0.570088
0.515288
0.681098
-0.70113
-1.23077
-0.82706
0.527873
0.497322
0.683385
-0.34445
0.198861
-0.210792
-0.268074
0.0988381
-0.258029
0.675234
0.604229
0.774796
-0.889594
-1.20952
-0.946628
0.672288
0.612196
0.771781
-0.219399
0.0377221
-0.305656
-0.0287808
0.0705013
-0.157278
0.379918
0.220607
0.44286
-0.522918
-0.838203
-0.58729
0.384368
0.220521
0.490497
-0.00913314
-0.00690123
-0.167577
-0.0312752
-0.0867665
0.0445649
0.135787
-0.163039
-0.122011
0.399946
0.199984
0.094017
-0.0956915
0.0419601
-0.170839
-0.260039
0.31077
-0.0649708
-0.122884
-0.00425827
0.148487
-0.528017
-0.612568
-0.343831
0.0694875
-0.175847
0.0470545
0.739183
0.563891
0.616202
-0.238191
-0.0341974
-0.309591
0.231728
0.406914
0.274765
0.176069
0.133165
0.16086
-1.09953
-1.23072
-1.05075
0.14225
-0.00504701
0.180348
0.44411
0.468349
0.408111
-0.194979
0.0100798
-0.0779016
0.66021
0.58076
0.49645
0.234649
0.110231
0.0506136
-0.696342
-0.793415
-0.755669
0.0298646
-0.0284947
-0.0280886
-0.184952
0.076719
0.169103
-0.246389
-0.181901
0.025185
0.379075
0.273075
0.439536
0.0290008
-0.156637
0.0989448
0.22159
-0.244681
-0.0997772
-0.229108
-0.0797894
0.0318419
0.140863
0.208189
0.172385
-0.251103
-0.280116
-0.00311528
-0.0927535
0.0679393
0.366521
-0.138191
-0.100628
0.150115
0.236654
-0.0558003
-0.0921848
0.444198
-0.0572607
-0.160762
0.34512
-0.339668
-0.167236
0.248643
-0.0554813
0.0318716
0.219839
-0.0793995
-0.082713
0.0278199
-0.0715078
-0.230145
0.0138394
-0.101684
-0.442076
-0.025724
-0.339244
-0.539506
-0.0695164
-0.0974628
-0.354266
0.13287
0.0507905
-0.243348
-0.141971
0.191446
0.0737693
0.265928
0.965615
0.527878
0.26095
0.771949
0.496491
0.287183
0.818126
0.442892
0.0326296
0.218811
-0.231211
-0.356148
-0.303764
0.284557
-0.592328
-0.240231
0.447603
-1.07849
-0.924495
0.135346
-0.442068
-0.366687
0.331102
0.0957994
-0.114484
-0.0904554
-0.171585
0.241005
-0.0408964
0.0556112
-0.169065
0.0481272
0.352847
-0.396619
0.040586
0.0796502
-0.15378
0.0360314
-0.0819669
0.187149
-0.11483
-0.258084
0.340977
-0.0875836
0.24456
0.122275
0.250599
-0.0128387
-0.7315
-0.324984
0.207636
0.127321
0.25407
-0.226961
0.300879
-0.100667
-0.40733
0.224896
-0.215647
0.570088
0.515288
0.681098
-0.70113
-1.23077
-0.82706
0.527873
0.497322
0.683385
-0.34445
0.198861
-0.210792
-0.268074
0.0988381
-0.258029
0.675234
0.604229
0.774796
-0.889594
-1.20952
-0.946628
0.672288
0.612196
0.771781
-0.219399
0.0377221
-0.305656
-0.0287808
0.0705013
-0.157278
0.379918
0.220607
0.44286
-0.522918
-0.838203
-0.58729
0.384368
0.220521
0.490497
-0.00913314
-0.00690123
-0.167577
-0.0312752
-0.0867665
0.0445649
0.135787
-0.163039
-0.122011
0.399946
0.199984
0.094017
-0.0956915
0.0419601
-0.170839
-0.260039
0.31077
-0.0649708
-0.122884
-0.00425827
0.148487
-0.528017
-0.612568
-0.343831
0.0694875
-0.175847
0.0470545
0.739183
0.563891
0.616202
-0.238191
-0.0341974
-0.309591
0.231728
0.406914
0.274765
0.176069
0.133165
0.16086
-1.09953
-1.23072
-1.05075
0.14225
-0.00504701
0.180348
0.44411
0.468349
0.408111
-0.194979
0.0100798
-0.0779016
0.66021
0.58076
0.49645
0.234649
0.110231
0.0506136
-0.696342
-0.793415
-0.755669
0.0298646
-0.0284947
-0.0280886
-0.184952
0.076719
0.169103
-0.246389
-0.181901
0.025185
0.379075
0.273075
0.439536
0.0290008
-0.156637
0.0989448
0.22159
-0.244681
-0.0997772
-0.229108
-0.0797894
0.0318419
0.140863
0.208189
0.172385
-0.251103
-0.280116
-0.00311528
-0.0927535
0.0679393
0.366521
-0.138191
-0.100628
0.150115
0.236654
-0.0558003
-0.0921848
0.444198
-0.0572607
-0.160762
0.34512
-0.339668
-0.167236
0.248643
-0.0554813
0.0318716
0.219839
-0.0793995
-0.082713
0.0278199
-0.0715078
-0.230145
0.0138394
-0.101684
-0.442076
-0.025724
-0.339244
-0.539506
-0.0695164
-0.0974628
-0.354266
0.13287
0.0507905
-0.243348
-0.141971
0.191446
0.0737693
0.265928
0.965615
0.527878
0.26095
0.771949
0.496491
0.287183
0.818126
0.442892
0.0326296
0.218811
-0.231211
-0.356148
-0.303764
0.284557
-0.592328
-0.240231
0.447603
-1.07849
-0.924495
0.135346
-0.442068
-0.366687
0.331102
0.0957994
-0.114484
-0.0904554
-0.171585
0.241005
-0.0408964
0.0556112
-0.169065
0.0481272
0.352847
-0.396619
0.040586
0.0796502
-0.15378
0.0360314
-0.0819669
0.187149
-0.11483
-0.258084
0.340977
-0.0875836
0.24456
0.122275
0.250599
-0.0128387
-0.7315
-0.324984
0.207636
0.127321
0.25407
-0.226961
0.300879
-0.100667
-0.40733
0.224896
-0.215647
0.570088
0.515288
0.681098
-0.70113
-1.23077
-0.82706
0.527873
0.497322
0.683385
-0.34445
0.198861
-0.210792
-0.268074
0.0988381
-0.258029
0.675234
0.604229
0.774796
-0.889594
-1.20952
-0.946628
0.672288
0.612196
0.771781
-0.219399
0.0377221
-0.305656
-0.0287808
0.0705013
-0.157278
0.379918
0.220607
0.44286
-0.522918
-0.838203
-0.58729
0.384368
0.220521
0.490497
-0.00913314
-0.00690123
-0.167577
-0.0312752
-0.0867665
0.0445649
0.135787
-0.163039
-0.122011
0.399946
0.199984
0.094017
-0.0956915
0.0419601
-0.170839
-0.260039
0.31077
-0.0649708
-0.122884
-0.00425827
0.148487
-0.528017
-0.612568
-0.343831
0.0694875
-0.175847
0.0470545
0.739183
0.563891
0.616202
-0.238191
-0.0341974
-0.309591
0.231728
0.406914
0.274765
0.176069
0.133165
0.16086
-1.09953
-1.23072
-1.05075
0.14225
-0.00504701
0.180348
0.44411
0.468349
0.408111
-0.194979
0.0100798
-0.0779016
0.66021
0.58076
0.49645
0.234649
0.110231
0.0506136
-0.696342
-0.793415
-0.755669
0.0298646
-0.0284947
-0.0280886
-0.184952
0.076719
0.169103
-0.246389
-0.181901
0.025185
0.379075
0.273075
0.439536
0.0290008
-0.156637
0.0989448
0.22159
-0.244681
-0.0997772
-0.229108
-0.0797894
0.0318419
0.140863
0.208189
0.172385
-0.251103
-0.280116
-0.00311528
-0.0927535
0.0679393
0.366521
-0.138191
-0.100628
0.150115
0.236654
-0.0558003
-0.0921848
0.444198
-0.0572607
-0.160762
0.34512
-0.339668
-0.167236
0.248643
-0.0554813
0.0318716
0.219839
-0.0793995
-0.082713
0.0278199
-0.0715078
-0.230145
0.0138394
-0.101684
-0.442076
-0.025724
-0.339244
-0.539506
-0.0695164
-0.0974628
-0.354266
0.13287
0.0507905
-0.243348
-0.141971
0.191446
0.0737693
0.265928
0.965615
0.527878
0.26095
0.771949
0.496491
0.287183
0.818126
0.442892
0.0326296
0.218811
-0.231211
-0.356148
-0.303764
0.284557
-0.592328
-0.240231
0.447603
-1.07849
-0.924495
0.135346
-0.442068
-0.366687
0.331102
0.0957994
-0.114484
-0.0904554
-0.171585
0.241005
-0.0408964
0.0556112
-0.169065
0.0481272
0.352847
-0.396619
0.040586
0.0796502
-0.15378
0.0360314
-0.0819669
0.187149
-0.11483
-0.258084
0.340977
-0.0875836
0.24456
0.122275
0.250599
-0.0128387
-0.7315
-0.324984
0.207636
0.127321
0.25407
-0.226961
0.300879
-0.100667
-0.40733
0.224896
-0.215647
0.570088
0.515288
0.681098
-0.70113
-1.23077
-0.82706
0.527873
0.497322
0.683385
-0.34445
0.198861
-0.210792
-0.268074
0.0988381
-0.258029
0.675234
0.604229
0.774796
-0.889594
-1.20952
-0.946628
0.672288
0.612196
0.771781
-0.219399
0.0377221
-0.305656
-0.0287808
0.0705013
-0.157278
0.379918
0.220607
0.44286
-0.522918
-0.838203
-0.58729
0.384368
0.220521
0.490497
-0.00913314
-0.00690123
-0.167577
-0.0312752
-0.0867665
0.0445649
0.135787
-0.163039
-0.122011
0.399946
0.199984
0.094017
-0.0956915
0.0419601
-0.170839
-0.260039
0.31077
-0.0649708
-0.122884
-0.00425827
0.148487
-0.528017
-0.612568
-0.343831
0.0694875
-0.175847
0.0470545
0.739183
0.563891
0.616202
-0.238191
-0.0341974
-0.309591
0.231728
0.406914
0.274765
0.176069
0.133165
0.16086
-1.09953
-1.23072
-1.05075
0.14225
-0.00504701
0.180348
0.44411
0.468349
0.408111
-0.194979
0.0100798
-0.0779016
0.66021
0.58076
0.49645
0.234649
0.110231
0.0506136
-0.696342
-0.793415
-0.755669
0.0298646
-0.0284947
-0.0280886
-0.184952
0.076719
0.169103
-0.246389
-0.181901
0.025185
0.379075
0.273075
0.439536
0.0290008
-0.156637
0.0989448
0.22159
-0.244681
-0.0997772
-0.229108
-0.0797894
0.0318419
0.140863
0.208189
0.172385
-0.251103
-0.280116
-0.00311528
-0.0927535
0.0679393
0.366521
-0.138191
-0.100628
0.150115
0.236654
-0.0558003
-0.0921848
0.444198
-0.0572607
-0.160762
0.34512
-0.339668
-0.167236
0.248643
-0.0554813
0.0318716
0.219839
-0.0793995
-0.082713
0.0278199
-0.0715078
-0.230145
0.0138394
-0.101684
-0.442076
-0.025724
-0.339244
-0.539506
-0.0695164
-0.0974628
-0.354266
0.13287
0.0507905
-0.243348
-0.141971
0.191446
0.0737693
0.265928
0.965615
0.527878
0.26095
0.771949
0.496491
0.287183
0.818126
0.442892
0.0326296
0.218811
-0.231211
-0.356148
-0.303764
0.284557
-0.592328
-0.240231
0.447603
-1.07849
-0.924495
0.135346
-0.442068
-0.366687
0.331102
0.0957994
-0.114484
-0.0904554
-0.171585
0.241005
-0.0408964
0.0556112
-0.169065
0.0481272
0.352847
-0.396619
0.040586
0.0796502
-0.15378
0.0360314
-0.0819669
0.187149
-0.11483
-0.258084
0.340977
-0.0875836
0.24456
0.122275
0.250599
-0.0128387
-0.7315
-0.324984
0.207636
0.127321
0.25407
-0.226961
0.300879
-0.100667
-0.40733
0.224896
-0.215647
0.570088
0.515288
0.681098
-0.70113
-1.23077
-0.82706
0.527873
0.497322
0.683385
-0.34445
0.198861
-0.210792
-0.268074
0.0988381
-0.258029
0.675234
0.604229
0.774796
-0.889594
-1.20952
-0.946628
0.672288
0.612196
0.771781
-0.219399
0.0377221
-0.305656
-0.0287808
0.0705013
-0.157278
0.379918
0.220607
0.44286
-0.522918
-0.838203
-0.58729
0.384368
0.220521
0.490497
-0.00913314
-0.00690123
-0.167577
-0.0312752
-0.0867665
0.0445649
0.135787
-0.163039
-0.122011
0.399946
0.199984
0.094017
-0.0956915
0.0419601
-0.170839
-0.260039
0.31077
-0.0649708
-0.122884
-0.00425827
0.148487
-0.528017
-0.612568
-0.343831
0.0694875
-0.175847
0.0470545
0.739183
0.563891
0.616202
-0.238191
-0.0341974
-0.309591
0.231728
0.406914
0.274765
0.176069
0.133165
0.16086
-1.09953
-1.23072
-1.05075
0.14225
-0.00504701
0.180348
0.44411
0.468349
0.408111
-0.194979
0.0100798
-0.0779016
0.66021
0.58076
0.49645
0.234649
0.110231
0.0506136
-0.696342
-0.793415
-0.755669
0.0298646
-0.0284947
-0.0280886
-0.184952
0.076719
0.169103
-0.246389
-0.181901
0.025185
0.379075
0.273075
0.439536
0.0290008
-0.156637
0.0989448
0.22159
-0.244681
-0.0997772
-0.229108
-0.0797894
0.0318419
0.140863
0.208189
0.172385
-0.251103
-0.280116
-0.00311528
-0.0927535
0.0679393
0.366521
-0.138191
-0.100628
0.150115
0.236654
-0.0558003
-0.0921848
0.444198
-0.0572607
-0.160762
0.34512
-0.339668
-0.167236
0.248643
-0.0554813
0.0318716
0.219839
-0.0793995
-0.082713
0.0278199
-0.0715078
-0.230145
0.0138394
-0.101684
-0.442076
-0.025724
-0.339244
-0.539506
-0.0695164
-0.0974628
-0.354266
0.13287
0.0507905
-0.243348
-0.141971
0.191446
0.0737693
0.265928
0.965615
0.527878
0.26095
0.771949
0.496491
0.287183
0.818126
0.442892
0.0326296
0.218811
-0.231211
-0.356148
-0.303764
0.284557
-0.592328
-0.240231
0.447603
-1.07849
-0.924495
0.135346
-0.442068
-0.366687
0.331102
0.0957994
-0.114484
-0.0904554
-0.171585
0.241005
-0.0408964
0.0556112
-0.169065
0.0481272
0.352847
-0.396619
0.040586
0.0796502
-0.15378
0.0360314
-0.0819669
0.187149
-0.11483
-0.258084
0.340977
-0.0875836
0.24456
0.122275
0.250599
-0.0128387
-0.7315
-0.324984
0.207636
0.127321
0.25407
-0.226961
0.300879
-0.100667
-0.40733
0.224896
-0.215647
0.570088
0.515288
0.681098
-0.70113
-1.23077
-0.82706
0.527873
0.497322
0.683385
-0.34445
0.198861
-0.210792
-0.268074
0.0988381
-0.258029
0.675234
0.604229
0.774796
-0.889594
-1.20952
-0.946628
0.672288
0.612196
0.771781
-0.219399
0.0377221
-0.305656
-0.0287808
0.0705013
-0.157278
0.379918
0.220607
0.44286
-0.522918
-0.838203
-0.58729
0.384368
0.220521
0.490497
-0.00913314
-0.00690123
-0.167577
-0.0312752
-0.0867665
0.0445649
0.135787
-0.163039
-0.122011
0.399946
0.199984
0.094017
-0.0956915
0.0419601
-0.170839
-0.260039
0.31077
-0.0649708
-0.122884
-0.00425827
0.148487
-0.528017
-0.612568
-0.343831
0.0694875
-0.175847
0.0470545
0.739183
0.563891
0.616202
-0.238191
-0.0341974
-0.309591
0.231728
0.406914
0.274765
0.176069
0.133165
0.16086
-1.09953
-1.23072
-1.05075
0.14225
-0.00504701
0.180348
0.44411
0.468349
0.408111
-0.194979
0.0100798
-0.0779016
0.66021
0.58076
0.49645
0.234649
0.110231
0.0506136
-0.696342
-0.793415
-0.755669
0.0298646
-0.0284947
-0.0280886
-0.184952
0.076719
0.169103
-0.246389
-0.181901
0.025185
0.379075
0.273075
0.439536
0.0290008
-0.156637
0.0989448
0.22159
-0.244681
-0.0997772
-0.229108
-0.0797894
0.0318419
0.140863
0.208189
0.172385
-0.251103
-0.280116
-0.00311528
-0.0927535
0.0679393
0.366521
-0.138191
-0.100628
0.150115
0.236654
-0.0558003
-0.0921848
0.444198
-0.0572607
-0.160762
0.34512
-0.339668
-0.167236
0.248643
-0.0554813
0.0318716
0.219839
-0.0793995
-0.082713
0.0278199
-0.0715078
-0.230145
0.0138394
-0.101684
-0.442076
-0.025724
-0.339244
-0.539506
-0.0695164
-0.0974628
-0.354266
0.13287
0.0507905
-0.243348
-0.141971
0.191446
0.0737693
0.265928
0.965615
0.527878
0.26095
0.771949
0.496491
0.287183
0.818126
0.442892
0.0326296
0.218811
-0.231211
-0.356148
-0.303764
0.284557
-0.592328
-0.240231
0.447603
-1.07849
-0.924495
0.135346
-0.442068
-0.366687
0.331102
0.0957994
-0.114484
-0.0904554
-0.171585
0.241005
-0.0408964
0.0556112
-0.169065
0.0481272
0.352847
-0.396619
0.040586
0.0796502
-0.15378
0.0360314
-0.0819669
0.187149
-0.11483
-0.258084
0.340977
-0.0875836
0.24456
0.122275
0.250599
-0.0128387
-0.7315
-0.324984
0.207636
0.127321
0.25407
-0.226961
0.300879
-0.100667
-0.40733
0.224896
-0.215647
0.570088
0.515288
0.681098
-0.70113
-1.23077
-0.82706
0.527873
0.497322
0.683385
-0.34445
0.198861
-0.210792
-0.268074
0.0988381
-0.258029
0.675234
0.604229
0.774796
-0.889594
-1.20952
-0.946628
0.672288
0.612196
0.771781
-0.219399
0.0377221
-0.305656
-0.0287808
0.0705013
-0.157278
0.379918
0.220607
0.44286
-0.522918
-0.838203
-0.58729
0.384368
0.220521
0.490497
-0.00913314
-0.00690123
-0.167577
-0.0312752
-0.0867665
0.0445649
0.135787
-0.163039
-0.122011
0.399946
0.199984
0.094017
-0.0956915
0.0419601
-0.170839
-0.260039
0.31077
-0.0649708
-0.122884
-0.00425827
0.148487
-0.528017
-0.612568
-0.343831
0.0694875
-0.175847
0.0470545
0.739183
0.563891
0.616202
-0.238191
-0.0341974
-0.309591
0.231728
0.406914
0.274765
0.176069
0.133165
0.16086
-1.09953
-1.23072
-1.05075
0.14225
-0.00504701
0.180348
0.44411
0.468349
0.408111
-0.194979
0.0100798
-0.0779016
0.66021
0.58076
0.49645
0.234649
0.110231
0.0506136
-0.696342
-0.793415
-0.755669
0.0298646
-0.0284947
-0.0280886
-0.184952
0.076719
0.169103
-0.246389
-0.181901
0.025185
0.379075
0.273075
0.439536
0.0290008
-0.156637
0.0989448
0.22159
-0.244681
-0.0997772
-0.229108
-0.0797894
0.0318419
0.140863
0.208189
0.172385
-0.251103
-0.280116
-0.00311528
-0.0927535
0.0679393
0.366521
-0.138191
-0.100628
0.150115
0.236654
-0.0558003
-0.0921848
0.444198
-0.0572607
-0.160762
0.34512
-0.339668
-0.167236
0.248643
-0.0554813
0.0318716
0.219839
-0.0793995
-0.082713
0.0278199
-0.0715078
-0.230145
0.0138394
-0.101684
-0.442076
-0.025724
-0.339244
-0.539506
-0.0695164
-0.0974628
-0.354266
0.13287
0.0507905
-0.243348
-0.141971
0.191446
0.0737693
0.265928
0.965615
0.527878
0.26095
0.771949
0.496491
0.287183
0.818126
0.442892
0.0326296
0.218811
-0.231211
-0.356148
-0.303764
0.284557
-0.592328
-0.240231
0.447603
-1.07849
-0.924495
0.135346
-0.442068
-0.366687
0.331102
0.0957994
-0.114484
-0.0904554
-0.171585
0.241005
-0.0408964
0.0556112
-0.169065
0.0481272
0.352847
-0.396619
0.040586
0.0796502
-0.15378
0.0360314
-0.0819669
0.187149
-0.11483
-0.258084
0.340977
-0.0875836
0.24456
0.122275
0.250599
-0.0128387
-0.7315
-0.324984
0.207636
0.127321
0.25407
-0.226961
0.300879
-0.100667
-0.40733
0.224896
-0.215647
0.570088
0.515288
0.681098
-0.70113
-1.23077
-0.82706
0.527873
0.497322
0.683385
-0.34445
0.198861
-0.210792
-0.268074
0.0988381
-0.258029
0.675234
0.604229
0.774796
-0.889594
-1.20952
-0.946628
0.672288
0.612196
0.771781
-0.219399
0.0377221
-0.305656
-0.0287808
0.0705013
-0.157278
0.379918
0.220607
0.44286
-0.522918
-0.838203
-0.58729
0.384368
0.220521
0.490497
-0.00913314
-0.00690123
-0.167577
-0.0312752
-0.0867665
0.0445649
0.135787
-0.163039
-0.122011
0.399946
0.199984
0.094017
-0.0956915
0.0419601
-0.170839
-0.260039
0.31077
-0.0649708
-0.122884
-0.00425827
0.148487
-0.528017
-0.612568
-0.343831
0.0694875
-0.175847
0.0470545
0.739183
0.563891
0.616202
-0.238191
-0.0341974
-0.309591
0.231728
0.406914
0.274765
0.176069
0.133165
0.16086
-1.09953
-1.23072
-1.05075
0.14225
-0.00504701
0.180348
0.44411
0.468349
0.408111
-0.194979
0.0100798
-0.0779016
0.66021
0.58076
0.49645
0.234649
0.110231
0.0506136
-0.696342
-0.793415
-0.755669
0.0298646
-0.0284947
-0.0280886
-0.184952
0.076719
0.169103
-0.246389
-0.181901
0.025185
0.379075
0.273075
0.439536
0.0290008
-0.156637
0.0989448
0.22159
-0.244681
-0.0997772
-0.229108
-0.0797894
0.0318419
0.140863
0.208189
0.172385
-0.251103
-0.280116
-0.00311528
-0.0927535
0.0679393
0.366521
-0.138191
-0.100628
0.150115
0.236654
-0.0558003
-0.0921848
0.444198
-0.0572607
-0.160762
0.34512
-0.339668
-0.167236
0.248643
-0.0554813
0.0318716
0.219839
-0.0793995
-0.082713
0.0278199
-0.0715078
-0.230145
0.0138394
-0.101684
-0.442076
-0.025724
-0.339244
-0.539506
-0.0695164
-0.0974628
-0.354266
0.13287
0.0507905
-0.243348
-0.141971
0.191446
0.0737693
0.265928
0.965615
0.527878
0.26095
0.771949
0.496491
0.287183
0.818126
0.442892
0.0326296
0.218811
-0.231211
-0.356148
-0.303764
0.284557
-0.592328
-0.240231
0.447603
-1.07849
-0.924495
0.135346
-0.442068
-0.366687
0.331102
0.0957994
-0.114484
-0.0904554
-0.171585
0.241005
-0.0408964
0.0556112
-0.169065
0.0481272
0.352847
-0.396619
0.040586
0.0796502
-0.15378
0.0360314
-0.0819669
0.187149
-0.11483
-0.258084
0.340977
-0.0875836
0.24456
0.122275
0.250599
-0.0128387
-0.7315
-0.324984
0.207636
0.127321
0.25407
-0.226961
0.300879
-0.100667
-0.40733
0.224896
-0.215647
0.570088
0.515288
0.681098
-0.70113
-1.23077
-0.82706
0.527873
0.497322
0.683385
-0.34445
0.198861
-0.210792
-0.268074
0.0988381
-0.258029
0.675234
0.604229
0.774796
-0.889594
-1.20952
-0.946628
0.672288
0.612196
0.771781
-0.219399
0.0377221
-0.305656
-0.0287808
0.0705013
-0.157278
0.379918
0.220607
0.44286
-0.522918
-0.838203
-0.58729
0.384368
0.220521
0.490497
-0.00913314
-0.00690123
-0.167577
-0.0312752
-0.0867665
0.0445649
0.135787
-0.163039
-0.122011
0.399946
0.199984
0.094017
-0.0956915
0.0419601
-0.170839
-0.260039
0.31077
-0.0649708
-0.122884
-0.00425827
0.148487
-0.528017
-0.612568
-0.343831
0.0694875
-0.175847
0.0470545
0.739183
0.563891
0.616202
-0.238191
-0.0341974
-0.309591
0.231728
0.406914
0.274765
0.176069
0.133165
0.16086
-1.09953
-1.23072
-1.05075
0.14225
-0.00504701
0.180348
0.44411
0.468349
0.408111
-0.194979
0.0100798
-0.0779016
0.66021
0.58076
0.49645
0.234649
0.110231
0.0506136
-0.696342
-0.793415
-0.755669
0.0298646
-0.0284947
-0.0280886
-0.184952
0.076719
0.169103
-0.246389
-0.181901
0.025185
0.379075
0.273075
0.439536
0.0290008
-0.156637
0.0989448
0.22159
-0.244681
-0.0997772
-0.229108
-0.0797894
0.0318419
0.140863
0.208189
0.172385
-0.251103
-0.280116
-0.00311528
-0.0927535
0.0679393
0.366521
-0.138191
-0.100628
0.150115
0.236654
-0.0558003
-0.0921848
0.444198
-0.0572607
-0.160762
0.34512
-0.339668
-0.167236
0.248643
-0.0554813
0.0318716
0.219839
-0.0793995
-0.082713
0.0278199
-0.0715078
-0.230145
0.0138394
-0.101684
-0.442076
-0.025724
-0.339244
-0.539506
-0.0695164
-0.0974628
-0.354266
0.13287
0.0507905
-0.243348
-0.141971
0.191446
0.0737693
0.265928
0.965615
0.527878
0.26095
0.771949
0.496491
0.287183
0.818126
0.442892
0.0326296
0.218811
-0.231211
-0.356148
-0.303764
0.284557
-0.592328
-0.240231
0.447603
-1.07849
-0.924495
0.135346
-0.442068
-0.366687
0.331102
0.0957994
-0.114484
-0.0904554
-0.171585
0.241005
-0.0408964
0.0556112
-0.169065
0.0481272
0.352847
-0.396619
0.040586
0.0796502
-0.15378
0.0360314
-0.0819669
0.187149
-0.11483
-0.258084
0.340977
-0.0875836
0.24456
0.122275
0.250599
-0.0128387
-0.7315
-0.324984
0.207636
0.127321
0.25407
-0.226961
0.300879
-0.100667
-0.40733
0.224896
-0.215647
0.570088
0.515288
0.681098
-0.70113
-1.23077
-0.82706
0.527873
0.497322
0.683385
-0.34445
0.198861
-0.210792
-0.268074
0.0988381
-0.258029
0.675234
0.604229
0.774796
-0.889594
-1.20952
-0.946628
0.672288
0.612196
0.771781
-0.219399
0.0377221
-0.305656
-0.0287808
0.0705013
-0.157278
0.379918
0.220607
0.44286
-0.522918
-0.838203
-0.58729
0.384368
0.220521
0.490497
-0.00913314
-0.00690123
-0.167577
-0.0312752
-0.0867665
0.0445649
0.135787
-0.163039
-0.122011
0.399946
0.199984
0.094017
-0.0956915
0.0419601
-0.170839
-0.260039
0.31077
-0.0649708
-0.122884
-0.00425827
0.148487
-0.528017
-0.612568
-0.343831
0.0694875
-0.175847
0.0470545
0.739183
0.563891
0.616202
-0.238191
-0.0341974
-0.309591
0.231728
0.406914
0.274765
0.176069
0.133165
0.16086
-1.09953
-1.23072
-1.05075
0.14225
-0.00504701
0.180348
0.44411
0.468349
0.408111
-0.194979
0.0100798
-0.0779016
0.66021
0.58076
0.49645
0.234649
0.110231
0.0506136
-0.696342
-0.793415
-0.755669
0.0298646
-0.0284947
-0.0280886
-0.184952
0.076719
0.169103
-0.246389
-0.181901
0.025185
0.379075
0.273075
0.439536
0.0290008
-0.156637
0.0989448
0.22159
-0.244681
-0.0997772
-0.229108
-0.0797894
0.0318419
0.140863
0.208189
0.172385
-0.251103
-0.280116
-0.00311528
-0.0927535
0.0679393
0.366521
-0.138191
-0.100628
0.150115
0.236654
-0.0558003
-0.0921848
0.444198
-0.0572607
-0.160762
0.34512
-0.339668
-0.167236
0.248643
-0.0554813
0.0318716
0.219839
-0.0793995
-0.082713
0.0278199
-0.0715078
-0.230145
0.0138394
-0.101684
-0.442076
-0.025724
-0.339244
-0.539506
-0.0695164
-0.0974628
-0.354266
0.13287
0.0507905
-0.243348
-0.141971
0.191446
0.0737693
0.265928
0.965615
0.527878
0.26095
0.771949
0.496491
0.287183
0.818126
0.442892
0.0326296
0.218811
-0.231211
-0.356148
-0.303764
0.284557
-0.592328
-0.240231
0.447603
-1.07849
-0.924495
0.135346
-0.442068
-0.366687
0.331102
0.0957994
-0.114484
-0.0904554
-0.171585
0.241005
-0.0408964
0.0556112
-0.169065
0.0481272
0.352847
-0.396619
0.040586
0.0796502
-0.15378
0.0360314
-0.0819669
0.187149
-0.11483
-0.258084
0.340977
-0.0875836
0.24456
0.122275
0.250599
-0.0128387
-0.7315
-0.324984
0.207636
0.127321
0.25407
-0.226961
0.300879
-0.100667
-0.40733
0.224896
-0.215647
0.570088
0.515288
0.681098
-0.70113
-1.23077
-0.82706
0.527873
0.497322
0.683385
-0.34445
0.198861
-0.210792
-0.268074
0.0988381
-0.258029
0.675234
0.604229
0.774796
-0.889594
-1.20952
-0.946628
0.672288
0.612196
0.771781
-0.219399
0.0377221
-0.305656
-0.0287808
0.0705013
-0.157278
0.379918
0.220607
0.44286
-0.522918
-0.838203
-0.58729
0.384368
0.220521
0.490497
-0.00913314
-0.00690123
-0.167577
-0.0312752
-0.0867665
0.0445649
0.135787
-0.163039
-0.122011
0.399946
0.199984
0.094017
-0.0956915
0.0419601
-0.170839
-0.260039
0.31077
-0.0649708
-0.122884
-0.00425827
0.148487
-0.528017
-0.612568
-0.343831
0.0694875
-0.175847
0.0470545
0.739183
0.563891
0.616202
-0.238191
-0.0341974
-0.309591
0.231728
0.406914
0.274765
0.176069
0.133165
0.16086
-1.09953
-1.23072
-1.05075
0.14225
-0.00504701
0.180348
0.44411
0.468349
0.408111
-0.194979
0.0100798
-0.0779016
0.66021
0.58076
0.49645
0.234649
0.110231
0.0506136
-0.696342
-0.793415
-0.755669
0.0298646
-0.0284947
-0.0280886
-0.184952
0.076719
0.169103
-0.246389
-0.181901
0.025185
0.379075
0.273075
0.439536
0.0290008
-0.156637
0.0989448
0.22159
-0.244681
-0.0997772
-0.229108
-0.0797894
0.0318419
0.140863
0.208189
0.172385
-0.251103
-0.280116
-0.00311528
-0.0927535
0.0679393
0.366521
-0.138191
-0.100628
0.150115
0.236654
-0.0558003
-0.0921848
0.444198
-0.0572607
-0.160762
0.34512
-0.339668
-0.167236
0.248643
-0.0554813
0.0318716
0.219839
-0.0793995
-0.082713
0.0278199
-0.0715078
-0.230145
0.0138394
-0.101684
-0.442076
-0.025724
-0.339244
-0.539506
-0.0695164
-0.0974628
-0.354266
0.13287
0.0507905
-0.243348
-0.141971
0.191446
0.0737693
0.265928
0.965615
0.527878
0.26095
0.771949
0.496491
0.287183
0.818126
0.442892
0.0326296
0.218811
-0.231211
-0.356148
-0.303764
0.284557
-0.592328
-0.240231
0.447603
-1.07849
-0.924495
0.135346
-0.442068
-0.366687
0.331102
0.0957994
-0.114484
-0.0904554
-0.171585
0.241005
-0.0408964
0.0556112
-0.169065
0.0481272
0.352847
-0.396619
0.040586
0.0796502
-0.15378
0.0360314
-0.0819669
0.187149
-0.11483
-0.258084
0.340977
-0.0875836
0.24456
0.122275
0.250599
-0.0128387
-0.7315
-0.324984
0.207636
0.127321
0.25407
-0.226961
0.300879
-0.100667
-0.40733
0.224896
-0.215647
0.570088
0.515288
0.681098
-0.70113
-1.23077
-0.82706
0.527873
0.497322
0.683385
-0.34445
0.198861
-0.210792
-0.268074
0.0988381
-0.258029
0.675234
0.604229
0.774796
-0.889594
-1.20952
-0.946628
0.672288
0.612196
0.771781
-0.219399
0.0377221
-0.305656
-0.0287808
0.0705013
-0.157278
0.379918
0.220607
0.44286
-0.522918
-0.838203
-0.58729
0.384368
0.220521
0.490497
-0.00913314
-0.00690123
-0.167577
-0.0312752
-0.0867665
0.0445649
0.135787
-0.163039
-0.122011
0.399946
0.199984
0.094017
-0.0956915
0.0419601
-0.170839
-0.260039
0.31077
-0.0649708
-0.122884
-0.00425827
0.148487
-0.528017
-0.612568
-0.343831
0.0694875
-0.175847
0.0470545
0.739183
0.563891
0.616202
-0.238191
-0.0341974
-0.309591
0.231728
0.406914
0.274765
0.176069
0.133165
0.16086
-1.09953
-1.23072
-1.05075
0.14225
-0.00504701
0.180348
0.44411
0.468349
0.408111
-0.194979
0.0100798
-0.0779016
0.66021
0.58076
0.49645
0.234649
0.110231
0.0506136
-0.696342
-0.793415
-0.755669
0.0298646
-0.0284947
-0.0280886
-0.184952
0.076719
0.169103
-0.246389
-0.181901
0.025185
0.379075
0.273075
0.439536
0.0290008
-0.156637
0.0989448
0.22159
-0.244681
-0.0997772
-0.229108
-0.0797894
0.0318419
0.140863
0.208189
0.172385
-0.251103
-0.280116
-0.00311528
-0.0927535
0.0679393
0.366521
-0.138191
-0.100628
0.150115
0.236654
-0.0558003
-0.0921848
0.444198
-0.0572607
-0.160762
0.34512
-0.339668
-0.167236
0.248643
-0.0554813
0.0318716
0.219839
-0.0793995
-0.082713
0.0278199
-0.0715078
-0.230145
0.0138394
-0.101684
-0.442076
-0.025724
-0.339244
-0.539506
-0.0695164
-0.0974628
-0.354266
0.13287
0.0507905
-0.243348
-0.141971
0.191446
0.0737693
0.265928
0.965615
0.527878
0.26095
0.771949
0.496491
0.287183
0.818126
0.442892
0.0326296
0.218811
-0.231211
-0.356148
-0.303764
0.284557
-0.592328
-0.240231
0.447603
-1.07849
-0.924495
0.135346
-0.442068
-0.366687
0.331102
0.0957994
-0.114484
-0.0904554
-0.171585
0.241005
-0.0408964
0.0556112
-0.169065
0.0481272
0.352847
-0.396619
0.040586
0.0796502
-0.15378
0.0360314
-0.0819669
0.187149
-0.11483
-0.258084
0.340977
-0.0875836
0.24456
0.122275
0.250599
-0.0128387
-0.7315
-0.324984
0.207636
0.127321
0.25407
-0.226961
0.300879
-0.100667
-0.40733
0.224896
-0.215647
0.570088
0.515288
0.681098
-0.70113
-1.23077
-0.82706
0.527873
0.497322
0.683385
-0.34445
0.198861
-0.210792
-0.268074
0.0988381
-0.258029
0.675234
0.604229
0.774796
-0.889594
-1.20952
-0.946628
0.672288
0.612196
0.771781
-0.219399
0.0377221
-0.305656
-0.0287808
0.0705013
-0.157278
0.379918
0.220607
0.44286
-0.522918
-0.838203
-0.58729
0.384368
0.220521
0.490497
-0.00913314
-0.00690123
-0.167577
-0.0312752
-0.0867665
0.0445649
0.135787
-0.163039
-0.122011
0.399946
0.199984
0.094017
-0.0956915
0.0419601
-0.170839
-0.260039
0.31077
-0.0649708
-0.122884
-0.00425827
0.148487
-0.528017
-0.612568
-0.343831
0.0694875
-0.175847
0.0470545
0.739183
0.563891
0.616202
-0.238191
-0.0341974
-0.309591
0.231728
0.406914
0.274765
0.176069
0.133165
0.16086
-1.09953
-1.23072
-1.05075
0.14225
-0.00504701
0.180348
0.44411
0.468349
0.408111
-0.194979
0.0100798
-0.0779016
0.66021
0.58076
0.49645
0.234649
0.110231
0.0506136
-0.696342
-0.793415
-0.755669
0.0298646
-0.0284947
-0.0280886
-0.184952
0.076719
0.169103
-0.246389
-0.181901
0.025185
0.379075
0.273075
0.439536
0.0290008
-0.156637
0.0989448
0.22159
-0.244681
-0.0997772
-0.229108
-0.0797894
0.0318419
0.140863
0.208189
0.172385
-0.251103
-0.280116
-0.00311528
-0.0927535
0.0679393
0.366521
-0.138191
-0.100628
0.150115
0.236654
-0.0558003
-0.0921848
0.444198
-0.0572607
-0.160762
0.34512
-0.339668
-0.167236
0.248643
-0.0554813
0.0318716
0.219839
-0.0793995
-0.082713
0.0278199
-0.0715078
-0.230145
0.0138394
-0.101684
-0.442076
-0.025724
-0.339244
-0.539506
-0.0695164
-0.0974628
-0.354266
0.13287
0.0507905
-0.243348
-0.141971
0.191446
0.0737693
0.265928
0.965615
0.527878
0.26095
0.771949
0.496491
0.287183
0.818126
0.442892
0.0326296
0.218811
-0.231211
-0.356148
-0.303764
0.284557
-0.592328
-0.240231
0.447603
-1.07849
-0.924495
0.135346
-0.442068
-0.366687
0.331102
0.0957994
-0.114484
-0.0904554
-0.171585
0.241005
-0.0408964
0.0556112
-0.169065
0.0481272
0.352847
-0.396619
0.040586
0.0796502
-0.15378
0.0360314
-0.0819669
0.187149
-0.11483
-0.258084
0.340977
-0.0875836
0.24456
0.122275
0.250599
-0.0128387
-0.7315
-0.324984
0.207636
0.127321
0.25407
-0.226961
0.300879
-0.100667
-0.40733
0.224896
-0.215647
0.570088
0.515288
0.681098
-0.70113
-1.23077
-0.82706
0.527873
0.497322
0.683385
-0.34445
0.198861
-0.210792
-0.268074
0.0988381
-0.258029
0.675234
0.604229
0.774796
-0.889594
-1.20952
-0.946628
0.672288
0.612196
0.771781
-0.219399
0.0377221
-0.305656
-0.0287808
0.0705013
-0.157278
0.379918
0.220607
0.44286
-0.522918
-0.838203
-0.58729
0.384368
0.220521
0.490497
-0.00913314
-0.00690123
-0.167577
-0.0312752
-0.0867665
0.0445649
0.135787
-0.163039
-0.122011
0.399946
0.199984
0.094017
-0.0956915
0.0419601
-0.170839
-0.260039
0.31077
-0.0649708
-0.122884
-0.00425827
0.148487
-0.528017
-0.612568
-0.343831
0.0694875
-0.175847
0.0470545
0.739183
0.563891
0.616202
-0.238191
-0.0341974
-0.309591
0.231728
0.406914
0.274765
0.176069
0.133165
0.16086
-1.09953
-1.23072
-1.05075
0.14225
-0.00504701
0.180348
0.44411
0.468349
0.408111
-0.194979
0.0100798
-0.0779016
0.66021
0.58076
0.49645
0.234649
0.110231
0.0506136
-0.696342
-0.793415
-0.755669
0.0298646
-0.0284947
-0.0280886
-0.184952
0.076719
0.169103
-0.246389
-0.181901
0.025185
0.379075
0.273075
0.439536
0.0290008
-0.156637
0.0989448
0.22159
-0.244681
-0.0997772
-0.229108
-0.0797894
0.0318419
0.140863
0.208189
0.172385
-0.251103
-0.280116
-0.00311528
-0.0927535
0.0679393
0.366521
-0.138191
-0.100628
0.150115
0.236654
-0.0558003
-0.0921848
0.444198
-0.0572607
-0.160762
0.34512
-0.339668
-0.167236
0.248643
-0.0554813
0.0318716
0.219839
-0.0793995
-0.082713
0.0278199
-0.0715078
-0.230145
0.0138394
-0.101684
-0.442076
-0.025724
-0.339244
-0.539506
-0.0695164
-0.0974628
-0.354266
0.13287
0.0507905
-0.243348
-0.141971
0.191446
0.0737693
0.265928
0.965615
0.527878
0.26095
0.771949
0.496491
0.287183
0.818126
0.442892
0.0326296
0.218811
-0.231211
-0.356148
-0.303764
0.284557
-0.592328
-0.240231
0.447603
-1.07849
-0.924495
0.135346
-0.442068
-0.366687
0.331102
0.0957994
-0.114484
-0.0904554
-0.171585
0.241005
-0.0408964
0.0556112
-0.169065
0.0481272
0.352847
-0.396619
0.040586
0.0796502
-0.15378
0.0360314
-0.0819669
0.187149
-0.11483
-0.258084
0.340977
-0.0875836
0.24456
0.122275
0.250599
-0.0128387
-0.7315
-0.324984
0.207636
0.127321
0.25407
-0.226961
0.300879
-0.100667
-0.40733
0.224896
-0.215647
0.570088
0.515288
0.681098
-0.70113
-1.23077
-0.82706
0.527873
0.497322
0.683385
-0.34445
0.198861
-0.210792
-0.268074
0.0988381
-0.258029
0.675234
0.604229
0.774796
-0.889594
-1.20952
-0.946628
0.672288
0.612196
0.771781
-0.219399
0.0377221
-0.305656
-0.0287808
0.0705013
-0.157278
0.379918
0.220607
0.44286
-0.522918
-0.838203
-0.58729
0.384368
0.220521
0.490497
-0.00913314
-0.00690123
-0.167577
-0.0312752
-0.0867665
0.0445649
0.135787
-0.163039
-0.122011
0.399946
0.199984
0.094017
-0.0956915
0.0419601
-0.170839
-0.260039
0.31077
-0.0649708
-0.122884
-0.00425827
0.148487
-0.528017
-0.612568
-0.343831
0.0694875
-0.175847
0.0470545
0.739183
0.563891
0.616202
-0.238191
-0.0341974
-0.309591
0.231728
0.406914
0.274765
0.176069
0.133165
0.16086
-1.09953
-1.23072
-1.05075
0.14225
-0.00504701
0.180348
0.44411
0.468349
0.408111
-0.194979
0.0100798
-0.0779016
0.66021
0.58076
0.49645
0.234649
0.110231
0.0506136
-0.696342
-0.793415
-0.755669
0.0298646
-0.0284947
-0.0280886
-0.184952
0.076719
0.169103
-0.246389
-0.181901
0.025185
0.379075
0.273075
0.439536
0.0290008
-0.156637
0.0989448
0.22159
-0.244681
-0.0997772
-0.229108
-0.0797894
0.0318419
0.140863
0.208189
0.172385
-0.251103
-0.280116
-0.00311528
-0.0927535
0.0679393
0.366521
-0.138191
-0.100628
0.150115
0.236654
-0.0558003
-0.0921848
0.444198
-0.0572607
-0.160762
0.34512
-0.339668
-0.167236
0.248643
-0.0554813
0.0318716
0.219839
-0.0793995
-0.082713
0.0278199
-0.0715078
-0.230145
0.0138394
-0.101684
-0.442076
-0.025724
-0.339244
-0.539506
-0.0695164
-0.0974628
-0.354266
0.13287
0.0507905
-0.243348
-0.141971
0.191446
0.0737693
0.265928
0.965615
0.527878
0.26095
0.771949
0.496491
0.287183
0.818126
0.442892
0.0326296
0.218811
-0.231211
-0.356148
-0.303764
0.284557
-0.592328
-0.240231
0.447603
-1.07849
-0.924495
0.135346
-0.442068
-0.366687
0.331102
0.0957994
-0.114484
-0.0904554
-0.171585
0.241005
-0.0408964
0.0556112
-0.169065
0.0481272
0.352847
-0.396619
0.040586
0.0796502
-0.15378
0.0360314
-0.0819669
0.187149
-0.11483
-0.258084
0.340977
-0.0875836
0.24456
0.122275
0.250599
-0.0128387
-0.7315
-0.324984
0.207636
0.127321
0.25407
-0.226961
0.300879
-0.100667
-0.40733
0.224896
-0.215647
0.570088
0.515288
0.681098
-0.70113
-1.23077
-0.82706
0.527873
0.497322
0.683385
-0.34445
0.198861
-0.210792
-0.268074
0.0988381
-0.258029
0.675234
0.604229
0.774796
-0.889594
-1.20952
-0.946628
0.672288
0.612196
0.771781
-0.219399
0.0377221
-0.305656
-0.0287808
0.0705013
-0.157278
0.379918
0.220607
0.44286
-0.522918
-0.838203
-0.58729
0.384368
0.220521
0.490497
-0.00913314
-0.00690123
-0.167577
-0.0312752
-0.0867665
0.0445649
0.135787
-0.163039
-0.122011
0.399946
0.199984
0.094017
-0.0956915
0.0419601
-0.170839
-0.260039
0.31077
-0.0649708
-0.122884
-0.00425827
0.148487
-0.528017
-0.612568
-0.343831
0.0694875
-0.175847
0.0470545
0.739183
0.563891
0.616202
-0.238191
-0.0341974
-0.309591
0.231728
0.406914
0.274765
0.176069
0.133165
0.16086
-1.09953
-1.23072
-1.05075
0.14225
-0.00504701
0.180348
0.44411
0.468349
0.408111
-0.194979
0.0100798
-0.0779016
0.66021
0.58076
0.49645
0.234649
0.110231
0.0506136
-0.696342
-0.793415
-0.755669
0.0298646
-0.0284947
-0.0280886
-0.184952
0.076719
0.169103
-0.246389
-0.181901
0.025185
0.379075
0.273075
0.439536
0.0290008
-0.156637
0.0989448
0.22159
-0.244681
-0.0997772
-0.229108
-0.0797894
0.0318419
0.140863
0.208189
0.172385
-0.251103
-0.280116
-0.00311528
-0.0927535
0.0679393
0.366521
-0.138191
-0.100628
0.150115
0.236654
-0.0558003
-0.0921848
0.444198
-0.0572607
-0.160762
0.34512
-0.339668
-0.167236
0.248643
-0.0554813
0.0318716
0.219839
-0.0793995
-0.082713
0.0278199
-0.0715078
-0.230145
0.0138394
-0.101684
-0.442076
-0.025724
-0.339244
-0.539506
-0.0695164
-0.0974628
-0.354266
0.13287
0.0507905
-0.243348
-0.141971
0.191446
0.0737693
0.265928
0.965615
0.527878
0.26095
0.771949
0.496491
0.287183
0.818126
0.442892
0.0326296
0.218811
-0.231211
-0.356148
-0.303764
0.284557
-0.592328
-0.240231
0.447603
-1.07849
-0.924495
0.135346
-0.442068
-0.366687
0.331102
0.0957994
-0.114484
-0.0904554
-0.171585
0.241005
-0.0408964
0.0556112
-0.169065
0.0481272
0.352847
-0.396619
0.040586
0.0796502
-0.15378
0.0360314
-0.0819669
0.187149
-0.11483
-0.258084
0.340977
-0.0875836
0.24456
0.122275
0.250599
-0.0128387
-0.7315
-0.324984
0.207636
0.127321
0.25407
-0.226961
0.300879
-0.100667
-0.40733
0.224896
-0.215647
0.570088
0.515288
0.681098
-0.70113
-1.23077
-0.82706
0.527873
0.497322
0.683385
-0.34445
0.198861
-0.210792
-0.268074
0.0988381
-0.258029
0.675234
0.604229
0.774796
-0.889594
-1.20952
-0.946628
0.672288
0.612196
0.771781
-0.219399
0.0377221
-0.305656
-0.0287808
0.0705013
-0.157278
0.379918
0.220607
0.44286
-0.522918
-0.838203
-0.58729
0.384368
0.220521
0.490497
-0.00913314
-0.00690123
-0.167577
-0.0312752
-0.0867665
0.0445649
0.135787
-0.163039
-0.122011
0.399946
0.199984
0.094017
-0.0956915
0.0419601
-0.170839
-0.260039
0.31077
-0.0649708
-0.122884
-0.00425827
0.148487
-0.528017
-0.612568
-0.343831
0.0694875
-0.175847
0.0470545
0.739183
0.563891
0.616202
-0.238191
-0.0341974
-0.309591
0.231728
0.406914
0.274765
0.176069
0.133165
0.16086
-1.09953
-1.23072
-1.05075
0.14225
-0.00504701
0.180348
0.44411
0.468349
0.408111
-0.194979
0.0100798
-0.0779016
0.66021
0.58076
0.49645
0.234649
0.110231
0.0506136
-0.696342
-0.793415
-0.755669
0.0298646
-0.0284947
-0.0280886
-0.184952
0.076719
0.169103
-0.246389
-0.181901
0.025185
0.379075
0.273075
0.439536
0.0290008
-0.156637
0.0989448
0.22159
-0.244681
-0.0997772
-0.229108
-0.0797894
0.0318419
0.140863
0.208189
0.172385
-0.251103
-0.280116
-0.00311528
-0.0927535
0.0679393
0.366521
-0.138191
-0.100628
0.150115
0.236654
-0.0558003
-0.0921848
0.444198
-0.0572607
-0.160762
0.34512
-0.339668
-0.167236
0.248643
-0.0554813
0.0318716
0.219839
-0.0793995
-0.082713
0.0278199
-0.0715078
-0.230145
0.0138394
-0.101684
-0.442076
-0.025724
-0.339244
-0.539506
-0.0695164
-0.0974628
-0.354266
0.13287
0.0507905
-0.243348
-0.141971
0.191446
0.0737693
0.265928
0.965615
0.527878
0.26095
0.771949
0.496491
0.287183
0.818126
0.442892
0.0326296
0.218811
-0.231211
-0.356148
-0.303764
0.284557
-0.592328
-0.240231
0.447603
-1.07849
-0.924495
0.135346
-0.442068
-0.366687
0.331102
0.0957994
-0.114484
-0.0904554
-0.171585
0.241005
-0.0408964
0.0556112
-0.169065
0.0481272
0.352847
-0.396619
0.040586
0.0796502
-0.15378
0.0360314
-0.0819669
0.187149
-0.11483
-0.258084
0.340977
-0.0875836
0.24456
0.122275
0.250599
-0.0128387
-0.7315
-0.324984
0.207636
0.127321
0.25407
-0.226961
0.300879
-0.100667
-0.40733
0.224896
-0.215647
0.570088
0.515288
0.681098
-0.70113
-1.23077
-0.82706
0.527873
0.497322
0.683385
-0.34445
0.198861
-0.210792
-0.268074
0.0988381
-0.258029
0.675234
0.604229
0.774796
-0.889594
-1.20952
-0.946628
0.672288
0.612196
0.771781
-0.219399
0.0377221
-0.305656
-0.0287808
0.0705013
-0.157278
0.379918
0.220607
0.44286
-0.522918
-0.838203
-0.58729
0.384368
0.220521
0.490497
-0.00913314
-0.00690123
-0.167577
-0.0312752
-0.0867665
0.0445649
0.135787
-0.163039
-0.122011
0.399946
0.199984
0.094017
-0.0956915
0.0419601
-0.170839
-0.260039
0.31077
-0.0649708
-0.122884
-0.00425827
0.148487
-0.528017
-0.612568
-0.343831
0.0694875
-0.175847
0.0470545
0.739183
0.563891
0.616202
-0.238191
-0.0341974
-0.309591
0.231728
0.406914
0.274765
0.176069
0.133165
0.16086
-1.09953
-1.23072
-1.05075
0.14225
-0.00504701
0.180348
0.44411
0.468349
0.408111
-0.194979
0.0100798
-0.0779016
0.66021
0.58076
0.49645
0.234649
0.110231
0.0506136
-0.696342
-0.793415
-0.755669
0.0298646
-0.0284947
-0.0280886
-0.184952
0.076719
0.169103
-0.246389
-0.181901
0.025185
0.379075
0.273075
0.439536
0.0290008
-0.156637
0.0989448
0.22159
-0.244681
-0.0997772
-0.229108
-0.0797894
0.0318419
0.140863
0.208189
0.172385
-0.251103
-0.280116
-0.00311528
-0.0927535
0.0679393
0.366521
-0.138191
-0.100628
0.150115
0.236654
-0.0558003
-0.0921848
0.444198
-0.0572607
-0.160762
0.34512
-0.339668
-0.167236
0.248643
-0.0554813
0.0318716
0.219839
-0.0793995
-0.082713
0.0278199
-0.0715078
-0.230145
0.0138394
-0.101684
-0.442076
-0.025724
-0.339244
-0.539506
-0.0695164
-0.0974628
-0.354266
0.13287
0.0507905
-0.243348
-0.141971
0.191446
0.0737693
0.265928
0.965615
0.527878
0.26095
0.771949
0.496491
0.287183
0.818126
0.442892
0.0326296
0.218811
-0.231211
-0.356148
-0.303764
0.284557
-0.592328
-0.240231
0.447603
-1.07849
-0.924495
0.135346
-0.442068
-0.366687
0.331102
0.0957994
-0.114484
-0.0904554
-0.171585
0.241005
-0.0408964
0.0556112
-0.169065
0.0481272
0.352847
-0.396619
0.040586
0.0796502
-0.15378
0.0360314
-0.0819669
0.187149
-0.11483
-0.258084
0.340977
-0.0875836
0.24456
0.122275
0.250599
-0.0128387
-0.7315
-0.324984
0.207636
0.127321
0.25407
-0.226961
0.300879
-0.100667
-0.40733
0.224896
-0.215647
0.570088
0.515288
0.681098
-0.70113
-1.23077
-0.82706
0.527873
0.497322
0.683385
-0.34445
0.198861
-0.210792
-0.268074
0.0988381
-0.258029
0.675234
0.604229
0.774796
-0.889594
-1.20952
-0.946628
0.672288
0.612196
0.771781
-0.219399
0.0377221
-0.305656
-0.0287808
0.0705013
-0.157278
0.379918
0.220607
0.44286
-0.522918
-0.838203
-0.58729
0.384368
0.220521
0.490497
-0.00913314
-0.00690123
-0.167577
-0.0312752
-0.0867665
0.0445649
0.135787
-0.163039
-0.122011
0.399946
0.199984
0.094017
-0.0956915
0.0419601
-0.170839
-0.260039
0.31077
-0.0649708
-0.122884
-0.00425827
0.148487
-0.528017
-0.612568
-0.343831
0.0694875
-0.175847
0.0470545
0.739183
0.563891
0.616202
-0.238191
-0.0341974
-0.309591
0.231728
0.406914
0.274765
0.176069
0.133165
0.16086
-1.09953
-1.23072
-1.05075
0.14225
-0.00504701
0.180348
0.44411
0.468349
0.408111
-0.194979
0.0100798
-0.0779016
0.66021
0.58076
0.49645
0.234649
0.110231
0.0506136
-0.696342
-0.793415
-0.755669
0.0298646
-0.0284947
-0.0280886
-0.184952
0.076719
0.169103
-0.246389
-0.181901
0.025185
0.379075
0.273075
0.439536
0.0290008
-0.156637
0.0989448
0.22159
-0.244681
-0.0997772
-0.229108
-0.0797894
0.0318419
0.140863
0.208189
0.172385
-0.251103
-0.280116
-0.00311528
-0.0927535
0.0679393
0.366521
-0.138191
-0.100628
0.150115
0.236654
-0.0558003
-0.0921848
0.444198
-0.0572607
-0.160762
0.34512
-0.339668
-0.167236
0.248643
-0.0554813
0.0318716
0.219839
-0.0793995
-0.082713
0.0278199
-0.0715078
-0.230145
0.0138394
-0.101684
-0.442076
-0.025724
-0.339244
-0.539506
-0.0695164
-0.0974628
-0.354266
0.13287
0.0507905
-0.243348
-0.141971
0.191446
0.0737693
0.265928
0.965615
0.527878
0.26095
0.771949
0.496491
0.287183
0.818126
0.442892
0.0326296
0.218811
-0.231211
-0.356148
-0.303764
0.284557
-0.592328
-0.240231
0.447603
-1.07849
-0.924495
0.135346
-0.442068
-0.366687
0.331102
0.0957994
-0.114484
-0.0904554
-0.171585
0.241005
-0.0408964
0.0556112
-0.169065
0.0481272
0.352847
-0.396619
0.040586
0.0796502
-0.15378
0.0360314
-0.0819669
0.187149
-0.11483
-0.258084
0.340977
-0.0875836
0.24456
0.122275
0.250599
-0.0128387
-0.7315
-0.324984
0.207636
0.127321
0.25407
-0.226961
0.300879
-0.100667
-0.40733
0.224896
-0.215647
0.570088
0.515288
0.681098
-0.70113
-1.23077
-0.82706
0.527873
0.497322
0.683385
-0.34445
0.198861
-0.210792
-0.268074
0.0988381
-0.258029
0.675234
0.604229
0.774796
-0.889594
-1.20952
-0.946628
0.672288
0.612196
0.771781
-0.219399
0.0377221
-0.305656
-0.0287808
0.0705013
-0.157278
0.379918
0.220607
0.44286
-0.522918
-0.838203
-0.58729
0.384368
0.220521
0.490497
-0.00913314
-0.00690123
-0.167577
-0.0312752
-0.0867665
0.0445649
0.135787
-0.163039
-0.122011
0.399946
0.199984
0.094017
-0.0956915
0.0419601
-0.170839
-0.260039
0.31077
-0.0649708
-0.122884
-0.00425827
0.148487
-0.528017
-0.612568
-0.343831
0.0694875
-0.175847
0.0470545
0.739183
0.563891
0.616202
-0.238191
-0.0341974
-0.309591
0.231728
0.406914
0.274765
0.176069
0.133165
0.16086
-1.09953
-1.23072
-1.05075
0.14225
-0.00504701
0.180348
0.44411
0.468349
0.408111
-0.194979
0.0100798
-0.0779016
0.66021
0.58076
0.49645
0.234649
0.110231
0.0506136
-0.696342
-0.793415
-0.755669
0.0298646
-0.0284947
-0.0280886
-0.184952
0.076719
0.169103
-0.246389
-0.181901
0.025185
0.379075
0.273075
0.439536
0.0290008
-0.156637
0.0989448
0.22159
-0.244681
-0.0997772
-0.229108
-0.0797894
0.0318419
0.140863
0.208189
0.172385
-0.251103
-0.280116
-0.00311528
-0.0927535
0.0679393
0.366521
-0.138191
-0.100628
0.150115
0.236654
-0.0558003
-0.0921848
0.444198
-0.0572607
-0.160762
0.34512
-0.339668
-0.167236
0.248643
-0.0554813
0.0318716
0.219839
-0.0793995
-0.082713
0.0278199
-0.0715078
-0.230145
0.0138394
-0.101684
-0.442076
-0.025724
-0.339244
-0.539506
-0.0695164
-0.0974628
-0.354266
0.13287
0.0507905
-0.243348
-0.141971
0.191446
0.0737693
0.265928
0.965615
0.527878
0.26095
0.771949
0.496491
0.287183
0.818126
0.442892
0.0326296
0.218811
-0.231211
-0.356148
-0.303764
0.284557
-0.592328
-0.240231
0.447603
-1.07849
-0.924495
0.135346
-0.442068
-0.366687
0.331102
0.0957994
-0.114484
-0.0904554
-0.171585
0.241005
-0.0408964
0.0556112
-0.169065
0.0481272
0.352847
-0.396619
0.040586
0.0796502
-0.15378
0.0360314
-0.0819669
0.187149
-0.11483
-0.258084
0.340977
-0.0875836
0.24456
0.122275
0.250599
-0.0128387
-0.7315
-0.324984
0.207636
0.127321
0.25407
-0.226961
0.300879
-0.100667
-0.40733
0.224896
-0.215647
0.570088
0.515288
0.681098
-0.70113
-1.23077
-0.82706
0.527873
0.497322
0.683385
-0.34445
0.198861
-0.210792
-0.268074
0.0988381
-0.258029
0.675234
0.604229
0.774796
-0.889594
-1.20952
-0.946628
0.672288
0.612196
0.771781
-0.219399
0.0377221
-0.305656
-0.0287808
0.0705013
-0.157278
0.379918
0.220607
0.44286
-0.522918
-0.838203
-0.58729
0.384368
0.220521
0.490497
-0.00913314
-0.00690123
-0.167577
-0.0312752
-0.0867665
0.0445649
0.135787
-0.163039
-0.122011
0.399946
0.199984
0.094017
-0.0956915
0.0419601
-0.170839
-0.260039
0.31077
-0.0649708
-0.122884
-0.00425827
0.148487
-0.528017
-0.612568
-0.343831
0.0694875
-0.175847
0.0470545
0.739183
0.563891
0.616202
-0.238191
-0.0341974
-0.309591
0.231728
0.406914
0.274765
0.176069
0.133165
0.16086
-1.09953
-1.23072
-1.05075
0.14225
-0.00504701
0.180348
0.44411
0.468349
0.408111
-0.194979
0.0100798
-0.0779016
0.66021
0.58076
0.49645
0.234649
0.110231
0.0506136
-0.696342
-0.793415
-0.755669
0.0298646
-0.0284947
-0.0280886
-0.184952
0.076719
0.169103
-0.246389
-0.181901
0.025185
0.379075
0.273075
0.439536
0.0290008
-0.156637
0.0989448
0.22159
-0.244681
-0.0997772
-0.229108
-0.0797894
0.0318419
0.140863
0.208189
0.172385
-0.251103
-0.280116
-0.00311528
-0.0927535
0.0679393
0.366521
-0.138191
-0.100628
0.150115
0.236654
-0.0558003
-0.0921848
0.444198
-0.0572607
-0.160762
0.34512
-0.339668
-0.167236
0.248643
-0.0554813
0.0318716
0.219839
-0.0793995
-0.082713
0.0278199
-0.0715078
-0.230145
0.0138394
-0.101684
-0.442076
-0.025724
-0.339244
-0.539506
-0.0695164
-0.0974628
-0.354266
0.13287
0.0507905
-0.243348
-0.141971
0.191446
0.0737693
0.265928
0.965615
0.527878
0.26095
0.771949
0.496491
0.287183
0.818126
0.442892
0.0326296
0.218811
-0.231211
-0.356148
-0.303764
0.284557
-0.592328
-0.240231
0.447603
-1.07849
-0.924495
0.135346
-0.442068
-0.366687
0.331102
0.0957994
-0.114484
-0.0904554
-0.171585
0.241005
-0.0408964
0.0556112
-0.169065
0.0481272
0.352847
-0.396619
0.040586
0.0796502
-0.15378
0.0360314
-0.0819669
0.187149
-0.11483
-0.258084
0.340977
-0.0875836
0.24456
0.122275
0.250599
-0.0128387
-0.7315
-0.324984
0.207636
0.127321
0.25407
-0.226961
0.300879
-0.100667
-0.40733
0.224896
-0.215647
0.570088
0.515288
0.681098
-0.70113
-1.23077
-0.82706
0.527873
0.497322
0.683385
-0.34445
0.198861
-0.210792
-0.268074
0.0988381
-0.258029
0.675234
0.604229
0.774796
-0.889594
-1.20952
-0.946628
0.672288
0.612196
0.771781
-0.219399
0.0377221
-0.305656
-0.0287808
0.0705013
-0.157278
0.379918
0.220607
0.44286
-0.522918
-0.838203
-0.58729
0.384368
0.220521
0.490497
-0.00913314
-0.00690123
-0.167577
-0.0312752
-0.0867665
0.0445649
0.135787
-0.163039
-0.122011
0.399946
0.199984
0.094017
-0.0956915
0.0419601
-0.170839
-0.260039
0.31077
-0.0649708
-0.122884
-0.00425827
0.148487
-0.528017
-0.612568
-0.343831
0.0694875
-0.175847
0.0470545
0.739183
0.563891
0.616202
-0.238191
-0.0341974
-0.309591
0.231728
0.406914
0.274765
0.176069
0.133165
0.16086
-1.09953
-1.23072
-1.05075
0.14225
-0.00504701
0.180348
0.44411
0.468349
0.408111
-0.194979
0.0100798
-0.0779016
0.66021
0.58076
0.49645
0.234649
0.110231
0.0506136
-0.696342
-0.793415
-0.755669
0.0298646
-0.0284947
-0.0280886
-0.184952
0.076719
0.169103
-0.246389
-0.181901
0.025185
0.379075
0.273075
0.439536
0.0290008
-0.156637
0.0989448
0.22159
-0.244681
-0.0997772
-0.229108
-0.0797894
0.0318419
0.140863
0.208189
0.172385
-0.251103
-0.280116
-0.00311528
-0.0927535
0.0679393
0.366521
-0.138191
-0.100628
0.150115
0.236654
-0.0558003
-0.0921848
0.444198
-0.0572607
-0.160762
0.34512
-0.339668
-0.167236
0.248643
-0.0554813
0.0318716
0.219839
-0.0793995
-0.082713
0.0278199
-0.0715078
-0.230145
0.0138394
-0.101684
-0.442076
-0.025724
-0.339244
-0.539506
-0.0695164
-0.0974628
-0.354266
0.13287
0.0507905
-0.243348
-0.141971
0.191446
0.0737693
0.265928
0.965615
0.527878
0.26095
0.771949
0.496491
0.287183
0.818126
0.442892
0.0326296
0.218811
-0.231211
-0.356148
-0.303764
0.284557
-0.592328
-0.240231
0.447603
-1.07849
-0.924495
0.135346
-0.442068
-0.366687
0.331102
0.0957994
-0.114484
-0.0904554
-0.171585
0.241005
-0.0408964
0.0556112
-0.169065
0.0481272
0.352847
-0.396619
0.040586
0.0796502
-0.15378
0.0360314
-0.0819669
0.187149
-0.11483
-0.258084
0.340977
-0.0875836
0.24456
0.122275
0.250599
-0.0128387
-0.7315
-0.324984
0.207636
0.127321
0.25407
-0.226961
0.300879
-0.100667
-0.40733
0.224896
-0.215647
0.570088
0.515288
0.681098
-0.70113
-1.23077
-0.82706
0.527873
0.497322
0.683385
-0.34445
0.198861
-0.210792
-0.268074
0.0988381
-0.258029
0.675234
0.604229
0.774796
-0.889594
-1.20952
-0.946628
0.672288
0.612196
0.771781
-0.219399
0.0377221
-0.305656
-0.0287808
0.0705013
-0.157278
0.379918
0.220607
0.44286
-0.522918
-0.838203
-0.58729
0.384368
0.220521
0.490497
-0.00913314
-0.00690123
-0.167577
-0.0312752
-0.0867665
0.0445649
0.135787
-0.163039
-0.122011
0.399946
0.199984
0.094017
-0.0956915
0.0419601
-0.170839
-0.260039
0.31077
-0.0649708
-0.122884
-0.00425827
0.148487
-0.528017
-0.612568
-0.343831
0.0694875
-0.175847
0.0470545
0.739183
0.563891
0.616202
-0.238191
-0.0341974
-0.309591
0.231728
0.406914
0.274765
0.176069
0.133165
0.16086
-1.09953
-1.23072
-1.05075
0.14225
-0.00504701
0.180348
0.44411
0.468349
0.408111
-0.194979
0.0100798
-0.0779016
0.66021
0.58076
0.49645
0.234649
0.110231
0.0506136
-0.696342
-0.793415
-0.755669
0.0298646
-0.0284947
-0.0280886
-0.184952
0.076719
0.169103
-0.246389
-0.181901
0.025185
0.379075
0.273075
0.439536
0.0290008
-0.156637
0.0989448
0.22159
-0.244681
-0.0997772
-0.229108
-0.0797894
0.0318419
0.140863
0.208189
0.172385
-0.251103
-0.280116
-0.00311528
-0.0927535
0.0679393
0.366521
-0.138191
-0.100628
0.150115
0.236654
-0.0558003
-0.0921848
0.444198
-0.0572607
-0.160762
0.34512
-0.339668
-0.167236
0.248643
-0.0554813
0.0318716
0.219839
-0.0793995
-0.082713
0.0278199
-0.0715078
-0.230145
0.0138394
-0.101684
-0.442076
-0.025724
-0.339244
-0.539506
-0.0695164
-0.0974628
-0.354266
0.13287
0.0507905
-0.243348
-0.141971
0.191446
0.0737693
0.265928
0.965615
0.527878
0.26095
0.771949
0.496491
0.287183
0.818126
0.442892
0.0326296
0.218811
-0.231211
-0.356148
-0.303764
0.284557
-0.592328
-0.240231
0.447603
-1.07849
-0.924495
0.135346
-0.442068
-0.366687
0.331102
0.0957994
-0.114484
-0.0904554
-0.171585
0.241005
-0.0408964
0.0556112
-0.169065
0.0481272
0.352847
-0.396619
0.040586
0.0796502
-0.15378
0.0360314
-0.0819669
0.187149
-0.11483
-0.258084
0.340977
-0.0875836
0.24456
0.122275
0.250599
-0.0128387
-0.7315
-0.324984
0.207636
0.127321
0.25407
-0.226961
0.300879
-0.100667
-0.40733
0.224896
-0.215647
0.570088
0.515288
0.681098
-0.70113
-1.23077
-0.82706
0.527873
0.497322
0.683385
-0.34445
0.198861
-0.210792
-0.268074
0.0988381
-0.258029
0.675234
0.604229
0.774796
-0.889594
-1.20952
-0.946628
0.672288
0.612196
0.771781
-0.219399
0.0377221
-0.305656
-0.0287808
0.0705013
-0.157278
0.379918
0.220607
0.44286
-0.522918
-0.838203
-0.58729
0.384368
0.220521
0.490497
-0.00913314
-0.00690123
-0.167577
-0.0312752
-0.0867665
0.0445649
0.135787
-0.163039
-0.122011
0.399946
0.199984
0.094017
-0.0956915
0.0419601
-0.170839
-0.260039
0.31077
-0.0649708
-0.122884
-0.00425827
0.148487
-0.528017
-0.612568
-0.343831
0.0694875
-0.175847
0.0470545
0.739183
0.563891
0.616202
-0.238191
-0.0341974
-0.309591
0.231728
0.406914
0.274765
0.176069
0.133165
0.16086
-1.09953
-1.23072
-1.05075
0.14225
-0.00504701
0.180348
0.44411
0.468349
0.408111
-0.194979
0.0100798
-0.0779016
0.66021
0.58076
0.49645
0.234649
0.110231
0.0506136
-0.696342
-0.793415
-0.755669
0.0298646
-0.0284947
-0.0280886
-0.184952
0.076719
0.169103
-0.246389
-0.181901
0.025185
0.379075
0.273075
0.439536
0.0290008
-0.156637
0.0989448
0.22159
-0.244681
-0.0997772
-0.229108
-0.0797894
0.0318419
0.140863
0.208189
0.172385
-0.251103
-0.280116
-0.00311528
-0.0927535
0.0679393
0.366521
-0.138191
-0.100628
0.150115
0.236654
-0.0558003
-0.0921848
0.444198
-0.0572607
-0.160762
0.34512
-0.339668
-0.167236
0.248643
-0.0554813
0.0318716
0.219839
-0.0793995
-0.082713
0.0278199
-0.0715078
-0.230145
0.0138394
-0.101684
-0.442076
-0.025724
-0.339244
-0.539506
-0.0695164
-0.0974628
-0.354266
0.13287
0.0507905
-0.243348
-0.141971
0.191446
0.0737693
0.265928
0.965615
0.527878
0.26095
0.771949
0.496491
0.287183
0.818126
0.442892
0.0326296
0.218811
-0.231211
-0.356148
-0.303764
0.284557
-0.592328
-0.240231
0.447603
-1.07849
-0.924495
0.135346
-0.442068
-0.366687
0.331102
0.0957994
-0.114484
-0.0904554
-0.171585
0.241005
-0.0408964
0.0556112
-0.169065
0.0481272
0.352847
-0.396619
0.040586
0.0796502
-0.15378
0.0360314
-0.0819669
0.187149
-0.11483
-0.258084
0.340977
-0.0875836
0.24456
0.122275
0.250599
-0.0128387
-0.7315
-0.324984
0.207636
0.127321
0.25407
-0.226961
0.300879
-0.100667
-0.40733
0.224896
-0.215647
0.570088
0.515288
0.681098
-0.70113
-1.23077
-0.82706
0.527873
0.497322
0.683385
-0.34445
0.198861
-0.210792
-0.268074
0.0988381
-0.258029
0.675234
0.604229
0.774796
-0.889594
-1.20952
-0.946628
0.672288
0.612196
0.771781
-0.219399
0.0377221
-0.305656
-0.0287808
0.0705013
-0.157278
0.379918
0.220607
0.44286
-0.522918
-0.838203
-0.58729
0.384368
0.220521
0.490497
-0.00913314
-0.00690123
-0.167577
-0.0312752
-0.0867665
0.0445649
0.135787
-0.163039
-0.122011
0.399946
0.199984
0.094017
-0.0956915
0.0419601
-0.170839
-0.260039
0.31077
-0.0649708
-0.122884
-0.00425827
0.148487
-0.528017
-0.612568
-0.343831
0.0694875
-0.175847
0.0470545
0.739183
0.563891
0.616202
-0.238191
-0.0341974
-0.309591
0.231728
0.406914
0.274765
0.176069
0.133165
0.16086
-1.09953
-1.23072
-1.05075
0.14225
-0.00504701
0.180348
0.44411
0.468349
0.408111
-0.194979
0.0100798
-0.0779016
0.66021
0.58076
0.49645
0.234649
0.110231
0.0506136
-0.696342
-0.793415
-0.755669
0.0298646
-0.0284947
-0.0280886
-0.184952
0.076719
0.169103
-0.246389
-0.181901
0.025185
0.379075
0.273075
0.439536
0.0290008
-0.156637
0.0989448
0.22159
-0.244681
-0.0997772
-0.229108
-0.0797894
0.0318419
0.140863
0.208189
0.172385
-0.251103
-0.280116
-0.00311528
-0.0927535
0.0679393
0.366521
-0.138191
-0.100628
0.150115
0.236654
-0.0558003
-0.0921848
0.444198
-0.0572607
-0.160762
0.34512
-0.339668
-0.167236
0.248643
-0.0554813
0.0318716
0.219839
-0.0793995
-0.082713
0.0278199
-0.0715078
-0.230145
0.0138394
-0.101684
-0.442076
-0.025724
-0.339244
-0.539506
-0.0695164
-0.0974628
-0.354266
0.13287
0.0507905
-0.243348
-0.141971
0.191446
0.0737693
0.265928
0.965615
0.527878
0.26095
0.771949
0.496491
0.287183
0.818126
0.442892
0.0326296
0.218811
-0.231211
-0.356148
-0.303764
0.284557
-0.592328
-0.240231
0.447603
-1.07849
-0.924495
0.135346
-0.442068
-0.366687
0.331102
0.0957994
-0.114484
-0.0904554
-0.171585
0.241005
-0.0408964
0.0556112
-0.169065
0.0481272
0.352847
-0.396619
0.040586
0.0796502
-0.15378
0.0360314
-0.0819669
0.187149
-0.11483
-0.258084
0.340977
-0.0875836
0.24456
0.122275
0.250599
-0.0128387
-0.7315
-0.324984
0.207636
0.127321
0.25407
-0.226961
0.300879
-0.100667
-0.40733
0.224896
-0.215647
0.570088
0.515288
0.681098
-0.70113
-1.23077
-0.82706
0.527873
0.497322
0.683385
-0.34445
0.198861
-0.210792
-0.268074
0.0988381
-0.258029
0.675234
0.604229
0.774796
-0.889594
-1.20952
-0.946628
0.672288
0.612196
0.771781
-0.219399
0.0377221
-0.305656
-0.0287808
0.0705013
-0.157278
0.379918
0.220607
0.44286
-0.522918
-0.838203
-0.58729
0.384368
0.220521
0.490497
-0.00913314
-0.00690123
-0.167577
-0.0312752
-0.0867665
0.0445649
0.135787
-0.163039
-0.122011
0.399946
0.199984
0.094017
-0.0956915
0.0419601
-0.170839
-0.260039
0.31077
-0.0649708
-0.122884
-0.00425827
0.148487
-0.528017
-0.612568
-0.343831
0.0694875
-0.175847
0.0470545
0.739183
0.563891
0.616202
-0.238191
-0.0341974
-0.309591
0.231728
0.406914
0.274765
0.176069
0.133165
0.16086
-1.09953
-1.23072
-1.05075
0.14225
-0.00504701
0.180348
0.44411
0.468349
0.408111
-0.194979
0.0100798
-0.0779016
0.66021
0.58076
0.49645
0.234649
0.110231
0.0506136
-0.696342
-0.793415
-0.755669
0.0298646
-0.0284947
-0.0280886
-0.184952
0.076719
0.169103
-0.246389
-0.181901
0.025185
0.379075
0.273075
0.439536
0.0290008
-0.156637
0.0989448
0.22159
-0.244681
-0.0997772
-0.229108
-0.0797894
0.0318419
0.140863
0.208189
0.172385
-0.251103
-0.280116
-0.00311528
-0.0927535
0.0679393
0.366521
-0.138191
-0.100628
0.150115
0.236654
-0.0558003
-0.0921848
0.444198
-0.0572607
-0.160762
0.34512
-0.339668
-0.167236
0.248643
-0.0554813
0.0318716
0.219839
-0.0793995
-0.082713
0.0278199
-0.0715078
-0.230145
0.0138394
-0.101684
-0.442076
-0.025724
-0.339244
-0.539506
-0.0695164
-0.0974628
-0.354266
0.13287
0.0507905
-0.243348
-0.141971
0.191446
0.0737693
0.265928
0.965615
0.527878
0.26095
0.771949
0.496491
0.287183
0.818126
0.442892
0.0326296
0.218811
-0.231211
-0.356148
-0.303764
0.284557
-0.592328
-0.240231
0.447603
-1.07849
-0.924495
0.135346
-0.442068
-0.366687
0.331102
0.0957994
-0.114484
-0.0904554
-0.171585
0.241005
-0.0408964
0.0556112
-0.169065
0.0481272
0.352847
-0.396619
0.040586
0.0796502
-0.15378
0.0360314
-0.0819669
0.187149
-0.11483
-0.258084
0.340977
-0.0875836
0.24456
0.122275
0.250599
-0.0128387
-0.7315
-0.324984
0.207636
0.127321
0.25407
-0.226961
0.300879
-0.100667
-0.40733
0.224896
-0.215647
0.570088
0.515288
0.681098
-0.70113
-1.23077
-0.82706
0.527873
0.497322
0.683385
-0.34445
0.198861
-0.210792
-0.268074
0.0988381
-0.258029
0.675234
0.604229
0.774796
-0.889594
-1.20952
-0.946628
0.672288
0.612196
0.771781
-0.219399
0.0377221
-0.305656
-0.0287808
0.0705013
-0.157278
0.379918
0.220607
0.44286
-0.522918
-0.838203
-0.58729
0.384368
0.220521
0.490497
-0.00913314
-0.00690123
-0.167577
-0.0312752
-0.0867665
0.0445649
0.135787
-0.163039
-0.122011
0.399946
0.199984
0.094017
-0.0956915
0.0419601
-0.170839
-0.260039
0.31077
-0.0649708
-0.122884
-0.00425827
0.148487
-0.528017
-0.612568
-0.343831
0.0694875
-0.175847
0.0470545
0.739183
0.563891
0.616202
-0.238191
-0.0341974
-0.309591
0.231728
0.406914
0.274765
0.176069
0.133165
0.16086
-1.09953
-1.23072
-1.05075
0.14225
-0.00504701
0.180348
0.44411
0.468349
0.408111
-0.194979
0.0100798
-0.0779016
0.66021
0.58076
0.49645
0.234649
0.110231
0.0506136
-0.696342
-0.793415
-0.755669
0.0298646
-0.0284947
-0.0280886
-0.184952
0.076719
0.169103
-0.246389
-0.181901
0.025185
0.379075
0.273075
0.439536
0.0290008
-0.156637
0.0989448
0.22159
-0.244681
-0.0997772
-0.229108
-0.0797894
0.0318419
0.140863
0.208189
0.172385
-0.251103
-0.280116
-0.00311528
-0.0927535
0.0679393
0.366521
-0.138191
-0.100628
0.150115
0.236654
-0.0558003
-0.0921848
0.444198
-0.0572607
-0.160762
0.34512
-0.339668
-0.167236
0.248643
-0.0554813
0.0318716
0.219839
-0.0793995
-0.082713
0.0278199
-0.0715078
-0.230145
0.0138394
-0.101684
-0.442076
-0.025724
-0.339244
-0.539506
-0.0695164
-0.0974628
-0.354266
0.13287
0.0507905
-0.243348
-0.141971
0.191446
0.0737693
0.265928
0.965615
0.527878
0.26095
0.771949
0.496491
0.287183
0.818126
0.442892
0.0326296
0.218811
-0.231211
-0.356148
-0.303764
0.284557
-0.592328
-0.240231
0.447603
-1.07849
-0.924495
0.135346
-0.442068
-0.366687
0.331102
0.0957994
-0.114484
-0.0904554
-0.171585
0.241005
-0.0408964
0.0556112
-0.169065
0.0481272
0.352847
-0.396619
0.040586
0.0796502
-0.15378
0.0360314
-0.0819669
0.187149
-0.11483
-0.258084
0.340977
-0.0875836
0.24456
0.122275
0.250599
-0.0128387
-0.7315
-0.324984
0.207636
0.127321
0.25407
-0.226961
0.300879
-0.100667
-0.40733
0.224896
-0.215647
0.570088
0.515288
0.681098
-0.70113
-1.23077
-0.82706
0.527873
0.497322
0.683385
-0.34445
0.198861
-0.210792
-0.268074
0.0988381
-0.258029
0.675234
0.604229
0.774796
-0.889594
-1.20952
-0.946628
0.672288
0.612196
0.771781
-0.219399
0.0377221
-0.305656
-0.0287808
0.0705013
-0.157278
0.379918
0.220607
0.44286
-0.522918
-0.838203
-0.58729
0.384368
0.220521
0.490497
-0.00913314
-0.00690123
-0.167577
-0.0312752
-0.0867665
0.0445649
0.135787
-0.163039
-0.122011
0.399946
0.199984
0.094017
-0.0956915
0.0419601
-0.170839
-0.260039
0.31077
-0.0649708
-0.122884
-0.00425827
0.148487
-0.528017
-0.612568
-0.343831
0.0694875
-0.175847
0.0470545
0.739183
0.563891
0.616202
-0.238191
-0.0341974
-0.309591
0.231728
0.406914
0.274765
0.176069
0.133165
0.16086
-1.09953
-1.23072
-1.05075
0.14225
-0.00504701
0.180348
0.44411
0.468349
0.408111
-0.194979
0.0100798
-0.0779016
0.66021
0.58076
0.49645
0.234649
0.110231
0.0506136
-0.696342
-0.793415
-0.755669
0.0298646
-0.0284947
-0.0280886
-0.184952
0.076719
0.169103
-0.246389
-0.181901
0.025185
0.379075
0.273075
0.439536
0.0290008
-0.156637
0.0989448
0.22159
-0.244681
-0.0997772
-0.229108
-0.0797894
0.0318419
0.140863
0.208189
0.172385
-0.251103
-0.280116
-0.00311528
-0.0927535
0.0679393
0.366521
-0.138191
-0.100628
0.150115
0.236654
-0.0558003
-0.0921848
0.444198
-0.0572607
-0.160762
0.34512
-0.339668
-0.167236
0.248643
-0.0554813
0.0318716
0.219839
-0.0793995
-0.082713
0.0278199
-0.0715078
-0.230145
0.0138394
-0.101684
-0.442076
-0.025724
-0.339244
-0.539506
-0.0695164
-0.0974628
-0.354266
0.13287
0.0507905
-0.243348
-0.141971
0.191446
0.0737693
0.265928
0.965615
0.527878
0.26095
0.771949
0.496491
0.287183
0.818126
0.442892
0.0326296
0.218811
-0.231211
-0.356148
-0.303764
0.284557
-0.592328
-0.240231
0.447603
-1.07849
-0.924495
0.135346
-0.442068
-0.366687
0.331102
0.0957994
-0.114484
-0.0904554
-0.171585
0.241005
-0.0408964
0.0556112
-0.169065
0.0481272
0.352847
-0.396619
0.040586
0.0796502
-0.15378
0.0360314
-0.0819669
0.187149
-0.11483
-0.258084
0.340977
-0.0875836
0.24456
0.122275
0.250599
-0.0128387
-0.7315
-0.324984
0.207636
0.127321
0.25407
-0.226961
0.300879
-0.100667
-0.40733
0.224896
-0.215647
0.570088
0.515288
0.681098
-0.70113
-1.23077
-0.82706
0.527873
0.497322
0.683385
-0.34445
0.198861
-0.210792
-0.268074
0.0988381
-0.258029
0.675234
0.604229
0.774796
-0.889594
-1.20952
-0.946628
0.672288
0.612196
0.771781
-0.219399
0.0377221
-0.305656
-0.0287808
0.0705013
-0.157278
0.379918
0.220607
0.44286
-0.522918
-0.838203
-0.58729
0.384368
0.220521
0.490497
-0.00913314
-0.00690123
-0.167577
-0.0312752
-0.0867665
0.0445649
0.135787
-0.163039
-0.122011
0.399946
0.199984
0.094017
-0.0956915
0.0419601
-0.170839
-0.260039
0.31077
-0.0649708
-0.122884
-0.00425827
0.148487
-0.528017
-0.612568
-0.343831
0.0694875
-0.175847
0.0470545
0.739183
0.563891
0.616202
-0.238191
-0.0341974
-0.309591
0.231728
0.406914
0.274765
0.176069
0.133165
0.16086
-1.09953
-1.23072
-1.05075
0.14225
-0.00504701
0.180348
0.44411
0.468349
0.408111
-0.194979
0.0100798
-0.0779016
0.66021
0.58076
0.49645
0.234649
0.110231
0.0506136
-0.696342
-0.793415
-0.755669
0.0298646
-0.0284947
-0.0280886
-0.184952
0.076719
0.169103
-0.246389
-0.181901
0.025185
0.379075
0.273075
0.439536
0.0290008
-0.156637
0.0989448
0.22159
-0.244681
-0.0997772
-0.229108
-0.0797894
0.0318419
0.140863
0.208189
0.172385
-0.251103
-0.280116
-0.00311528
-0.0927535
0.0679393
0.366521
-0.138191
-0.100628
0.150115
0.236654
-0.0558003
-0.0921848
0.444198
-0.0572607
-0.160762
0.34512
-0.339668
-0.167236
0.248643
-0.0554813
0.0318716
0.219839
-0.0793995
-0.082713
0.0278199
-0.0715078
-0.230145
0.0138394
-0.101684
-0.442076
-0.025724
-0.339244
-0.539506
-0.0695164
-0.0974628
-0.354266
0.13287
0.0507905
-0.243348
-0.141971
0.191446
0.0737693
0.265928
0.965615
0.527878
0.26095
0.771949
0.496491
0.287183
0.818126
0.442892
0.0326296
0.218811
-0.231211
-0.356148
-0.303764
0.284557
-0.592328
-0.240231
0.447603
-1.07849
-0.924495
0.135346
-0.442068
-0.366687
0.331102
0.0957994
-0.114484
-0.0904554
-0.171585
0.241005
-0.0408964
0.0556112
-0.169065
0.0481272
0.352847
-0.396619
0.040586
0.0796502
-0.15378
0.0360314
-0.0819669
0.187149
-0.11483
-0.258084
0.340977
-0.0875836
0.24456
0.122275
0.250599
-0.0128387
-0.7315
-0.324984
0.207636
0.127321
0.25407
-0.226961
0.300879
-0.100667
-0.40733
0.224896
-0.215647
0.570088
0.515288
0.681098
-0.70113
-1.23077
-0.82706
0.527873
0.497322
0.683385
-0.34445
0.198861
-0.210792
-0.268074
0.0988381
-0.258029
0.675234
0.604229
0.774796
-0.889594
-1.20952
-0.946628
0.672288
0.612196
0.771781
-0.219399
0.0377221
-0.305656
-0.0287808
0.0705013
-0.157278
0.379918
0.220607
0.44286
-0.522918
-0.838203
-0.58729
0.384368
0.220521
0.490497
-0.00913314
-0.00690123
-0.167577
-0.0312752
-0.0867665
0.0445649
0.135787
-0.163039
-0.122011
0.399946
0.199984
0.094017
-0.0956915
0.0419601
-0.170839
-0.260039
0.31077
-0.0649708
-0.122884
-0.00425827
0.148487
-0.528017
-0.612568
-0.343831
0.0694875
-0.175847
0.0470545
0.739183
0.563891
0.616202
-0.238191
-0.0341974
-0.309591
0.231728
0.406914
0.274765
0.176069
0.133165
0.16086
-1.09953
-1.23072
-1.05075
0.14225
-0.00504701
0.180348
0.44411
0.468349
0.408111
-0.194979
0.0100798
-0.0779016
0.66021
0.58076
0.49645
0.234649
0.110231
0.0506136
-0.696342
-0.793415
-0.755669
0.0298646
-0.0284947
-0.0280886
-0.184952
0.076719
0.169103
-0.246389
-0.181901
0.025185
0.379075
0.273075
0.439536
0.0290008
-0.156637
0.0989448
0.22159
-0.244681
-0.0997772
-0.229108
-0.0797894
0.0318419
0.140863
0.208189
0.172385
-0.251103
-0.280116
-0.00311528
-0.0927535
0.0679393
0.366521
-0.138191
-0.100628
0.150115
0.236654
-0.0558003
-0.0921848
0.444198
-0.0572607
-0.160762
0.34512
-0.339668
-0.167236
0.248643
-0.0554813
0.0318716
0.219839
-0.0793995
-0.082713
0.0278199
-0.0715078
-0.230145
0.0138394
-0.101684
-0.442076
-0.025724
-0.339244
-0.539506
-0.0695164
-0.0974628
-0.354266
0.13287
0.0507905
-0.243348
-0.141971
0.191446
0.0737693
0.265928
0.965615
0.527878
0.26095
0.771949
0.496491
0.287183
0.818126
0.442892
0.0326296
0.218811
-0.231211
-0.356148
-0.303764
0.284557
-0.592328
-0.240231
0.447603
-1.07849
-0.924495
0.135346
-0.442068
-0.366687
0.331102
0.0957994
-0.114484
-0.0904554
-0.171585
0.241005
-0.0408964
0.0556112
-0.169065
0.0481272
0.352847
-0.396619
0.040586
0.0796502
-0.15378
0.0360314
-0.0819669
0.187149
-0.11483
-0.258084
0.340977
-0.0875836
0.24456
0.122275
0.250599
-0.0128387
-0.7315
-0.324984
0.207636
0.127321
0.25407
-0.226961
0.300879
-0.100667
-0.40733
0.224896
-0.215647
0.570088
0.515288
0.681098
-0.70113
-1.23077
-0.82706
0.527873
0.497322
0.683385
-0.34445
0.198861
-0.210792
-0.268074
0.0988381
-0.258029
0.675234
0.604229
0.774796
-0.889594
-1.20952
-0.946628
0.672288
0.612196
0.771781
-0.219399
0.0377221
-0.305656
-0.0287808
0.0705013
-0.157278
0.379918
0.220607
0.44286
-0.522918
-0.838203
-0.58729
0.384368
0.220521
0.490497
-0.00913314
-0.00690123
-0.167577
-0.0312752
-0.0867665
0.0445649
0.135787
-0.163039
-0.122011
0.399946
0.199984
0.094017
-0.0956915
0.0419601
-0.170839
-0.260039
0.31077
-0.0649708
-0.122884
-0.00425827
0.148487
-0.528017
-0.612568
-0.343831
0.0694875
-0.175847
0.0470545
0.739183
0.563891
0.616202
-0.238191
-0.0341974
-0.309591
0.231728
0.406914
0.274765
0.176069
0.133165
0.16086
-1.09953
-1.23072
-1.05075
0.14225
-0.00504701
0.180348
0.44411
0.468349
0.408111
-0.194979
0.0100798
-0.0779016
0.66021
0.58076
0.49645
0.234649
0.110231
0.0506136
-0.696342
-0.793415
-0.755669
0.0298646
-0.0284947
-0.0280886
-0.184952
0.076719
0.169103
-0.246389
-0.181901
0.025185
0.379075
0.273075
0.439536
0.0290008
-0.156637
0.0989448
0.22159
-0.244681
-0.0997772
-0.229108
-0.0797894
0.0318419
0.140863
0.208189
0.172385
-0.251103
-0.280116
-0.00311528
-0.0927535
0.0679393
0.366521
-0.138191
-0.100628
0.150115
0.236654
-0.0558003
-0.0921848
0.444198
-0.0572607
-0.160762
0.34512
-0.339668
-0.167236
0.248643
-0.0554813
0.0318716
0.219839
-0.0793995
-0.082713
0.0278199
-0.0715078
-0.230145
0.0138394
-0.101684
-0.442076
-0.025724
-0.339244
-0.539506
-0.0695164
-0.0974628
-0.354266
0.13287
0.0507905
-0.243348
-0.141971
0.191446
0.0737693
0.265928
0.965615
0.527878
0.26095
0.771949
0.496491
0.287183
0.818126
0.442892
0.0326296
0.218811
-0.231211
-0.356148
-0.303764
0.284557
-0.592328
-0.240231
0.447603
-1.07849
-0.924495
0.135346
-0.442068
-0.366687
0.331102
0.0957994
-0.114484
-0.0904554
-0.171585
0.241005
-0.0408964
0.0556112
-0.169065
0.0481272
0.352847
-0.396619
0.040586
0.0796502
-0.15378
0.0360314
-0.0819669
0.187149
-0.11483
-0.258084
0.340977
-0.0875836
0.24456
0.122275
0.250599
-0.0128387
-0.7315
-0.324984
0.207636
0.127321
0.25407
-0.226961
0.300879
-0.100667
-0.40733
0.224896
-0.215647
0.570088
0.515288
0.681098
-0.70113
-1.23077
-0.82706
0.527873
0.497322
0.683385
-0.34445
0.198861
-0.210792
-0.268074
0.0988381
-0.258029
0.675234
0.604229
0.774796
-0.889594
-1.20952
-0.946628
0.672288
0.612196
0.771781
-0.219399
0.0377221
-0.305656
-0.0287808
0.0705013
-0.157278
0.379918
0.220607
0.44286
-0.522918
-0.838203
-0.58729
0.384368
0.220521
0.490497
-0.00913314
-0.00690123
-0.167577
-0.0312752
-0.0867665
0.0445649
0.135787
-0.163039
-0.122011
0.399946
0.199984
0.094017
-0.0956915
0.0419601
-0.170839
-0.260039
0.31077
-0.0649708
-0.122884
-0.00425827
0.148487
-0.528017
-0.612568
-0.343831
0.0694875
-0.175847
0.0470545
0.739183
0.563891
0.616202
-0.238191
-0.0341974
-0.309591
0.231728
0.406914
0.274765
0.176069
0.133165
0.16086
-1.09953
-1.23072
-1.05075
0.14225
-0.00504701
0.180348
0.44411
0.468349
0.408111
-0.194979
0.0100798
-0.0779016
0.66021
0.58076
0.49645
0.234649
0.110231
0.0506136
-0.696342
-0.793415
-0.755669
0.0298646
-0.0284947
-0.0280886
-0.184952
0.076719
0.169103
-0.246389
-0.181901
0.025185
0.379075
0.273075
0.439536
0.0290008
-0.156637
0.0989448
0.22159
-0.244681
-0.0997772
-0.229108
-0.0797894
0.0318419
0.140863
0.208189
0.172385
-0.251103
-0.280116
-0.00311528
-0.0927535
0.0679393
0.366521
-0.138191
-0.100628
0.150115
0.236654
-0.0558003
-0.0921848
0.444198
-0.0572607
-0.160762
0.34512
-0.339668
-0.167236
0.248643
-0.0554813
0.0318716
0.219839
-0.0793995
-0.082713
0.0278199
-0.0715078
-0.230145
0.0138394
-0.101684
-0.442076
-0.025724
-0.339244
-0.539506
-0.0695164
-0.0974628
-0.354266
0.13287
0.0507905
-0.243348
-0.141971
0.191446
0.0737693
0.265928
0.965615
0.527878
0.26095
0.771949
0.496491
0.287183
0.818126
0.442892
0.0326296
0.218811
-0.231211
-0.356148
-0.303764
0.284557
-0.592328
-0.240231
0.447603
-1.07849
-0.924495
0.135346
-0.442068
-0.366687
0.331102
0.0957994
-0.114484
-0.0904554
-0.171585
0.241005
-0.0408964
0.0556112
-0.169065
0.0481272
0.352847
-0.396619
0.040586
0.0796502
-0.15378
0.0360314
-0.0819669
0.187149
-0.11483
-0.258084
0.340977
-0.0875836
0.24456
0.122275
0.250599
-0.0128387
-0.7315
-0.324984
0.207636
0.127321
0.25407
-0.226961
0.300879
-0.100667
-0.40733
0.224896
-0.215647
0.570088
0.515288
0.681098
-0.70113
-1.23077
-0.82706
0.527873
0.497322
0.683385
-0.34445
0.198861
-0.210792
-0.268074
0.0988381
-0.258029
0.675234
0.604229
0.774796
-0.889594
-1.20952
-0.946628
0.672288
0.612196
0.771781
-0.219399
0.0377221
-0.305656
-0.0287808
0.0705013
-0.157278
0.379918
0.220607
0.44286
-0.522918
-0.838203
-0.58729
0.384368
0.220521
0.490497
-0.00913314
-0.00690123
-0.167577
-0.0312752
-0.0867665
0.0445649
0.135787
-0.163039
-0.122011
0.399946
0.199984
0.094017
-0.0956915
0.0419601
-0.170839
-0.260039
0.31077
-0.0649708
-0.122884
-0.00425827
0.148487
-0.528017
-0.612568
-0.343831
0.0694875
-0.175847
0.0470545
0.739183
0.563891
0.616202
-0.238191
-0.0341974
-0.309591
0.231728
0.406914
0.274765
0.176069
0.133165
0.16086
-1.09953
-1.23072
-1.05075
0.14225
-0.00504701
0.180348
0.44411
0.468349
0.408111
-0.194979
0.0100798
-0.0779016
0.66021
0.58076
0.49645
0.234649
0.110231
0.0506136
-0.696342
-0.793415
-0.755669
0.0298646
-0.0284947
-0.0280886
-0.184952
0.076719
0.169103
-0.246389
-0.181901
0.025185
0.379075
0.273075
0.439536
0.0290008
-0.156637
0.0989448
0.22159
-0.244681
-0.0997772
-0.229108
-0.0797894
0.0318419
0.140863
0.208189
0.172385
-0.251103
-0.280116
-0.00311528
-0.0927535
0.0679393
0.366521
-0.138191
-0.100628
0.150115
0.236654
-0.0558003
-0.0921848
0.444198
-0.0572607
-0.160762
0.34512
-0.339668
-0.167236
0.248643
-0.0554813
0.0318716
0.219839
-0.0793995
-0.082713
0.0278199
-0.0715078
-0.230145
0.0138394
-0.101684
-0.442076
-0.025724
-0.339244
-0.539506
-0.0695164
-0.0974628
-0.354266
0.13287
0.0507905
-0.243348
-0.141971
0.191446
0.0737693
0.265928
0.965615
0.527878
0.26095
0.771949
0.496491
0.287183
0.818126
0.442892
0.0326296
0.218811
-0.231211
-0.356148
-0.303764
0.284557
-0.592328
-0.240231
0.447603
-1.07849
-0.924495
0.135346
-0.442068
-0.366687
0.331102
0.0957994
-0.114484
-0.0904554
-0.171585
0.241005
-0.0408964
0.0556112
-0.169065
0.0481272
0.352847
-0.396619
0.040586
0.0796502
-0.15378
0.0360314
-0.0819669
0.187149
-0.11483
-0.258084
0.340977
-0.0875836
0.24456
0.122275
0.250599
-0.0128387
-0.7315
-0.324984
0.207636
0.127321
0.25407
-0.226961
0.300879
-0.100667
-0.40733
0.224896
-0.215647
0.570088
0.515288
0.681098
-0.70113
-1.23077
-0.82706
0.527873
0.497322
0.683385
-0.34445
0.198861
-0.210792
-0.268074
0.0988381
-0.258029
0.675234
0.604229
0.774796
-0.889594
-1.20952
-0.946628
0.672288
0.612196
0.771781
-0.219399
0.0377221
-0.305656
-0.0287808
0.0705013
-0.157278
0.379918
0.220607
0.44286
-0.522918
-0.838203
-0.58729
0.384368
0.220521
0.490497
-0.00913314
-0.00690123
-0.167577
-0.0312752
-0.0867665
0.0445649
0.135787
-0.163039
-0.122011
0.399946
0.199984
0.094017
-0.0956915
0.0419601
-0.170839
-0.260039
0.31077
-0.0649708
-0.122884
-0.00425827
0.148487
-0.528017
-0.612568
-0.343831
0.0694875
-0.175847
0.0470545
0.739183
0.563891
0.616202
-0.238191
-0.0341974
-0.309591
0.231728
0.406914
0.274765
0.176069
0.133165
0.16086
-1.09953
-1.23072
-1.05075
0.14225
-0.00504701
0.180348
0.44411
0.468349
0.408111
-0.194979
0.0100798
-0.0779016
0.66021
0.58076
0.49645
0.234649
0.110231
0.0506136
-0.696342
-0.793415
-0.755669
0.0298646
-0.0284947
-0.0280886
-0.184952
0.076719
0.169103
-0.246389
-0.181901
0.025185
0.379075
0.273075
0.439536
0.0290008
-0.156637
0.0989448
0.22159
-0.244681
-0.0997772
-0.229108
-0.0797894
0.0318419
0.140863
0.208189
0.172385
-0.251103
-0.280116
-0.00311528
-0.0927535
0.0679393
0.366521
-0.138191
-0.100628
0.150115
0.236654
-0.0558003
-0.0921848
0.444198
-0.0572607
-0.160762
0.34512
-0.339668
-0.167236
0.248643
-0.0554813
0.0318716
0.219839
-0.0793995
-0.082713
0.0278199
-0.0715078
-0.230145
0.0138394
-0.101684
-0.442076
-0.025724
-0.339244
-0.539506
-0.0695164
-0.0974628
-0.354266
0.13287
0.0507905
-0.243348
-0.141971
0.191446
0.0737693
0.265928
0.965615
0.527878
0.26095
0.771949
0.496491
0.287183
0.818126
0.442892
0.0326296
0.218811
-0.231211
-0.356148
-0.303764
0.284557
-0.592328
-0.240231
0.447603
-1.07849
-0.924495
0.135346
-0.442068
-0.366687
0.331102
0.0957994
-0.114484
-0.0904554
-0.171585
0.241005
-0.0408964
0.0556112
-0.169065
0.0481272
0.352847
-0.396619
0.040586
0.0796502
-0.15378
0.0360314
-0.0819669
0.187149
-0.11483
-0.258084
0.340977
-0.0875836
0.24456
0.122275
0.250599
-0.0128387
-0.7315
-0.324984
0.207636
0.127321
0.25407
-0.226961
0.300879
-0.100667
-0.40733
0.224896
-0.215647
0.570088
0.515288
0.681098
-0.70113
-1.23077
