-0.262848
0.239963
0.0280445
-0.221233
0.0933109
-0.0581057
0.0836121
0.133687
0.0222157
0.148054
9.10631e-05
-0.0100139
0.0583358
-0.043615
-0.0396525
-0.311994
-0.0285935
-0.225377
0.294613
0.253588
0.199436
0.600035
0.377752
0.476628
-0.310884
-0.466125
-0.237828
-0.168859
-0.176749
-0.041229
0.132933
0.254964
0.182119
0.762212
0.64285
0.738341
-0.902376
-1.0372
-0.859076
-0.403587
-0.452534
-0.408298
0.329179
0.32689
0.260554
0.188467
0.201378
0.0968529
-0.546817
-0.61607
-0.68073
-0.473112
-0.538944
-0.649658
0.879162
0.819894
0.619008
0.0309808
0.0742572
-0.0113464
0.197162
-0.219305
-0.0705772
-0.144279
-0.303716
-0.0548251
0.485974
0.374208
0.553169
-0.0477284
-0.0837888
0.145734
-0.269799
-0.156332
0.16646
0.555443
-0.29737
-0.304992
0.509038
-0.214717
-0.0719673
0.371149
-0.345897
-0.0434999
0.134267
-0.305865
0.0205917
0.0979786
-0.0772305
-0.0411936
0.273836
-0.0811329
-0.115501
0.117234
-0.189364
0.0114889
-0.0219527
-0.391332
-0.0656757
-0.0837446
-0.165815
0.110613
0.0771219
0.16908
0.0914026
0.163019
0.014592
-0.0907087
-0.0581691
-0.210257
-0.105539
-0.168843
-0.349152
-0.123156
-0.102081
-0.0406045
0.17248
0.0963842
0.210312
0.0370615
0.0725521
0.0281432
-0.120661
-0.191374
-0.199993
-0.146587
-0.200937
-0.197775
0.0251115
-0.0900575
0.0245607
0.304687
0.211403
0.233916
0.0867636
-0.188874
0.0831322
-0.0890817
-0.270645
-0.0187267
0.00208818
-0.220489
-0.00861365
0.165465
-0.170845
0.0826874
0.33601
0.101107
0.148866
0.00503067
-0.213024
0.0629262
-0.196396
-0.214141
-0.0106283
0.0516488
-0.157829
-0.0436464
0.0585317
-0.0627486
0.0811066
0.159135
0.107666
0.00953087
-0.200873
-0.212005
0.117332
0.144097
-0.300637
0.138975
0.402819
-0.113039
0.115732
0.281743
-0.0518895
0.026411
0.175554
0.112453
-0.129274
-0.144281
-0.149766
0.0078749
0.0525489
-0.229537
0.178529
0.402717
0.0178992
0.161202
0.201892
0.0236814
-0.0382541
0.0676347
0.0288407
-0.282048
-0.219252
0.198734
-0.00282683
-0.0292526
-0.0425119
0.131464
0.301275
0.114349
0.139967
0.187076
0.0740871
-0.0897041
0.134281
0.084724
-0.288178
-0.0609333
0.397273
-0.238632
-0.292447
0.133082
-0.0988104
0.0661414
0.225587
-0.072508
0.0399166
0.223827
-0.201567
0.112773
0.180874
-0.437258
-0.13837
-0.262848
0.239963
0.0280445
-0.221233
0.0933109
-0.0581057
0.0836121
0.133687
0.0222157
0.148054
9.10631e-05
-0.0100139
0.0583358
-0.043615
-0.0396525
-0.311994
-0.0285935
-0.225377
0.294613
0.253588
0.199436
0.600035
0.377752
0.476628
-0.310884
-0.466125
-0.237828
-0.168859
-0.176749
-0.041229
0.132933
0.254964
0.182119
0.762212
0.64285
0.738341
-0.902376
-1.0372
-0.859076
-0.403587
-0.452534
-0.408298
0.329179
0.32689
0.260554
0.188467
0.201378
0.0968529
-0.546817
-0.61607
-0.68073
-0.473112
-0.538944
-0.649658
0.879162
0.819894
0.619008
0.0309808
0.0742572
-0.0113464
0.197162
-0.219305
-0.0705772
-0.144279
-0.303716
-0.0548251
0.485974
0.374208
0.553169
-0.0477284
-0.0837888
0.145734
-0.269799
-0.156332
0.16646
0.555443
-0.29737
-0.304992
0.509038
-0.214717
-0.0719673
0.371149
-0.345897
-0.0434999
0.134267
-0.305865
0.0205917
0.0979786
-0.0772305
-0.0411936
0.273836
-0.0811329
-0.115501
0.117234
-0.189364
0.0114889
-0.0219527
-0.391332
-0.0656757
-0.0837446
-0.165815
0.110613
0.0771219
0.16908
0.0914026
0.163019
0.014592
-0.0907087
-0.0581691
-0.210257
-0.105539
-0.168843
-0.349152
-0.123156
-0.102081
-0.0406045
0.17248
0.0963842
0.210312
0.0370615
0.0725521
0.0281432
-0.120661
-0.191374
-0.199993
-0.146587
-0.200937
-0.197775
0.0251115
-0.0900575
0.0245607
0.304687
0.211403
0.233916
0.0867636
-0.188874
0.0831322
-0.0890817
-0.270645
-0.0187267
0.00208818
-0.220489
-0.00861365
0.165465
-0.170845
0.0826874
0.33601
0.101107
0.148866
0.00503067
-0.213024
0.0629262
-0.196396
-0.214141
-0.0106283
0.0516488
-0.157829
-0.0436464
0.0585317
-0.0627486
0.0811066
0.159135
0.107666
0.00953087
-0.200873
-0.212005
0.117332
0.144097
-0.300637
0.138975
0.402819
-0.113039
0.115732
0.281743
-0.0518895
0.026411
0.175554
0.112453
-0.129274
-0.144281
-0.149766
0.0078749
0.0525489
-0.229537
0.178529
0.402717
0.0178992
0.161202
0.201892
0.0236814
-0.0382541
0.0676347
0.0288407
-0.282048
-0.219252
0.198734
-0.00282683
-0.0292526
-0.0425119
0.131464
0.301275
0.114349
0.139967
0.187076
0.0740871
-0.0897041
0.134281
0.084724
-0.288178
-0.0609333
0.397273
-0.238632
-0.292447
0.133082
-0.0988104
0.0661414
0.225587
-0.072508
0.0399166
0.223827
-0.201567
0.112773
0.180874
-0.437258
-0.13837
-0.262848
0.239963
0.0280445
-0.221233
0.0933109
-0.0581057
0.0836121
0.133687
0.0222157
0.148054
9.10631e-05
-0.0100139
0.0583358
-0.043615
-0.0396525
-0.311994
-0.0285935
-0.225377
0.294613
0.253588
0.199436
0.600035
0.377752
0.476628
-0.310884
-0.466125
-0.237828
-0.168859
-0.176749
-0.041229
0.132933
0.254964
0.182119
0.762212
0.64285
0.738341
-0.902376
-1.0372
-0.859076
-0.403587
-0.452534
-0.408298
0.329179
0.32689
0.260554
0.188467
0.201378
0.0968529
-0.546817
-0.61607
-0.68073
-0.473112
-0.538944
-0.649658
0.879162
0.819894
0.619008
0.0309808
0.0742572
-0.0113464
0.197162
-0.219305
-0.0705772
-0.144279
-0.303716
-0.0548251
0.485974
0.374208
0.553169
-0.0477284
-0.0837888
0.145734
-0.269799
-0.156332
0.16646
0.555443
-0.29737
-0.304992
0.509038
-0.214717
-0.0719673
0.371149
-0.345897
-0.0434999
0.134267
-0.305865
0.0205917
0.0979786
-0.0772305
-0.0411936
0.273836
-0.0811329
-0.115501
0.117234
-0.189364
0.0114889
-0.0219527
-0.391332
-0.0656757
-0.0837446
-0.165815
0.110613
0.0771219
0.16908
0.0914026
0.163019
0.014592
-0.0907087
-0.0581691
-0.210257
-0.105539
-0.168843
-0.349152
-0.123156
-0.102081
-0.0406045
0.17248
0.0963842
0.210312
0.0370615
0.0725521
0.0281432
-0.120661
-0.191374
-0.199993
-0.146587
-0.200937
-0.197775
0.0251115
-0.0900575
0.0245607
0.304687
0.211403
0.233916
0.0867636
-0.188874
0.0831322
-0.0890817
-0.270645
-0.0187267
0.00208818
-0.220489
-0.00861365
0.165465
-0.170845
0.0826874
0.33601
0.101107
0.148866
0.00503067
-0.213024
0.0629262
-0.196396
-0.214141
-0.0106283
0.0516488
-0.157829
-0.0436464
0.0585317
-0.0627486
0.0811066
0.159135
0.107666
0.00953087
-0.200873
-0.212005
0.117332
0.144097
-0.300637
0.138975
0.402819
-0.113039
0.115732
0.281743
-0.0518895
0.026411
0.175554
0.112453
-0.129274
-0.144281
-0.149766
0.0078749
0.0525489
-0.229537
0.178529
0.402717
0.0178992
0.161202
0.201892
0.0236814
-0.0382541
0.0676347
0.0288407
-0.282048
-0.219252
0.198734
-0.00282683
-0.0292526
-0.0425119
0.131464
0.301275
0.114349
0.139967
0.187076
0.0740871
-0.0897041
0.134281
0.084724
-0.288178
-0.0609333
0.397273
-0.238632
-0.292447
0.133082
-0.0988104
0.0661414
0.225587
-0.072508
0.0399166
0.223827
-0.201567
0.112773
0.180874
-0.437258
-0.13837
-0.262848
0.239963
0.0280445
-0.221233
0.0933109
-0.0581057
0.0836121
0.133687
0.0222157
0.148054
9.10631e-05
-0.0100139
0.0583358
-0.043615
-0.0396525
-0.311994
-0.0285935
-0.225377
0.294613
0.253588
0.199436
0.600035
0.377752
0.476628
-0.310884
-0.466125
-0.237828
-0.168859
-0.176749
-0.041229
0.132933
0.254964
0.182119
0.762212
0.64285
0.738341
-0.902376
-1.0372
-0.859076
-0.403587
-0.452534
-0.408298
0.329179
0.32689
0.260554
0.188467
0.201378
0.0968529
-0.546817
-0.61607
-0.68073
-0.473112
-0.538944
-0.649658
0.879162
0.819894
0.619008
0.0309808
0.0742572
-0.0113464
0.197162
-0.219305
-0.0705772
-0.144279
-0.303716
-0.0548251
0.485974
0.374208
0.553169
-0.0477284
-0.0837888
0.145734
-0.269799
-0.156332
0.16646
0.555443
-0.29737
-0.304992
0.509038
-0.214717
-0.0719673
0.371149
-0.345897
-0.0434999
0.134267
-0.305865
0.0205917
0.0979786
-0.0772305
-0.0411936
0.273836
-0.0811329
-0.115501
0.117234
-0.189364
0.0114889
-0.0219527
-0.391332
-0.0656757
-0.0837446
-0.165815
0.110613
0.0771219
0.16908
0.0914026
0.163019
0.014592
-0.0907087
-0.0581691
-0.210257
-0.105539
-0.168843
-0.349152
-0.123156
-0.102081
-0.0406045
0.17248
0.0963842
0.210312
0.0370615
0.0725521
0.0281432
-0.120661
-0.191374
-0.199993
-0.146587
-0.200937
-0.197775
0.0251115
-0.0900575
0.0245607
0.304687
0.211403
0.233916
0.0867636
-0.188874
0.0831322
-0.0890817
-0.270645
-0.0187267
0.00208818
-0.220489
-0.00861365
0.165465
-0.170845
0.0826874
0.33601
0.101107
0.148866
0.00503067
-0.213024
0.0629262
-0.196396
-0.214141
-0.0106283
0.0516488
-0.157829
-0.0436464
0.0585317
-0.0627486
0.0811066
0.159135
0.107666
0.00953087
-0.200873
-0.212005
0.117332
0.144097
-0.300637
0.138975
0.402819
-0.113039
0.115732
0.281743
-0.0518895
0.026411
0.175554
0.112453
-0.129274
-0.144281
-0.149766
0.0078749
0.0525489
-0.229537
0.178529
0.402717
0.0178992
0.161202
0.201892
0.0236814
-0.0382541
0.0676347
0.0288407
-0.282048
-0.219252
0.198734
-0.00282683
-0.0292526
-0.0425119
0.131464
0.301275
0.114349
0.139967
0.187076
0.0740871
-0.0897041
0.134281
0.084724
-0.288178
-0.0609333
0.397273
-0.238632
-0.292447
0.133082
-0.0988104
0.0661414
0.225587
-0.072508
0.0399166
0.223827
-0.201567
0.112773
0.180874
-0.437258
-0.13837
-0.262848
0.239963
0.0280445
-0.221233
0.0933109
-0.0581057
0.0836121
0.133687
0.0222157
0.148054
9.10631e-05
-0.0100139
0.0583358
-0.043615
-0.0396525
-0.311994
-0.0285935
-0.225377
0.294613
0.253588
0.199436
0.600035
0.377752
0.476628
-0.310884
-0.466125
-0.237828
-0.168859
-0.176749
-0.041229
0.132933
0.254964
0.182119
0.762212
0.64285
0.738341
-0.902376
-1.0372
-0.859076
-0.403587
-0.452534
-0.408298
0.329179
0.32689
0.260554
0.188467
0.201378
0.0968529
-0.546817
-0.61607
-0.68073
-0.473112
-0.538944
-0.649658
0.879162
0.819894
0.619008
0.0309808
0.0742572
-0.0113464
0.197162
-0.219305
-0.0705772
-0.144279
-0.303716
-0.0548251
0.485974
0.374208
0.553169
-0.0477284
-0.0837888
0.145734
-0.269799
-0.156332
0.16646
0.555443
-0.29737
-0.304992
0.509038
-0.214717
-0.0719673
0.371149
-0.345897
-0.0434999
0.134267
-0.305865
0.0205917
0.0979786
-0.0772305
-0.0411936
0.273836
-0.0811329
-0.115501
0.117234
-0.189364
0.0114889
-0.0219527
-0.391332
-0.0656757
-0.0837446
-0.165815
0.110613
0.0771219
0.16908
0.0914026
0.163019
0.014592
-0.0907087
-0.0581691
-0.210257
-0.105539
-0.168843
-0.349152
-0.123156
-0.102081
-0.0406045
0.17248
0.0963842
0.210312
0.0370615
0.0725521
0.0281432
-0.120661
-0.191374
-0.199993
-0.146587
-0.200937
-0.197775
0.0251115
-0.0900575
0.0245607
0.304687
0.211403
0.233916
0.0867636
-0.188874
0.0831322
-0.0890817
-0.270645
-0.0187267
0.00208818
-0.220489
-0.00861365
0.165465
-0.170845
0.0826874
0.33601
0.101107
0.148866
0.00503067
-0.213024
0.0629262
-0.196396
-0.214141
-0.0106283
0.0516488
-0.157829
-0.0436464
0.0585317
-0.0627486
0.0811066
0.159135
0.107666
0.00953087
-0.200873
-0.212005
0.117332
0.144097
-0.300637
0.138975
0.402819
-0.113039
0.115732
0.281743
-0.0518895
0.026411
0.175554
0.112453
-0.129274
-0.144281
-0.149766
0.0078749
0.0525489
-0.229537
0.178529
0.402717
0.0178992
0.161202
0.201892
0.0236814
-0.0382541
0.0676347
0.0288407
-0.282048
-0.219252
0.198734
-0.00282683
-0.0292526
-0.0425119
0.131464
0.301275
0.114349
0.139967
0.187076
0.0740871
-0.0897041
0.134281
0.084724
-0.288178
-0.0609333
0.397273
-0.238632
-0.292447
0.133082
-0.0988104
0.0661414
0.225587
-0.072508
0.0399166
0.223827
-0.201567
0.112773
0.180874
-0.437258
-0.13837
-0.262848
0.239963
0.0280445
-0.221233
0.0933109
-0.0581057
0.0836121
0.133687
0.0222157
0.148054
9.10631e-05
-0.0100139
0.0583358
-0.043615
-0.0396525
-0.311994
-0.0285935
-0.225377
0.294613
0.253588
0.199436
0.600035
0.377752
0.476628
-0.310884
-0.466125
-0.237828
-0.168859
-0.176749
-0.041229
0.132933
0.254964
0.182119
0.762212
0.64285
0.738341
-0.902376
-1.0372
-0.859076
-0.403587
-0.452534
-0.408298
0.329179
0.32689
0.260554
0.188467
0.201378
0.0968529
-0.546817
-0.61607
-0.68073
-0.473112
-0.538944
-0.649658
0.879162
0.819894
0.619008
0.0309808
0.0742572
-0.0113464
0.197162
-0.219305
-0.0705772
-0.144279
-0.303716
-0.0548251
0.485974
0.374208
0.553169
-0.0477284
-0.0837888
0.145734
-0.269799
-0.156332
0.16646
0.555443
-0.29737
-0.304992
0.509038
-0.214717
-0.0719673
0.371149
-0.345897
-0.0434999
0.134267
-0.305865
0.0205917
0.0979786
-0.0772305
-0.0411936
0.273836
-0.0811329
-0.115501
0.117234
-0.189364
0.0114889
-0.0219527
-0.391332
-0.0656757
-0.0837446
-0.165815
0.110613
0.0771219
0.16908
0.0914026
0.163019
0.014592
-0.0907087
-0.0581691
-0.210257
-0.105539
-0.168843
-0.349152
-0.123156
-0.102081
-0.0406045
0.17248
0.0963842
0.210312
0.0370615
0.0725521
0.0281432
-0.120661
-0.191374
-0.199993
-0.146587
-0.200937
-0.197775
0.0251115
-0.0900575
0.0245607
0.304687
0.211403
0.233916
0.0867636
-0.188874
0.0831322
-0.0890817
-0.270645
-0.0187267
0.00208818
-0.220489
-0.00861365
0.165465
-0.170845
0.0826874
0.33601
0.101107
0.148866
0.00503067
-0.213024
0.0629262
-0.196396
-0.214141
-0.0106283
0.0516488
-0.157829
-0.0436464
0.0585317
-0.0627486
0.0811066
0.159135
0.107666
0.00953087
-0.200873
-0.212005
0.117332
0.144097
-0.300637
0.138975
0.402819
-0.113039
0.115732
0.281743
-0.0518895
0.026411
0.175554
0.112453
-0.129274
-0.144281
-0.149766
0.0078749
0.0525489
-0.229537
0.178529
0.402717
0.0178992
0.161202
0.201892
0.0236814
-0.0382541
0.0676347
0.0288407
-0.282048
-0.219252
0.198734
-0.00282683
-0.0292526
-0.0425119
0.131464
0.301275
0.114349
0.139967
0.187076
0.0740871
-0.0897041
0.134281
0.084724
-0.288178
-0.0609333
0.397273
-0.238632
-0.292447
0.133082
-0.0988104
0.0661414
0.225587
-0.072508
0.0399166
0.223827
-0.201567
0.112773
0.180874
-0.437258
-0.13837
-0.262848
0.239963
0.0280445
-0.221233
0.0933109
-0.0581057
0.0836121
0.133687
0.0222157
0.148054
9.10631e-05
-0.0100139
0.0583358
-0.043615
-0.0396525
-0.311994
-0.0285935
-0.225377
0.294613
0.253588
0.199436
0.600035
0.377752
0.476628
-0.310884
-0.466125
-0.237828
-0.168859
-0.176749
-0.041229
0.132933
0.254964
0.182119
0.762212
0.64285
0.738341
-0.902376
-1.0372
-0.859076
-0.403587
-0.452534
-0.408298
0.329179
0.32689
0.260554
0.188467
0.201378
0.0968529
-0.546817
-0.61607
-0.68073
-0.473112
-0.538944
-0.649658
0.879162
0.819894
0.619008
0.0309808
0.0742572
-0.0113464
0.197162
-0.219305
-0.0705772
-0.144279
-0.303716
-0.0548251
0.485974
0.374208
0.553169
-0.0477284
-0.0837888
0.145734
-0.269799
-0.156332
0.16646
0.555443
-0.29737
-0.304992
0.509038
-0.214717
-0.0719673
0.371149
-0.345897
-0.0434999
0.134267
-0.305865
0.0205917
0.0979786
-0.0772305
-0.0411936
0.273836
-0.0811329
-0.115501
0.117234
-0.189364
0.0114889
-0.0219527
-0.391332
-0.0656757
-0.0837446
-0.165815
0.110613
0.0771219
0.16908
0.0914026
0.163019
0.014592
-0.0907087
-0.0581691
-0.210257
-0.105539
-0.168843
-0.349152
-0.123156
-0.102081
-0.0406045
0.17248
0.0963842
0.210312
0.0370615
0.0725521
0.0281432
-0.120661
-0.191374
-0.199993
-0.146587
-0.200937
-0.197775
0.0251115
-0.0900575
0.0245607
0.304687
0.211403
0.233916
0.0867636
-0.188874
0.0831322
-0.0890817
-0.270645
-0.0187267
0.00208818
-0.220489
-0.00861365
0.165465
-0.170845
0.0826874
0.33601
0.101107
0.148866
0.00503067
-0.213024
0.0629262
-0.196396
-0.214141
-0.0106283
0.0516488
-0.157829
-0.0436464
0.0585317
-0.0627486
0.0811066
0.159135
0.107666
0.00953087
-0.200873
-0.212005
0.117332
0.144097
-0.300637
0.138975
0.402819
-0.113039
0.115732
0.281743
-0.0518895
0.026411
0.175554
0.112453
-0.129274
-0.144281
-0.149766
0.0078749
0.0525489
-0.229537
0.178529
0.402717
0.0178992
0.161202
0.201892
0.0236814
-0.0382541
0.0676347
0.0288407
-0.282048
-0.219252
0.198734
-0.00282683
-0.0292526
-0.0425119
0.131464
0.301275
0.114349
0.139967
0.187076
0.0740871
-0.0897041
0.134281
0.084724
-0.288178
-0.0609333
0.397273
-0.238632
-0.292447
0.133082
-0.0988104
0.0661414
0.225587
-0.072508
0.0399166
0.223827
-0.201567
0.112773
0.180874
-0.437258
-0.13837
-0.262848
0.239963
0.0280445
-0.221233
0.0933109
-0.0581057
0.0836121
0.133687
0.0222157
0.148054
9.10631e-05
-0.0100139
0.0583358
-0.043615
-0.0396525
-0.311994
-0.0285935
-0.225377
0.294613
0.253588
0.199436
0.600035
0.377752
0.476628
-0.310884
-0.466125
-0.237828
-0.168859
-0.176749
-0.041229
0.132933
0.254964
0.182119
0.762212
0.64285
0.738341
-0.902376
-1.0372
-0.859076
-0.403587
-0.452534
-0.408298
0.329179
0.32689
0.260554
0.188467
0.201378
0.0968529
-0.546817
-0.61607
-0.68073
-0.473112
-0.538944
-0.649658
0.879162
0.819894
0.619008
0.0309808
0.0742572
-0.0113464
0.197162
-0.219305
-0.0705772
-0.144279
-0.303716
-0.0548251
0.485974
0.374208
0.553169
-0.0477284
-0.0837888
0.145734
-0.269799
-0.156332
0.16646
0.555443
-0.29737
-0.304992
0.509038
-0.214717
-0.0719673
0.371149
-0.345897
-0.0434999
0.134267
-0.305865
0.0205917
0.0979786
-0.0772305
-0.0411936
0.273836
-0.0811329
-0.115501
0.117234
-0.189364
0.0114889
-0.0219527
-0.391332
-0.0656757
-0.0837446
-0.165815
0.110613
0.0771219
0.16908
0.0914026
0.163019
0.014592
-0.0907087
-0.0581691
-0.210257
-0.105539
-0.168843
-0.349152
-0.123156
-0.102081
-0.0406045
0.17248
0.0963842
0.210312
0.0370615
0.0725521
0.0281432
-0.120661
-0.191374
-0.199993
-0.146587
-0.200937
-0.197775
0.0251115
-0.0900575
0.0245607
0.304687
0.211403
0.233916
0.0867636
-0.188874
0.0831322
-0.0890817
-0.270645
-0.0187267
0.00208818
-0.220489
-0.00861365
0.165465
-0.170845
0.0826874
0.33601
0.101107
0.148866
0.00503067
-0.213024
0.0629262
-0.196396
-0.214141
-0.0106283
0.0516488
-0.157829
-0.0436464
0.0585317
-0.0627486
0.0811066
0.159135
0.107666
0.00953087
-0.200873
-0.212005
0.117332
0.144097
-0.300637
0.138975
0.402819
-0.113039
0.115732
0.281743
-0.0518895
0.026411
0.175554
0.112453
-0.129274
-0.144281
-0.149766
0.0078749
0.0525489
-0.229537
0.178529
0.402717
0.0178992
0.161202
0.201892
0.0236814
-0.0382541
0.0676347
0.0288407
-0.282048
-0.219252
0.198734
-0.00282683
-0.0292526
-0.0425119
0.131464
0.301275
0.114349
0.139967
0.187076
0.0740871
-0.0897041
0.134281
0.084724
-0.288178
-0.0609333
0.397273
-0.238632
-0.292447
0.133082
-0.0988104
0.0661414
0.225587
-0.072508
0.0399166
0.223827
-0.201567
0.112773
0.180874
-0.437258
-0.13837
-0.262848
0.239963
0.0280445
-0.221233
0.0933109
-0.0581057
0.0836121
0.133687
0.0222157
0.148054
9.10631e-05
-0.0100139
0.0583358
-0.043615
-0.0396525
-0.311994
-0.0285935
-0.225377
0.294613
0.253588
0.199436
0.600035
0.377752
0.476628
-0.310884
-0.466125
-0.237828
-0.168859
-0.176749
-0.041229
0.132933
0.254964
0.182119
0.762212
0.64285
0.738341
-0.902376
-1.0372
-0.859076
-0.403587
-0.452534
-0.408298
0.329179
0.32689
0.260554
0.188467
0.201378
0.0968529
-0.546817
-0.61607
-0.68073
-0.473112
-0.538944
-0.649658
0.879162
0.819894
0.619008
0.0309808
0.0742572
-0.0113464
0.197162
-0.219305
-0.0705772
-0.144279
-0.303716
-0.0548251
0.485974
0.374208
0.553169
-0.0477284
-0.0837888
0.145734
-0.269799
-0.156332
0.16646
0.555443
-0.29737
-0.304992
0.509038
-0.214717
-0.0719673
0.371149
-0.345897
-0.0434999
0.134267
-0.305865
0.0205917
0.0979786
-0.0772305
-0.0411936
0.273836
-0.0811329
-0.115501
0.117234
-0.189364
0.0114889
-0.0219527
-0.391332
-0.0656757
-0.0837446
-0.165815
0.110613
0.0771219
0.16908
0.0914026
0.163019
0.014592
-0.0907087
-0.0581691
-0.210257
-0.105539
-0.168843
-0.349152
-0.123156
-0.102081
-0.0406045
0.17248
0.0963842
0.210312
0.0370615
0.0725521
0.0281432
-0.120661
-0.191374
-0.199993
-0.146587
-0.200937
-0.197775
0.0251115
-0.0900575
0.0245607
0.304687
0.211403
0.233916
0.0867636
-0.188874
0.0831322
-0.0890817
-0.270645
-0.0187267
0.00208818
-0.220489
-0.00861365
0.165465
-0.170845
0.0826874
0.33601
0.101107
0.148866
0.00503067
-0.213024
0.0629262
-0.196396
-0.214141
-0.0106283
0.0516488
-0.157829
-0.0436464
0.0585317
-0.0627486
0.0811066
0.159135
0.107666
0.00953087
-0.200873
-0.212005
0.117332
0.144097
-0.300637
0.138975
0.402819
-0.113039
0.115732
0.281743
-0.0518895
0.026411
0.175554
0.112453
-0.129274
-0.144281
-0.149766
0.0078749
0.0525489
-0.229537
0.178529
0.402717
0.0178992
0.161202
0.201892
0.0236814
-0.0382541
0.0676347
0.0288407
-0.282048
-0.219252
0.198734
-0.00282683
-0.0292526
-0.0425119
0.131464
0.301275
0.114349
0.139967
0.187076
0.0740871
-0.0897041
0.134281
0.084724
-0.288178
-0.0609333
0.397273
-0.238632
-0.292447
0.133082
-0.0988104
0.0661414
0.225587
-0.072508
0.0399166
0.223827
-0.201567
0.112773
0.180874
-0.437258
-0.13837
-0.262848
0.239963
0.0280445
-0.221233
0.0933109
-0.0581057
0.0836121
0.133687
0.0222157
0.148054
9.10631e-05
-0.0100139
0.0583358
-0.043615
-0.0396525
-0.311994
-0.0285935
-0.225377
0.294613
0.253588
0.199436
0.600035
0.377752
0.476628
-0.310884
-0.466125
-0.237828
-0.168859
-0.176749
-0.041229
0.132933
0.254964
0.182119
0.762212
0.64285
0.738341
-0.902376
-1.0372
-0.859076
-0.403587
-0.452534
-0.408298
0.329179
0.32689
0.260554
0.188467
0.201378
0.0968529
-0.546817
-0.61607
-0.68073
-0.473112
-0.538944
-0.649658
0.879162
0.819894
0.619008
0.0309808
0.0742572
-0.0113464
0.197162
-0.219305
-0.0705772
-0.144279
-0.303716
-0.0548251
0.485974
0.374208
0.553169
-0.0477284
-0.0837888
0.145734
-0.269799
-0.156332
0.16646
0.555443
-0.29737
-0.304992
0.509038
-0.214717
-0.0719673
0.371149
-0.345897
-0.0434999
0.134267
-0.305865
0.0205917
0.0979786
-0.0772305
-0.0411936
0.273836
-0.0811329
-0.115501
0.117234
-0.189364
0.0114889
-0.0219527
-0.391332
-0.0656757
-0.0837446
-0.165815
0.110613
0.0771219
0.16908
0.0914026
0.163019
0.014592
-0.0907087
-0.0581691
-0.210257
-0.105539
-0.168843
-0.349152
-0.123156
-0.102081
-0.0406045
0.17248
0.0963842
0.210312
0.0370615
0.0725521
0.0281432
-0.120661
-0.191374
-0.199993
-0.146587
-0.200937
-0.197775
0.0251115
-0.0900575
0.0245607
0.304687
0.211403
0.233916
0.0867636
-0.188874
0.0831322
-0.0890817
-0.270645
-0.0187267
0.00208818
-0.220489
-0.00861365
0.165465
-0.170845
0.0826874
0.33601
0.101107
0.148866
0.00503067
-0.213024
0.0629262
-0.196396
-0.214141
-0.0106283
0.0516488
-0.157829
-0.0436464
0.0585317
-0.0627486
0.0811066
0.159135
0.107666
0.00953087
-0.200873
-0.212005
0.117332
0.144097
-0.300637
0.138975
0.402819
-0.113039
0.115732
0.281743
-0.0518895
0.026411
0.175554
0.112453
-0.129274
-0.144281
-0.149766
0.0078749
0.0525489
-0.229537
0.178529
0.402717
0.0178992
0.161202
0.201892
0.0236814
-0.0382541
0.0676347
0.0288407
-0.282048
-0.219252
0.198734
-0.00282683
-0.0292526
-0.0425119
0.131464
0.301275
0.114349
0.139967
0.187076
0.0740871
-0.0897041
0.134281
0.084724
-0.288178
-0.0609333
0.397273
-0.238632
-0.292447
0.133082
-0.0988104
0.0661414
0.225587
-0.072508
0.0399166
0.223827
-0.201567
0.112773
0.180874
-0.437258
-0.13837
-0.262848
0.239963
0.0280445
-0.221233
0.0933109
-0.0581057
0.0836121
0.133687
0.0222157
0.148054
9.10631e-05
-0.0100139
0.0583358
-0.043615
-0.0396525
-0.311994
-0.0285935
-0.225377
0.294613
0.253588
0.199436
0.600035
0.377752
0.476628
-0.310884
-0.466125
-0.237828
-0.168859
-0.176749
-0.041229
0.132933
0.254964
0.182119
0.762212
0.64285
0.738341
-0.902376
-1.0372
-0.859076
-0.403587
-0.452534
-0.408298
0.329179
0.32689
0.260554
0.188467
0.201378
0.0968529
-0.546817
-0.61607
-0.68073
-0.473112
-0.538944
-0.649658
0.879162
0.819894
0.619008
0.0309808
0.0742572
-0.0113464
0.197162
-0.219305
-0.0705772
-0.144279
-0.303716
-0.0548251
0.485974
0.374208
0.553169
-0.0477284
-0.0837888
0.145734
-0.269799
-0.156332
0.16646
0.555443
-0.29737
-0.304992
0.509038
-0.214717
-0.0719673
0.371149
-0.345897
-0.0434999
0.134267
-0.305865
0.0205917
0.0979786
-0.0772305
-0.0411936
0.273836
-0.0811329
-0.115501
0.117234
-0.189364
0.0114889
-0.0219527
-0.391332
-0.0656757
-0.0837446
-0.165815
0.110613
0.0771219
0.16908
0.0914026
0.163019
0.014592
-0.0907087
-0.0581691
-0.210257
-0.105539
-0.168843
-0.349152
-0.123156
-0.102081
-0.0406045
0.17248
0.0963842
0.210312
0.0370615
0.0725521
0.0281432
-0.120661
-0.191374
-0.199993
-0.146587
-0.200937
-0.197775
0.0251115
-0.0900575
0.0245607
0.304687
0.211403
0.233916
0.0867636
-0.188874
0.0831322
-0.0890817
-0.270645
-0.0187267
0.00208818
-0.220489
-0.00861365
0.165465
-0.170845
0.0826874
0.33601
0.101107
0.148866
0.00503067
-0.213024
0.0629262
-0.196396
-0.214141
-0.0106283
0.0516488
-0.157829
-0.0436464
0.0585317
-0.0627486
0.0811066
0.159135
0.107666
0.00953087
-0.200873
-0.212005
0.117332
0.144097
-0.300637
0.138975
0.402819
-0.113039
0.115732
0.281743
-0.0518895
0.026411
0.175554
0.112453
-0.129274
-0.144281
-0.149766
0.0078749
0.0525489
-0.229537
0.178529
0.402717
0.0178992
0.161202
0.201892
0.0236814
-0.0382541
0.0676347
0.0288407
-0.282048
-0.219252
0.198734
-0.00282683
-0.0292526
-0.0425119
0.131464
0.301275
0.114349
0.139967
0.187076
0.0740871
-0.0897041
0.134281
0.084724
-0.288178
-0.0609333
0.397273
-0.238632
-0.292447
0.133082
-0.0988104
0.0661414
0.225587
-0.072508
0.0399166
0.223827
-0.201567
0.112773
0.180874
-0.437258
-0.13837
-0.262848
0.239963
0.0280445
-0.221233
0.0933109
-0.0581057
0.0836121
0.133687
0.0222157
0.148054
9.10631e-05
-0.0100139
0.0583358
-0.043615
-0.0396525
-0.311994
-0.0285935
-0.225377
0.294613
0.253588
0.199436
0.600035
0.377752
0.476628
-0.310884
-0.466125
-0.237828
-0.168859
-0.176749
-0.041229
0.132933
0.254964
0.182119
0.762212
0.64285
0.738341
-0.902376
-1.0372
-0.859076
-0.403587
-0.452534
-0.408298
0.329179
0.32689
0.260554
0.188467
0.201378
0.0968529
-0.546817
-0.61607
-0.68073
-0.473112
-0.538944
-0.649658
0.879162
0.819894
0.619008
0.0309808
0.0742572
-0.0113464
0.197162
-0.219305
-0.0705772
-0.144279
-0.303716
-0.0548251
0.485974
0.374208
0.553169
-0.0477284
-0.0837888
0.145734
-0.269799
-0.156332
0.16646
0.555443
-0.29737
-0.304992
0.509038
-0.214717
-0.0719673
0.371149
-0.345897
-0.0434999
0.134267
-0.305865
0.0205917
0.0979786
-0.0772305
-0.0411936
0.273836
-0.0811329
-0.115501
0.117234
-0.189364
0.0114889
-0.0219527
-0.391332
-0.0656757
-0.0837446
-0.165815
0.110613
0.0771219
0.16908
0.0914026
0.163019
0.014592
-0.0907087
-0.0581691
-0.210257
-0.105539
-0.168843
-0.349152
-0.123156
-0.102081
-0.0406045
0.17248
0.0963842
0.210312
0.0370615
0.0725521
0.0281432
-0.120661
-0.191374
-0.199993
-0.146587
-0.200937
-0.197775
0.0251115
-0.0900575
0.0245607
0.304687
0.211403
0.233916
0.0867636
-0.188874
0.0831322
-0.0890817
-0.270645
-0.0187267
0.00208818
-0.220489
-0.00861365
0.165465
-0.170845
0.0826874
0.33601
0.101107
0.148866
0.00503067
-0.213024
0.0629262
-0.196396
-0.214141
-0.0106283
0.0516488
-0.157829
-0.0436464
0.0585317
-0.0627486
0.0811066
0.159135
0.107666
0.00953087
-0.200873
-0.212005
0.117332
0.144097
-0.300637
0.138975
0.402819
-0.113039
0.115732
0.281743
-0.0518895
0.026411
0.175554
0.112453
-0.129274
-0.144281
-0.149766
0.0078749
0.0525489
-0.229537
0.178529
0.402717
0.0178992
0.161202
0.201892
0.0236814
-0.0382541
0.0676347
0.0288407
-0.282048
-0.219252
0.198734
-0.00282683
-0.0292526
-0.0425119
0.131464
0.301275
0.114349
0.139967
0.187076
0.0740871
-0.0897041
0.134281
0.084724
-0.288178
-0.0609333
0.397273
-0.238632
-0.292447
0.133082
-0.0988104
0.0661414
0.225587
-0.072508
0.0399166
0.223827
-0.201567
0.112773
0.180874
-0.437258
-0.13837
-0.262848
0.239963
0.0280445
-0.221233
0.0933109
-0.0581057
0.0836121
0.133687
0.0222157
0.148054
9.10631e-05
-0.0100139
0.0583358
-0.043615
-0.0396525
-0.311994
-0.0285935
-0.225377
0.294613
0.253588
0.199436
0.600035
0.377752
0.476628
-0.310884
-0.466125
-0.237828
-0.168859
-0.176749
-0.041229
0.132933
0.254964
0.182119
0.762212
0.64285
0.738341
-0.902376
-1.0372
-0.859076
-0.403587
-0.452534
-0.408298
0.329179
0.32689
0.260554
0.188467
0.201378
0.0968529
-0.546817
-0.61607
-0.68073
-0.473112
-0.538944
-0.649658
0.879162
0.819894
0.619008
0.0309808
0.0742572
-0.0113464
0.197162
-0.219305
-0.0705772
-0.144279
-0.303716
-0.0548251
0.485974
0.374208
0.553169
-0.0477284
-0.0837888
0.145734
-0.269799
-0.156332
0.16646
0.555443
-0.29737
-0.304992
0.509038
-0.214717
-0.0719673
0.371149
-0.345897
-0.0434999
0.134267
-0.305865
0.0205917
0.0979786
-0.0772305
-0.0411936
0.273836
-0.0811329
-0.115501
0.117234
-0.189364
0.0114889
-0.0219527
-0.391332
-0.0656757
-0.0837446
-0.165815
0.110613
0.0771219
0.16908
0.0914026
0.163019
0.014592
-0.0907087
-0.0581691
-0.210257
-0.105539
-0.168843
-0.349152
-0.123156
-0.102081
-0.0406045
0.17248
0.0963842
0.210312
0.0370615
0.0725521
0.0281432
-0.120661
-0.191374
-0.199993
-0.146587
-0.200937
-0.197775
0.0251115
-0.0900575
0.0245607
0.304687
0.211403
0.233916
0.0867636
-0.188874
0.0831322
-0.0890817
-0.270645
-0.0187267
0.00208818
-0.220489
-0.00861365
0.165465
-0.170845
0.0826874
0.33601
0.101107
0.148866
0.00503067
-0.213024
0.0629262
-0.196396
-0.214141
-0.0106283
0.0516488
-0.157829
-0.0436464
0.0585317
-0.0627486
0.0811066
0.159135
0.107666
0.00953087
-0.200873
-0.212005
0.117332
0.144097
-0.300637
0.138975
0.402819
-0.113039
0.115732
0.281743
-0.0518895
0.026411
0.175554
0.112453
-0.129274
-0.144281
-0.149766
0.0078749
0.0525489
-0.229537
0.178529
0.402717
0.0178992
0.161202
0.201892
0.0236814
-0.0382541
0.0676347
0.0288407
-0.282048
-0.219252
0.198734
-0.00282683
-0.0292526
-0.0425119
0.131464
0.301275
0.114349
0.139967
0.187076
0.0740871
-0.0897041
0.134281
0.084724
-0.288178
-0.0609333
0.397273
-0.238632
-0.292447
0.133082
-0.0988104
0.0661414
0.225587
-0.072508
0.0399166
0.223827
-0.201567
0.112773
0.180874
-0.437258
-0.13837
-0.262848
0.239963
0.0280445
-0.221233
0.0933109
-0.0581057
0.0836121
0.133687
0.0222157
0.148054
9.10631e-05
-0.0100139
0.0583358
-0.043615
-0.0396525
-0.311994
-0.0285935
-0.225377
0.294613
0.253588
0.199436
0.600035
0.377752
0.476628
-0.310884
-0.466125
-0.237828
-0.168859
-0.176749
-0.041229
0.132933
0.254964
0.182119
0.762212
0.64285
0.738341
-0.902376
-1.0372
-0.859076
-0.403587
-0.452534
-0.408298
0.329179
0.32689
0.260554
0.188467
0.201378
0.0968529
-0.546817
-0.61607
-0.68073
-0.473112
-0.538944
-0.649658
0.879162
0.819894
0.619008
0.0309808
0.0742572
-0.0113464
0.197162
-0.219305
-0.0705772
-0.144279
-0.303716
-0.0548251
0.485974
0.374208
0.553169
-0.0477284
-0.0837888
0.145734
-0.269799
-0.156332
0.16646
0.555443
-0.29737
-0.304992
0.509038
-0.214717
-0.0719673
0.371149
-0.345897
-0.0434999
0.134267
-0.305865
0.0205917
0.0979786
-0.0772305
-0.0411936
0.273836
-0.0811329
-0.115501
0.117234
-0.189364
0.0114889
-0.0219527
-0.391332
-0.0656757
-0.0837446
-0.165815
0.110613
0.0771219
0.16908
0.0914026
0.163019
0.014592
-0.0907087
-0.0581691
-0.210257
-0.105539
-0.168843
-0.349152
-0.123156
-0.102081
-0.0406045
0.17248
0.0963842
0.210312
0.0370615
0.0725521
0.0281432
-0.120661
-0.191374
-0.199993
-0.146587
-0.200937
-0.197775
0.0251115
-0.0900575
0.0245607
0.304687
0.211403
0.233916
0.0867636
-0.188874
0.0831322
-0.0890817
-0.270645
-0.0187267
0.00208818
-0.220489
-0.00861365
0.165465
-0.170845
0.0826874
0.33601
0.101107
0.148866
0.00503067
-0.213024
0.0629262
-0.196396
-0.214141
-0.0106283
0.0516488
-0.157829
-0.0436464
0.0585317
-0.0627486
0.0811066
0.159135
0.107666
0.00953087
-0.200873
-0.212005
0.117332
0.144097
-0.300637
0.138975
0.402819
-0.113039
0.115732
0.281743
-0.0518895
0.026411
0.175554
0.112453
-0.129274
-0.144281
-0.149766
0.0078749
0.0525489
-0.229537
0.178529
0.402717
0.0178992
0.161202
0.201892
0.0236814
-0.0382541
0.0676347
0.0288407
-0.282048
-0.219252
0.198734
-0.00282683
-0.0292526
-0.0425119
0.131464
0.301275
0.114349
0.139967
0.187076
0.0740871
-0.0897041
0.134281
0.084724
-0.288178
-0.0609333
0.397273
-0.238632
-0.292447
0.133082
-0.0988104
0.0661414
0.225587
-0.072508
0.0399166
0.223827
-0.201567
0.112773
0.180874
-0.437258
-0.13837
-0.262848
0.239963
0.0280445
-0.221233
0.0933109
-0.0581057
0.0836121
0.133687
0.0222157
0.148054
9.10631e-05
-0.0100139
0.0583358
-0.043615
-0.0396525
-0.311994
-0.0285935
-0.225377
0.294613
0.253588
0.199436
0.600035
0.377752
0.476628
-0.310884
-0.466125
-0.237828
-0.168859
-0.176749
-0.041229
0.132933
0.254964
0.182119
0.762212
0.64285
0.738341
-0.902376
-1.0372
-0.859076
-0.403587
-0.452534
-0.408298
0.329179
0.32689
0.260554
0.188467
0.201378
0.0968529
-0.546817
-0.61607
-0.68073
-0.473112
-0.538944
-0.649658
0.879162
0.819894
0.619008
0.0309808
0.0742572
-0.0113464
0.197162
-0.219305
-0.0705772
-0.144279
-0.303716
-0.0548251
0.485974
0.374208
0.553169
-0.0477284
-0.0837888
0.145734
-0.269799
-0.156332
0.16646
0.555443
-0.29737
-0.304992
0.509038
-0.214717
-0.0719673
0.371149
-0.345897
-0.0434999
0.134267
-0.305865
0.0205917
0.0979786
-0.0772305
-0.0411936
0.273836
-0.0811329
-0.115501
0.117234
-0.189364
0.0114889
-0.0219527
-0.391332
-0.0656757
-0.0837446
-0.165815
0.110613
0.0771219
0.16908
0.0914026
0.163019
0.014592
-0.0907087
-0.0581691
-0.210257
-0.105539
-0.168843
-0.349152
-0.123156
-0.102081
-0.0406045
0.17248
0.0963842
0.210312
0.0370615
0.0725521
0.0281432
-0.120661
-0.191374
-0.199993
-0.146587
-0.200937
-0.197775
0.0251115
-0.0900575
0.0245607
0.304687
0.211403
0.233916
0.0867636
-0.188874
0.0831322
-0.0890817
-0.270645
-0.0187267
0.00208818
-0.220489
-0.00861365
0.165465
-0.170845
0.0826874
0.33601
0.101107
0.148866
0.00503067
-0.213024
0.0629262
-0.196396
-0.214141
-0.0106283
0.0516488
-0.157829
-0.0436464
0.0585317
-0.0627486
0.0811066
0.159135
0.107666
0.00953087
-0.200873
-0.212005
0.117332
0.144097
-0.300637
0.138975
0.402819
-0.113039
0.115732
0.281743
-0.0518895
0.026411
0.175554
0.112453
-0.129274
-0.144281
-0.149766
0.0078749
0.0525489
-0.229537
0.178529
0.402717
0.0178992
0.161202
0.201892
0.0236814
-0.0382541
0.0676347
0.0288407
-0.282048
-0.219252
0.198734
-0.00282683
-0.0292526
-0.0425119
0.131464
0.301275
0.114349
0.139967
0.187076
0.0740871
-0.0897041
0.134281
0.084724
-0.288178
-0.0609333
0.397273
-0.238632
-0.292447
0.133082
-0.0988104
0.0661414
0.225587
-0.072508
0.0399166
0.223827
-0.201567
0.112773
0.180874
-0.437258
-0.13837
-0.262848
0.239963
0.0280445
-0.221233
0.0933109
-0.0581057
0.0836121
0.133687
0.0222157
0.148054
9.10631e-05
-0.0100139
0.0583358
-0.043615
-0.0396525
-0.311994
-0.0285935
-0.225377
0.294613
0.253588
0.199436
0.600035
0.377752
0.476628
-0.310884
-0.466125
-0.237828
-0.168859
-0.176749
-0.041229
0.132933
0.254964
0.182119
0.762212
0.64285
0.738341
-0.902376
-1.0372
-0.859076
-0.403587
-0.452534
-0.408298
0.329179
0.32689
0.260554
0.188467
0.201378
0.0968529
-0.546817
-0.61607
-0.68073
-0.473112
-0.538944
-0.649658
0.879162
0.819894
0.619008
0.0309808
0.0742572
-0.0113464
0.197162
-0.219305
-0.0705772
-0.144279
-0.303716
-0.0548251
0.485974
0.374208
0.553169
-0.0477284
-0.0837888
0.145734
-0.269799
-0.156332
0.16646
0.555443
-0.29737
-0.304992
0.509038
-0.214717
-0.0719673
0.371149
-0.345897
-0.0434999
0.134267
-0.305865
0.0205917
0.0979786
-0.0772305
-0.0411936
0.273836
-0.0811329
-0.115501
0.117234
-0.189364
0.0114889
-0.0219527
-0.391332
-0.0656757
-0.0837446
-0.165815
0.110613
0.0771219
0.16908
0.0914026
0.163019
0.014592
-0.0907087
-0.0581691
-0.210257
-0.105539
-0.168843
-0.349152
-0.123156
-0.102081
-0.0406045
0.17248
0.0963842
0.210312
0.0370615
0.0725521
0.0281432
-0.120661
-0.191374
-0.199993
-0.146587
-0.200937
-0.197775
0.0251115
-0.0900575
0.0245607
0.304687
0.211403
0.233916
0.0867636
-0.188874
0.0831322
-0.0890817
-0.270645
-0.0187267
0.00208818
-0.220489
-0.00861365
0.165465
-0.170845
0.0826874
0.33601
0.101107
0.148866
0.00503067
-0.213024
0.0629262
-0.196396
-0.214141
-0.0106283
0.0516488
-0.157829
-0.0436464
0.0585317
-0.0627486
0.0811066
0.159135
0.107666
0.00953087
-0.200873
-0.212005
0.117332
0.144097
-0.300637
0.138975
0.402819
-0.113039
0.115732
0.281743
-0.0518895
0.026411
0.175554
0.112453
-0.129274
-0.144281
-0.149766
0.0078749
0.0525489
-0.229537
0.178529
0.402717
0.0178992
0.161202
0.201892
0.0236814
-0.0382541
0.0676347
0.0288407
-0.282048
-0.219252
0.198734
-0.00282683
-0.0292526
-0.0425119
0.131464
0.301275
0.114349
0.139967
0.187076
0.0740871
-0.0897041
0.134281
0.084724
-0.288178
-0.0609333
0.397273
-0.238632
-0.292447
0.133082
-0.0988104
0.0661414
0.225587
-0.072508
0.0399166
0.223827
-0.201567
0.112773
0.180874
-0.437258
-0.13837
-0.262848
0.239963
0.0280445
-0.221233
0.0933109
-0.0581057
0.0836121
0.133687
0.0222157
0.148054
9.10631e-05
-0.0100139
0.0583358
-0.043615
-0.0396525
-0.311994
-0.0285935
-0.225377
0.294613
0.253588
0.199436
0.600035
0.377752
0.476628
-0.310884
-0.466125
-0.237828
-0.168859
-0.176749
-0.041229
0.132933
0.254964
0.182119
0.762212
0.64285
0.738341
-0.902376
-1.0372
-0.859076
-0.403587
-0.452534
-0.408298
0.329179
0.32689
0.260554
0.188467
0.201378
0.0968529
-0.546817
-0.61607
-0.68073
-0.473112
-0.538944
-0.649658
0.879162
0.819894
0.619008
0.0309808
0.0742572
-0.0113464
0.197162
-0.219305
-0.0705772
-0.144279
-0.303716
-0.0548251
0.485974
0.374208
0.553169
-0.0477284
-0.0837888
0.145734
-0.269799
-0.156332
0.16646
0.555443
-0.29737
-0.304992
0.509038
-0.214717
-0.0719673
0.371149
-0.345897
-0.0434999
0.134267
-0.305865
0.0205917
0.0979786
-0.0772305
-0.0411936
0.273836
-0.0811329
-0.115501
0.117234
-0.189364
0.0114889
-0.0219527
-0.391332
-0.0656757
-0.0837446
-0.165815
0.110613
0.0771219
0.16908
0.0914026
0.163019
0.014592
-0.0907087
-0.0581691
-0.210257
-0.105539
-0.168843
-0.349152
-0.123156
-0.102081
-0.0406045
0.17248
0.0963842
0.210312
0.0370615
0.0725521
0.0281432
-0.120661
-0.191374
-0.199993
-0.146587
-0.200937
-0.197775
0.0251115
-0.0900575
0.0245607
0.304687
0.211403
0.233916
0.0867636
-0.188874
0.0831322
-0.0890817
-0.270645
-0.0187267
0.00208818
-0.220489
-0.00861365
0.165465
-0.170845
0.0826874
0.33601
0.101107
0.148866
0.00503067
-0.213024
0.0629262
-0.196396
-0.214141
-0.0106283
0.0516488
-0.157829
-0.0436464
0.0585317
-0.0627486
0.0811066
0.159135
0.107666
0.00953087
-0.200873
-0.212005
0.117332
0.144097
-0.300637
0.138975
0.402819
-0.113039
0.115732
0.281743
-0.0518895
0.026411
0.175554
0.112453
-0.129274
-0.144281
-0.149766
0.0078749
0.0525489
-0.229537
0.178529
0.402717
0.0178992
0.161202
0.201892
0.0236814
-0.0382541
0.0676347
0.0288407
-0.282048
-0.219252
0.198734
-0.00282683
-0.0292526
-0.0425119
0.131464
0.301275
0.114349
0.139967
0.187076
0.0740871
-0.0897041
0.134281
0.084724
-0.288178
-0.0609333
0.397273
-0.238632
-0.292447
0.133082
-0.0988104
0.0661414
0.225587
-0.072508
0.0399166
0.223827
-0.201567
0.112773
0.180874
-0.437258
-0.13837
-0.262848
0.239963
0.0280445
-0.221233
0.0933109
-0.0581057
0.0836121
0.133687
0.0222157
0.148054
9.10631e-05
-0.0100139
0.0583358
-0.043615
-0.0396525
-0.311994
-0.0285935
-0.225377
0.294613
0.253588
0.199436
0.600035
0.377752
0.476628
-0.310884
-0.466125
-0.237828
-0.168859
-0.176749
-0.041229
0.132933
0.254964
0.182119
0.762212
0.64285
0.738341
-0.902376
-1.0372
-0.859076
-0.403587
-0.452534
-0.408298
0.329179
0.32689
0.260554
0.188467
0.201378
0.0968529
-0.546817
-0.61607
-0.68073
-0.473112
-0.538944
-0.649658
0.879162
0.819894
0.619008
0.0309808
0.0742572
-0.0113464
0.197162
-0.219305
-0.0705772
-0.144279
-0.303716
-0.0548251
0.485974
0.374208
0.553169
-0.0477284
-0.0837888
0.145734
-0.269799
-0.156332
0.16646
0.555443
-0.29737
-0.304992
0.509038
-0.214717
-0.0719673
0.371149
-0.345897
-0.0434999
0.134267
-0.305865
0.0205917
0.0979786
-0.0772305
-0.0411936
0.273836
-0.0811329
-0.115501
0.117234
-0.189364
0.0114889
-0.0219527
-0.391332
-0.0656757
-0.0837446
-0.165815
0.110613
0.0771219
0.16908
0.0914026
0.163019
0.014592
-0.0907087
-0.0581691
-0.210257
-0.105539
-0.168843
-0.349152
-0.123156
-0.102081
-0.0406045
0.17248
0.0963842
0.210312
0.0370615
0.0725521
0.0281432
-0.120661
-0.191374
-0.199993
-0.146587
-0.200937
-0.197775
0.0251115
-0.0900575
0.0245607
0.304687
0.211403
0.233916
0.0867636
-0.188874
0.0831322
-0.0890817
-0.270645
-0.0187267
0.00208818
-0.220489
-0.00861365
0.165465
-0.170845
0.0826874
0.33601
0.101107
0.148866
0.00503067
-0.213024
0.0629262
-0.196396
-0.214141
-0.0106283
0.0516488
-0.157829
-0.0436464
0.0585317
-0.0627486
0.0811066
0.159135
0.107666
0.00953087
-0.200873
-0.212005
0.117332
0.144097
-0.300637
0.138975
0.402819
-0.113039
0.115732
0.281743
-0.0518895
0.026411
0.175554
0.112453
-0.129274
-0.144281
-0.149766
0.0078749
0.0525489
-0.229537
0.178529
0.402717
0.0178992
0.161202
0.201892
0.0236814
-0.0382541
0.0676347
0.0288407
-0.282048
-0.219252
0.198734
-0.00282683
-0.0292526
-0.0425119
0.131464
0.301275
0.114349
0.139967
0.187076
0.0740871
-0.0897041
0.134281
0.084724
-0.288178
-0.0609333
0.397273
-0.238632
-0.292447
0.133082
-0.0988104
0.0661414
0.225587
-0.072508
0.0399166
0.223827
-0.201567
0.112773
0.180874
-0.437258
-0.13837
-0.262848
0.239963
0.0280445
-0.221233
0.0933109
-0.0581057
0.0836121
0.133687
0.0222157
0.148054
9.10631e-05
-0.0100139
0.0583358
-0.043615
-0.0396525
-0.311994
-0.0285935
-0.225377
0.294613
0.253588
0.199436
0.600035
0.377752
0.476628
-0.310884
-0.466125
-0.237828
-0.168859
-0.176749
-0.041229
0.132933
0.254964
0.182119
0.762212
0.64285
0.738341
-0.902376
-1.0372
-0.859076
-0.403587
-0.452534
-0.408298
0.329179
0.32689
0.260554
0.188467
0.201378
0.0968529
-0.546817
-0.61607
-0.68073
-0.473112
-0.538944
-0.649658
0.879162
0.819894
0.619008
0.0309808
0.0742572
-0.0113464
0.197162
-0.219305
-0.0705772
-0.144279
-0.303716
-0.0548251
0.485974
0.374208
0.553169
-0.0477284
-0.0837888
0.145734
-0.269799
-0.156332
0.16646
0.555443
-0.29737
-0.304992
0.509038
-0.214717
-0.0719673
0.371149
-0.345897
-0.0434999
0.134267
-0.305865
0.0205917
0.0979786
-0.0772305
-0.0411936
0.273836
-0.0811329
-0.115501
0.117234
-0.189364
0.0114889
-0.0219527
-0.391332
-0.0656757
-0.0837446
-0.165815
0.110613
0.0771219
0.16908
0.0914026
0.163019
0.014592
-0.0907087
-0.0581691
-0.210257
-0.105539
-0.168843
-0.349152
-0.123156
-0.102081
-0.0406045
0.17248
0.0963842
0.210312
0.0370615
0.0725521
0.0281432
-0.120661
-0.191374
-0.199993
-0.146587
-0.200937
-0.197775
0.0251115
-0.0900575
0.0245607
0.304687
0.211403
0.233916
0.0867636
-0.188874
0.0831322
-0.0890817
-0.270645
-0.0187267
0.00208818
-0.220489
-0.00861365
0.165465
-0.170845
0.0826874
0.33601
0.101107
0.148866
0.00503067
-0.213024
0.0629262
-0.196396
-0.214141
-0.0106283
0.0516488
-0.157829
-0.0436464
0.0585317
-0.0627486
0.0811066
0.159135
0.107666
0.00953087
-0.200873
-0.212005
0.117332
0.144097
-0.300637
0.138975
0.402819
-0.113039
0.115732
0.281743
-0.0518895
0.026411
0.175554
0.112453
-0.129274
-0.144281
-0.149766
0.0078749
0.0525489
-0.229537
0.178529
0.402717
0.0178992
0.161202
0.201892
0.0236814
-0.0382541
0.0676347
0.0288407
-0.282048
-0.219252
0.198734
-0.00282683
-0.0292526
-0.0425119
0.131464
0.301275
0.114349
0.139967
0.187076
0.0740871
-0.0897041
0.134281
0.084724
-0.288178
-0.0609333
0.397273
-0.238632
-0.292447
0.133082
-0.0988104
0.0661414
0.225587
-0.072508
0.0399166
0.223827
-0.201567
0.112773
0.180874
-0.437258
-0.13837
-0.262848
0.239963
0.0280445
-0.221233
0.0933109
-0.0581057
0.0836121
0.133687
0.0222157
0.148054
9.10631e-05
-0.0100139
0.0583358
-0.043615
-0.0396525
-0.311994
-0.0285935
-0.225377
0.294613
0.253588
0.199436
0.600035
0.377752
0.476628
-0.310884
-0.466125
-0.237828
-0.168859
-0.176749
-0.041229
0.132933
0.254964
0.182119
0.762212
0.64285
0.738341
-0.902376
-1.0372
-0.859076
-0.403587
-0.452534
-0.408298
0.329179
0.32689
0.260554
0.188467
0.201378
0.0968529
-0.546817
-0.61607
-0.68073
-0.473112
-0.538944
-0.649658
0.879162
0.819894
0.619008
0.0309808
0.0742572
-0.0113464
0.197162
-0.219305
-0.0705772
-0.144279
-0.303716
-0.0548251
0.485974
0.374208
0.553169
-0.0477284
-0.0837888
0.145734
-0.269799
-0.156332
0.16646
0.555443
-0.29737
-0.304992
0.509038
-0.214717
-0.0719673
0.371149
-0.345897
-0.0434999
0.134267
-0.305865
0.0205917
0.0979786
-0.0772305
-0.0411936
0.273836
-0.0811329
-0.115501
0.117234
-0.189364
0.0114889
-0.0219527
-0.391332
-0.0656757
-0.0837446
-0.165815
0.110613
0.0771219
0.16908
0.0914026
0.163019
0.014592
-0.0907087
-0.0581691
-0.210257
-0.105539
-0.168843
-0.349152
-0.123156
-0.102081
-0.0406045
0.17248
0.0963842
0.210312
0.0370615
0.0725521
0.0281432
-0.120661
-0.191374
-0.199993
-0.146587
-0.200937
-0.197775
0.0251115
-0.0900575
0.0245607
0.304687
0.211403
0.233916
0.0867636
-0.188874
0.0831322
-0.0890817
-0.270645
-0.0187267
0.00208818
-0.220489
-0.00861365
0.165465
-0.170845
0.0826874
0.33601
0.101107
0.148866
0.00503067
-0.213024
0.0629262
-0.196396
-0.214141
-0.0106283
0.0516488
-0.157829
-0.0436464
0.0585317
-0.0627486
0.0811066
0.159135
0.107666
0.00953087
-0.200873
-0.212005
0.117332
0.144097
-0.300637
0.138975
0.402819
-0.113039
0.115732
0.281743
-0.0518895
0.026411
0.175554
0.112453
-0.129274
-0.144281
-0.149766
0.0078749
0.0525489
-0.229537
0.178529
0.402717
0.0178992
0.161202
0.201892
0.0236814
-0.0382541
0.0676347
0.0288407
-0.282048
-0.219252
0.198734
-0.00282683
-0.0292526
-0.0425119
0.131464
0.301275
0.114349
0.139967
0.187076
0.0740871
-0.0897041
0.134281
0.084724
-0.288178
-0.0609333
0.397273
-0.238632
-0.292447
0.133082
-0.0988104
0.0661414
0.225587
-0.072508
0.0399166
0.223827
-0.201567
0.112773
0.180874
-0.437258
-0.13837
-0.262848
0.239963
0.0280445
-0.221233
0.0933109
-0.0581057
0.0836121
0.133687
0.0222157
0.148054
9.10631e-05
-0.0100139
0.0583358
-0.043615
-0.0396525
-0.311994
-0.0285935
-0.225377
0.294613
0.253588
0.199436
0.600035
0.377752
0.476628
-0.310884
-0.466125
-0.237828
-0.168859
-0.176749
-0.041229
0.132933
0.254964
0.182119
0.762212
0.64285
0.738341
-0.902376
-1.0372
-0.859076
-0.403587
-0.452534
-0.408298
0.329179
0.32689
0.260554
0.188467
0.201378
0.0968529
-0.546817
-0.61607
-0.68073
-0.473112
-0.538944
-0.649658
0.879162
0.819894
0.619008
0.0309808
0.0742572
-0.0113464
0.197162
-0.219305
-0.0705772
-0.144279
-0.303716
-0.0548251
0.485974
0.374208
0.553169
-0.0477284
-0.0837888
0.145734
-0.269799
-0.156332
0.16646
0.555443
-0.29737
-0.304992
0.509038
-0.214717
-0.0719673
0.371149
-0.345897
-0.0434999
0.134267
-0.305865
0.0205917
0.0979786
-0.0772305
-0.0411936
0.273836
-0.0811329
-0.115501
0.117234
-0.189364
0.0114889
-0.0219527
-0.391332
-0.0656757
-0.0837446
-0.165815
0.110613
0.0771219
0.16908
0.0914026
0.163019
0.014592
-0.0907087
-0.0581691
-0.210257
-0.105539
-0.168843
-0.349152
-0.123156
-0.102081
-0.0406045
0.17248
0.0963842
0.210312
0.0370615
0.0725521
0.0281432
-0.120661
-0.191374
-0.199993
-0.146587
-0.200937
-0.197775
0.0251115
-0.0900575
0.0245607
0.304687
0.211403
0.233916
0.0867636
-0.188874
0.0831322
-0.0890817
-0.270645
-0.0187267
0.00208818
-0.220489
-0.00861365
0.165465
-0.170845
0.0826874
0.33601
0.101107
0.148866
0.00503067
-0.213024
0.0629262
-0.196396
-0.214141
-0.0106283
0.0516488
-0.157829
-0.0436464
0.0585317
-0.0627486
0.0811066
0.159135
0.107666
0.00953087
-0.200873
-0.212005
0.117332
0.144097
-0.300637
0.138975
0.402819
-0.113039
0.115732
0.281743
-0.0518895
0.026411
0.175554
0.112453
-0.129274
-0.144281
-0.149766
0.0078749
0.0525489
-0.229537
0.178529
0.402717
0.0178992
0.161202
0.201892
0.0236814
-0.0382541
0.0676347
0.0288407
-0.282048
-0.219252
0.198734
-0.00282683
-0.0292526
-0.0425119
0.131464
0.301275
0.114349
0.139967
0.187076
0.0740871
-0.0897041
0.134281
0.084724
-0.288178
-0.0609333
0.397273
-0.238632
-0.292447
0.133082
-0.0988104
0.0661414
0.225587
-0.072508
0.0399166
0.223827
-0.201567
0.112773
0.180874
-0.437258
-0.13837
-0.262848
0.239963
0.0280445
-0.221233
0.0933109
-0.0581057
0.0836121
0.133687
0.0222157
0.148054
9.10631e-05
-0.0100139
0.0583358
-0.043615
-0.0396525
-0.311994
-0.0285935
-0.225377
0.294613
0.253588
0.199436
0.600035
0.377752
0.476628
-0.310884
-0.466125
-0.237828
-0.168859
-0.176749
-0.041229
0.132933
0.254964
0.182119
0.762212
0.64285
0.738341
-0.902376
-1.0372
-0.859076
-0.403587
-0.452534
-0.408298
0.329179
0.32689
0.260554
0.188467
0.201378
0.0968529
-0.546817
-0.61607
-0.68073
-0.473112
-0.538944
-0.649658
0.879162
0.819894
0.619008
0.0309808
0.0742572
-0.0113464
0.197162
-0.219305
-0.0705772
-0.144279
-0.303716
-0.0548251
0.485974
0.374208
0.553169
-0.0477284
-0.0837888
0.145734
-0.269799
-0.156332
0.16646
0.555443
-0.29737
-0.304992
0.509038
-0.214717
-0.0719673
0.371149
-0.345897
-0.0434999
0.134267
-0.305865
0.0205917
0.0979786
-0.0772305
-0.0411936
0.273836
-0.0811329
-0.115501
0.117234
-0.189364
0.0114889
-0.0219527
-0.391332
-0.0656757
-0.0837446
-0.165815
0.110613
0.0771219
0.16908
0.0914026
0.163019
0.014592
-0.0907087
-0.0581691
-0.210257
-0.105539
-0.168843
-0.349152
-0.123156
-0.102081
-0.0406045
0.17248
0.0963842
0.210312
0.0370615
0.0725521
0.0281432
-0.120661
-0.191374
-0.199993
-0.146587
-0.200937
-0.197775
0.0251115
-0.0900575
0.0245607
0.304687
0.211403
0.233916
0.0867636
-0.188874
0.0831322
-0.0890817
-0.270645
-0.0187267
0.00208818
-0.220489
-0.00861365
0.165465
-0.170845
0.0826874
0.33601
0.101107
0.148866
0.00503067
-0.213024
0.0629262
-0.196396
-0.214141
-0.0106283
0.0516488
-0.157829
-0.0436464
0.0585317
-0.0627486
0.0811066
0.159135
0.107666
0.00953087
-0.200873
-0.212005
0.117332
0.144097
-0.300637
0.138975
0.402819
-0.113039
0.115732
0.281743
-0.0518895
0.026411
0.175554
0.112453
-0.129274
-0.144281
-0.149766
0.0078749
0.0525489
-0.229537
0.178529
0.402717
0.0178992
0.161202
0.201892
0.0236814
-0.0382541
0.0676347
0.0288407
-0.282048
-0.219252
0.198734
-0.00282683
-0.0292526
-0.0425119
0.131464
0.301275
0.114349
0.139967
0.187076
0.0740871
-0.0897041
0.134281
0.084724
-0.288178
-0.0609333
0.397273
-0.238632
-0.292447
0.133082
-0.0988104
0.0661414
0.225587
-0.072508
0.0399166
0.223827
-0.201567
0.112773
0.180874
-0.437258
-0.13837
-0.262848
0.239963
0.0280445
-0.221233
0.0933109
-0.0581057
0.0836121
0.133687
0.0222157
0.148054
9.10631e-05
-0.0100139
0.0583358
-0.043615
-0.0396525
-0.311994
-0.0285935
-0.225377
0.294613
0.253588
0.199436
0.600035
0.377752
0.476628
-0.310884
-0.466125
-0.237828
-0.168859
-0.176749
-0.041229
0.132933
0.254964
0.182119
0.762212
0.64285
0.738341
-0.902376
-1.0372
-0.859076
-0.403587
-0.452534
-0.408298
0.329179
0.32689
0.260554
0.188467
0.201378
0.0968529
-0.546817
-0.61607
-0.68073
-0.473112
-0.538944
-0.649658
0.879162
0.819894
0.619008
0.0309808
0.0742572
-0.0113464
0.197162
-0.219305
-0.0705772
-0.144279
-0.303716
-0.0548251
0.485974
0.374208
0.553169
-0.0477284
-0.0837888
0.145734
-0.269799
-0.156332
0.16646
0.555443
-0.29737
-0.304992
0.509038
-0.214717
-0.0719673
0.371149
-0.345897
-0.0434999
0.134267
-0.305865
0.0205917
0.0979786
-0.0772305
-0.0411936
0.273836
-0.0811329
-0.115501
0.117234
-0.189364
0.0114889
-0.0219527
-0.391332
-0.0656757
-0.0837446
-0.165815
0.110613
0.0771219
0.16908
0.0914026
0.163019
0.014592
-0.0907087
-0.0581691
-0.210257
-0.105539
-0.168843
-0.349152
-0.123156
-0.102081
-0.0406045
0.17248
0.0963842
0.210312
0.0370615
0.0725521
0.0281432
-0.120661
-0.191374
-0.199993
-0.146587
-0.200937
-0.197775
0.0251115
-0.0900575
0.0245607
0.304687
0.211403
0.233916
0.0867636
-0.188874
0.0831322
-0.0890817
-0.270645
-0.0187267
0.00208818
-0.220489
-0.00861365
0.165465
-0.170845
0.0826874
0.33601
0.101107
0.148866
0.00503067
-0.213024
0.0629262
-0.196396
-0.214141
-0.0106283
0.0516488
-0.157829
-0.0436464
0.0585317
-0.0627486
0.0811066
0.159135
0.107666
0.00953087
-0.200873
-0.212005
0.117332
0.144097
-0.300637
0.138975
0.402819
-0.113039
0.115732
0.281743
-0.0518895
0.026411
0.175554
0.112453
-0.129274
-0.144281
-0.149766
0.0078749
0.0525489
-0.229537
0.178529
0.402717
0.0178992
0.161202
0.201892
0.0236814
-0.0382541
0.0676347
0.0288407
-0.282048
-0.219252
0.198734
-0.00282683
-0.0292526
-0.0425119
0.131464
0.301275
0.114349
0.139967
0.187076
0.0740871
-0.0897041
0.134281
0.084724
-0.288178
-0.0609333
0.397273
-0.238632
-0.292447
0.133082
-0.0988104
0.0661414
0.225587
-0.072508
0.0399166
0.223827
-0.201567
0.112773
0.180874
-0.437258
-0.13837
-0.262848
0.239963
0.0280445
-0.221233
0.0933109
-0.0581057
0.0836121
0.133687
0.0222157
0.148054
9.10631e-05
-0.0100139
0.0583358
-0.043615
-0.0396525
-0.311994
-0.0285935
-0.225377
0.294613
0.253588
0.199436
0.600035
0.377752
0.476628
-0.310884
-0.466125
-0.237828
-0.168859
-0.176749
-0.041229
0.132933
0.254964
0.182119
0.762212
0.64285
0.738341
-0.902376
-1.0372
-0.859076
-0.403587
-0.452534
-0.408298
0.329179
0.32689
0.260554
0.188467
0.201378
0.0968529
-0.546817
-0.61607
-0.68073
-0.473112
-0.538944
-0.649658
0.879162
0.819894
0.619008
0.0309808
0.0742572
-0.0113464
0.197162
-0.219305
-0.0705772
-0.144279
-0.303716
-0.0548251
0.485974
0.374208
0.553169
-0.0477284
-0.0837888
0.145734
-0.269799
-0.156332
0.16646
0.555443
-0.29737
-0.304992
0.509038
-0.214717
-0.0719673
0.371149
-0.345897
-0.0434999
0.134267
-0.305865
0.0205917
0.0979786
-0.0772305
-0.0411936
0.273836
-0.0811329
-0.115501
0.117234
-0.189364
0.0114889
-0.0219527
-0.391332
-0.0656757
-0.0837446
-0.165815
0.110613
0.0771219
0.16908
0.0914026
0.163019
0.014592
-0.0907087
-0.0581691
-0.210257
-0.105539
-0.168843
-0.349152
-0.123156
-0.102081
-0.0406045
0.17248
0.0963842
0.210312
0.0370615
0.0725521
0.0281432
-0.120661
-0.191374
-0.199993
-0.146587
-0.200937
-0.197775
0.0251115
-0.0900575
0.0245607
0.304687
0.211403
0.233916
0.0867636
-0.188874
0.0831322
-0.0890817
-0.270645
-0.0187267
0.00208818
-0.220489
-0.00861365
0.165465
-0.170845
0.0826874
0.33601
0.101107
0.148866
0.00503067
-0.213024
0.0629262
-0.196396
-0.214141
-0.0106283
0.0516488
-0.157829
-0.0436464
0.0585317
-0.0627486
0.0811066
0.159135
0.107666
0.00953087
-0.200873
-0.212005
0.117332
0.144097
-0.300637
0.138975
0.402819
-0.113039
0.115732
0.281743
-0.0518895
0.026411
0.175554
0.112453
-0.129274
-0.144281
-0.149766
0.0078749
0.0525489
-0.229537
0.178529
0.402717
0.0178992
0.161202
0.201892
0.0236814
-0.0382541
0.0676347
0.0288407
-0.282048
-0.219252
0.198734
-0.00282683
-0.0292526
-0.0425119
0.131464
0.301275
0.114349
0.139967
0.187076
0.0740871
-0.0897041
0.134281
0.084724
-0.288178
-0.0609333
0.397273
-0.238632
-0.292447
0.133082
-0.0988104
0.0661414
0.225587
-0.072508
0.0399166
0.223827
-0.201567
0.112773
0.180874
-0.437258
-0.13837
-0.262848
0.239963
0.0280445
-0.221233
0.0933109
-0.0581057
0.0836121
0.133687
0.0222157
0.148054
9.10631e-05
-0.0100139
0.0583358
-0.043615
-0.0396525
-0.311994
-0.0285935
-0.225377
0.294613
0.253588
0.199436
0.600035
0.377752
0.476628
-0.310884
-0.466125
-0.237828
-0.168859
-0.176749
-0.041229
0.132933
0.254964
0.182119
0.762212
0.64285
0.738341
-0.902376
-1.0372
-0.859076
-0.403587
-0.452534
-0.408298
0.329179
0.32689
0.260554
0.188467
0.201378
0.0968529
-0.546817
-0.61607
-0.68073
-0.473112
-0.538944
-0.649658
0.879162
0.819894
0.619008
0.0309808
0.0742572
-0.0113464
0.197162
-0.219305
-0.0705772
-0.144279
-0.303716
-0.0548251
0.485974
0.374208
0.553169
-0.0477284
-0.0837888
0.145734
-0.269799
-0.156332
0.16646
0.555443
-0.29737
-0.304992
0.509038
-0.214717
-0.0719673
0.371149
-0.345897
-0.0434999
0.134267
-0.305865
0.0205917
0.0979786
-0.0772305
-0.0411936
0.273836
-0.0811329
-0.115501
0.117234
-0.189364
0.0114889
-0.0219527
-0.391332
-0.0656757
-0.0837446
-0.165815
0.110613
0.0771219
0.16908
0.0914026
0.163019
0.014592
-0.0907087
-0.0581691
-0.210257
-0.105539
-0.168843
-0.349152
-0.123156
-0.102081
-0.0406045
0.17248
0.0963842
0.210312
0.0370615
0.0725521
0.0281432
-0.120661
-0.191374
-0.199993
-0.146587
-0.200937
-0.197775
0.0251115
-0.0900575
0.0245607
0.304687
0.211403
0.233916
0.0867636
-0.188874
0.0831322
-0.0890817
-0.270645
-0.0187267
0.00208818
-0.220489
-0.00861365
0.165465
-0.170845
0.0826874
0.33601
0.101107
0.148866
0.00503067
-0.213024
0.0629262
-0.196396
-0.214141
-0.0106283
0.0516488
-0.157829
-0.0436464
0.0585317
-0.0627486
0.0811066
0.159135
0.107666
0.00953087
-0.200873
-0.212005
0.117332
0.144097
-0.300637
0.138975
0.402819
-0.113039
0.115732
0.281743
-0.0518895
0.026411
0.175554
0.112453
-0.129274
-0.144281
-0.149766
0.0078749
0.0525489
-0.229537
0.178529
0.402717
0.0178992
0.161202
0.201892
0.0236814
-0.0382541
0.0676347
0.0288407
-0.282048
-0.219252
0.198734
-0.00282683
-0.0292526
-0.0425119
0.131464
0.301275
0.114349
0.139967
0.187076
0.0740871
-0.0897041
0.134281
0.084724
-0.288178
-0.0609333
0.397273
-0.238632
-0.292447
0.133082
-0.0988104
0.0661414
0.225587
-0.072508
0.0399166
0.223827
-0.201567
0.112773
0.180874
-0.437258
-0.13837
-0.262848
0.239963
0.0280445
-0.221233
0.0933109
-0.0581057
0.0836121
0.133687
0.0222157
0.148054
9.10631e-05
-0.0100139
0.0583358
-0.043615
-0.0396525
-0.311994
-0.0285935
-0.225377
0.294613
0.253588
0.199436
0.600035
0.377752
0.476628
-0.310884
-0.466125
-0.237828
-0.168859
-0.176749
-0.041229
0.132933
0.254964
0.182119
0.762212
0.64285
0.738341
-0.902376
-1.0372
-0.859076
-0.403587
-0.452534
-0.408298
0.329179
0.32689
0.260554
0.188467
0.201378
0.0968529
-0.546817
-0.61607
-0.68073
-0.473112
-0.538944
-0.649658
0.879162
0.819894
0.619008
0.0309808
0.0742572
-0.0113464
0.197162
-0.219305
-0.0705772
-0.144279
-0.303716
-0.0548251
0.485974
0.374208
0.553169
-0.0477284
-0.0837888
0.145734
-0.269799
-0.156332
0.16646
0.555443
-0.29737
-0.304992
0.509038
-0.214717
-0.0719673
0.371149
-0.345897
-0.0434999
0.134267
-0.305865
0.0205917
0.0979786
-0.0772305
-0.0411936
0.273836
-0.0811329
-0.115501
0.117234
-0.189364
0.0114889
-0.0219527
-0.391332
-0.0656757
-0.0837446
-0.165815
0.110613
0.0771219
0.16908
0.0914026
0.163019
0.014592
-0.0907087
-0.0581691
-0.210257
-0.105539
-0.168843
-0.349152
-0.123156
-0.102081
-0.0406045
0.17248
0.0963842
0.210312
0.0370615
0.0725521
0.0281432
-0.120661
-0.191374
-0.199993
-0.146587
-0.200937
-0.197775
0.0251115
-0.0900575
0.0245607
0.304687
0.211403
0.233916
0.0867636
-0.188874
0.0831322
-0.0890817
-0.270645
-0.0187267
0.00208818
-0.220489
-0.00861365
0.165465
-0.170845
0.0826874
0.33601
0.101107
0.148866
0.00503067
-0.213024
0.0629262
-0.196396
-0.214141
-0.0106283
0.0516488
-0.157829
-0.0436464
0.0585317
-0.0627486
0.0811066
0.159135
0.107666
0.00953087
-0.200873
-0.212005
0.117332
0.144097
-0.300637
0.138975
0.402819
-0.113039
0.115732
0.281743
-0.0518895
0.026411
0.175554
0.112453
-0.129274
-0.144281
-0.149766
0.0078749
0.0525489
-0.229537
0.178529
0.402717
0.0178992
0.161202
0.201892
0.0236814
-0.0382541
0.0676347
0.0288407
-0.282048
-0.219252
0.198734
-0.00282683
-0.0292526
-0.0425119
0.131464
0.301275
0.114349
0.139967
0.187076
0.0740871
-0.0897041
0.134281
0.084724
-0.288178
-0.0609333
0.397273
-0.238632
-0.292447
0.133082
-0.0988104
0.0661414
0.225587
-0.072508
0.0399166
0.223827
-0.201567
0.112773
0.180874
-0.437258
-0.13837
-0.262848
0.239963
0.0280445
-0.221233
0.0933109
-0.0581057
0.0836121
0.133687
0.0222157
0.148054
9.10631e-05
-0.0100139
0.0583358
-0.043615
-0.0396525
-0.311994
-0.0285935
-0.225377
0.294613
0.253588
0.199436
0.600035
0.377752
0.476628
-0.310884
-0.466125
-0.237828
-0.168859
-0.176749
-0.041229
0.132933
0.254964
0.182119
0.762212
0.64285
0.738341
-0.902376
-1.0372
-0.859076
-0.403587
-0.452534
-0.408298
0.329179
0.32689
0.260554
0.188467
0.201378
0.0968529
-0.546817
-0.61607
-0.68073
-0.473112
-0.538944
-0.649658
0.879162
0.819894
0.619008
0.0309808
0.0742572
-0.0113464
0.197162
-0.219305
-0.0705772
-0.144279
-0.303716
-0.0548251
0.485974
0.374208
0.553169
-0.0477284
-0.0837888
0.145734
-0.269799
-0.156332
0.16646
0.555443
-0.29737
-0.304992
0.509038
-0.214717
-0.0719673
0.371149
-0.345897
-0.0434999
0.134267
-0.305865
0.0205917
0.0979786
-0.0772305
-0.0411936
0.273836
-0.0811329
-0.115501
0.117234
-0.189364
0.0114889
-0.0219527
-0.391332
-0.0656757
-0.0837446
-0.165815
0.110613
0.0771219
0.16908
0.0914026
0.163019
0.014592
-0.0907087
-0.0581691
-0.210257
-0.105539
-0.168843
-0.349152
-0.123156
-0.102081
-0.0406045
0.17248
0.0963842
0.210312
0.0370615
0.0725521
0.0281432
-0.120661
-0.191374
-0.199993
-0.146587
-0.200937
-0.197775
0.0251115
-0.0900575
0.0245607
0.304687
0.211403
0.233916
0.0867636
-0.188874
0.0831322
-0.0890817
-0.270645
-0.0187267
0.00208818
-0.220489
-0.00861365
0.165465
-0.170845
0.0826874
0.33601
0.101107
0.148866
0.00503067
-0.213024
0.0629262
-0.196396
-0.214141
-0.0106283
0.0516488
-0.157829
-0.0436464
0.0585317
-0.0627486
0.0811066
0.159135
0.107666
0.00953087
-0.200873
-0.212005
0.117332
0.144097
-0.300637
0.138975
0.402819
-0.113039
0.115732
0.281743
-0.0518895
0.026411
0.175554
0.112453
-0.129274
-0.144281
-0.149766
0.0078749
0.0525489
-0.229537
0.178529
0.402717
0.0178992
0.161202
0.201892
0.0236814
-0.0382541
0.0676347
0.0288407
-0.282048
-0.219252
0.198734
-0.00282683
-0.0292526
-0.0425119
0.131464
0.301275
0.114349
0.139967
0.187076
0.0740871
-0.0897041
0.134281
0.084724
-0.288178
-0.0609333
0.397273
-0.238632
-0.292447
0.133082
-0.0988104
0.0661414
0.225587
-0.072508
0.0399166
0.223827
-0.201567
0.112773
0.180874
-0.437258
-0.13837
-0.262848
0.239963
0.0280445
-0.221233
0.0933109
-0.0581057
0.0836121
0.133687
0.0222157
0.148054
9.10631e-05
-0.0100139
0.0583358
-0.043615
-0.0396525
-0.311994
-0.0285935
-0.225377
0.294613
0.253588
0.199436
0.600035
0.377752
0.476628
-0.310884
-0.466125
-0.237828
-0.168859
-0.176749
-0.041229
0.132933
0.254964
0.182119
0.762212
0.64285
0.738341
-0.902376
-1.0372
-0.859076
-0.403587
-0.452534
-0.408298
0.329179
0.32689
0.260554
0.188467
0.201378
0.0968529
-0.546817
-0.61607
-0.68073
-0.473112
-0.538944
-0.649658
0.879162
0.819894
0.619008
0.0309808
0.0742572
-0.0113464
0.197162
-0.219305
-0.0705772
-0.144279
-0.303716
-0.0548251
0.485974
0.374208
0.553169
-0.0477284
-0.0837888
0.145734
-0.269799
-0.156332
0.16646
0.555443
-0.29737
-0.304992
0.509038
-0.214717
-0.0719673
0.371149
-0.345897
-0.0434999
0.134267
-0.305865
0.0205917
0.0979786
-0.0772305
-0.0411936
0.273836
-0.0811329
-0.115501
0.117234
-0.189364
0.0114889
-0.0219527
-0.391332
-0.0656757
-0.0837446
-0.165815
0.110613
0.0771219
0.16908
0.0914026
0.163019
0.014592
-0.0907087
-0.0581691
-0.210257
-0.105539
-0.168843
-0.349152
-0.123156
-0.102081
-0.0406045
0.17248
0.0963842
0.210312
0.0370615
0.0725521
0.0281432
-0.120661
-0.191374
-0.199993
-0.146587
-0.200937
-0.197775
0.0251115
-0.0900575
0.0245607
0.304687
0.211403
0.233916
0.0867636
-0.188874
0.0831322
-0.0890817
-0.270645
-0.0187267
0.00208818
-0.220489
-0.00861365
0.165465
-0.170845
0.0826874
0.33601
0.101107
0.148866
0.00503067
-0.213024
0.0629262
-0.196396
-0.214141
-0.0106283
0.0516488
-0.157829
-0.0436464
0.0585317
-0.0627486
0.0811066
0.159135
0.107666
0.00953087
-0.200873
-0.212005
0.117332
0.144097
-0.300637
0.138975
0.402819
-0.113039
0.115732
0.281743
-0.0518895
0.026411
0.175554
0.112453
-0.129274
-0.144281
-0.149766
0.0078749
0.0525489
-0.229537
0.178529
0.402717
0.0178992
0.161202
0.201892
0.0236814
-0.0382541
0.0676347
0.0288407
-0.282048
-0.219252
0.198734
-0.00282683
-0.0292526
-0.0425119
0.131464
0.301275
0.114349
0.139967
0.187076
0.0740871
-0.0897041
0.134281
0.084724
-0.288178
-0.0609333
0.397273
-0.238632
-0.292447
0.133082
-0.0988104
0.0661414
0.225587
-0.072508
0.0399166
0.223827
-0.201567
0.112773
0.180874
-0.437258
-0.13837
-0.262848
0.239963
0.0280445
-0.221233
0.0933109
-0.0581057
0.0836121
0.133687
0.0222157
0.148054
9.10631e-05
-0.0100139
0.0583358
-0.043615
-0.0396525
-0.311994
-0.0285935
-0.225377
0.294613
0.253588
0.199436
0.600035
0.377752
0.476628
-0.310884
-0.466125
-0.237828
-0.168859
-0.176749
-0.041229
0.132933
0.254964
0.182119
0.762212
0.64285
0.738341
-0.902376
-1.0372
-0.859076
-0.403587
-0.452534
-0.408298
0.329179
0.32689
0.260554
0.188467
0.201378
0.0968529
-0.546817
-0.61607
-0.68073
-0.473112
-0.538944
-0.649658
0.879162
0.819894
0.619008
0.0309808
0.0742572
-0.0113464
0.197162
-0.219305
-0.0705772
-0.144279
-0.303716
-0.0548251
0.485974
0.374208
0.553169
-0.0477284
-0.0837888
0.145734
-0.269799
-0.156332
0.16646
0.555443
-0.29737
-0.304992
0.509038
-0.214717
-0.0719673
0.371149
-0.345897
-0.0434999
0.134267
-0.305865
0.0205917
0.0979786
-0.0772305
-0.0411936
0.273836
-0.0811329
-0.115501
0.117234
-0.189364
0.0114889
-0.0219527
-0.391332
-0.0656757
-0.0837446
-0.165815
0.110613
0.0771219
0.16908
0.0914026
0.163019
0.014592
-0.0907087
-0.0581691
-0.210257
-0.105539
-0.168843
-0.349152
-0.123156
-0.102081
-0.0406045
0.17248
0.0963842
0.210312
0.0370615
0.0725521
0.0281432
-0.120661
-0.191374
-0.199993
-0.146587
-0.200937
-0.197775
0.0251115
-0.0900575
0.0245607
0.304687
0.211403
0.233916
0.0867636
-0.188874
0.0831322
-0.0890817
-0.270645
-0.0187267
0.00208818
-0.220489
-0.00861365
0.165465
-0.170845
0.0826874
0.33601
0.101107
0.148866
0.00503067
-0.213024
0.0629262
-0.196396
-0.214141
-0.0106283
0.0516488
-0.157829
-0.0436464
0.0585317
-0.0627486
0.0811066
0.159135
0.107666
0.00953087
-0.200873
-0.212005
0.117332
0.144097
-0.300637
0.138975
0.402819
-0.113039
0.115732
0.281743
-0.0518895
0.026411
0.175554
0.112453
-0.129274
-0.144281
-0.149766
0.0078749
0.0525489
-0.229537
0.178529
0.402717
0.0178992
0.161202
0.201892
0.0236814
-0.0382541
0.0676347
0.0288407
-0.282048
-0.219252
0.198734
-0.00282683
-0.0292526
-0.0425119
0.131464
0.301275
0.114349
0.139967
0.187076
0.0740871
-0.0897041
0.134281
0.084724
-0.288178
-0.0609333
0.397273
-0.238632
-0.292447
0.133082
-0.0988104
0.0661414
0.225587
-0.072508
0.0399166
0.223827
-0.201567
0.112773
0.180874
-0.437258
-0.13837
-0.262848
0.239963
0.0280445
-0.221233
0.0933109
-0.0581057
0.0836121
0.133687
0.0222157
0.148054
9.10631e-05
-0.0100139
0.0583358
-0.043615
-0.0396525
-0.311994
-0.0285935
-0.225377
0.294613
0.253588
0.199436
0.600035
0.377752
0.476628
-0.310884
-0.466125
-0.237828
-0.168859
-0.176749
-0.041229
0.132933
0.254964
0.182119
0.762212
0.64285
0.738341
-0.902376
-1.0372
-0.859076
-0.403587
-0.452534
-0.408298
0.329179
0.32689
0.260554
0.188467
0.201378
0.0968529
-0.546817
-0.61607
-0.68073
-0.473112
-0.538944
-0.649658
0.879162
0.819894
0.619008
0.0309808
0.0742572
-0.0113464
0.197162
-0.219305
-0.0705772
-0.144279
-0.303716
-0.0548251
0.485974
0.374208
0.553169
-0.0477284
-0.0837888
0.145734
-0.269799
-0.156332
0.16646
0.555443
-0.29737
-0.304992
0.509038
-0.214717
-0.0719673
0.371149
-0.345897
-0.0434999
0.134267
-0.305865
0.0205917
0.0979786
-0.0772305
-0.0411936
0.273836
-0.0811329
-0.115501
0.117234
-0.189364
0.0114889
-0.0219527
-0.391332
-0.0656757
-0.0837446
-0.165815
0.110613
0.0771219
0.16908
0.0914026
0.163019
0.014592
-0.0907087
-0.0581691
-0.210257
-0.105539
-0.168843
-0.349152
-0.123156
-0.102081
-0.0406045
0.17248
0.0963842
0.210312
0.0370615
0.0725521
0.0281432
-0.120661
-0.191374
-0.199993
-0.146587
-0.200937
-0.197775
0.0251115
-0.0900575
0.0245607
0.304687
0.211403
0.233916
0.0867636
-0.188874
0.0831322
-0.0890817
-0.270645
-0.0187267
0.00208818
-0.220489
-0.00861365
0.165465
-0.170845
0.0826874
0.33601
0.101107
0.148866
0.00503067
-0.213024
0.0629262
-0.196396
-0.214141
-0.0106283
0.0516488
-0.157829
-0.0436464
0.0585317
-0.0627486
0.0811066
0.159135
0.107666
0.00953087
-0.200873
-0.212005
0.117332
0.144097
-0.300637
0.138975
0.402819
-0.113039
0.115732
0.281743
-0.0518895
0.026411
0.175554
0.112453
-0.129274
-0.144281
-0.149766
0.0078749
0.0525489
-0.229537
0.178529
0.402717
0.0178992
0.161202
0.201892
0.0236814
-0.0382541
0.0676347
0.0288407
-0.282048
-0.219252
0.198734
-0.00282683
-0.0292526
-0.0425119
0.131464
0.301275
0.114349
0.139967
0.187076
0.0740871
-0.0897041
0.134281
0.084724
-0.288178
-0.0609333
0.397273
-0.238632
-0.292447
0.133082
-0.0988104
0.0661414
0.225587
-0.072508
0.0399166
0.223827
-0.201567
0.112773
0.180874
-0.437258
-0.13837
-0.262848
0.239963
0.0280445
-0.221233
0.0933109
-0.0581057
0.0836121
0.133687
0.0222157
0.148054
9.10631e-05
-0.0100139
0.0583358
-0.043615
-0.0396525
-0.311994
-0.0285935
-0.225377
0.294613
0.253588
0.199436
0.600035
0.377752
0.476628
-0.310884
-0.466125
-0.237828
-0.168859
-0.176749
-0.041229
0.132933
0.254964
0.182119
0.762212
0.64285
0.738341
-0.902376
-1.0372
-0.859076
-0.403587
-0.452534
-0.408298
0.329179
0.32689
0.260554
0.188467
0.201378
0.0968529
-0.546817
-0.61607
-0.68073
-0.473112
-0.538944
-0.649658
0.879162
0.819894
0.619008
0.0309808
0.0742572
-0.0113464
0.197162
-0.219305
-0.0705772
-0.144279
-0.303716
-0.0548251
0.485974
0.374208
0.553169
-0.0477284
-0.0837888
0.145734
-0.269799
-0.156332
0.16646
0.555443
-0.29737
-0.304992
0.509038
-0.214717
-0.0719673
0.371149
-0.345897
-0.0434999
0.134267
-0.305865
0.0205917
0.0979786
-0.0772305
-0.0411936
0.273836
-0.0811329
-0.115501
0.117234
-0.189364
0.0114889
-0.0219527
-0.391332
-0.0656757
-0.0837446
-0.165815
0.110613
0.0771219
0.16908
0.0914026
0.163019
0.014592
-0.0907087
-0.0581691
-0.210257
-0.105539
-0.168843
-0.349152
-0.123156
-0.102081
-0.0406045
0.17248
0.0963842
0.210312
0.0370615
0.0725521
0.0281432
-0.120661
-0.191374
-0.199993
-0.146587
-0.200937
-0.197775
0.0251115
-0.0900575
0.0245607
0.304687
0.211403
0.233916
0.0867636
-0.188874
0.0831322
-0.0890817
-0.270645
-0.0187267
0.00208818
-0.220489
-0.00861365
0.165465
-0.170845
0.0826874
0.33601
0.101107
0.148866
0.00503067
-0.213024
0.0629262
-0.196396
-0.214141
-0.0106283
0.0516488
-0.157829
-0.0436464
0.0585317
-0.0627486
0.0811066
0.159135
0.107666
0.00953087
-0.200873
-0.212005
0.117332
0.144097
-0.300637
0.138975
0.402819
-0.113039
0.115732
0.281743
-0.0518895
0.026411
0.175554
0.112453
-0.129274
-0.144281
-0.149766
0.0078749
0.0525489
-0.229537
0.178529
0.402717
0.0178992
0.161202
0.201892
0.0236814
-0.0382541
0.0676347
0.0288407
-0.282048
-0.219252
0.198734
-0.00282683
-0.0292526
-0.0425119
0.131464
0.301275
0.114349
0.139967
0.187076
0.0740871
-0.0897041
0.134281
0.084724
-0.288178
-0.0609333
0.397273
-0.238632
-0.292447
0.133082
-0.0988104
0.0661414
0.225587
-0.072508
0.0399166
0.223827
-0.201567
0.112773
0.180874
-0.437258
-0.13837
-0.262848
0.239963
0.0280445
-0.221233
0.0933109
-0.0581057
0.0836121
0.133687
0.0222157
0.148054
9.10631e-05
-0.0100139
0.0583358
-0.043615
-0.0396525
-0.311994
-0.0285935
-0.225377
0.294613
0.253588
0.199436
0.600035
0.377752
0.476628
-0.310884
-0.466125
-0.237828
-0.168859
-0.176749
-0.041229
0.132933
0.254964
0.182119
0.762212
0.64285
0.738341
-0.902376
-1.0372
-0.859076
-0.403587
-0.452534
-0.408298
0.329179
0.32689
0.260554
0.188467
0.201378
0.0968529
-0.546817
-0.61607
-0.68073
-0.473112
-0.538944
-0.649658
0.879162
0.819894
0.619008
0.0309808
0.0742572
-0.0113464
0.197162
-0.219305
-0.0705772
-0.144279
-0.303716
-0.0548251
0.485974
0.374208
0.553169
-0.0477284
-0.0837888
0.145734
-0.269799
-0.156332
0.16646
0.555443
-0.29737
-0.304992
0.509038
-0.214717
-0.0719673
0.371149
-0.345897
-0.0434999
0.134267
-0.305865
0.0205917
0.0979786
-0.0772305
-0.0411936
0.273836
-0.0811329
-0.115501
0.117234
-0.189364
0.0114889
-0.0219527
-0.391332
-0.0656757
-0.0837446
-0.165815
0.110613
0.0771219
0.16908
0.0914026
0.163019
0.014592
-0.0907087
-0.0581691
-0.210257
-0.105539
-0.168843
-0.349152
-0.123156
-0.102081
-0.0406045
0.17248
0.0963842
0.210312
0.0370615
0.0725521
0.0281432
-0.120661
-0.191374
-0.199993
-0.146587
-0.200937
-0.197775
0.0251115
-0.0900575
0.0245607
0.304687
0.211403
0.233916
0.0867636
-0.188874
0.0831322
-0.0890817
-0.270645
-0.0187267
0.00208818
-0.220489
-0.00861365
0.165465
-0.170845
0.0826874
0.33601
0.101107
0.148866
0.00503067
-0.213024
0.0629262
-0.196396
-0.214141
-0.0106283
0.0516488
-0.157829
-0.0436464
0.0585317
-0.0627486
0.0811066
0.159135
0.107666
0.00953087
-0.200873
-0.212005
0.117332
0.144097
-0.300637
0.138975
0.402819
-0.113039
0.115732
0.281743
-0.0518895
0.026411
0.175554
0.112453
-0.129274
-0.144281
-0.149766
0.0078749
0.0525489
-0.229537
0.178529
0.402717
0.0178992
0.161202
0.201892
0.0236814
-0.0382541
0.0676347
0.0288407
-0.282048
-0.219252
0.198734
-0.00282683
-0.0292526
-0.0425119
0.131464
0.301275
0.114349
0.139967
0.187076
0.0740871
-0.0897041
0.134281
0.084724
-0.288178
-0.0609333
0.397273
-0.238632
-0.292447
0.133082
-0.0988104
0.0661414
0.225587
-0.072508
0.0399166
0.223827
-0.201567
0.112773
0.180874
-0.437258
-0.13837
-0.262848
0.239963
0.0280445
-0.221233
0.0933109
-0.0581057
0.0836121
0.133687
0.0222157
0.148054
9.10631e-05
-0.0100139
0.0583358
-0.043615
-0.0396525
-0.311994
-0.0285935
-0.225377
0.294613
0.253588
0.199436
0.600035
0.377752
0.476628
-0.310884
-0.466125
-0.237828
-0.168859
-0.176749
-0.041229
0.132933
0.254964
0.182119
0.762212
0.64285
0.738341
-0.902376
-1.0372
-0.859076
-0.403587
-0.452534
-0.408298
0.329179
0.32689
0.260554
0.188467
0.201378
0.0968529
-0.546817
-0.61607
-0.68073
-0.473112
-0.538944
-0.649658
0.879162
0.819894
0.619008
0.0309808
0.0742572
-0.0113464
0.197162
-0.219305
-0.0705772
-0.144279
-0.303716
-0.0548251
0.485974
0.374208
0.553169
-0.0477284
-0.0837888
0.145734
-0.269799
-0.156332
0.16646
0.555443
-0.29737
-0.304992
0.509038
-0.214717
-0.0719673
0.371149
-0.345897
-0.0434999
0.134267
-0.305865
0.0205917
0.0979786
-0.0772305
-0.0411936
0.273836
-0.0811329
-0.115501
0.117234
-0.189364
0.0114889
-0.0219527
-0.391332
-0.0656757
-0.0837446
-0.165815
0.110613
0.0771219
0.16908
0.0914026
0.163019
0.014592
-0.0907087
-0.0581691
-0.210257
-0.105539
-0.168843
-0.349152
-0.123156
-0.102081
-0.0406045
0.17248
0.0963842
0.210312
0.0370615
0.0725521
0.0281432
-0.120661
-0.191374
-0.199993
-0.146587
-0.200937
-0.197775
0.0251115
-0.0900575
0.0245607
0.304687
0.211403
0.233916
0.0867636
-0.188874
0.0831322
-0.0890817
-0.270645
-0.0187267
0.00208818
-0.220489
-0.00861365
0.165465
-0.170845
0.0826874
0.33601
0.101107
0.148866
0.00503067
-0.213024
0.0629262
-0.196396
-0.214141
-0.0106283
0.0516488
-0.157829
-0.0436464
0.0585317
-0.0627486
0.0811066
0.159135
0.107666
0.00953087
-0.200873
-0.212005
0.117332
0.144097
-0.300637
0.138975
0.402819
-0.113039
0.115732
0.281743
-0.0518895
0.026411
0.175554
0.112453
-0.129274
-0.144281
-0.149766
0.0078749
0.0525489
-0.229537
0.178529
0.402717
0.0178992
0.161202
0.201892
0.0236814
-0.0382541
0.0676347
0.0288407
-0.282048
-0.219252
0.198734
-0.00282683
-0.0292526
-0.0425119
0.131464
0.301275
0.114349
0.139967
0.187076
0.0740871
-0.0897041
0.134281
0.084724
-0.288178
-0.0609333
0.397273
-0.238632
-0.292447
0.133082
-0.0988104
0.0661414
0.225587
-0.072508
0.0399166
0.223827
-0.201567
0.112773
0.180874
-0.437258
-0.13837
-0.262848
0.239963
0.0280445
-0.221233
0.0933109
-0.0581057
0.0836121
0.133687
0.0222157
0.148054
9.10631e-05
-0.0100139
0.0583358
-0.043615
-0.0396525
-0.311994
-0.0285935
-0.225377
0.294613
0.253588
0.199436
0.600035
0.377752
0.476628
-0.310884
-0.466125
-0.237828
-0.168859
-0.176749
-0.041229
0.132933
0.254964
0.182119
0.762212
0.64285
0.738341
-0.902376
-1.0372
-0.859076
-0.403587
-0.452534
-0.408298
0.329179
0.32689
0.260554
0.188467
0.201378
0.0968529
-0.546817
-0.61607
-0.68073
-0.473112
-0.538944
-0.649658
0.879162
0.819894
0.619008
0.0309808
0.0742572
-0.0113464
0.197162
-0.219305
-0.0705772
-0.144279
-0.303716
-0.0548251
0.485974
0.374208
0.553169
-0.0477284
-0.0837888
0.145734
-0.269799
-0.156332
0.16646
0.555443
-0.29737
-0.304992
0.509038
-0.214717
-0.0719673
0.371149
-0.345897
-0.0434999
0.134267
-0.305865
0.0205917
0.0979786
-0.0772305
-0.0411936
0.273836
-0.0811329
-0.115501
0.117234
-0.189364
0.0114889
-0.0219527
-0.391332
-0.0656757
-0.0837446
-0.165815
0.110613
0.0771219
0.16908
0.0914026
0.163019
0.014592
-0.0907087
-0.0581691
-0.210257
-0.105539
-0.168843
-0.349152
-0.123156
-0.102081
-0.0406045
0.17248
0.0963842
0.210312
0.0370615
0.0725521
0.0281432
-0.120661
-0.191374
-0.199993
-0.146587
-0.200937
-0.197775
0.0251115
-0.0900575
0.0245607
0.304687
0.211403
0.233916
0.0867636
-0.188874
0.0831322
-0.0890817
-0.270645
-0.0187267
0.00208818
-0.220489
-0.00861365
0.165465
-0.170845
0.0826874
0.33601
0.101107
0.148866
0.00503067
-0.213024
0.0629262
-0.196396
-0.214141
-0.0106283
0.0516488
-0.157829
-0.0436464
0.0585317
-0.0627486
0.0811066
0.159135
0.107666
0.00953087
-0.200873
-0.212005
0.117332
0.144097
-0.300637
0.138975
0.402819
-0.113039
0.115732
0.281743
-0.0518895
0.026411
0.175554
0.112453
-0.129274
-0.144281
-0.149766
0.0078749
0.0525489
-0.229537
0.178529
0.402717
0.0178992
0.161202
0.201892
0.0236814
-0.0382541
0.0676347
0.0288407
-0.282048
-0.219252
0.198734
-0.00282683
-0.0292526
-0.0425119
0.131464
0.301275
0.114349
0.139967
0.187076
0.0740871
-0.0897041
0.134281
0.084724
-0.288178
-0.0609333
0.397273
-0.238632
-0.292447
0.133082
-0.0988104
0.0661414
0.225587
-0.072508
0.0399166
0.223827
-0.201567
0.112773
0.180874
-0.437258
-0.13837
-0.262848
0.239963
0.0280445
-0.221233
0.0933109
-0.0581057
0.0836121
0.133687
0.0222157
0.148054
9.10631e-05
-0.0100139
0.0583358
-0.043615
-0.0396525
-0.311994
-0.0285935
-0.225377
0.294613
0.253588
0.199436
0.600035
0.377752
0.476628
-0.310884
-0.466125
-0.237828
-0.168859
-0.176749
-0.041229
0.132933
0.254964
0.182119
0.762212
0.64285
0.738341
-0.902376
-1.0372
-0.859076
-0.403587
-0.452534
-0.408298
0.329179
0.32689
0.260554
0.188467
0.201378
0.0968529
-0.546817
-0.61607
-0.68073
-0.473112
-0.538944
-0.649658
0.879162
0.819894
0.619008
0.0309808
0.0742572
-0.0113464
0.197162
-0.219305
-0.0705772
-0.144279
-0.303716
-0.0548251
0.485974
0.374208
0.553169
-0.0477284
-0.0837888
0.145734
-0.269799
-0.156332
0.16646
0.555443
-0.29737
-0.304992
0.509038
-0.214717
-0.0719673
0.371149
-0.345897
-0.0434999
0.134267
-0.305865
0.0205917
0.0979786
-0.0772305
-0.0411936
0.273836
-0.0811329
-0.115501
0.117234
-0.189364
0.0114889
-0.0219527
-0.391332
-0.0656757
-0.0837446
-0.165815
0.110613
0.0771219
0.16908
0.0914026
0.163019
0.014592
-0.0907087
-0.0581691
-0.210257
-0.105539
-0.168843
-0.349152
-0.123156
-0.102081
-0.0406045
0.17248
0.0963842
0.210312
0.0370615
0.0725521
0.0281432
-0.120661
-0.191374
-0.199993
-0.146587
-0.200937
-0.197775
0.0251115
-0.0900575
0.0245607
0.304687
0.211403
0.233916
0.0867636
-0.188874
0.0831322
-0.0890817
-0.270645
-0.0187267
0.00208818
-0.220489
-0.00861365
0.165465
-0.170845
0.0826874
0.33601
0.101107
0.148866
0.00503067
-0.213024
0.0629262
-0.196396
-0.214141
-0.0106283
0.0516488
-0.157829
-0.0436464
0.0585317
-0.0627486
0.0811066
0.159135
0.107666
0.00953087
-0.200873
-0.212005
0.117332
0.144097
-0.300637
0.138975
0.402819
-0.113039
0.115732
0.281743
-0.0518895
0.026411
0.175554
0.112453
-0.129274
-0.144281
-0.149766
0.0078749
0.0525489
-0.229537
0.178529
0.402717
0.0178992
0.161202
0.201892
0.0236814
-0.0382541
0.0676347
0.0288407
-0.282048
-0.219252
0.198734
-0.00282683
-0.0292526
-0.0425119
0.131464
0.301275
0.114349
0.139967
0.187076
0.0740871
-0.0897041
0.134281
0.084724
-0.288178
-0.0609333
0.397273
-0.238632
-0.292447
0.133082
-0.0988104
0.0661414
0.225587
-0.072508
0.0399166
0.223827
-0.201567
0.112773
0.180874
-0.437258
-0.13837
-0.262848
0.239963
0.0280445
-0.221233
0.0933109
-0.0581057
0.0836121
0.133687
0.0222157
0.148054
9.10631e-05
-0.0100139
0.0583358
-0.043615
-0.0396525
-0.311994
-0.0285935
-0.225377
0.294613
0.253588
0.199436
0.600035
0.377752
0.476628
-0.310884
-0.466125
-0.237828
-0.168859
-0.176749
-0.041229
0.132933
0.254964
0.182119
0.762212
0.64285
0.738341
-0.902376
-1.0372
-0.859076
-0.403587
-0.452534
-0.408298
0.329179
0.32689
0.260554
0.188467
0.201378
0.0968529
-0.546817
-0.61607
-0.68073
-0.473112
-0.538944
-0.649658
0.879162
0.819894
0.619008
0.0309808
0.0742572
-0.0113464
0.197162
-0.219305
-0.0705772
-0.144279
-0.303716
-0.0548251
0.485974
0.374208
0.553169
-0.0477284
-0.0837888
0.145734
-0.269799
-0.156332
0.16646
0.555443
-0.29737
-0.304992
0.509038
-0.214717
-0.0719673
0.371149
-0.345897
-0.0434999
0.134267
-0.305865
0.0205917
0.0979786
-0.0772305
-0.0411936
0.273836
-0.0811329
-0.115501
0.117234
-0.189364
0.0114889
-0.0219527
-0.391332
-0.0656757
-0.0837446
-0.165815
0.110613
0.0771219
0.16908
0.0914026
0.163019
0.014592
-0.0907087
-0.0581691
-0.210257
-0.105539
-0.168843
-0.349152
-0.123156
-0.102081
-0.0406045
0.17248
0.0963842
0.210312
0.0370615
0.0725521
0.0281432
-0.120661
-0.191374
-0.199993
-0.146587
-0.200937
-0.197775
0.0251115
-0.0900575
0.0245607
0.304687
0.211403
0.233916
0.0867636
-0.188874
0.0831322
-0.0890817
-0.270645
-0.0187267
0.00208818
-0.220489
-0.00861365
0.165465
-0.170845
0.0826874
0.33601
0.101107
0.148866
0.00503067
-0.213024
0.0629262
-0.196396
-0.214141
-0.0106283
0.0516488
-0.157829
-0.0436464
0.0585317
-0.0627486
0.0811066
0.159135
0.107666
0.00953087
-0.200873
-0.212005
0.117332
0.144097
-0.300637
0.138975
0.402819
-0.113039
0.115732
0.281743
-0.0518895
0.026411
0.175554
0.112453
-0.129274
-0.144281
-0.149766
0.0078749
0.0525489
-0.229537
0.178529
0.402717
0.0178992
0.161202
0.201892
0.0236814
-0.0382541
0.0676347
0.0288407
-0.282048
-0.219252
0.198734
-0.00282683
-0.0292526
-0.0425119
0.131464
0.301275
0.114349
0.139967
0.187076
0.0740871
-0.0897041
0.134281
0.084724
-0.288178
-0.0609333
0.397273
-0.238632
-0.292447
0.133082
-0.0988104
0.0661414
0.225587
-0.072508
0.0399166
0.223827
-0.201567
0.112773
0.180874
-0.437258
-0.13837
-0.262848
0.239963
0.0280445
-0.221233
0.0933109
-0.0581057
0.0836121
0.133687
0.0222157
0.148054
9.10631e-05
-0.0100139
0.0583358
-0.043615
-0.0396525
-0.311994
-0.0285935
-0.225377
0.294613
0.253588
0.199436
0.600035
0.377752
0.476628
-0.310884
-0.466125
-0.237828
-0.168859
-0.176749
-0.041229
0.132933
0.254964
0.182119
0.762212
0.64285
0.738341
-0.902376
-1.0372
-0.859076
-0.403587
-0.452534
-0.408298
0.329179
0.32689
0.260554
0.188467
0.201378
0.0968529
-0.546817
-0.61607
-0.68073
-0.473112
-0.538944
-0.649658
0.879162
0.819894
0.619008
0.0309808
0.0742572
-0.0113464
0.197162
-0.219305
-0.0705772
-0.144279
-0.303716
-0.0548251
0.485974
0.374208
0.553169
-0.0477284
-0.0837888
0.145734
-0.269799
-0.156332
0.16646
0.555443
-0.29737
-0.304992
0.509038
-0.214717
-0.0719673
0.371149
-0.345897
-0.0434999
0.134267
-0.305865
0.0205917
0.0979786
-0.0772305
-0.0411936
0.273836
-0.0811329
-0.115501
0.117234
-0.189364
0.0114889
-0.0219527
-0.391332
-0.0656757
-0.0837446
-0.165815
0.110613
0.0771219
0.16908
0.0914026
0.163019
0.014592
-0.0907087
-0.0581691
-0.210257
-0.105539
-0.168843
-0.349152
-0.123156
-0.102081
-0.0406045
0.17248
0.0963842
0.210312
0.0370615
0.0725521
0.0281432
-0.120661
-0.191374
-0.199993
-0.146587
-0.200937
-0.197775
0.0251115
-0.0900575
0.0245607
0.304687
0.211403
0.233916
0.0867636
-0.188874
0.0831322
-0.0890817
-0.270645
-0.0187267
0.00208818
-0.220489
-0.00861365
0.165465
-0.170845
0.0826874
0.33601
0.101107
0.148866
0.00503067
-0.213024
0.0629262
-0.196396
-0.214141
-0.0106283
0.0516488
-0.157829
-0.0436464
0.0585317
-0.0627486
0.0811066
0.159135
0.107666
0.00953087
-0.200873
-0.212005
0.117332
0.144097
-0.300637
0.138975
0.402819
-0.113039
0.115732
0.281743
-0.0518895
0.026411
0.175554
0.112453
-0.129274
-0.144281
-0.149766
0.0078749
0.0525489
-0.229537
0.178529
0.402717
0.0178992
0.161202
0.201892
0.0236814
-0.0382541
0.0676347
0.0288407
-0.282048
-0.219252
0.198734
-0.00282683
-0.0292526
-0.0425119
0.131464
0.301275
0.114349
0.139967
0.187076
0.0740871
-0.0897041
0.134281
0.084724
-0.288178
-0.0609333
0.397273
-0.238632
-0.292447
0.133082
-0.0988104
0.0661414
0.225587
-0.072508
0.0399166
0.223827
-0.201567
0.112773
0.180874
-0.437258
-0.13837
-0.262848
0.239963
0.0280445
-0.221233
0.0933109
-0.0581057
0.0836121
0.133687
0.0222157
0.148054
9.10631e-05
-0.0100139
0.0583358
-0.043615
-0.0396525
-0.311994
-0.0285935
-0.225377
0.294613
0.253588
0.199436
0.600035
0.377752
0.476628
-0.310884
-0.466125
-0.237828
-0.168859
-0.176749
-0.041229
0.132933
0.254964
0.182119
0.762212
0.64285
0.738341
-0.902376
-1.0372
-0.859076
-0.403587
-0.452534
-0.408298
0.329179
0.32689
0.260554
0.188467
0.201378
0.0968529
-0.546817
-0.61607
-0.68073
-0.473112
-0.538944
-0.649658
0.879162
0.819894
0.619008
0.0309808
0.0742572
-0.0113464
0.197162
-0.219305
-0.0705772
-0.144279
-0.303716
-0.0548251
0.485974
0.374208
0.553169
-0.0477284
-0.0837888
0.145734
-0.269799
-0.156332
0.16646
0.555443
-0.29737
-0.304992
0.509038
-0.214717
-0.0719673
0.371149
-0.345897
-0.0434999
0.134267
-0.305865
0.0205917
0.0979786
-0.0772305
-0.0411936
0.273836
-0.0811329
-0.115501
0.117234
-0.189364
0.0114889
-0.0219527
-0.391332
-0.0656757
-0.0837446
-0.165815
0.110613
0.0771219
0.16908
0.0914026
0.163019
0.014592
-0.0907087
-0.0581691
-0.210257
-0.105539
-0.168843
-0.349152
-0.123156
-0.102081
-0.0406045
0.17248
0.0963842
0.210312
0.0370615
0.0725521
0.0281432
-0.120661
-0.191374
-0.199993
-0.146587
-0.200937
-0.197775
0.0251115
-0.0900575
0.0245607
0.304687
0.211403
0.233916
0.0867636
-0.188874
0.0831322
-0.0890817
-0.270645
-0.0187267
0.00208818
-0.220489
-0.00861365
0.165465
-0.170845
0.0826874
0.33601
0.101107
0.148866
0.00503067
-0.213024
0.0629262
-0.196396
-0.214141
-0.0106283
0.0516488
-0.157829
-0.0436464
0.0585317
-0.0627486
0.0811066
0.159135
0.107666
0.00953087
-0.200873
-0.212005
0.117332
0.144097
-0.300637
0.138975
0.402819
-0.113039
0.115732
0.281743
-0.0518895
0.026411
0.175554
0.112453
-0.129274
-0.144281
-0.149766
0.0078749
0.0525489
-0.229537
0.178529
0.402717
0.0178992
0.161202
0.201892
0.0236814
-0.0382541
0.0676347
0.0288407
-0.282048
-0.219252
0.198734
-0.00282683
-0.0292526
-0.0425119
0.131464
0.301275
0.114349
0.139967
0.187076
0.0740871
-0.0897041
0.134281
0.084724
-0.288178
-0.0609333
0.397273
-0.238632
-0.292447
0.133082
-0.0988104
0.0661414
0.225587
-0.072508
0.0399166
0.223827
-0.201567
0.112773
0.180874
-0.437258
-0.13837
-0.262848
0.239963
0.0280445
-0.221233
0.0933109
-0.0581057
0.0836121
0.133687
0.0222157
0.148054
9.10631e-05
-0.0100139
0.0583358
-0.043615
-0.0396525
-0.311994
-0.0285935
-0.225377
0.294613
0.253588
0.199436
0.600035
0.377752
0.476628
-0.310884
-0.466125
-0.237828
-0.168859
-0.176749
-0.041229
0.132933
0.254964
0.182119
0.762212
0.64285
0.738341
-0.902376
-1.0372
-0.859076
-0.403587
-0.452534
-0.408298
0.329179
0.32689
0.260554
0.188467
0.201378
0.0968529
-0.546817
-0.61607
-0.68073
-0.473112
-0.538944
-0.649658
0.879162
0.819894
0.619008
0.0309808
0.0742572
-0.0113464
0.197162
-0.219305
-0.0705772
-0.144279
-0.303716
-0.0548251
0.485974
0.374208
0.553169
-0.0477284
-0.0837888
0.145734
-0.269799
-0.156332
0.16646
0.555443
-0.29737
-0.304992
0.509038
-0.214717
-0.0719673
0.371149
-0.345897
-0.0434999
0.134267
-0.305865
0.0205917
0.0979786
-0.0772305
-0.0411936
0.273836
-0.0811329
-0.115501
0.117234
-0.189364
0.0114889
-0.0219527
-0.391332
-0.0656757
-0.0837446
-0.165815
0.110613
0.0771219
0.16908
0.0914026
0.163019
0.014592
-0.0907087
-0.0581691
-0.210257
-0.105539
-0.168843
-0.349152
-0.123156
-0.102081
-0.0406045
0.17248
0.0963842
0.210312
0.0370615
0.0725521
0.0281432
-0.120661
-0.191374
-0.199993
-0.146587
-0.200937
-0.197775
0.0251115
-0.0900575
0.0245607
0.304687
0.211403
0.233916
0.0867636
-0.188874
0.0831322
-0.0890817
-0.270645
-0.0187267
0.00208818
-0.220489
-0.00861365
0.165465
-0.170845
0.0826874
0.33601
0.101107
0.148866
0.00503067
-0.213024
0.0629262
-0.196396
-0.214141
-0.0106283
0.0516488
-0.157829
-0.0436464
0.0585317
-0.0627486
0.0811066
0.159135
0.107666
0.00953087
-0.200873
-0.212005
0.117332
0.144097
-0.300637
0.138975
0.402819
-0.113039
0.115732
0.281743
-0.0518895
0.026411
0.175554
0.112453
-0.129274
-0.144281
-0.149766
0.0078749
0.0525489
-0.229537
0.178529
0.402717
0.0178992
0.161202
0.201892
0.0236814
-0.0382541
0.0676347
0.0288407
-0.282048
-0.219252
0.198734
-0.00282683
-0.0292526
-0.0425119
0.131464
0.301275
0.114349
0.139967
0.187076
0.0740871
-0.0897041
0.134281
0.084724
-0.288178
-0.0609333
0.397273
-0.238632
-0.292447
0.133082
-0.0988104
0.0661414
0.225587
-0.072508
0.0399166
0.223827
-0.201567
0.112773
0.180874
-0.437258
-0.13837
-0.262848
0.239963
0.0280445
-0.221233
0.0933109
-0.0581057
0.0836121
0.133687
0.0222157
0.148054
9.10631e-05
-0.0100139
0.0583358
-0.043615
-0.0396525
-0.311994
-0.0285935
-0.225377
0.294613
0.253588
0.199436
0.600035
0.377752
0.476628
-0.310884
-0.466125
-0.237828
-0.168859
-0.176749
-0.041229
0.132933
0.254964
0.182119
0.762212
0.64285
0.738341
-0.902376
-1.0372
-0.859076
-0.403587
-0.452534
-0.408298
0.329179
0.32689
0.260554
0.188467
0.201378
0.0968529
-0.546817
-0.61607
-0.68073
-0.473112
-0.538944
-0.649658
0.879162
0.819894
0.619008
0.0309808
0.0742572
-0.0113464
0.197162
-0.219305
-0.0705772
-0.144279
-0.303716
-0.0548251
0.485974
0.374208
0.553169
-0.0477284
-0.0837888
0.145734
-0.269799
-0.156332
0.16646
0.555443
-0.29737
-0.304992
0.509038
-0.214717
-0.0719673
0.371149
-0.345897
-0.0434999
0.134267
-0.305865
0.0205917
0.0979786
-0.0772305
-0.0411936
0.273836
-0.0811329
-0.115501
0.117234
-0.189364
0.0114889
-0.0219527
-0.391332
-0.0656757
-0.0837446
-0.165815
0.110613
0.0771219
0.16908
0.0914026
0.163019
0.014592
-0.0907087
-0.0581691
-0.210257
-0.105539
-0.168843
-0.349152
-0.123156
-0.102081
-0.0406045
0.17248
0.0963842
0.210312
0.0370615
0.0725521
0.0281432
-0.120661
-0.191374
-0.199993
-0.146587
-0.200937
-0.197775
0.0251115
-0.0900575
0.0245607
0.304687
0.211403
0.233916
0.0867636
-0.188874
0.0831322
-0.0890817
-0.270645
-0.0187267
0.00208818
-0.220489
-0.00861365
0.165465
-0.170845
0.0826874
0.33601
0.101107
0.148866
0.00503067
-0.213024
0.0629262
-0.196396
-0.214141
-0.0106283
0.0516488
-0.157829
-0.0436464
0.0585317
-0.0627486
0.0811066
0.159135
0.107666
0.00953087
-0.200873
-0.212005
0.117332
0.144097
-0.300637
0.138975
0.402819
-0.113039
0.115732
0.281743
-0.0518895
0.026411
0.175554
0.112453
-0.129274
-0.144281
-0.149766
0.0078749
0.0525489
-0.229537
0.178529
0.402717
0.0178992
0.161202
0.201892
0.0236814
-0.0382541
0.0676347
0.0288407
-0.282048
-0.219252
0.198734
-0.00282683
-0.0292526
-0.0425119
0.131464
0.301275
0.114349
0.139967
0.187076
0.0740871
-0.0897041
0.134281
0.084724
-0.288178
-0.0609333
0.397273
-0.238632
-0.292447
0.133082
-0.0988104
0.0661414
0.225587
-0.072508
0.0399166
0.223827
-0.201567
0.112773
0.180874
-0.437258
-0.13837
-0.262848
0.239963
0.0280445
-0.221233
0.0933109
-0.0581057
0.0836121
0.133687
0.0222157
0.148054
9.10631e-05
-0.0100139
0.0583358
-0.043615
-0.0396525
-0.311994
-0.0285935
-0.225377
0.294613
0.253588
0.199436
0.600035
0.377752
0.476628
-0.310884
-0.466125
-0.237828
-0.168859
-0.176749
-0.041229
0.132933
0.254964
0.182119
0.762212
0.64285
0.738341
-0.902376
-1.0372
-0.859076
-0.403587
-0.452534
-0.408298
0.329179
0.32689
0.260554
0.188467
0.201378
0.0968529
-0.546817
-0.61607
-0.68073
-0.473112
-0.538944
-0.649658
0.879162
0.819894
0.619008
0.0309808
0.0742572
-0.0113464
0.197162
-0.219305
-0.0705772
-0.144279
-0.303716
-0.0548251
0.485974
0.374208
0.553169
-0.0477284
-0.0837888
0.145734
-0.269799
-0.156332
0.16646
0.555443
-0.29737
-0.304992
0.509038
-0.214717
-0.0719673
0.371149
-0.345897
-0.0434999
0.134267
-0.305865
0.0205917
0.0979786
-0.0772305
-0.0411936
0.273836
-0.0811329
-0.115501
0.117234
-0.189364
0.0114889
-0.0219527
-0.391332
-0.0656757
-0.0837446
-0.165815
0.110613
0.0771219
0.16908
0.0914026
0.163019
0.014592
-0.0907087
-0.0581691
-0.210257
-0.105539
-0.168843
-0.349152
-0.123156
-0.102081
-0.0406045
0.17248
0.0963842
0.210312
0.0370615
0.0725521
0.0281432
-0.120661
-0.191374
-0.199993
-0.146587
-0.200937
-0.197775
0.0251115
-0.0900575
0.0245607
0.304687
0.211403
0.233916
0.0867636
-0.188874
0.0831322
-0.0890817
-0.270645
-0.0187267
0.00208818
-0.220489
-0.00861365
0.165465
-0.170845
0.0826874
0.33601
0.101107
0.148866
0.00503067
-0.213024
0.0629262
-0.196396
-0.214141
-0.0106283
0.0516488
-0.157829
-0.0436464
0.0585317
-0.0627486
0.0811066
0.159135
0.107666
0.00953087
-0.200873
-0.212005
0.117332
0.144097
-0.300637
0.138975
0.402819
-0.113039
0.115732
0.281743
-0.0518895
0.026411
0.175554
0.112453
-0.129274
-0.144281
-0.149766
0.0078749
0.0525489
-0.229537
0.178529
0.402717
0.0178992
0.161202
0.201892
0.0236814
-0.0382541
0.0676347
0.0288407
-0.282048
-0.219252
0.198734
-0.00282683
-0.0292526
-0.0425119
0.131464
0.301275
0.114349
0.139967
0.187076
0.0740871
-0.0897041
0.134281
0.084724
-0.288178
-0.0609333
0.397273
-0.238632
-0.292447
0.133082
-0.0988104
0.0661414
0.225587
-0.072508
0.0399166
0.223827
-0.201567
0.112773
0.180874
-0.437258
-0.13837
-0.262848
0.239963
0.0280445
-0.221233
0.0933109
-0.0581057
0.0836121
0.133687
0.0222157
0.148054
9.10631e-05
-0.0100139
0.0583358
-0.043615
-0.0396525
-0.311994
-0.0285935
-0.225377
0.294613
0.253588
0.199436
0.600035
0.377752
0.476628
-0.310884
-0.466125
-0.237828
-0.168859
-0.176749
-0.041229
0.132933
0.254964
0.182119
0.762212
0.64285
0.738341
-0.902376
-1.0372
-0.859076
-0.403587
-0.452534
-0.408298
0.329179
0.32689
0.260554
0.188467
0.201378
0.0968529
-0.546817
-0.61607
-0.68073
-0.473112
-0.538944
-0.649658
0.879162
0.819894
0.619008
0.0309808
0.0742572
-0.0113464
0.197162
-0.219305
-0.0705772
-0.144279
-0.303716
-0.0548251
0.485974
0.374208
0.553169
-0.0477284
-0.0837888
0.145734
-0.269799
-0.156332
0.16646
0.555443
-0.29737
-0.304992
0.509038
-0.214717
-0.0719673
0.371149
-0.345897
-0.0434999
0.134267
-0.305865
0.0205917
0.0979786
-0.0772305
-0.0411936
0.273836
-0.0811329
-0.115501
0.117234
-0.189364
0.0114889
-0.0219527
-0.391332
-0.0656757
-0.0837446
-0.165815
0.110613
0.0771219
0.16908
0.0914026
0.163019
0.014592
-0.0907087
-0.0581691
-0.210257
-0.105539
-0.168843
-0.349152
-0.123156
-0.102081
-0.0406045
0.17248
0.0963842
0.210312
0.0370615
0.0725521
0.0281432
-0.120661
-0.191374
-0.199993
-0.146587
-0.200937
-0.197775
0.0251115
-0.0900575
0.0245607
0.304687
0.211403
0.233916
0.0867636
-0.188874
0.0831322
-0.0890817
-0.270645
-0.0187267
0.00208818
-0.220489
-0.00861365
0.165465
-0.170845
0.0826874
0.33601
0.101107
0.148866
0.00503067
-0.213024
0.0629262
-0.196396
-0.214141
-0.0106283
0.0516488
-0.157829
-0.0436464
0.0585317
-0.0627486
0.0811066
0.159135
0.107666
0.00953087
-0.200873
-0.212005
0.117332
0.144097
-0.300637
0.138975
0.402819
-0.113039
0.115732
0.281743
-0.0518895
0.026411
0.175554
0.112453
-0.129274
-0.144281
-0.149766
0.0078749
0.0525489
-0.229537
0.178529
0.402717
0.0178992
0.161202
0.201892
0.0236814
-0.0382541
0.0676347
0.0288407
-0.282048
-0.219252
0.198734
-0.00282683
-0.0292526
-0.0425119
0.131464
0.301275
0.114349
0.139967
0.187076
0.0740871
-0.0897041
0.134281
0.084724
-0.288178
-0.0609333
0.397273
-0.238632
-0.292447
0.133082
-0.0988104
0.0661414
0.225587
-0.072508
0.0399166
0.223827
-0.201567
0.112773
0.180874
-0.437258
-0.13837
-0.262848
0.239963
0.0280445
-0.221233
0.0933109
-0.0581057
0.0836121
0.133687
0.0222157
0.148054
9.10631e-05
-0.0100139
0.0583358
-0.043615
-0.0396525
-0.311994
-0.0285935
-0.225377
0.294613
0.253588
0.199436
0.600035
0.377752
0.476628
-0.310884
-0.466125
-0.237828
-0.168859
-0.176749
-0.041229
0.132933
0.254964
0.182119
0.762212
0.64285
0.738341
-0.902376
-1.0372
-0.859076
-0.403587
-0.452534
-0.408298
0.329179
0.32689
0.260554
0.188467
0.201378
0.0968529
-0.546817
-0.61607
-0.68073
-0.473112
-0.538944
-0.649658
0.879162
0.819894
0.619008
0.0309808
0.0742572
-0.0113464
0.197162
-0.219305
-0.0705772
-0.144279
-0.303716
-0.0548251
0.485974
0.374208
0.553169
-0.0477284
-0.0837888
0.145734
-0.269799
-0.156332
0.16646
0.555443
-0.29737
-0.304992
0.509038
-0.214717
-0.0719673
0.371149
-0.345897
-0.0434999
0.134267
-0.305865
0.0205917
0.0979786
-0.0772305
-0.0411936
0.273836
-0.0811329
-0.115501
0.117234
-0.189364
0.0114889
-0.0219527
-0.391332
-0.0656757
-0.0837446
-0.165815
0.110613
0.0771219
0.16908
0.0914026
0.163019
0.014592
-0.0907087
-0.0581691
-0.210257
-0.105539
-0.168843
-0.349152
-0.123156
-0.102081
-0.0406045
0.17248
0.0963842
0.210312
0.0370615
0.0725521
0.0281432
-0.120661
-0.191374
-0.199993
-0.146587
-0.200937
-0.197775
0.0251115
-0.0900575
0.0245607
0.304687
0.211403
0.233916
0.0867636
-0.188874
0.0831322
-0.0890817
-0.270645
-0.0187267
0.00208818
-0.220489
-0.00861365
0.165465
-0.170845
0.0826874
0.33601
0.101107
0.148866
0.00503067
-0.213024
0.0629262
-0.196396
-0.214141
-0.0106283
0.0516488
-0.157829
-0.0436464
0.0585317
-0.0627486
0.0811066
0.159135
0.107666
0.00953087
-0.200873
-0.212005
0.117332
0.144097
-0.300637
0.138975
0.402819
-0.113039
0.115732
0.281743
-0.0518895
0.026411
0.175554
0.112453
-0.129274
-0.144281
-0.149766
0.0078749
0.0525489
-0.229537
0.178529
0.402717
0.0178992
0.161202
0.201892
0.0236814
-0.0382541
0.0676347
0.0288407
-0.282048
-0.219252
0.198734
-0.00282683
-0.0292526
-0.0425119
0.131464
0.301275
0.114349
0.139967
0.187076
0.0740871
-0.0897041
0.134281
0.084724
-0.288178
-0.0609333
0.397273
-0.238632
-0.292447
0.133082
-0.0988104
0.0661414
0.225587
-0.072508
0.0399166
0.223827
-0.201567
0.112773
0.180874
-0.437258
-0.13837
-0.262848
0.239963
0.0280445
-0.221233
0.0933109
-0.0581057
0.0836121
0.133687
0.0222157
0.148054
9.10631e-05
-0.0100139
0.0583358
-0.043615
-0.0396525
-0.311994
-0.0285935
-0.225377
0.294613
0.253588
0.199436
0.600035
0.377752
0.476628
-0.310884
-0.466125
-0.237828
-0.168859
-0.176749
-0.041229
0.132933
0.254964
0.182119
0.762212
0.64285
0.738341
-0.902376
-1.0372
-0.859076
-0.403587
-0.452534
-0.408298
0.329179
0.32689
0.260554
0.188467
0.201378
0.0968529
-0.546817
-0.61607
-0.68073
-0.473112
-0.538944
-0.649658
0.879162
0.819894
0.619008
0.0309808
0.0742572
-0.0113464
0.197162
-0.219305
-0.0705772
-0.144279
-0.303716
-0.0548251
0.485974
0.374208
0.553169
-0.0477284
-0.0837888
0.145734
-0.269799
-0.156332
0.16646
0.555443
-0.29737
-0.304992
0.509038
-0.214717
-0.0719673
0.371149
-0.345897
-0.0434999
0.134267
-0.305865
0.0205917
0.0979786
-0.0772305
-0.0411936
0.273836
-0.0811329
-0.115501
0.117234
-0.189364
0.0114889
-0.0219527
-0.391332
-0.0656757
-0.0837446
-0.165815
0.110613
0.0771219
0.16908
0.0914026
0.163019
0.014592
-0.0907087
-0.0581691
-0.210257
-0.105539
-0.168843
-0.349152
-0.123156
-0.102081
-0.0406045
0.17248
0.0963842
0.210312
0.0370615
0.0725521
0.0281432
-0.120661
-0.191374
-0.199993
-0.146587
-0.200937
-0.197775
0.0251115
-0.0900575
0.0245607
0.304687
0.211403
0.233916
0.0867636
-0.188874
0.0831322
-0.0890817
-0.270645
-0.0187267
0.00208818
-0.220489
-0.00861365
0.165465
-0.170845
0.0826874
0.33601
0.101107
0.148866
0.00503067
-0.213024
0.0629262
-0.196396
-0.214141
-0.0106283
0.0516488
-0.157829
-0.0436464
0.0585317
-0.0627486
0.0811066
0.159135
0.107666
0.00953087
-0.200873
-0.212005
0.117332
0.144097
-0.300637
0.138975
0.402819
-0.113039
0.115732
0.281743
-0.0518895
0.026411
0.175554
0.112453
-0.129274
-0.144281
-0.149766
0.0078749
0.0525489
-0.229537
0.178529
0.402717
0.0178992
0.161202
0.201892
0.0236814
-0.0382541
0.0676347
0.0288407
-0.282048
-0.219252
0.198734
-0.00282683
-0.0292526
-0.0425119
0.131464
0.301275
0.114349
0.139967
0.187076
0.0740871
-0.0897041
0.134281
0.084724
-0.288178
-0.0609333
0.397273
-0.238632
-0.292447
0.133082
-0.0988104
0.0661414
0.225587
-0.072508
0.0399166
0.223827
-0.201567
0.112773
0.180874
-0.437258
-0.13837
-0.262848
0.239963
0.0280445
-0.221233
0.0933109
-0.0581057
0.0836121
0.133687
0.0222157
0.148054
9.10631e-05
-0.0100139
0.0583358
-0.043615
-0.0396525
-0.311994
-0.0285935
-0.225377
0.294613
0.253588
0.199436
0.600035
0.377752
0.476628
-0.310884
-0.466125
-0.237828
-0.168859
-0.176749
-0.041229
0.132933
0.254964
0.182119
0.762212
0.64285
0.738341
-0.902376
-1.0372
-0.859076
-0.403587
-0.452534
-0.408298
0.329179
0.32689
0.260554
0.188467
0.201378
0.0968529
-0.546817
-0.61607
-0.68073
-0.473112
-0.538944
-0.649658
0.879162
0.819894
0.619008
0.0309808
0.0742572
-0.0113464
0.197162
-0.219305
-0.0705772
-0.144279
-0.303716
-0.0548251
0.485974
0.374208
0.553169
-0.0477284
-0.0837888
0.145734
-0.269799
-0.156332
0.16646
0.555443
-0.29737
-0.304992
0.509038
-0.214717
-0.0719673
0.371149
-0.345897
-0.0434999
0.134267
-0.305865
0.0205917
0.0979786
-0.0772305
-0.0411936
0.273836
-0.0811329
-0.115501
0.117234
-0.189364
0.0114889
-0.0219527
-0.391332
-0.0656757
-0.0837446
-0.165815
0.110613
0.0771219
0.16908
0.0914026
0.163019
0.014592
-0.0907087
-0.0581691
-0.210257
-0.105539
-0.168843
-0.349152
-0.123156
-0.102081
-0.0406045
0.17248
0.0963842
0.210312
0.0370615
0.0725521
0.0281432
-0.120661
-0.191374
-0.199993
-0.146587
-0.200937
-0.197775
0.0251115
-0.0900575
0.0245607
0.304687
0.211403
0.233916
0.0867636
-0.188874
0.0831322
-0.0890817
-0.270645
-0.0187267
0.00208818
-0.220489
-0.00861365
0.165465
-0.170845
0.0826874
0.33601
0.101107
0.148866
0.00503067
-0.213024
0.0629262
-0.196396
-0.214141
-0.0106283
0.0516488
-0.157829
-0.0436464
0.0585317
-0.0627486
0.0811066
0.159135
0.107666
0.00953087
-0.200873
-0.212005
0.117332
0.144097
-0.300637
0.138975
0.402819
-0.113039
0.115732
0.281743
-0.0518895
0.026411
0.175554
0.112453
-0.129274
-0.144281
-0.149766
0.0078749
0.0525489
-0.229537
0.178529
0.402717
0.0178992
0.161202
0.201892
0.0236814
-0.0382541
0.0676347
0.0288407
-0.282048
-0.219252
0.198734
-0.00282683
-0.0292526
-0.0425119
0.131464
0.301275
0.114349
0.139967
0.187076
0.0740871
-0.0897041
0.134281
0.084724
-0.288178
-0.0609333
0.397273
-0.238632
-0.292447
0.133082
-0.0988104
0.0661414
0.225587
-0.072508
0.0399166
0.223827
-0.201567
0.112773
0.180874
-0.437258
-0.13837
-0.262848
0.239963
0.0280445
-0.221233
0.0933109
-0.0581057
0.0836121
0.133687
0.0222157
0.148054
9.10631e-05
-0.0100139
0.0583358
-0.043615
-0.0396525
-0.311994
-0.0285935
-0.225377
0.294613
0.253588
0.199436
0.600035
0.377752
0.476628
-0.310884
-0.466125
-0.237828
-0.168859
-0.176749
-0.041229
0.132933
0.254964
0.182119
0.762212
0.64285
0.738341
-0.902376
-1.0372
-0.859076
-0.403587
-0.452534
-0.408298
0.329179
0.32689
0.260554
0.188467
0.201378
0.0968529
-0.546817
-0.61607
-0.68073
-0.473112
-0.538944
-0.649658
0.879162
0.819894
0.619008
0.0309808
0.0742572
-0.0113464
0.197162
-0.219305
-0.0705772
-0.144279
-0.303716
-0.0548251
0.485974
0.374208
0.553169
-0.0477284
-0.0837888
0.145734
-0.269799
-0.156332
0.16646
0.555443
-0.29737
-0.304992
0.509038
-0.214717
-0.0719673
0.371149
-0.345897
-0.0434999
0.134267
-0.305865
0.0205917
0.0979786
-0.0772305
